21363 16
461 -0.34390008 -1.7086256 3.604029 0.7804439 -2.1480522 0.5524468 1.2987244 -0.778044 -2.016084 -0.6231546 -0.42136368 1.9453948 -0.054534018 0.7151957 -0.2518939 0.75557876
197 1.1488174 -1.0856223 2.2271798 0.1508618 0.2316242 1.952397 3.6482875 -0.04820886 -0.46967402 -1.2404289 -0.75959337 2.032796 -1.0655535 -2.0567193 -2.180944 0.6341161
251 -0.52850264 -2.814045 0.78064275 1.0984819 1.1042173 1.1872627 3.779749 -2.6648002 -2.3356156 3.5855792 -1.499064 0.17654204 -2.0201201 -0.7760124 -1.7988079 0.3250482
121 -1.3633292 -0.32271487 -2.3779242 4.0828323 -0.9510947 2.4404132 1.0205013 1.7135118 -0.5502875 0.7027116 -1.978091 0.84488106 1.4484581 0.014027363 -2.6246521 -1.6298655
364 -1.3981574 -0.25387844 -2.5785723 3.6816554 -0.35834348 1.8424585 2.484998 0.57087505 -0.61150664 0.49370894 -0.13121201 1.2206455 0.50962925 0.33176336 -1.7468749 -1.5461903
357 -0.65661925 1.3336045 -2.438384 3.289579 -0.8600444 2.5230048 2.9606657 1.0696102 -1.0222942 0.19598787 -0.46303695 1.6950301 0.17737754 0.34664798 -1.8618405 -0.5501669
50 -0.24882117 -2.0098426 1.428942 3.5900238 0.40712005 0.9597104 2.2417257 1.7832242 -0.5597298 -1.2958143 1.3865865 1.5132046 0.4929903 -1.8478589 -1.4805607 -0.87108177
113 -2.3859105 -1.0297859 3.028373 2.6625605 0.46996436 2.04571 1.0671645 -0.6171407 -0.4899128 1.738235 0.9171123 0.22710945 -0.5686252 -0.034861356 -0.36369082 0.64380217
232 -0.73346645 -0.68772656 0.615508 2.1780593 -1.0977179 1.4562173 2.8967688 -0.039328434 0.7184059 2.5128005 1.5076605 3.7203767 -0.3116778 -3.3717885 -1.195262 0.79751265
179 -0.5078292 -2.1461523 4.0255437 0.75849634 -2.4287431 0.47050822 1.7054421 -1.0041898 -2.2071052 -0.71639407 -0.26370892 2.0378556 0.1546279 0.73540545 -0.24551277 0.6516363
36 -2.8760593 -0.5676199 0.82512933 0.95357645 -2.478353 2.6027906 3.1670837 -0.99220276 -0.19297902 0.91637313 -2.125169 -3.326397 3.081216 -0.951253 -2.3114102 0.12976852
382 -2.6175096 -0.5396835 0.7514377 0.8746792 -2.543038 2.4496477 2.8685572 -0.87210655 -0.22506493 0.82289267 -2.1313696 -3.1422937 2.771773 -1.0891588 -2.124663 -0.15247057
274 -1.2710563 -0.44946027 -1.9299163 3.3627007 -0.85461545 2.2827144 0.60095704 1.7339543 -0.5010463 0.6919588 -1.8649752 0.8038084 1.3995786 0.057738658 -2.4605207 -1.4799058
348 -0.7098937 -2.5652397 0.83432156 0.6598299 1.1031411 1.2356842 3.5561273 -2.221881 -2.2193537 3.1451879 -1.5635941 -0.09142166 -1.9814689 -0.64654464 -1.7676741 0.24638999
1187 -0.15270674 -1.1797111 2.989573 1.125014 -2.5408134 0.8883836 1.5019124 0.065152206 -1.1571244 -0.9307454 -0.73945546 1.8859224 -0.4826153 1.1755004 -0.44022426 1.6666071
1934 -0.5665255 -1.5666076 2.0463722 2.4107783 -0.44270104 2.4791596 0.954447 -2.0139039 -1.905968 -0.56002873 -1.1263951 -0.005616999 -0.7891605 -2.632488 -0.86404115 -0.011025314
514 -0.46209598 -2.9940298 0.6873523 0.7092283 1.0755002 0.87826765 3.4964902 -2.599923 -1.601151 3.0474112 -0.65478104 1.9469272 -1.5569053 -0.2257549 -1.1472132 0.3813266
330 0.14608912 0.650679 1.9435527 1.9780723 0.86583024 0.8769064 3.033133 -1.0912122 -1.2670442 -1.3131081 -3.1135557 1.4767916 1.3460748 -0.88893974 -0.10427637 -1.390841
150 -0.13467227 -1.033335 1.5443122 3.32023 -0.24054047 0.837526 2.7937257 -2.4089172 1.4870198 1.4040221 -0.91396 -0.14634939 -0.7000869 -0.13029204 -1.1085627 -1.2256674
321 -0.33769754 -1.903492 1.9848689 3.5565763 0.35626405 0.42093813 2.0452535 1.6910449 -0.49547008 -1.5747902 1.1050062 1.6562564 0.8022307 -1.7495825 -1.4781274 -0.4633727
32 -1.7729573 -1.2249056 1.8702257 2.1669543 -3.8832564 3.402505 2.6001623 0.011100817 0.7665561 0.9404834 -1.628518 0.46222728 0.046430998 0.5408186 1.4356037 -1.1749376
1709 0.7702758 -1.6028929 0.17168888 2.8917496 -1.4325912 1.91383 3.013853 1.9994214 1.4045653 1.0577315 0.005099149 -0.2183989 0.6185402 -1.7438179 -1.4297817 0.49217814
29 -1.300955 -1.9635615 4.09534 0.43335795 -3.2495058 0.34044513 1.9192188 -1.2301005 -2.6121907 -0.93423253 -0.34568465 2.6859884 0.7199197 0.1025367 -0.08653864 1.2539287
94 -2.3864233 -1.0961622 3.801393 2.9431217 0.3753857 1.9528904 0.74417496 -0.6135816 -0.9786379 1.5789839 0.8511044 0.21230929 -0.37567592 0.010223877 -0.4790988 0.77368504
188 -3.5218062 -3.7604516 -0.35519117 2.5850546 -1.9678104 0.71875197 0.71568364 -0.29041678 -0.91966534 -1.3938568 -1.4781642 2.231808 3.325407 -1.8247519 0.15863216 0.45928276
1233 -3.1373727 -0.6235166 -2.0022712 2.751335 0.564382 2.3073225 2.0637567 0.7579032 -1.4956689 0.2834859 0.067629136 1.9924107 0.676297 0.3671976 -1.9086539 -1.7729844
108 -2.8311925 -1.2509757 3.4962234 3.054029 0.6258812 2.2369592 1.048516 -0.5837311 -0.49225628 1.9998854 0.7978462 0.31350142 -0.54897714 -0.1383494 -0.3457105 0.61847794
31 -0.95291936 -1.9920506 4.248604 0.73671025 -2.7818003 0.4780506 1.518694 -0.97180337 -2.491642 -0.9648862 -0.7421594 2.4218178 0.3592848 0.4998232 -0.18049398 0.8563476
161 1.1259438 -2.0730484 1.5498145 1.1814823 0.64018774 1.3073651 3.2200396 -0.56222165 -3.700022 -1.3341175 0.39548266 -0.56076735 0.4967754 -0.11227422 -1.4804478 0.30744618
670 0.68245673 0.29340637 1.1906979 0.25020933 -0.52352256 4.5575013 1.038529 -0.34001184 -0.7686848 1.1470258 -2.611993 1.3493383 0.69091576 -1.4758964 -2.0346193 -1.9867649
2032 -3.1822398 -0.5182637 0.78227764 -0.8694889 -2.520235 1.4066193 2.6280568 -1.2163166 -2.0520897 0.22487244 -0.05982179 1.0311822 1.8006648 -1.2447503 0.1982169 -2.2196689
1482 -0.071068436 -1.0927428 1.9724232 3.0742717 -0.3681059 -1.0625857 2.1371143 -1.0090419 -1.7622273 -1.2538058 0.28336936 1.3583822 -0.016692184 -1.9174021 -1.5867529 -0.020923236
116 -1.7652311 -2.6404965 0.68030053 0.44006476 0.38961777 2.1619377 0.32533565 -1.0323637 -3.0557199 -0.05677466 1.3686665 1.2088069 -0.15873569 -1.5611355 -2.5598307 -1.870742
1641 -2.2622862 -0.40944222 2.1149263 2.1658278 0.021388035 -0.11362172 1.8832787 1.8099498 0.2512482 -1.0897955 -1.4275248 0.6605483 0.7399355 -1.2037743 -4.4370313 2.0171611
1696 0.14641114 -1.6037571 2.404847 2.9995947 -0.023834467 1.462171 1.8903764 -2.820573 0.57471615 1.170613 -1.222573 0.2787094 -0.25623035 -0.0041649365 -1.1127436 -1.4462415
81 -1.0130873 -0.62360865 -2.183115 0.71089077 -2.442961 3.1094475 1.1595393 1.276887 -2.2211347 -0.8006642 -3.312384 1.8931344 0.93751454 -0.021397501 -3.0429904 1.872714
59 -2.6026456 0.029866824 2.4222915 2.1208386 0.36279547 -0.42146847 2.2030437 1.2604432 0.17550343 -0.8712258 -1.8563416 0.7906603 1.2050881 -0.9571211 -4.4746137 2.3433685
9 -4.113681 -0.40169773 2.2380762 1.5212213 -1.3496962 -1.1178991 4.7480993 -2.4377925 0.4995728 1.4308842 0.15746127 1.1661026 0.9838901 -0.64578426 0.26086178 -0.05693379
3107 -0.7568325 -1.1048331 2.708544 1.711416 -0.106445245 2.6222792 2.7940323 0.86094785 -0.17310514 -0.2004822 -0.24069639 -0.24914968 -0.49893585 0.31959364 1.0189886 -0.02791641
410 0.68670005 -0.39001343 2.6230185 0.6864263 0.36863762 1.3993366 3.1874154 0.50327075 -1.1049592 -0.6804229 -1.135439 2.4169345 -1.1439085 -2.6498475 -2.0001688 0.31172064
235 -1.2982382 -0.6163906 1.0023351 1.1744577 2.5588338 2.323862 2.2924294 0.63473946 -2.7190282 2.3051405 -1.8842686 -0.3213521 0.33680722 0.3770196 -2.8707285 -1.9515331
1315 -1.0946808 -0.6584749 -2.2754955 1.0193759 -2.3798068 2.7233372 1.0344521 1.5170646 -2.2159324 -0.74656266 -3.138084 1.5399717 1.1175166 -0.16270626 -2.899396 1.9719039
228 -1.8352554 -1.7697226 4.245663 -0.06774374 -1.5641598 1.2223027 1.8970346 2.4977727 -0.70367795 0.9124595 -1.8330408 2.4610536 0.07192604 -0.6221937 -0.9634495 -2.3605168
393 -3.23262 -3.5718699 -0.36957884 2.243317 -2.1729186 1.1315614 1.0920726 -0.4922868 -0.6623617 -1.305769 -1.9181187 2.2097192 3.0844789 -2.0470672 0.63911396 0.73111445
441 -1.501856 -0.6781623 2.1415458 2.4038846 -3.2869675 3.1698442 2.3396459 -0.13462842 0.57891643 0.85901964 -1.5061511 0.63993454 -0.18906403 0.7114766 1.2696141 -1.3343226
1232 0.33699673 -1.0074568 3.2206216 0.37231597 -2.970237 2.0614 1.7413493 0.17031787 -0.7669112 -0.55486256 -0.667306 1.6720245 -0.1170458 1.4485687 -1.1477349 1.7999669
373 -0.015928175 -1.8353256 1.5523252 -0.6025266 0.40822515 -1.1688768 2.5274842 -0.9095066 -1.226059 -1.234304 -1.5112137 1.5618418 1.5738713 1.3976271 -3.4521542 -0.8019418
3076 -0.8554699 -1.3341467 1.864924 2.3740711 -1.4895686 2.6914485 1.3224767 1.2654958 0.5328958 1.6024839 0.6939109 0.5920809 -0.5267371 0.26785555 -0.5963112 1.7406696
930 -2.294211 -0.43312934 2.4213345 1.8862743 0.046409395 0.0013708121 1.9225552 1.4491657 0.3014694 -1.0911767 -1.8256187 0.6855287 1.0692959 -0.9559211 -4.541554 2.3515854
507 0.32478172 -0.75697577 0.94096637 2.9953377 0.25304514 0.92062473 1.2931247 0.60499483 -2.3859372 0.6589096 -1.3754114 -0.8590737 -1.2457935 1.8456382 -4.3712244 1.077256
1026 -2.2541013 1.1023685 1.0708957 1.0484186 -0.7683193 1.2709097 2.4877017 0.84101874 -2.830055 2.5127528 -1.6766006 -0.668933 -0.08742056 1.3089283 0.41425914 0.6931047
1388 -2.1194615 -2.4519038 -2.3570693 1.8103849 0.30747175 3.177111 2.032368 0.9623924 -2.2815983 -0.43845266 -0.11756822 1.5721188 1.446429 0.2037036 -1.5877075 -0.45926577
34 -2.8167763 -2.124319 -0.5871319 3.388174 -2.5233045 -0.6630955 1.8647578 -0.91901994 -0.4721118 3.2948751 -0.7798869 -0.26581398 0.094716385 -1.9206536 -2.2379029 0.7570805
346 -3.2340677 -3.3932815 -1.2958728 0.52721465 -0.9461205 -0.50139135 4.3907075 -0.16670984 -1.7717696 1.5766585 0.68299747 -0.26811868 0.6459594 -0.7825131 -0.96939266 -0.9058874
2268 -0.6919074 0.13979004 -1.525496 1.4586262 -2.33704 2.815383 0.8354412 1.5319698 -1.1395212 -0.55582255 -2.8555067 1.1238453 0.88251895 -0.15019709 -3.5943832 0.7645924
643 -0.2934674 -2.104899 2.5708535 1.7524627 -0.0014951403 1.553081 0.8133627 -2.0141497 -1.6198814 -0.9676852 -1.6115 0.59076595 -0.2790191 -2.0350306 -0.8910425 -0.09364432
2656 0.19248694 -0.49387336 2.0624166 3.4573278 0.17925169 -0.2810907 2.3017695 -0.5228958 -2.9795797 0.736536 -1.0741577 1.2524909 0.2161849 -0.28801093 1.0274987 -0.8410119
847 -2.883801 -2.027066 1.4653597 3.799183 -0.876009 -1.0879495 1.8370134 -0.45476186 -2.0766912 -0.8169009 -1.404943 0.7171868 -1.591151 -0.52681035 -0.41837862 1.0505545
993 -1.4713634 0.14303042 0.74031943 0.09858685 -2.3137918 1.5323604 0.5802349 0.5253225 -2.1854742 -0.6248255 0.6669626 1.7130848 2.2022831 -0.201569 -1.9769204 -2.7212353
976 -0.17632052 -1.4130437 -0.09777061 3.5244193 0.04961143 1.4637551 2.066728 1.2584577 -0.10470765 0.17296833 0.46559328 0.95089525 0.46193403 -1.5575371 -0.96028376 -1.6594303
4745 -0.65869117 -2.0847657 2.6048534 1.4552143 -0.57372665 1.8074349 1.949758 -1.3111079 0.21504846 1.2197305 -0.8799122 1.2893363 -1.8100524 -0.41248366 -0.05092888 -0.90230405
134 -2.589122 -2.3598545 -1.599588 0.18029515 0.64127856 3.0752301 2.4623907 0.85318077 -2.389362 -1.201971 -0.88515645 1.9722409 1.7208005 0.42624375 -1.0570027 -0.34753537
1114 -1.2384679 1.3252184 0.9940844 -0.719849 -2.7833169 3.4125588 2.446193 0.1749234 -1.021268 1.8150432 1.248071 -0.22528681 0.7397133 0.10031101 -3.0899427 0.82619125
1548 -0.48755848 0.8883651 1.3984076 1.7159737 1.1554378 0.7317139 2.969222 -0.42562208 -1.9504229 -0.26428148 -2.836075 1.1834431 0.957882 -1.2329409 0.3887384 -0.9732913
1442 -1.2278311 -1.2664648 -1.1730871 1.4731848 1.9069549 1.3399407 3.4159603 -0.7549251 -1.3186134 2.8809118 -2.7641916 -0.33758125 -0.028465366 -0.6156423 -2.944597 -0.4981362
4648 0.1834939 -2.304113 3.0361078 0.97078204 -0.7715029 0.5211617 1.3511446 -1.7848661 -0.14866722 -0.6816169 -0.80829793 2.4285057 0.051166654 -1.6218756 -0.28445613 0.06790445
1004 -0.28347498 -0.6166723 1.2356571 2.3862786 -2.5062778 0.81161344 3.9470773 1.8094486 0.3801005 2.0872316 0.63701624 -1.8523333 0.7189773 -1.7402077 -1.5901511 0.6035256
800 -1.0514811 -0.05486145 0.49179444 2.3186507 -1.1809996 2.7210362 1.1325217 -1.1303507 -1.2916983 -1.0472339 0.9092986 -0.8017261 1.875225 1.5954047 -1.4395716 -1.5917392
1055 -1.9549482 -0.22169974 1.0532739 2.0731957 -2.5990696 1.2185112 1.6423601 -1.6988813 -0.52882546 1.0632313 -0.94813305 -2.4923654 2.3686926 -0.8093101 -1.1727728 1.6689682
460 -1.7528737 -1.6727072 4.1038904 -0.059926696 -1.4701148 1.3868661 1.7916383 2.5749083 -0.7114408 0.7150579 -1.2840637 2.779838 0.45137876 -0.6578677 -1.4405278 -2.594729
856 -3.1820738 -3.3037205 0.32587498 2.963564 -2.7128935 -1.0059553 1.4761045 -0.12619045 -0.51117766 2.9006445 -0.9620501 -0.5188168 0.41464162 -1.6085904 -2.080502 0.560581
51 0.20723325 -2.6181972 1.5120118 3.6933053 -0.6055085 1.1446306 1.3564386 -0.6282705 -2.525777 -0.30239734 -1.1507653 -0.116474666 0.9829369 -0.21952844 0.6520684 -1.8514417
329 0.07508723 0.60330826 1.1866865 2.6841316 -0.3664561 1.8550233 3.3881679 -1.8075116 -2.3325932 0.88349056 0.451361 1.2196871 1.3862536 -0.13353227 1.2992373 1.3287423
2163 -3.340932 0.20982787 1.4905035 1.4340342 -1.5777671 0.88068134 2.6926656 0.9318163 -2.6560316 2.1239493 -0.9688665 -0.71672213 -0.48579097 1.6853049 0.5400593 0.837105
275 -0.13065247 -0.25133485 0.72039753 3.1558146 -0.16922252 0.9341252 4.723989 -2.032951 -2.2679634 0.76790494 0.47376266 1.4757355 0.009500712 -0.6799654 0.9251051 -0.22547172
587 -1.8598052 -1.7377299 3.4025524 0.9238113 -0.43557015 2.9534385 2.0068753 -1.6061659 -0.6632849 0.790393 -0.78334534 -0.24450712 -1.1778315 -0.8818829 -0.9569134 -2.156774
551 -1.5870309 -1.5181254 4.060539 -0.16811213 -1.246758 1.2533925 1.6730744 2.4707432 -0.6505845 0.80537766 -1.2801315 2.7501059 0.5373799 -0.6798453 -1.320228 -2.3611457
277 -0.65309 -1.0926095 -0.5997691 1.3778634 -1.9014809 0.29811683 2.605278 2.6684215 -1.7835684 0.9499747 -2.012725 1.1211503 2.023583 -3.1612206 0.22064435 0.12811923
223 -3.9787521 -0.09222522 2.4025538 1.2879409 -1.1740744 -1.1175765 4.528673 -2.4039154 0.24976188 1.0185978 0.14169425 1.2168647 0.5582663 -0.77254766 0.00034106913 0.14886835
1397 0.0071777166 -0.9178454 1.1519718 2.100432 -2.3295438 0.83157027 3.8892686 1.926987 0.59930146 1.9558088 0.4906765 -1.7119882 0.72563475 -1.6301061 -1.4877667 0.69046265
387 -0.13596703 -0.06763552 1.1531036 3.3784955 -0.1946298 0.9818874 4.302403 -2.043201 -2.0217452 1.1182897 0.48905614 1.3472328 0.16953477 -0.7053595 1.06703 -0.12596153
1770 -1.9092194 0.106545664 1.7775717 1.2934834 1.2396257 1.5750221 0.5917212 1.3476954 -1.3847408 -0.30115917 -0.8405945 0.70228994 1.4323776 -1.3103508 -5.0689297 1.3887165
2241 -1.3590739 -0.5973503 3.7200358 2.207945 0.79996294 2.2602465 1.0642052 -0.5365365 -0.38815734 0.4294276 0.30222538 0.68147916 -0.014111798 0.6114111 -0.9039842 0.6100011
2280 0.5088786 0.7710537 4.0931315 1.1765895 0.22386163 2.1971982 3.4523816 0.2999815 -1.6202581 1.5719022 -0.18186948 -0.26842257 0.11932833 -1.2994303 -1.1319968 0.31093585
2400 -2.1879148 -0.8050904 0.87775075 0.48235908 -0.7528484 1.9628242 3.722261 -1.9584239 -0.6391817 1.1380879 -1.7072448 -3.016072 1.9920527 -0.43118474 -2.2858913 -0.19052254
631 0.6594631 -1.1213781 0.609478 3.7457087 0.7215742 -0.5586145 2.8768005 -0.64564323 -0.9760777 -1.285281 -0.6658929 1.6839212 -0.34592843 -0.50158525 -1.452674 1.9899784
1930 -2.8807228 -0.20255594 1.3396902 0.4798009 0.9668107 -1.1609696 4.243026 0.7544931 -2.376611 2.273121 0.46989933 2.347184 1.541149 0.859073 -0.7882973 -0.6233594
3186 -0.22141737 -2.1561928 3.03398 2.4350305 -1.7250353 -0.13138 0.8198003 1.7560755 -1.8986783 -0.20614682 0.24278124 1.5571108 -0.05237806 -0.43819147 -0.50573367 -0.10643166
326 -2.2957387 -3.610468 0.13300487 0.048896685 -2.1067545 0.28535894 3.592824 -0.021168517 -0.8349914 1.8186008 1.6114478 -0.54573256 1.2973588 -0.68786037 -1.0864775 -1.2471409
13 -1.8002646 -1.4145813 1.8890725 2.2661543 0.9707997 1.3007001 1.6393244 0.7966524 -0.70481575 0.4756529 -0.08557068 0.114427015 4.124162 1.0501143 -1.2867573 2.179498
3092 -1.1397705 -0.527402 3.1000924 2.6490533 1.4786303 2.0469003 0.24893424 1.3442477 0.2707418 0.19382213 0.078404196 1.7891314 0.32502574 -0.84885037 -2.6846247 0.073006175
758 0.8453455 -1.5455705 -0.10355221 2.0385473 -1.4300702 1.6993741 3.1846573 1.9505664 1.217409 1.4927467 0.24598472 -0.4271836 1.0186037 -1.3721606 -1.4461588 0.9735259
443 0.86318624 -2.6830182 1.0435317 0.2819729 0.86203074 1.5762798 3.0542233 -1.7052163 -3.8641346 -0.388955 -0.84548116 0.37584603 1.1163092 -0.42198098 -1.6438535 1.0450144
704 -0.40116042 -2.7059264 2.7320576 0.82602364 -0.1069966 -0.72994393 1.8360603 -1.1434022 -0.6913444 -2.0256314 -1.767137 2.515664 0.7806234 1.7236798 -2.9482942 0.66596955
1267 0.17727531 -1.9548956 1.8582543 3.5031471 -2.1475496 -0.07686726 0.331092 1.9143897 -2.0861478 0.25774556 -0.090747476 1.4565312 0.6676657 0.76963854 -1.2907958 -0.30451396
68 -0.9811198 1.168324 1.8972507 0.8912371 -2.2952125 1.1027515 4.5140495 0.39510667 0.325959 -1.2084446 -0.7711255 0.035475094 -0.064200975 1.0079077 -1.0143149 -0.453277
442 0.35495597 -2.8591495 1.570191 3.2938025 -0.609382 1.5862741 1.3700094 -0.40151653 -2.1404855 -0.4089045 -1.240247 -0.40685886 1.0244327 -0.21510245 0.5497702 -1.8449675
1512 -1.0291839 -1.1350595 -0.4477874 1.4284639 -1.7066103 -0.16070877 3.0557487 2.798655 -1.5616103 0.2219798 -2.2976134 0.8368917 2.6709502 -2.6842108 -0.055430673 1.2730304
337 -1.3212198 0.4083298 -0.09230433 1.415216 0.349333 1.7746425 5.0254755 -1.7803384 -0.91228336 1.0765568 -0.15318902 -2.1143715 1.5963836 -1.1994612 -0.97527283 -0.04484361
4608 -1.7519346 0.67987055 0.54297566 1.0954183 -0.5747123 2.3414834 1.1678042 2.0620022 -0.2361562 -2.3320897 -1.0062964 1.0003185 1.176763 0.32374197 -0.5212954 0.6780588
802 0.1270409 -0.58238995 2.1165156 2.7439766 -0.09442125 0.88029104 1.5407887 0.27188227 -0.4854364 0.43884957 -1.5445316 -1.360574 -0.8283871 1.9159918 -4.4850526 -0.033053264
140 -2.8907712 -3.2398756 -0.7652311 0.30820578 -0.8625767 -0.36008218 4.200391 -0.06111862 -1.5489053 1.6722101 0.7392114 -0.36105028 0.92922854 -0.640972 -0.56888425 -0.9864422
147 -0.24616143 -2.3432465 -0.037769526 2.3069375 -0.37058437 2.3597991 -1.336088 -1.2269796 -1.5116028 0.5865227 -2.0156178 2.8527992 0.6188843 -1.1131594 -3.5113244 -0.97814775
742 0.19450869 0.29415423 0.51398987 0.09040292 -0.20765515 2.0465808 3.8953063 1.043588 -1.9972641 0.17972454 -1.3535389 3.3025067 1.4422241 1.9208575 -0.58746356 1.516206
16 -1.4357758 -0.8175257 2.8010566 2.209243 -1.1882312 1.3413296 1.9923768 -0.45693818 0.0060099512 -1.5044233 -0.51137024 1.1341555 0.74107105 -1.322952 1.4819629 -0.21975523
1177 -2.4768846 -2.6430736 -1.9842575 0.8127484 0.045402654 3.1545644 2.0579705 1.0165932 -2.7726016 -0.35659683 0.010504591 1.9261426 1.4583728 0.46929413 -1.4006679 -0.15939704
1001 -1.2478875 -0.89563036 3.1330807 1.9969826 -0.6091384 -1.2259413 1.0990313 -0.3842331 -1.2190672 0.22926475 0.8269105 1.247334 0.5362494 -2.6734447 -1.349093 -0.35044175
2102 0.62299055 -2.8429158 1.6273812 -0.0910514 -1.8997827 0.8940227 1.4537933 -1.8600496 -0.45086095 -0.89860654 -2.1736536 -0.13499045 0.7763457 -2.028886 -1.8333939 0.6506953
2253 -1.2273018 -1.7662418 3.7169068 0.62186176 -1.0579685 0.34783137 0.88163143 1.3352897 -2.0947397 1.036532 0.8274707 1.2931595 0.66506106 -2.458849 -1.1037637 -0.7290061
505 -1.7572381 -3.6233146 1.7142204 0.7248957 -0.08561965 2.3387442 3.5210745 0.33118236 1.0085772 -1.1526874 0.3995984 0.9402242 -0.15980333 1.2290485 -0.6612077 1.0239697
293 -0.6400522 -1.359116 1.5479656 1.2485203 0.58064693 -0.5925706 3.7844183 -0.18336941 1.4010807 0.84694815 -0.52267885 3.0650115 1.9200801 1.7171761 -1.1295987 1.3572472
1072 -1.8253195 2.081374 1.4888408 2.2049296 -1.1825182 1.2685461 2.641984 1.0599383 1.2216368 0.52634734 -0.6121435 1.2519082 2.8167841 -2.0904224 -0.92556655 -0.41974172
1349 -1.9612687 -1.413005 0.93676203 1.9181817 -0.76339054 0.8605193 1.7534838 -0.9594491 3.0272439 0.7150593 -3.1716788 1.2114695 0.8688346 -0.76328653 -0.3000317 1.5059471
432 -2.1269436 -0.16843311 -0.5628847 0.112981126 -1.4213786 1.6120687 1.3647758 -2.8724117 -1.7771542 -0.44518718 0.45061916 2.916627 1.7906569 -1.068006 -1.3057113 1.7357076
941 -0.3210761 -0.5038616 0.826471 3.0189462 -0.15691581 0.7470392 4.012192 -2.0724592 -1.9684188 0.6069664 0.48087066 1.1759883 0.28071356 -0.9218069 1.0902332 -0.48823807
1048 -1.0955589 -1.3266089 2.4993029 2.7222927 -0.33383206 2.8182473 1.4805597 0.42265764 0.18009344 1.2122055 0.5169506 0.3567391 -0.17392193 0.29838234 -0.048969105 0.97593474
44 -2.4425194 -0.57707876 0.8309954 1.6806011 -0.7399982 1.2630972 1.8760461 1.1008264 -0.07849797 2.7977834 1.4849265 0.5258825 1.1512817 1.5365999 -1.6506398 -1.7387706
972 0.050296325 -0.18724003 2.1005766 1.4336481 -0.32298106 3.4248233 1.7434843 -1.1646026 -1.91722 0.62470484 0.005715916 1.3808329 1.5682687 -0.96870387 1.1198442 1.336743
261 -1.5967127 -3.558261 2.3402798 0.3209073 -0.010429928 0.74448293 2.2749548 1.1917708 -0.6908926 0.0035101129 -2.0733948 -1.9235393 0.68197805 1.0313885 -2.7560153 1.059363
473 -2.4029388 2.014064 1.009631 2.295923 -0.66396654 1.2447124 2.4602354 0.9672315 0.9202353 0.7231011 0.00061588053 1.463092 2.6890244 -1.8044641 -1.3252819 -0.792116
253 -2.039499 -0.33660787 1.0645235 2.2743268 -2.661226 1.2953372 1.3091651 -1.6505184 -0.49113885 1.0038202 -0.71606874 -2.4649346 2.1427517 -0.7025605 -1.6453842 1.8405448
5578 0.41865107 -3.2695537 2.37213 0.63938785 0.23977745 0.80951196 1.5853891 -1.730404 -3.0987372 0.131581 -0.9759741 1.1373276 -0.7658825 -1.411024 -1.4098737 1.2221038
1126 -1.1001451 -0.9180354 2.85747 0.9857903 -0.27484778 2.9503853 0.4394067 -0.313024 0.14079604 -1.2866194 0.51849824 1.4568173 -0.2843621 -0.12487284 -2.019287 -0.66782254
2862 -1.6484251 -1.9232597 2.5852036 2.3021014 -1.6197596 -1.0238254 1.9027499 -1.4938133 -1.3544599 -1.1633037 -0.92437994 1.289485 -1.8871512 0.13743897 -0.5917534 1.3942124
1576 -0.07632562 0.43319798 0.33135644 3.6377814 -2.4379244 1.3257296 0.6899297 0.23522875 -1.5842865 -1.0535614 -0.7495403 0.1450874 0.93507755 0.9784205 -0.011313673 1.0142813
1684 -0.5405797 -1.432673 0.23280692 2.6737723 -1.077063 2.1546738 1.49791 -2.57908 0.37861982 0.39135236 -2.4184968 0.6618907 2.8019404 2.956958 -1.0771147 0.21596992
2293 -1.4386004 -2.697776 -1.9920005 1.8651484 -0.49832454 2.3650594 1.0015321 1.2174249 -2.4104695 -0.7606541 -0.675875 1.0207372 -0.6894542 -0.16079967 -1.264424 0.08746311
719 0.42974684 -0.4528443 1.4326462 0.33740765 -0.54037845 4.00331 1.2013183 -0.09669623 -0.8743319 0.93969584 -2.0738358 2.9773297 -0.08505594 -1.2826142 -1.0806301 -1.4151499
1616 -1.5717438 0.4340327 1.6454155 0.9432643 -1.6885477 1.8518487 0.78606355 2.769612 -1.8331683 -0.5723146 -2.6398208 1.7898748 -0.9423965 1.2424209 -1.651172 -0.22942038
1281 0.2928337 0.031829163 1.339939 -0.25063878 0.8171203 1.7987854 2.6717966 0.34067872 -2.087829 0.44965324 -1.3150246 2.9369228 0.88481724 2.4856908 -0.8221237 0.29870257
620 -0.6410661 -0.5879004 2.3143451 2.7821836 -3.3062086 2.7451882 2.610335 -0.5636144 0.57591647 0.9218592 -1.6347897 0.8709883 -0.31549117 0.21828897 1.177226 -0.98458815
862 0.3118394 0.24353203 0.63591045 0.01253411 0.06094694 2.1078637 3.9314122 1.2487255 -1.9186398 0.533086 -1.3172826 3.364006 1.3744868 2.202151 -0.5064123 1.2721378
1333 -1.6254225 0.2782208 1.7394743 1.4946018 0.9694025 1.7666162 0.26062158 1.3050445 -1.7084218 -0.1972097 -0.98770696 0.6031156 1.7195691 -1.0112269 -4.603433 1.4282053
4683 -0.75660527 -1.4894924 0.19301134 2.0287423 -0.4715001 1.5356587 2.9139795 -0.30840462 -0.20265985 -3.2086658 -0.4881683 0.15015498 1.2405225 0.9680053 -0.28698865 -1.0166887
1446 -1.8293973 -1.4951627 3.5793066 0.8380649 -0.2804204 2.60927 1.9334928 -1.8107702 -1.1613365 0.7573658 -0.84830844 -0.46661186 -0.71194303 -0.8377534 -0.7671996 -2.3501282
4093 -0.26122448 0.2569692 1.3734565 1.1459888 0.29067123 1.8219367 3.0984952 -0.61878294 -1.1427674 -0.50180984 -2.0250878 1.2254232 -1.6905907 -2.210998 -0.5350165 -0.66081446
160 -0.91385126 -1.2389736 0.78416824 2.616491 -1.2632519 0.114228405 2.2620547 1.781708 -1.92856 0.63920355 -0.8139727 -0.2858611 -0.7330541 -1.2387297 0.5266395 -1.7872195
1223 -0.14239411 -2.1532857 -0.18774204 2.306223 -0.5136872 2.5437531 -1.2331941 -0.9976849 -1.3226913 0.7019552 -1.7630879 2.8096774 0.3823535 -1.3949493 -3.4308279 -0.6181264
1761 -2.043694 -1.8491565 -1.9760184 1.474303 0.3265573 3.6175094 2.0798848 0.41638032 -1.3496029 -0.13392726 0.019591618 1.7971117 2.748097 0.13993005 -1.1333255 -0.44991896
651 -0.42339292 -0.34695318 0.2891266 2.0009518 -0.9239123 0.74980813 1.9598286 -1.9136394 -1.4712226 -1.1747184 -1.056135 -0.47197747 0.9947721 -2.7977538 -0.56787354 2.3585749
1137 -3.7472804 -1.69655 0.33745173 -0.8813738 -1.65365 1.3158001 1.6084533 -0.82278067 -0.5454131 -0.72085536 0.56385094 1.8659941 0.81923413 0.5691015 -1.1776508 -0.41284302
2632 -1.4483159 -1.1017418 1.5839213 2.6887794 -1.4944632 -0.4909747 1.472746 1.8214613 0.3745589 -0.58369577 -1.181615 0.19730665 -0.66517615 0.27230617 -4.1269236 1.294811
488 -1.5617782 -2.8011606 0.80827826 -1.3044076 -0.5914604 2.198229 1.7106189 -0.14293656 -0.805171 2.2316892 -1.7501227 1.0640745 2.429106 1.560436 -1.6250935 1.5939496
233 0.23753268 -0.80689955 -0.049262222 1.7042392 -2.8159945 2.6500983 0.98273396 -0.944335 -2.6819904 1.3398849 0.546941 2.5012414 -0.69142616 0.42679796 -1.7364359 -0.75295055
1212 -1.686634 1.216482 0.67647165 1.8166977 -1.3598198 1.9694529 -0.16673787 -1.1816292 -2.03689 1.6351973 1.092566 0.73317856 1.4055879 0.6878233 -1.6966125 0.27915105
538 0.3247247 -2.0800214 1.6630764 1.1028512 -1.3155565 0.13165928 2.0303533 -1.3324713 -1.2734412 0.11061131 -0.54135966 3.066028 -0.8493804 -1.9086195 -1.9393085 -2.139387
2465 -0.7944029 -2.217792 0.64155483 1.9828944 0.9345044 2.0514247 2.1092799 -1.220758 -2.3172252 -0.01985518 -1.5802581 0.7547146 1.7983836 1.8561391 0.8459403 2.4096303
1108 -0.2418324 -2.3997402 0.3906188 2.1030266 0.61574525 0.98259866 2.2294204 -0.9995326 0.09983615 -1.8143835 -0.9151086 3.0328376 1.5281645 0.6698113 -0.84472084 -1.8230847
1529 -0.77352965 -0.47292006 -0.5059633 0.049710087 -0.32049823 -0.9733569 3.7827454 -0.8697183 -0.13526669 2.5462165 -1.7844782 2.7100267 1.1305004 -0.3400518 -1.3461398 1.9439695
501 -0.05630909 -0.12655541 1.8313354 1.8906407 -0.33940417 3.5412323 1.6753908 -1.0494053 -1.6288106 0.26946372 0.056023046 1.2514647 1.6382265 -0.9528552 0.97500634 1.6218833
1613 -1.1209689 1.3406498 1.7953008 1.2388284 -2.1794415 1.3129071 4.4294 0.93151015 0.1231583 -1.1953139 -0.6042954 -0.008693542 -0.3303398 0.7679355 -1.070613 -0.5621803
1036 -0.76529604 1.1739719 2.7188714 1.4061277 -0.84327614 2.2009342 1.6861151 -0.7298563 -3.21681 0.4197805 -0.2628634 0.87093294 1.491123 -0.9562729 -0.44549435 2.8569698
181 -0.97186655 1.0373137 2.9717913 1.0643216 -2.2590628 -0.7518495 2.1583157 -0.67412674 -0.6785399 0.62804353 -2.272586 -0.2136226 1.0008457 -1.9057504 -1.609698 -2.201483
1312 -1.18546 -1.7316204 1.9646869 2.0153732 0.967913 1.6255202 1.1259156 0.9129418 -0.564849 0.42776203 -0.03443129 0.33225277 4.0911317 0.9067453 -1.4740113 1.813078
1258 -0.6403897 -1.4592662 1.6287608 1.3151326 1.4737417 2.7292778 0.19421694 0.25487474 0.5984719 0.772997 0.26045412 1.9113882 1.6863238 -1.0566423 -2.2979193 0.5862558
3602 -0.6902398 0.15517928 2.4743443 1.5944705 -1.5974226 2.7512343 3.3305974 -0.029576669 -0.14139755 0.3944456 -0.7268669 -0.498498 -1.3055907 0.10739129 0.45101884 -1.0146275
52 0.78607523 -3.277569 -0.7394939 1.1288943 0.1908741 1.845562 2.0427542 -1.2122171 0.11548296 1.0034326 0.36311835 1.8141692 1.9708086 0.24334268 -3.3842242 1.0175797
1535 0.10824388 -3.2741995 1.291512 2.947749 -0.47570214 1.4540423 2.2817888 -0.18653172 -1.9897492 -0.42346704 -0.63807315 -1.2658147 0.94090104 0.5264094 0.33067077 -1.3594425
777 -0.65254897 1.208178 2.4916909 1.295468 -1.5553818 1.8758556 1.5899166 -0.7292502 -3.292866 0.15880018 -0.71505284 1.0028026 1.7133969 -0.9626008 -0.48746708 2.6326132
276 -3.6681478 -0.6084348 -0.3016884 1.1044207 0.18119438 -0.6525287 -0.1260511 -0.385638 -2.8277798 1.3204224 -1.2801265 1.325251 0.8671151 -0.13621351 -2.543445 0.48788562
339 -0.8362796 -0.62473327 1.2655141 3.0880408 -0.5338828 -1.1624527 1.7219085 -0.9384898 -1.9688295 -1.4523809 -0.13505346 0.913914 -0.25839245 -1.6331866 -1.5885156 -0.19674964
2534 0.22581933 -0.7748625 2.8113854 2.3628864 -3.4297664 0.99767333 0.86048037 0.9450562 -1.1582836 1.7473351 -0.42781675 0.035655357 1.4449161 0.8153609 -1.2140675 1.3795722
891 -0.8865378 -1.4447469 -0.059330765 -0.7836874 -0.9169864 1.9383655 2.764309 -0.2662637 -1.7628996 1.9022325 -3.2902808 2.6671703 0.4442852 -0.028004244 0.7124084 -0.84749204
1797 -1.2156619 -0.58434504 2.6595945 2.3028543 -1.2550657 1.0609623 1.680916 -0.49325797 -0.214765 -1.7464468 -0.55585283 1.2999872 0.8996929 -1.4120448 1.1419625 -0.3383383
995 -2.0472605 -3.6012678 2.2007926 0.5281556 -0.06841337 2.2072418 3.2304425 0.124934286 0.90461785 -0.58275527 0.1874652 1.2091936 -0.70582 1.191871 -0.7128271 1.3869712
39 -1.3739554 0.5796884 -0.6116099 1.437979 -0.54966384 -0.9626814 2.2925146 -0.37842867 -1.30801 0.2663476 -0.9632099 4.4849195 1.1006137 0.794157 -1.4279844 0.48730975
1271 0.08116443 -1.6958799 2.222128 2.8133397 0.046974156 1.2749846 2.285576 -2.5215971 0.528576 0.79367286 -1.0566096 -0.0082097165 -0.6233477 0.12854896 -1.3304561 -1.5000746
711 -2.1238866 0.39275983 -0.7565455 0.5511775 -1.1079934 2.697193 2.3119504 -0.3137398 0.027811144 0.61612904 -2.0136 -0.85511243 2.8815563 0.08132926 -1.3833385 -1.4059966
110 -0.99650633 -0.6216572 2.0207944 2.6084461 -0.123333596 -0.70484704 1.9491429 -2.0699725 -0.8614344 -1.1250573 1.0425675 0.8765877 0.35469025 -2.2019134 -2.4567964 0.2690298
1619 -0.27676293 0.8581156 3.049099 1.6003294 -0.14410274 2.2903209 1.2719177 -0.98934 -2.9134324 0.42281094 0.11019036 1.1703062 1.2606051 -0.377524 -0.5116086 1.8957466
2953 -1.6188209 1.2234287 0.44542885 2.6987634 -2.5252757 2.348402 0.6607191 -0.26494938 -2.1084661 0.26872241 1.4096552 0.09774051 0.8209839 -0.3556686 -2.270702 -0.48750487
1044 -1.0341023 -2.2135332 2.3337085 1.5709249 -0.40349028 -1.4322865 1.1805327 -1.9330469 -1.077263 -1.6463174 -2.4509046 2.0316856 1.8206788 0.65889573 -3.5338218 -0.14818268
664 -1.4581503 -0.7273331 0.1542686 0.20318219 -0.06414637 3.1976361 0.9899345 -0.07030339 -1.6254245 -0.5039139 0.32676584 -1.2248783 0.9405447 -0.40944988 -2.1529899 -1.0300715
1648 -0.8468485 -1.6351595 2.156574 2.5047321 -0.101080075 2.2546594 0.9233921 -2.0401103 -1.8020375 -0.48910412 -1.5179679 -0.121803954 -0.502068 -2.5078797 -0.8062748 -0.2027007
1384 -0.36832365 -0.7596058 -0.0918232 1.8942971 0.1959936 1.4194784 3.3951812 -0.3346784 -0.05038116 -1.1708268 0.87382436 1.9462962 0.59772235 2.1758976 -3.451703 -0.28413185
107 0.42551416 -1.8556435 -0.3540895 -0.092805 -1.3998173 2.4358997 1.9209106 -0.31056368 -1.2829393 -0.3255739 -2.7334645 1.9427507 0.42024416 -1.0494653 0.9986402 0.33672166
306 -0.89506584 -0.34385955 1.3425759 0.8159941 2.0257351 2.529105 1.8663481 1.0840778 -2.6380112 1.7930951 -1.3826051 -0.03868971 0.6632604 0.5368108 -2.2526765 -1.5937349
5886 0.7131612 -0.19502577 2.3713264 -0.0024965832 -1.649288 0.36144093 2.1714623 -0.74852306 -3.5537455 0.031172704 -0.31925476 2.5783787 -0.6125364 -0.8946343 -1.0773509 -0.66885835
2507 -1.1295717 0.41717443 -1.8776069 0.9630536 -1.8001479 2.2915947 1.5748377 1.7026361 -1.3080406 -0.3419732 -3.0961835 0.9549305 2.233475 -0.620648 -2.8709214 1.0609037
178 -2.0644755 -0.15990469 -0.8153827 1.8257793 -0.40213165 3.22172 1.9354844 -2.0556598 -0.84740293 0.81726193 -0.23452672 0.3948696 -2.1063688 -0.20006953 -1.9217952 0.9008562
1346 -2.7418988 -1.9283044 1.5031147 3.5469215 -0.9511748 -0.9869634 1.7283355 -0.39857978 -1.7764255 -0.63365746 -1.2746358 0.64808124 -1.5047772 -0.4208122 -0.33498204 0.9598182
971 -0.036241338 -1.7045413 3.2440102 1.093777 -1.8293757 -0.30355638 1.2316018 -0.28752378 -2.573961 0.5660201 -0.7391628 1.9697868 -0.52094847 -0.20768434 0.018391022 0.3142933
2637 0.80587614 -0.39257985 1.5240566 3.0920224 -1.3911968 1.0540308 0.93297696 -1.8169495 0.23349953 0.82289195 -1.266425 2.8529842 1.511936 -0.7602151 -0.01855288 1.1792536
1940 1.3859392 -0.74324167 -1.2674512 2.8422318 -1.7192322 0.7161488 2.0729542 -1.553185 -0.05067802 -0.751167 -0.4987997 1.8522213 0.77066284 -0.7700749 -1.0613279 0.6280414
467 0.2949773 -1.9268407 0.22868168 1.4992173 -0.7242974 2.558964 1.5905914 -0.7879145 -1.7176019 -0.8353972 -2.5206676 0.7841055 -0.07032543 1.4805369 0.47594953 -1.0300665
3081 0.22173259 -0.74950194 1.5075622 3.2514114 -1.0822968 1.1933196 1.7573746 1.6714293 0.034088355 2.5348825 0.86178297 1.2752382 -0.33851406 0.5789051 -1.2240012 0.35438222
1322 -0.5873147 0.28478646 2.5482838 3.4064767 -0.8374873 -0.9111955 1.6934588 -1.8237276 -0.71185327 0.17191617 0.3815904 1.0978293 0.46355942 -2.3427112 -1.7439336 0.2765919
1259 -0.48288873 0.673543 0.5985756 1.4926548 0.6956255 1.1128927 2.5419786 -0.13389507 -1.8503523 0.57148516 -3.4388375 1.486983 0.65745884 -0.8863318 0.78902817 -1.1536913
405 -1.5771714 -1.8634592 -0.093915604 -0.66596085 0.3709222 1.0589999 2.2185688 -2.6757772 -2.88586 0.10833498 0.30081123 0.60284305 1.3886923 -1.7890099 -3.0344462 -0.5211478
666 -0.3985347 -2.325269 2.6918151 0.8175247 -0.43142667 -0.78615814 1.6426973 -1.2045095 -0.55447257 -1.7410159 -1.7622867 2.1203284 1.1672134 1.5409347 -2.683289 0.6560192
950 -2.8141723 -1.3121578 -0.18409872 1.2088505 -2.528594 0.3884138 0.9678687 -1.7718811 -0.90877473 2.1570225 -1.6204574 0.9591734 0.93170315 1.6377292 0.48343524 0.6332517
7367 -0.633251 -2.265484 -0.7718861 1.3435307 -2.6309094 -0.12290762 4.143974 -1.7401818 -0.5474626 1.9625397 0.23056987 -0.40319163 0.5582889 -0.7944183 0.54726213 0.24613392
3742 0.10222039 -0.54989564 2.0775316 0.8182102 2.0105877 3.0504735 1.0353627 -0.020900497 -1.3363506 0.70727706 -0.4348193 2.5869272 0.85546905 0.64356357 -1.6460165 -0.74300414
2576 -0.76821697 0.21725325 0.08860145 0.4697631 -1.2706078 1.0309616 3.7292924 -0.8578276 -3.714667 1.3473268 -2.594791 -0.13346241 -0.17819123 -0.15118603 0.576063 1.4148052
922 -0.98344874 -0.6322635 2.1801004 2.1614475 -1.8333616 0.6129627 2.5169415 0.40136355 -0.44007877 0.32584193 2.0877664 2.3665833 1.4483305 0.22598277 0.28254414 0.7054541
7741 -0.84967345 0.3036648 -0.43985182 1.5762497 -0.06483717 0.3771872 2.6535943 2.7568276 -1.3953558 1.480447 -1.0767932 2.2242084 0.7028295 -0.60344523 -0.37571546 2.5170345
111 1.4210919 -0.39850274 0.8767 2.4530575 -0.88531375 1.4559499 1.6221539 1.1835715 -1.4948384 3.21922 -1.8259706 0.018867228 1.4011079 -0.41647857 -1.6627607 1.2717199
1377 0.7763064 -0.43087447 1.5545439 2.7819695 -1.7248722 1.2560922 1.0291358 -2.032369 0.19574746 0.8949973 -1.5332279 2.6889074 1.7196289 -0.5104951 0.16404091 1.3343838
1074 -0.6555814 -0.45412853 1.9601109 2.0777228 -0.095825315 0.6050299 1.8937774 -0.10097293 -0.6097693 0.14075065 -1.502663 -1.7461728 -0.68692815 1.3205433 -4.430791 0.8465856
1699 0.3808366 -0.80862606 -0.2325489 2.2780201 -2.1775856 1.419166 2.6245341 1.6280378 0.5587391 1.3178512 0.22874379 -0.85735685 0.29653856 -1.7202557 -1.789509 -0.12354358
1306 -1.15704 -0.047721423 0.9016828 1.9937922 -0.30784586 1.3821537 1.4099784 0.078151815 0.15205136 1.7656286 0.8825595 4.055026 0.61028326 -2.4920983 -1.2891082 0.8786147
2056 0.15744813 -1.9707122 0.75531876 2.9186568 0.23441109 2.0138407 2.5338633 -0.059168536 -0.3646551 -1.2810621 -0.079434246 0.031233067 0.87733996 -0.16278355 -0.29301813 -2.0237677
1393 -1.2811813 -2.7561908 0.80616254 0.49163562 -1.3450849 -0.3991244 3.3487456 -1.4713548 0.39185023 0.77080876 -2.5279212 -1.0827028 2.619465 -1.916152 -0.11508839 -0.9813271
813 -2.498524 -0.06918814 -0.09727669 0.9741955 1.570631 1.5857189 1.0976428 0.20741022 -0.11033101 -0.5995479 -1.236132 1.3082994 0.4606148 0.23466459 -1.6026298 2.4199023
674 -1.8540156 -1.6793367 -1.2165109 0.49403417 -1.5916651 1.0198373 1.6045812 0.6044368 -0.099277966 -0.11973178 -0.77811277 0.13415076 -1.391079 0.2563415 -2.3460424 -1.8286816
3080 0.9880307 -0.96779144 -0.60994035 2.8489723 -1.6669621 1.2957194 1.4312851 -0.08499604 -1.8107401 2.0642183 -0.8616695 -0.7476279 0.73243546 -1.0210172 -0.6416561 1.9389254
797 -0.34926492 -2.1916544 2.7996893 0.9324182 -0.44064453 -0.92901856 1.4732282 -1.3350717 -0.80195767 -1.8853986 -2.0329683 2.340715 1.4949478 1.5305892 -2.934961 0.54378456
4569 -2.2396915 0.27556947 0.8624553 0.9240147 -0.085779995 0.5948965 1.1477559 1.2518258 -1.280847 -1.1246839 -1.3411102 -0.059884887 2.2969968 -0.85560244 -4.722285 1.023689
203 -2.8418195 0.7002166 1.1003577 -1.0629379 -0.7260916 1.7782483 2.241492 0.98707235 -2.9208686 0.21272925 -0.1501592 0.8812155 0.23897785 0.38644934 -0.36298716 -0.29216442
4291 -2.1201992 -1.9434103 -0.9053644 2.2803953 -2.2941678 1.5254354 1.9249524 1.2174407 0.07121109 0.009323433 -1.0175827 -0.96791655 3.2907767 -2.788584 0.09705602 1.3593488
888 -0.7330588 -0.63726205 1.8041828 1.1318367 -2.8296297 1.1264894 0.019305693 -1.5530269 0.320981 0.43643203 -0.9126884 3.092614 0.27419445 -1.0669953 -0.54914653 -0.59786576
79 -0.68760145 -0.29532924 2.5453658 3.2021682 -0.5693493 -0.8260221 1.6519927 -1.9663093 -0.2195639 -0.10024336 0.65222406 0.37183285 0.71075636 -1.7599471 -2.0691628 0.115236044
294 -0.21918808 -0.9258236 -0.6993679 0.17235887 -0.35303685 1.2446494 2.9571526 -0.60767835 0.48195377 -0.45630872 -2.148631 2.665929 -0.54745764 -1.8898861 -2.003574 0.02409801
1462 -1.5680506 -2.3528674 1.0676895 -1.603518 -0.3879666 2.3945954 1.4944391 -0.52038246 -0.88460946 2.2517476 -1.8992884 1.1640235 2.6608858 1.3318533 -1.5557423 1.5776337
7152 -1.8575919 -0.46175086 -0.91803205 2.0791361 -1.4528122 1.7788291 1.9268256 -1.1798438 0.20743611 0.8848312 -1.8877448 -1.9710186 2.7020557 -1.3447517 -1.1888824 -2.018145
1920 -1.6511915 -0.20366648 1.6252624 1.3567392 -1.1005586 2.4008472 0.8460501 -1.6189574 -2.4380853 0.69962007 -2.2865577 0.83626395 0.9952715 -0.23314884 1.7266381 0.04520842
2359 0.21516283 -0.5386262 2.0255628 2.8463526 0.06712797 -0.42381352 1.7113506 0.17804112 -2.328099 0.27662468 -1.6352752 1.2031741 0.3287803 -0.20468618 0.6051914 -1.1336821
319 0.829858 -2.068305 2.549363 1.9616175 -0.4845552 2.1231132 0.009198436 0.57537013 -0.24175464 -0.28877342 -1.4959629 1.5688126 -0.39933038 0.25062758 -1.172854 -0.36657333
2121 -1.8607502 -0.3308121 1.4102658 1.6524574 -1.1365727 2.3749092 0.668498 -1.6604354 -2.5385401 0.7406968 -1.9175603 1.0622072 0.88726866 -0.49044257 1.9584081 -0.08246409
2194 -2.3660874 -1.7071443 -0.010673933 1.191692 -0.20420587 2.2131677 1.6217905 2.5304716 -1.2012407 1.1447449 1.0684776 -0.26548722 0.8162558 0.59733474 -1.4421988 0.18460357
1274 -0.7449323 -0.9246254 0.5262918 1.9377904 -0.51732165 0.7568547 1.321142 -1.9069993 -1.3431312 -0.38287222 -0.86626685 -0.52438486 1.061484 -2.8040254 -0.72061145 2.519573
453 -0.63314307 -0.176595 1.5047907 1.4311899 -0.17043127 2.3994973 -0.089949146 -1.5884609 -1.7479962 -1.1367145 -0.859789 0.14257185 0.029096005 -1.8293397 -1.4139484 -0.07232719
286 0.16324095 -0.2009796 -0.38001654 1.9964533 -2.4865294 1.2396373 1.4091179 0.0742561 -0.90103734 2.5576816 0.62542343 0.41516906 -0.45233068 0.6151417 -1.2726272 1.2004642
4865 -1.5193214 -2.1076875 0.21141511 1.6732353 0.48929623 1.6344918 1.3715597 -0.5173528 0.8827487 -1.3540014 -2.0335333 4.3403945 1.2433722 0.6582104 -1.6408278 -0.43688503
890 -0.18886396 0.07556277 1.6868122 2.972905 0.10443344 -0.15291663 1.9762071 0.27893433 -2.0523486 0.4504995 -1.7667216 1.2026656 0.9430414 -0.14694758 1.0452296 -1.1915358
91 -1.484923 0.63281524 2.502316 1.6876967 -0.511091 1.3401961 2.3993013 -0.1954722 0.7806137 0.44448218 -0.5965285 -0.51539797 1.6545532 1.6948133 0.30397803 0.5007772
254 -1.8717139 -0.11992654 1.0916868 2.109312 -2.4334664 1.15844 1.4365503 -1.6019647 -0.71277183 0.92368674 -0.7173125 -2.3571005 2.1393762 -0.6985427 -1.4725069 1.5841588
3091 1.3179336 -1.7741632 2.6545494 2.4631877 -0.15618365 0.3005128 0.15159048 0.2754158 -1.6800344 1.0899402 -1.2650498 0.2213371 1.2479794 -1.680897 -1.1044402 0.9969673
3247 0.6648249 -1.1523218 2.5988147 2.6655796 -2.7308545 1.3844867 0.7481039 1.0558405 -0.9435348 1.0295247 -0.29647136 -0.38656533 1.004108 0.41964418 -0.9853049 1.8104687
1156 1.0696762 -1.7055004 -0.55994725 -0.14067934 -1.467931 1.3550931 3.716481 -0.5363385 -0.09478212 1.1811341 -2.871448 -0.48838747 0.8123893 -0.13327436 -0.9899966 0.08052796
1009 -0.75637823 -1.9877867 0.20569398 2.1685898 1.1104329 1.0129503 1.644877 -0.79513294 -2.2790916 0.17338926 -1.6951 1.0248756 1.479574 1.6227955 0.7332909 1.9494938
2323 -3.3277795 0.22125481 0.016264075 1.5857826 0.88432586 0.69778854 0.3943094 0.5485802 -1.9998866 1.4816079 -1.3207155 2.3627152 -0.8716911 -0.93528354 -1.2697808 0.45362896
141 -1.734246 0.1566521 1.0821733 0.9415067 1.1233677 -1.0088273 3.0972924 0.5395096 -1.5339555 1.4856092 0.40330097 1.1225151 1.2743899 1.554641 -1.8992245 -0.92499393
2332 -2.1806142 -1.939724 1.6120268 3.1573308 -0.97231245 -1.0373831 1.590012 -0.43362698 -1.6843097 -0.8988388 -1.0429823 0.82392544 -1.4383168 -0.36843276 -0.40960684 0.91460216
2372 -0.15239242 -3.0601802 2.1404624 0.122614734 -1.5527401 1.7934374 0.6831012 -0.59594727 -0.2513261 -0.3527032 -3.393601 0.7372007 -0.024124503 -0.30079478 -1.3811356 -0.6890344
770 0.0976834 0.49510598 2.1006382 0.13000934 -2.2725723 2.6086411 1.4269899 0.94603163 -1.2103775 1.9202744 -1.1260235 -0.5032534 1.1032226 -1.0267313 0.19075885 -0.99366564
2394 -0.5373345 -1.7774007 -0.44056132 3.5175526 -1.2121141 0.48627576 2.495058 0.49888116 0.4323181 1.0059874 1.1712916 1.4867256 0.32040563 -1.5625008 -0.67666394 -0.935289
270 -1.922804 -0.73257613 2.12445 0.58820206 1.6286625 2.1908286 0.3764622 1.2899623 -0.35828626 0.91983855 -0.58249325 1.486146 1.1614184 0.41656643 -0.40961638 0.28225014
2322 -0.6388182 -1.9638104 0.29653352 1.3828522 0.7715321 1.3457966 1.5779855 -0.68532866 -2.0524786 0.3656975 -1.3421496 1.2450963 2.4013321 1.1822466 0.8272595 2.2276897
71 -0.0049658893 -3.2418604 2.075188 -0.35170338 -0.11629431 0.9641289 1.3251224 1.45419 -1.5878121 0.29936352 -0.23283242 1.3202027 0.1011496 0.38034448 -3.8004026 -0.6302032
240 -3.513403 -0.3028803 1.6507314 0.92764103 -1.2267065 -0.6735964 4.0372133 -1.909659 0.46991387 1.3573784 0.3352248 0.852421 0.7223019 -0.69009995 0.2972463 -0.1544507
1988 -0.9140098 0.5224021 0.9700852 2.763786 0.49579546 0.22102657 2.1539469 0.21907859 -1.6346337 0.006618383 -2.2902124 1.0206028 1.2978424 -0.5031757 1.077449 -1.1191733
2180 0.31178913 -0.55810994 1.0084863 0.15763958 -0.92881197 2.2706082 2.235775 -0.09961987 -1.4492831 0.08454358 -1.3469076 2.9588828 -1.098322 -1.9789143 -1.9158586 -1.9192034
5710 0.5277299 -1.23782 0.30386445 3.5220897 -1.4153816 0.7082429 0.59404916 1.9822593 -1.2674528 -0.11772837 -0.3751893 1.4262869 0.13547924 1.6623396 -2.535287 -1.2057505
1772 -0.2798907 -0.6361529 2.4514697 -0.31418002 -1.3508828 1.9501499 3.522845 -0.43784654 -0.80925876 -0.16102487 -0.6455257 1.3743361 -1.1261595 -0.086239055 0.33778048 -0.33639762
1509 -0.65672606 -0.99999505 0.2586746 2.7998233 -0.0829867 2.5281346 1.1114466 -2.3438866 -1.7379606 -0.96629447 -0.72861016 -0.53261954 0.12557818 -1.634403 -0.6522511 0.84094346
365 -0.43674916 -0.8993594 -0.8680081 1.9508595 -1.468243 3.1671374 0.165278 -0.41599163 -0.70969516 2.0491211 -1.8904182 0.24533898 -0.30044958 1.3704293 -1.4276384 0.49501032
2693 0.077765554 0.042303514 1.1691443 -0.30045316 0.2392317 2.0591948 2.9645245 0.4910822 -1.8300177 -0.08982361 -1.304364 3.136745 1.4556261 2.5507262 -1.0398104 0.24858868
591 1.7048606 -0.10869514 1.5812788 2.792552 -0.88556176 0.052423883 1.2982322 0.56488997 -1.2068288 -0.00018658639 -0.56675005 0.62151796 0.8436181 -0.3408001 -1.0780147 -0.5184969
1092 0.16782089 -0.736452 0.05485654 1.4464729 -2.6289895 2.5430775 0.9348976 -0.7697881 -2.671187 1.194598 0.52490425 2.2982814 -0.9077545 0.65775913 -1.9219174 -0.5389523
1972 0.32312793 -1.9615923 2.1681008 2.3593957 -0.9260742 -0.38833332 2.0766473 -1.4451938 -1.1182754 -0.65511775 0.26649615 2.0987103 -0.54509526 -2.0304935 -1.694064 -0.643031
2562 -2.394409 -1.5717912 1.5628151 3.6509368 -0.4966586 -1.0636997 1.6047034 -0.41088048 -1.4364493 -1.1373923 -0.3684875 1.1992093 -1.3247097 -1.4009982 -0.746525 0.68026465
3779 -0.32275003 -1.6461145 2.0312622 1.5974804 0.27922797 1.3634903 1.068149 -1.6514034 -1.1641424 -0.85817593 -2.1102467 0.9420572 -0.5543115 -2.4748454 -0.8825382 0.11430498
2275 -2.1456392 -1.166945 2.5911863 0.5059755 -0.077652 -0.36814705 2.9142156 1.9030318 -0.42667747 0.8175215 -0.5312072 -0.07682335 0.14155285 -1.6021096 -0.011891507 1.13735
4783 -2.27211 0.43906555 0.72389036 1.7349855 -0.9121614 0.3635995 1.697242 1.0842748 0.10869185 -1.7843593 -2.5885406 0.81249577 0.6240213 -0.8401568 -2.2224526 2.436304
290 0.4422647 0.23909917 0.8718696 1.9546385 -2.7869177 -0.30126324 0.58531135 1.8341339 -0.8012166 -0.45765215 -0.39749822 1.6166627 1.6515721 0.5603909 -1.2493687 0.6739369
2647 -1.3159906 -1.9410268 -1.7747862 0.921521 -1.5506575 1.0002513 3.1579099 -1.8493574 0.3541834 -0.88823533 -0.2795827 0.2928062 2.02886 -0.010107031 -0.5187142 -0.043677486
457 0.21822867 -0.54642946 1.1520557 1.9893552 0.2979573 -0.7656989 1.558008 -0.23245022 -0.10553389 0.99459726 -0.72485805 1.5264289 3.9349923 -0.7193236 -1.5455619 0.18920745
641 -1.4011817 -3.1008737 1.1981616 0.68643403 -0.0101496335 0.7851124 0.6619284 1.2653503 -3.3294423 0.90770525 -1.2401799 0.30692494 1.8248603 1.3115826 -0.55416316 -0.7919846
2110 0.2991437 -2.618512 0.41835025 2.052768 0.22525695 0.4738526 2.8818188 -0.82530105 -0.5015182 -1.713332 -0.4126371 1.0514308 0.6370177 0.14454195 -0.47617555 -1.7042173
749 0.28669623 -1.8026421 1.4969923 1.0073135 -1.1502676 0.119900025 2.080486 -1.3358207 -1.2699431 0.19738965 -0.62706035 3.1404073 -0.87782663 -1.7899528 -1.7410922 -2.021982
420 -2.9736378 -3.1976373 -0.012646372 1.7221062 -2.2331731 0.98652023 0.57313204 -1.010427 -0.5399727 -1.0091132 -1.713479 2.6128209 1.865401 -0.9001443 0.49831983 0.18163277
2513 -1.0954702 -1.3352472 2.2856157 2.3073525 -0.215353 2.340325 1.6589898 -2.8998852 -0.84494424 0.36203977 -0.17054899 -0.6208051 -0.21353608 -1.9157641 -1.1314348 -1.6678365
2962 -0.8621964 -0.34123987 1.8156412 1.1190681 -2.7516212 1.6109376 -0.23923127 -1.4209248 0.9758505 -0.01455487 -0.5580283 2.8232112 0.44464538 -0.84177405 -1.3295285 -0.9174806
99 0.3149919 -1.2959964 0.25244597 2.3277118 0.041698284 0.5724534 4.0010524 -1.74651 -1.5692396 -0.43925843 0.40573335 0.98320967 0.9186708 -0.4633117 0.4676936 -1.1759442
1951 0.3559306 -1.4294298 3.2458441 0.57446814 -2.9402485 2.2005377 1.3673922 -0.27112266 -1.0795146 0.44888648 -0.29569012 1.4260623 0.41745406 0.90352374 -0.37359482 1.3879343
10460 0.034596838 -0.8758117 2.4571848 1.9867849 -0.75303096 0.29052857 0.7648248 -0.095407344 -0.35052156 -0.059378944 0.23077084 -0.6254154 0.28527027 0.18891305 -0.08994821 -0.40440175
535 -0.841636 -0.8255759 -0.082996875 0.20441972 -1.8545551 0.6507012 3.724586 -1.4308506 -2.9016721 1.7237606 -1.4709591 -0.5509063 0.18320465 -0.3559473 0.8041978 0.5927005
2052 -0.04715415 1.2809633 2.6893406 0.7740674 0.3581956 1.8702848 3.149949 0.34040126 -1.5393842 0.6177085 -0.018057318 0.0984791 -0.7861561 -1.6119314 -2.213398 -0.7827483
2460 -1.1959605 -2.296632 0.41652742 1.4052235 -1.3942549 0.13150816 2.3815129 -2.10765 -1.707341 1.1465305 0.075938545 2.5716586 0.57307106 2.1353319 0.056194592 -1.7379911
1633 -0.040862903 -1.6702119 2.9549317 -0.07361998 -0.6763817 0.38986298 2.5216935 0.05694205 -0.5791048 -1.5358053 -0.7880768 2.1289456 0.109229274 1.729192 -1.5879228 1.0354407
282 -1.4531629 -2.8050013 0.70985067 0.5124012 -1.3034025 -0.16855638 2.8277338 -1.4556047 0.41499984 0.47857615 -2.3536801 -1.0138158 2.2407234 -1.7826586 -0.09066135 -0.85223615
448 -0.84657514 1.079949 1.6586094 1.590059 -0.08865068 0.40903053 2.0934436 0.8112598 -2.583005 -1.0736576 0.7545632 1.9180806 1.2031432 0.4756405 -2.6796937 -1.4455124
2586 -0.21360555 -3.1942198 2.1167512 0.1052319 -1.3218615 1.8710237 0.6227492 -0.5646248 -0.005361422 -0.4653629 -3.3336043 0.8717411 -0.14786518 -0.26471624 -1.4338021 -0.616306
476 0.079069406 -1.094012 0.7709953 2.0793898 0.91817904 1.8285983 0.023865113 -0.026933951 -1.8928725 1.729128 1.1933154 1.3560691 1.5255302 0.10988502 -1.6008136 -0.83479625
1362 -2.1402051 -0.49550125 1.6126437 1.4579711 -0.15094383 -0.30660397 1.6050718 1.1718255 0.15455677 -0.9050495 -1.4088122 0.2560365 0.6374309 -1.2715412 -3.7312686 1.7704912
1933 -0.34707308 -1.7618567 1.3769648 0.23310512 -2.3828912 2.313057 1.4801598 1.2614917 1.4045076 -0.33579993 -1.1071444 0.45119295 -0.2581267 -1.217648 -3.1875095 0.59896755
2 -0.900778 -0.18320686 1.6090373 -0.7435478 -1.7769098 -0.17470047 2.328407 -2.1370203 -2.3832011 -0.1458129 -1.8843902 2.0643735 -0.6123657 -1.193948 -1.8175259 -0.7108328
1122 -1.0519685 1.9500705 -0.7151119 1.8704135 -0.77656597 1.6833805 2.3091364 0.5318114 -1.952207 -0.2200436 0.071880594 2.6827724 1.267537 0.14649838 -1.3537378 -0.60216117
1467 -2.744098 -2.7657635 0.003946395 2.9558218 -2.265821 -0.8677744 1.3094664 -0.46019945 -0.5594629 2.6974053 -0.7098601 -0.25159648 0.29390597 -1.5843577 -1.693714 0.64449614
1290 0.22487025 -1.8928232 -0.3180551 3.1410842 0.8217403 0.1915945 2.9802835 0.1641794 -0.82883275 -0.6689572 -1.1768275 1.4686419 -0.24705872 0.4401062 -1.1987321 2.6704135
90 -0.8046015 -1.3634714 0.025556138 1.4569678 -0.150782 1.9555899 0.36684948 -1.1008523 1.0119495 1.0130904 -2.5799801 1.7756417 0.6311699 0.73537916 -2.6173825 2.2773082
5197 -0.22718911 -1.5311865 2.337577 1.8188081 -0.9801301 -0.9061371 2.393909 -0.40164384 -0.64881086 -1.1379594 -0.67154807 2.3919888 -1.6654718 -1.6195195 -1.6864959 -0.014993519
2112 -0.49401143 -1.3421129 0.16140014 2.2912064 1.7128582 -0.64706725 1.4167112 0.5143336 -1.822055 2.0663176 -0.09454966 1.7611768 1.1531097 -1.7956349 -2.258257 -0.3442867
1131 -2.2905962 1.9006264 1.2601374 2.6461947 -0.38657182 -0.46229315 1.300732 -1.6293118 -0.3621793 0.06607402 -1.351663 1.6408511 -0.1996643 -0.028908383 -1.1505566 0.9439043
482 -0.47735763 -2.3740664 2.8105004 0.61895007 -1.8797178 0.42672202 1.06137 1.001128 -1.6525021 2.0919883 -0.034387913 0.82444537 0.823589 -2.459962 -0.3823093 -0.2209865
2673 -0.21336327 -2.9652123 0.14614151 2.8979735 -2.5398507 -1.4846317 0.23882835 -1.0096948 -1.7757411 1.2095026 -0.7420631 1.326591 1.8663656 -0.25555253 -0.81221634 -0.14658451
1079 -0.9674087 -2.2668958 -0.20889506 2.369219 -1.4534088 -0.42972904 0.70470333 -1.8937628 -0.79043084 0.06857148 0.5761918 0.32151735 -0.41816562 -1.5438739 -2.0231426 1.4248745
594 -0.74804 0.08030374 2.8660853 2.4745529 -1.5557438 -1.5585414 1.9128029 -0.02511296 -0.734014 1.009823 0.17320175 -0.29993114 1.1869314 1.2359855 -0.5003678 0.08383332
1708 -2.4622896 -0.61026746 2.515085 2.2189448 1.2230576 2.0413306 1.0610176 -0.5093033 -1.0328444 0.55350214 0.8639189 1.0145543 0.090050176 1.3704665 -0.8920841 0.30057383
3231 -3.1208088 -0.433716 0.19755319 1.6207503 -2.312172 1.3116578 0.5776001 -1.656068 -1.565608 2.0303552 -2.333987 1.2118834 1.6825593 1.7013571 0.5176703 0.8239248
7001 -2.2070441 -1.2707077 -0.26199105 1.8168921 -1.4522848 1.2195147 -1.0944314 -0.38292786 -1.2686049 1.1560165 -2.9453373 1.5276792 -0.1397216 -1.9652715 -1.034385 -0.9570456
1153 -2.3518825 -0.73916364 0.7242255 0.23123682 -1.2342764 2.013141 3.1605055 -1.4993662 -0.6793262 0.80471456 -1.7639755 -2.5857143 1.9091568 -0.37676215 -2.0482833 -0.38093892
895 1.4061631 -0.19047631 0.5042233 2.0648189 -0.6792565 1.6693463 1.5304531 1.3898773 -1.9279912 2.86058 -1.3905535 -0.2838542 1.4965008 -0.0302864 -1.8346934 1.1151742
2031 -2.4442134 -0.7254335 0.32663488 -1.0793817 -2.2691894 1.5751652 1.9339491 -1.2793745 -1.2640331 -0.17298573 -0.20780918 1.4145055 1.0656495 -1.2155457 -0.023227833 -1.1665524
2346 0.13967356 -0.98877174 0.8598277 0.65418625 -0.2945035 2.204933 2.3602757 0.27891764 -1.2612528 0.023556482 -1.3040423 2.593237 -1.6436231 -1.9277884 -1.5539131 -1.6406302
1892 -2.8878407 0.26383102 1.2521725 1.1830143 -1.1510109 0.8226579 2.514066 0.72700316 -2.4141111 1.8222924 -0.7346166 -0.5310658 -0.5004622 1.3252126 0.3887637 0.7695937
717 -1.2828281 -1.5641222 0.5662959 -0.045688886 -0.45653266 2.1891294 1.545021 -0.0924149 0.9987008 1.5117098 -2.7272952 -0.3577421 2.674391 0.9372842 -1.2465681 0.95010626
186 -1.165752 -0.72211325 -0.65088034 1.8041342 -1.4947258 -0.33288944 3.3945088 -1.4269849 -0.3999325 -1.1536802 -2.1125138 -0.41804865 0.5578572 0.27801308 -2.273429 -2.0384629
1279 0.37403265 0.12651569 3.2685518 1.3686624 0.37549257 1.8816941 2.7499275 0.2861686 -1.8832606 2.013038 0.033748694 -0.17040177 0.47792423 -0.9963177 -0.78953093 0.36380428
4382 0.80029815 -0.21988687 1.0370677 1.657886 -1.0776771 -0.96548766 1.9634523 -0.14843878 -0.91221625 0.10096398 -1.2615618 2.1555126 -0.9422036 -1.3891666 -3.5774584 -0.78010523
402 -1.5448653 0.40111908 -0.71193737 1.0201564 -0.24877134 -1.0274154 2.6270008 -0.29827914 -1.6977917 -0.22940598 -1.0638357 4.3062286 1.2393585 0.45526138 -1.571193 0.39282417
2326 -0.92374647 -1.1570345 -0.23552136 -0.12382398 -0.44700345 1.9767807 2.656681 -0.08447606 -1.4485537 1.4359807 -3.830205 1.9040289 0.86401296 -0.49808517 1.0633639 -0.5669706
508 0.684387 -0.85078555 1.7798408 0.010971377 -1.2720121 -0.6487826 2.8543715 0.31818277 -0.6850304 -1.1914796 -1.8188207 2.2259579 0.29450294 -0.8046596 -1.6369734 1.0850155
5086 0.09615083 -2.5167468 2.553765 0.9654158 -0.4945695 0.93685323 0.8183534 -1.556426 -1.6531154 -1.1038433 -1.390107 0.41787034 -0.035159066 -1.5472823 -1.2745963 0.82271534
2555 -0.7638087 -0.8400424 -0.09432895 0.33143502 -1.9307775 0.5935972 4.12833 -1.4894937 -2.8319976 1.3382618 -1.6050303 -0.49584663 -0.07864296 -0.17049219 0.7952499 0.9352752
1224 -1.7459366 -0.5950794 0.919587 1.812556 0.6192712 -0.98960334 0.7131574 0.29463902 -2.9327013 -0.450023 -1.1035987 0.69491744 2.4815156 -1.8925941 -1.8350095 -1.0711962
1475 -0.8783404 -1.0833135 1.0399451 0.9290771 -3.318121 -1.179177 2.3336577 -0.6629798 -0.7855686 0.7426819 0.7184187 1.1820188 -0.7140101 0.43268543 -2.903051 -0.46027982
3863 -2.3064084 1.2798334 0.034115266 1.5141346 -2.9070685 0.6181833 2.567514 1.2291088 -1.1782122 -1.9227885 -0.6673126 0.6643727 0.73005223 0.42065266 -1.195991 0.1360959
9153 -0.7727936 -0.65173656 1.261437 1.8840995 -1.7708158 -0.06451756 1.5146946 0.00873639 -1.299409 0.05475085 0.9764114 0.1606498 -0.37822425 -0.13989545 0.78608024 1.0315804
102 -0.7990437 0.05701225 0.6387739 -0.15368463 -1.9518092 1.3100067 2.939384 2.2742338 -1.7314345 -0.92718184 -1.0465242 -0.60453564 0.0070953993 -0.12814735 -2.058889 1.1409594
1461 -0.96058524 -2.2145731 0.48373765 1.2864306 -1.4237686 0.28952768 2.0502715 -2.1170974 -1.6535602 0.82702655 0.06262906 2.3252144 0.7784215 1.8985115 0.013832352 -1.5605271
1068 -1.2423711 -2.3815331 -1.950928 1.5765911 -0.012428595 1.9957302 0.6854591 0.29464576 -2.053299 -0.18750381 -0.4875916 1.2193317 0.41092935 -0.89455587 -0.31182784 0.3193578
610 -2.1388805 0.9201622 1.0357151 0.87696284 -0.8747147 2.1820908 0.61574835 -1.7512772 -1.1768172 -0.67983687 -2.6972811 0.8731696 2.459682 -0.5871683 -0.33267957 1.5270067
851 -3.2114816 -1.3420788 1.8418901 0.4930814 1.4196463 -0.1581083 2.8539991 0.08673355 -0.34882542 -0.6585765 -2.1550095 0.67411554 0.31150657 0.99359137 -0.31401366 0.3842474
207 0.47513825 -1.7215717 0.96871763 2.8579957 0.37495837 1.6352191 2.239716 0.06206411 0.2647191 -0.34245425 -1.5788524 -0.007060587 1.7384245 -0.44331944 0.071880564 -1.8167933
5356 0.5311867 0.044214252 2.571518 2.629592 0.07000899 -0.5587213 2.3769267 -0.8304897 -2.0437944 -1.295723 -0.21597332 1.8331813 0.267883 -0.40085918 -1.1649761 -1.4592348
764 -0.4685097 0.22116823 0.7672864 0.8311607 -0.15625785 3.6799693 0.6999092 -0.91028035 -0.5938428 0.41226846 -2.8513777 -0.7071431 1.1985989 -1.0096471 -1.9027284 -1.6805085
789 0.084451444 -0.26666373 1.8371043 2.5821173 0.11574463 0.39889985 1.4360636 0.2874774 -1.0316285 0.6459262 -1.2274456 -1.0877181 -0.7948012 1.4577628 -4.0185485 0.44400936
1093 -1.2883997 -0.98148704 2.5363019 1.6416861 -1.331442 -0.79137343 2.4455264 1.646682 -0.19823925 2.0713854 0.31297684 0.58774686 0.38297054 -1.7627966 -1.297966 -1.740588
398 1.7132422 -1.8390795 1.3073678 0.6707571 -0.22221771 1.5675645 3.2344217 -0.6965778 0.11966429 1.9413844 -1.7152356 0.8631561 0.40642893 -1.4792407 -0.77481997 -0.07268292
6712 -0.9187658 -1.0446165 -0.8721585 -1.0824138 0.6176088 0.6736331 3.0382888 1.695094 -1.9108275 -0.18484142 0.46044523 0.22937304 1.6535511 0.5428394 -2.4701102 -0.17610921
1007 -1.0376104 1.0757785 -0.29663786 0.5352304 -1.0068768 1.2015625 3.1859026 -0.7781381 -1.6953449 2.266656 -0.54735905 0.52640635 -0.5927957 -1.2176605 0.3323013 1.5577329
2729 -2.1146493 1.5769383 0.46894965 1.2382174 -1.8277073 2.5585012 0.6361351 -0.5054649 -2.0910172 1.5534494 0.8735041 0.052063316 0.62710303 -0.14591 -2.2331173 0.04385353
1679 -1.7056533 -0.32121652 1.4352556 0.46718732 -0.86406946 1.8187777 2.3394792 -0.1254816 0.5563051 1.5079125 0.42123967 3.2582235 -1.430728 -2.032126 -1.2476015 0.20852631
1718 0.31806603 0.24313249 2.0706227 2.8974822 -1.9705217 1.0719019 2.3046305 0.08715448 -1.8533696 -0.88162696 0.6177629 -0.92598623 1.7151581 0.16804816 -0.40969846 0.14208084
125 -0.29775977 -1.0619191 0.20467639 2.57217 -0.33739823 1.7737757 1.1989975 -1.9191668 -0.009662106 0.17783163 -2.0975146 0.5970476 2.3797996 2.4590955 -1.31213 0.16116734
1685 0.5007015 -3.0730991 -0.81447506 1.0909846 0.035887387 1.589653 1.8257403 -1.431253 -0.13407043 1.0395147 0.59917486 2.0480995 1.6675434 0.5364143 -3.3678274 0.83463246
2850 -2.9180562 -0.5408197 1.038602 -1.1476096 -2.4343195 1.0295125 1.6876198 -1.8396068 -1.3182522 1.3583351 -0.67344195 0.42366743 0.8182048 -0.50240505 -0.65671784 -1.322673
663 -2.4852297 0.6885181 2.059855 1.6124465 0.56115574 0.14569859 0.44687364 -2.332611 -1.3132563 0.5833435 -0.7682467 1.8478754 2.7167556 -0.36572674 -1.5309294 -0.056149296
199 -0.7621833 0.18436627 1.2715441 1.570676 -1.7971784 -0.7531494 2.071756 -1.2861514 -1.9635919 0.8968626 -2.690878 -0.69576454 2.3902402 -0.0035092335 0.15320112 0.064587235
1205 -0.9874459 0.81991994 1.9634902 0.7016585 -2.5873418 1.1425176 4.2591805 0.28125095 0.15977323 -1.4748201 -0.9450005 -0.19751659 0.05543095 0.57521015 -0.92518514 -0.5084108
403 -1.2684071 -1.0995227 2.6597807 1.4481835 -1.379888 -0.594639 1.9653426 1.6268051 -0.31661868 1.8200674 0.35793248 0.4914681 0.35416093 -1.7634448 -1.3194389 -1.3304838
5616 0.51175696 -1.7531166 1.1735277 1.0257343 2.2884173 1.1499876 3.406479 1.2555829 -0.80755687 -0.5938411 -1.4931691 0.8915672 0.16894428 -0.2164551 -1.1345838 1.5276518
30 -1.0154827 -0.509328 0.119281664 2.173882 -0.7485369 0.14127876 0.88974327 -0.2469887 1.5900452 1.5722339 -2.9093027 1.2562317 -0.31390798 -0.5366264 -0.95816517 -0.80319023
479 -0.1477109 -1.6250637 -0.1587024 2.4591467 -2.1484199 -1.3208995 0.29190722 -1.1767437 -2.2180953 0.53915715 -1.1236045 1.5424944 2.3000605 -0.14138624 -0.8803463 0.1613934
2994 -1.0012441 0.12226943 2.6573184 1.8037357 -1.4563723 1.8869922 -0.16748407 0.14497696 -1.4790035 0.44604996 -2.3998082 0.48278236 -0.41812718 -1.1758171 0.3605382 0.32002676
549 -1.610968 0.19204178 -0.88679594 1.9896388 -0.4165693 2.933137 2.1607454 -2.0741987 -1.5186464 0.4238492 -1.292668 0.54998744 -2.1948042 0.24665634 -1.8221469 1.0921568
5458 -0.19269809 -1.5411214 1.1615692 2.923021 1.2899814 -1.3951384 1.9637963 -0.3110446 -2.5291505 1.3254669 -0.10943118 0.37185365 0.74004537 -2.4063778 -1.6082422 0.2198934
867 -0.8232839 1.0184841 1.6316209 1.4051641 -0.11833731 0.4256901 1.9716926 0.93380785 -2.3982124 -1.1635436 0.76979595 1.9265103 1.3171582 0.38685137 -2.6979134 -1.5656976
139 -0.40172252 -0.70346004 1.8287463 0.9319006 0.122570574 2.2785378 0.52430415 0.21166146 -1.1644306 0.19895597 1.2021346 -0.284392 1.3035687 -1.5457923 -1.4487256 -0.92487186
244 -3.5183861 -0.2578618 1.2093765 -0.76851374 -1.9008232 1.596741 1.5329916 -0.7257463 -0.8608756 0.8146567 -0.18679641 1.5290836 0.47457317 -1.0457646 0.30288485 0.38078898
774 -0.46095836 -3.1997316 1.993763 -0.3071001 -0.1284475 0.5344108 0.9023836 1.176794 -2.1934965 -0.060674563 -0.65348643 1.1052887 -0.082297735 -0.024746161 -3.920562 -0.65813845
3202 0.06604183 -1.8209594 1.8662983 1.6369398 0.17821112 1.7158444 2.5964663 -0.6884467 0.32445905 1.9586592 -0.9444302 0.3040229 -1.0321591 0.27506384 0.47297728 0.17380817
3190 -1.7697239 -1.9929402 -1.0265839 2.3556676 -1.1565335 2.0434744 0.612804 0.6500316 -1.777713 -1.3252413 -0.45461318 1.0743872 -1.5654358 -0.3025652 -0.25692138 0.60654354
2900 -1.3279086 -0.5014802 -0.9031696 1.5162239 -0.7238005 2.4409897 1.5732259 -0.69383436 -1.4071108 0.8782466 -0.85272014 1.1943105 0.36296645 0.96237373 -0.54663813 -3.0472574
987 -2.2567084 -0.4631567 0.7558441 -1.2887248 -2.4316432 1.8813456 2.2715077 -1.3735993 -1.4281558 0.5195123 -0.39173365 0.22345759 0.7701233 -0.7227938 0.23625675 -0.5792593
2944 -2.200117 -0.38565645 0.90009326 0.33525082 -1.8191735 -0.46759006 2.733609 -1.1261458 1.5026386 -1.0712655 -0.99251395 1.4126166 0.5035171 -0.5756962 -0.016949713 -0.7045783
1744 -3.2365224 -2.7702634 1.1984098 3.4520283 -1.324197 -0.05473982 0.6184327 -0.875022 -0.31603056 2.518292 0.22370853 -0.47738272 -0.35468456 -1.087492 -1.4362893 0.9918354
523 -0.13837181 -3.0985143 1.0266917 2.704888 -0.63440824 1.2172401 1.7950597 -0.06338138 -1.8292136 -0.3401276 -0.63749963 -1.107204 1.0078586 0.30006087 0.3040913 -1.2751036
3479 0.9569166 -1.703734 2.8025393 0.16970734 -0.78179276 -0.038365595 2.7182803 -0.03063053 -0.5343803 -1.4230323 -1.4421875 2.501718 -0.048884347 -0.6940113 -1.9595853 1.202625
5249 -0.4904922 -0.7303746 2.3282924 2.5546496 0.80167747 2.132232 0.98032147 0.260045 -0.75520104 -0.4937961 -0.71163744 1.0881779 -1.1242619 0.12949634 -0.11039869 -0.35480416
391 -0.37754482 -0.34693852 -0.47691602 2.0857978 -0.6741603 1.558128 0.3641807 1.5438739 -0.356876 1.3195779 -2.655942 1.0907859 1.8707081 0.8689887 -2.9481509 -0.8254863
1133 -0.4299459 -1.1023418 1.5329249 0.786835 0.5057919 -0.58422035 3.387732 0.08444585 1.2180222 1.013078 -0.71039796 2.8577478 1.7862786 1.41637 -1.2181898 1.047111
2624 0.31233165 -0.72409034 -0.4396968 1.7194569 -1.3578752 0.3745175 2.3136556 2.2858703 -2.5660172 0.9969392 -0.59245074 0.7249139 0.8870021 -2.3736093 -0.2109317 -0.46662158
287 -3.1408105 -0.081167944 0.9351352 2.7928898 -1.5413674 -0.45010534 0.0050348965 0.5516707 -0.9603988 0.09349661 -0.1164053 1.461912 0.72151905 0.10639947 -0.81333196 1.6553628
182 -2.6949284 -0.20504293 1.8064734 0.49572486 -2.3087718 0.7744919 0.9234463 -1.421675 -0.03393159 1.9591732 0.26877806 -0.68118584 1.0414245 -0.017425096 -1.1331997 -1.2607899
1242 -2.9840648 -2.2825108 0.22917092 0.6862401 1.3493124 0.42296222 1.6116407 0.06153625 -0.33455694 0.72047573 -2.4210613 1.1483475 1.1043357 -1.2542807 0.3555855 1.6289738
3099 -2.5177565 -0.30064932 0.70798165 1.1143806 -0.59480125 1.3036631 0.6869213 1.5733095 -0.28701714 -0.88934565 -0.47297788 -1.1332778 1.1544479 -0.80899805 -2.6861649 0.5848127
462 -1.8260022 -0.3610944 0.5975774 0.7481845 0.019536937 1.7535962 3.573621 -1.9374721 -0.5043746 1.011915 -0.95945036 -2.0719593 1.5517142 -0.5140135 -1.3674371 -0.5275833
657 -0.37917548 -0.9433194 -0.6037388 1.153736 -1.7040342 0.06490004 2.2306104 2.260795 -1.9419338 0.8642812 -1.5533009 0.70469594 1.5437912 -2.4777088 0.01573026 0.3707527
1127 -0.46923608 -1.6419322 0.22531612 1.5374595 -0.12164763 1.7890317 0.29566288 -0.5956018 1.0352997 1.0115323 -2.8429246 1.718353 0.33945063 0.81638736 -2.6592827 2.1193197
3694 -1.7427553 0.32670432 -0.29401645 1.0738266 0.18772058 0.18219946 1.1419941 0.29714894 0.22197716 1.7604612 -1.7450706 0.6048044 1.8186437 1.7691543 -1.3796872 0.23981619
624 -1.7352803 -1.5691423 1.6497122 0.38068244 -1.2769939 0.5823816 -0.51966983 -0.93207824 0.5825402 1.451524 -1.491713 0.26511124 0.47059655 -0.5153134 -1.8143823 -1.1241982
3243 -0.49147946 -1.6046724 1.2327735 3.5274386 0.548379 2.2216022 1.6701121 0.04558657 -0.59037715 -0.35696888 1.109279 1.3488115 2.6999671 -1.9484168 -0.43569112 1.7128274
4078 0.28608638 -1.35235 1.2730187 3.1092498 1.102635 -0.9708432 1.6159792 -0.6551072 -2.6543453 0.24247244 -0.46965024 1.2094392 1.0683924 -2.2904904 -1.0789378 -0.15754728
5488 -1.3036499 -0.124575555 -0.1859776 -0.22914185 -2.214715 1.7528969 1.5511853 -1.5385386 -1.7803192 -0.63123065 0.9437435 2.5788784 2.8058069 -0.8630244 -1.3781068 -0.11676092
8 -1.5040365 -2.7587729 0.41435096 0.22887018 0.54352444 3.0068083 1.8561378 -1.266281 -1.0038015 -0.21624783 0.10784958 -0.052901734 0.7544137 0.627011 0.40811703 0.015231185
2557 -1.0958198 -0.29614836 1.7800195 1.1788883 1.2915678 0.8501074 2.9804978 2.0921113 -1.8628573 0.58922887 -1.1782163 -0.91042286 1.5510302 -0.5177038 -0.30074647 -0.22871774
730 -1.8527497 -0.5412571 2.5845187 -0.015810644 -1.1348753 0.7793863 1.7459877 0.11874461 -1.8772899 -0.9971783 0.37610313 -1.5385009 0.18922862 -0.40745133 -2.7209053 0.65948397
334 0.84724605 -1.0532598 2.6245978 2.343481 -0.70001256 0.40952748 0.13964438 0.3427055 -1.4650183 0.28431255 -0.8241351 0.26521012 1.8174573 -1.6949309 -0.5200528 0.53443134
1997 -1.1185024 -0.7873081 -0.46384525 1.6855701 -1.3186448 -0.70008457 3.6397073 -1.1617434 -0.76370984 -0.8538336 -2.410767 -0.33759898 0.54795426 0.64120317 -2.433081 -2.2526472
1469 -2.6030002 -0.4941322 1.3951259 0.43911824 -2.5743482 1.8774844 2.1008046 0.56378216 -2.3884056 1.0524348 0.13390073 0.28604874 -1.9690561 -1.2911785 -1.3044201 0.7566367
2692 0.30814573 0.027612766 3.870865 1.0241133 0.07564833 1.7265215 3.3210335 0.14370246 -0.8859673 1.1341941 0.16403379 -0.52439797 0.18635727 -0.58600456 -0.8809049 -0.23416793
4392 -0.42858306 -1.2500321 2.8568041 2.4865274 -0.40585184 0.5065524 1.1439332 -0.8187198 -2.3819094 -0.7885795 1.7688886 0.2094912 0.81107336 -0.26978213 -0.8432456 -0.18328395
2535 0.21758014 -0.9866824 2.5833654 2.2063186 -3.2675946 0.9115914 0.76396763 1.0606021 -1.2074349 1.7027359 -0.523973 -0.038395192 1.5960705 0.5903075 -0.98432 1.3158804
2437 -1.1636496 -3.1784103 1.3895894 0.616824 -0.067496456 1.2299407 1.1030011 1.2950647 -3.6702626 0.67561424 -0.9839485 0.4501551 1.7851169 1.326708 -0.35171875 -0.24915954
1862 -0.037163332 -1.884139 2.5769782 1.1897185 0.0061150603 0.9220326 0.8891359 -2.117288 -1.7606084 -0.7756078 -1.8225938 1.1017519 -0.3410401 -1.5138807 -1.3410687 0.27920777
249 -0.9317868 -0.48431012 0.0218706 0.8567422 -1.8005733 1.2427577 3.5365593 1.3155992 -1.2099837 -1.3320841 -1.0164453 -1.0366201 0.012137025 -0.5009283 -1.905727 2.16846
1664 -3.1858757 1.1393137 1.0170438 2.0639775 -1.1129481 -0.54107124 0.6755677 -0.9000693 -2.400347 0.2593518 0.0872203 0.8039054 -0.63207 0.16122662 -2.2992675 -0.7635386
1867 0.10506705 -1.3127264 -1.2362487 2.4322314 -1.6238059 2.035584 2.0882735 -1.0784122 -1.2495672 1.5359637 0.14568833 -0.65911174 0.20973754 1.1114631 -1.2241882 1.8583176
303 -1.0102024 -0.4931141 0.75467813 1.0762954 2.3336027 1.7570974 2.0733607 0.08822537 -2.3312755 1.8158754 -1.611278 -0.046834722 0.24335557 0.5003498 -2.555381 -1.3975059
6464 -1.714275 -1.44829 1.2113155 -0.19590016 -3.7581108 2.4849012 2.549996 -0.008418106 -0.020807995 1.3134394 1.4798907 0.0010387287 1.0045846 -0.25869507 -0.93947136 -0.70593524
596 -0.65895 -0.76823545 0.7828184 1.9370067 -1.6351873 -1.8774682 2.4474885 0.9666075 -1.153148 1.8499788 -2.0929945 1.2117823 -1.0828497 0.7727619 -1.6554388 0.25296354
996 -2.0383952 0.079637125 0.47095948 0.7076601 -0.7625961 1.5430088 0.055396657 0.603266 -0.2942415 1.765682 -1.3897928 3.4675694 2.3890123 0.033700727 -0.72298014 1.5322343
671 -0.9484689 1.3846542 2.1280477 1.000569 0.6522478 1.5698514 2.1869059 1.9807848 -0.29843545 1.8792818 -2.2272298 0.6897601 1.6256614 -0.24010827 -1.0311162 0.37156555
2361 -0.21465106 -0.1267167 -0.21035786 0.17228666 0.23209833 1.7376015 3.4231634 -0.24398352 -0.65267617 -0.7411555 -1.488498 2.7872493 -0.60747254 -1.809657 -1.4187417 -0.22398698
2406 -0.22917697 -1.2963668 -0.19010104 2.2258599 1.7008687 -0.5260864 1.5895869 0.34964815 -1.7532599 1.8285905 0.070253775 1.6278011 1.418821 -1.7970439 -2.3005211 -0.30748537
1506 -1.6307174 0.677046 -1.0956422 2.130708 -1.0636073 3.0135317 1.4330436 -0.61698514 -0.3367655 0.65222 -1.7209522 -0.44503886 1.9229242 -0.28948542 -1.9308662 -2.023641
842 -1.0349811 -1.1392319 1.1425545 1.5187347 0.89627 1.9071177 0.17846313 -0.8861896 -1.15636 -0.54879683 -2.0462625 0.4350356 -0.27419934 -1.7141448 -0.6579189 0.85230386
3415 -3.2366865 -3.03182 0.42297888 2.6727824 -1.1182607 -0.3497324 1.2443073 -0.8291466 -0.7600245 2.761438 0.47357142 -0.35551885 0.37742952 -1.5755681 -0.7818486 0.552977
685 -1.9093868 -0.29111537 0.6049322 0.8173555 -1.2001959 1.2795215 1.0048108 -0.17213115 -2.3860917 2.3872736 0.4174646 1.7021064 0.45184714 -0.36114898 -0.13418716 2.2502534
320 -0.6449267 0.124682255 1.4863268 1.6722884 -1.583498 -0.37698272 1.7229513 -0.9707825 -2.2463913 0.9681533 -3.0932853 -0.8709199 2.8354719 -0.09892545 0.12688701 0.2363237
3187 -0.49865764 -0.51815784 -0.019048199 2.3208725 -0.90328825 -0.062359575 3.0220668 1.5429566 -2.104546 -0.20778225 -1.2461151 0.33563566 0.6893262 -2.0160682 -0.08335075 -2.2625885
1541 -1.5323312 -0.22191936 -0.85366243 1.1928357 -0.4461946 1.4505548 1.6312702 -0.697062 -1.6086752 1.0535852 -0.6765158 1.46053 0.16894597 0.7487848 -0.4262035 -2.704098
1266 -1.5944134 -2.0369852 1.7157687 1.1905822 -0.20180383 2.4433959 2.0038166 -0.11999192 -0.5290467 -0.06768653 -1.2199037 -0.36185738 -0.031672228 0.68708307 1.1825448 -0.37485424
1017 -0.8474132 -0.4468958 1.0190868 0.3686695 0.20208576 -1.3019527 1.5368887 -1.0198544 -0.9298953 -0.23359506 -1.6241748 0.68199015 2.213482 1.3388493 -3.438857 -0.70746976
795 -1.1188042 -0.3694185 -0.17218596 1.6563902 2.3226333 1.644773 2.5815182 0.3155485 -1.6499449 2.2031212 -2.0496006 -0.3514083 0.15195015 -0.15343574 -2.4088657 -0.99720865
445 -0.6534855 -1.791257 0.5317205 1.479515 -0.67179316 1.4740349 1.256961 -0.05321969 -2.2868948 -0.6713425 -0.512806 -0.27103457 1.6912477 0.9292838 0.5244091 1.8536093
82 -0.21422043 -1.6666838 0.687999 2.7736912 0.60310704 2.7169247 0.68626714 -1.2020587 -0.6531525 0.7994005 0.2934188 1.1543726 1.5116107 -1.1774917 -0.32168135 1.5128793
347 0.527338 -2.4919758 -0.3778837 1.3637441 -0.2866185 0.93970394 2.5637877 0.96047467 -2.7968936 -0.007598006 -0.251979 -0.6045764 1.614076 0.07406067 -0.63111424 0.24100287
200 0.06329008 -2.015951 0.19606434 3.469538 -0.86252064 -0.62626106 0.7934604 0.6101019 -1.5318857 1.546795 -0.6629924 1.602048 -0.6456373 0.21100986 -2.597262 -0.7664029
1700 -1.4841814 -0.9772968 0.573821 2.0156202 -1.666772 -0.46698317 1.1534214 1.363366 0.4395458 -0.5479888 -1.2662759 0.2872391 -0.111994885 -0.05657183 -3.5352492 1.0161656
2075 -2.520895 0.69285506 2.3839 1.2351432 0.49199697 -0.040461406 0.47932506 -2.1792295 -1.5507927 0.6086446 -0.7793752 2.0785332 2.6282756 -0.26241666 -1.7059559 -0.3640421
5225 -0.0738303 0.067800574 1.6686773 -0.6914659 -0.97316515 1.1524984 3.2819803 -1.3623774 -1.6267778 0.43367788 -1.7419859 1.9756384 -1.493104 -0.89543676 -0.9371715 -0.8140454
202 -2.1578147 -0.46616957 -0.19667117 1.9065032 0.97058344 0.8095464 1.6607195 -1.034171 -1.2552831 -1.7879772 0.16379285 0.27128932 -0.5858847 -0.10235577 -3.2193313 0.30549043
3803 -1.2907289 -2.4297426 1.0005841 -0.7184811 -1.7743006 0.085542165 1.8536849 1.5671732 -1.8828899 -0.036363665 -0.8887143 2.3943157 0.96618813 -0.28744072 0.54692197 -0.20701006
491 -2.0198355 0.31095868 -1.1783005 0.9995159 0.2801253 -0.37987962 2.2723262 0.046711523 -2.414965 0.9438213 -0.16890116 0.73493963 1.3607659 1.0509824 -2.463855 1.3539108
782 -2.3981552 -2.7688153 -0.32621622 2.0182257 -1.9142823 0.5944639 1.1822121 0.41688198 -0.79443514 -1.1638353 -1.2861623 1.2600573 2.816 -1.8641192 0.034631964 1.2394081
493 0.25878137 -2.0510077 0.29346928 1.2784014 -0.50148046 2.6509683 1.3882886 -0.36449042 -1.8103249 -0.9325013 -2.421827 0.9530755 0.12863037 1.3028549 0.31963286 -1.0953943
9154 -0.86616975 0.19559838 1.9626819 1.9989448 -1.1225125 0.20478854 1.9224224 1.5860176 -2.0859003 -1.0749682 0.33590683 0.08301698 -1.5771519 0.15040244 -0.5677582 -0.17095973
3340 -0.7582096 -3.1044269 0.3359875 1.8287234 -0.33784539 1.7871596 1.7924712 -0.22362757 -2.8413978 -0.20673035 -0.6885708 -0.19933696 2.6059663 0.9549313 1.0083525 0.8502482
599 1.3754063 -0.17643034 0.9354333 2.4183269 -0.9406329 1.5909132 1.3491974 1.1978016 -1.5591009 2.8942227 -1.8666729 -0.13816008 1.234456 -0.30091548 -1.7095054 1.0643569
4798 0.47235054 -2.122239 0.73259676 2.9683466 0.4382656 -1.0273232 0.83314276 -1.7655308 -1.4691219 -1.163056 -1.1821029 1.9955102 1.5356936 -1.0334584 -1.6305653 -0.39804855
975 -2.4557827 -1.1700897 0.30061868 0.87011427 -1.3015561 -0.5989109 1.627309 0.10305404 -3.5821846 -0.44548318 -2.183037 -0.44715944 0.060890894 -0.19916077 -1.4952322 -1.2542992
1751 0.16611995 -0.96619016 -0.6897602 -0.091057226 -0.06987996 2.4514043 2.527958 -1.0869436 -2.3544278 -1.8071878 -1.3828084 0.9008675 0.7670707 -0.6836963 -1.789016 0.4295272
3510 -2.5565016 0.3967873 -1.1766602 0.980983 0.59792167 0.06383698 2.3068876 -0.48312497 -2.3351638 1.0036756 0.20452788 0.7036843 1.2891885 0.8475535 -2.3832762 1.3677572
469 -0.09848544 -0.88041776 0.43753684 2.725996 -0.10426246 0.76681817 3.921498 -1.958958 -1.8320124 0.5587292 0.39744234 0.95115197 0.60831434 -0.66584927 0.8931815 -0.74684066
1745 -0.40623415 0.09813282 0.8607934 2.607802 1.1190444 1.3854363 2.6201613 -1.4785237 -0.37297487 -0.68803436 -2.5854764 1.0986649 1.5632412 -0.9064026 0.03819188 -1.1852715
133 -0.045025885 -0.17727457 -0.13921332 0.19370243 -3.2793987 1.8421009 1.5303457 -1.3038623 -2.1675038 -0.9749734 -1.2836955 1.177881 -0.11403988 -0.67871356 -2.090554 -0.6780992
4900 -0.815515 0.041948035 -0.18452543 1.1975864 -2.7003498 1.8741512 1.9231108 -2.0528252 -0.9516033 0.38572967 0.8240787 2.229473 -0.3827038 1.3269215 -1.1091328 1.1316061
1508 -1.4304746 -0.76363873 2.5391283 0.683584 -1.4384902 0.21536736 1.4200286 0.40349883 -2.095154 1.8983852 -1.0449256 0.58474433 -0.27490884 1.4700294 0.5367309 1.0998319
3423 -1.0287077 -0.93053323 2.7085402 1.3096657 -0.13673683 2.2837908 1.9181641 -1.5029857 -1.2420603 0.17169613 0.7156139 0.09771063 -0.333857 -0.18507196 0.5329697 -0.29430014
5243 -1.1104177 0.8921869 0.083669 -0.3475365 0.17425282 0.6148008 2.0354393 -1.0816307 -1.7056805 1.3189313 -2.2317266 1.3352859 1.4203374 0.6939651 0.37420243 2.0342898
3970 -0.043270633 -2.3447132 1.6958984 -0.21830088 0.14865798 0.5464118 1.2310568 -1.0513861 -3.0760434 0.589925 -1.5670643 0.57910264 -0.0864374 -1.0917393 -1.3680874 1.2316334
62 -0.89490277 -0.07883993 1.7782363 1.379106 -2.210826 1.1162521 -0.15192516 -1.1771102 1.2349491 -0.07318874 -0.8665682 2.1636717 -0.0618601 -0.5255479 -1.4148548 -0.5661463
6872 0.4234922 0.844312 2.2544188 0.42474252 -1.5502466 1.0228229 1.7677823 -1.3825498 -3.56758 -0.060613904 -0.50573367 2.6144855 0.46163815 -1.1214312 -0.2795289 0.20440666
3090 -0.64186066 -1.9070002 1.8114523 2.4273338 0.18479809 1.3451631 1.0692343 -2.1530507 -0.22200532 0.39697176 -0.517012 -0.49611032 -0.17213348 -1.6024054 -1.8811667 -1.9661303
317 -2.0707877 0.89372057 0.91695386 0.43556955 -0.7606896 1.4976003 1.2432436 -0.840087 -0.597426 0.07761203 -1.5358589 -0.9047992 2.3749945 1.0079027 -1.0545268 -0.51834255
1262 -0.7651249 -0.24081968 0.68658763 2.0924804 -1.1553799 2.6898627 1.3583989 -1.750039 -0.921275 -0.30747235 -0.6954878 -0.8373549 -0.83993894 -1.1239184 0.14249885 0.038736563
6098 -1.7660455 -0.96510434 0.19097099 1.8809276 -1.1379869 2.2785494 0.35551873 1.0150535 -1.414053 0.46885207 2.1051345 -0.25209183 1.0759952 -0.10717195 -2.4165454 -0.6389145
3826 -1.015718 -0.38558182 1.8729773 -0.90619564 -1.625956 -0.061387405 2.1168177 -2.1410668 -2.6308434 -0.25530607 -1.5866991 2.0356216 -0.86031324 -0.9659374 -2.1288908 -0.51342636
4612 -3.4043963 -0.1800497 -0.091432445 1.6152729 0.15493476 -0.905661 0.055431973 -0.26069444 -2.3566613 1.4793102 -0.9553698 0.8959597 0.700436 0.53385895 -2.6116471 1.0801159
3295 -1.3575132 -0.9990624 3.128434 0.50169265 -1.4624059 -0.03209642 1.6570978 -0.28816062 -2.2920246 2.0424495 -1.0200368 0.7983773 -0.46799088 1.4654665 0.5962433 1.6466914
5236 -0.8642782 1.1622096 1.0007137 1.4317135 -0.9357178 1.7536539 0.72531617 -0.5031742 -1.9411249 -0.11190972 0.34454337 -0.09129555 0.10136328 -0.4463657 -2.814275 -2.0237668
2725 0.6889123 -2.9943066 0.17688373 1.5644368 -0.21013062 1.1935098 2.4283078 0.87449884 -2.38453 -0.19335873 -0.17967308 -0.43083778 2.1424575 -0.081662476 -0.2912997 0.12824872
914 -2.7651057 0.024878599 0.6999929 -0.6171462 -0.43390974 1.7818669 3.1348915 0.5517921 -0.041754965 0.37195402 0.40368235 0.3371503 -0.47969052 -0.11223931 -0.37182188 1.1892136
1901 -1.8837373 -0.26613563 -1.0754048 1.5875697 0.41191825 -0.9590332 2.249581 0.62693006 -2.1162965 1.0921562 -0.16713619 0.9023095 1.7895484 0.8398895 -2.5529242 1.7298585
1645 -2.6939054 -0.09285698 1.106331 0.58974105 -2.6923294 1.6503986 2.4702797 0.23858438 -2.4196045 1.1844585 0.21623655 0.28782102 -2.200986 -1.1338214 -1.5611609 0.6696887
9151 -0.6008953 -2.4449904 1.2351829 2.5297956 -1.4800398 0.865139 -0.014194181 0.9134324 -1.0960628 0.43951756 0.0694176 1.1261748 -0.84799033 0.25889114 0.2744617 0.17964992
6429 -0.5010804 -0.35295933 -0.4393291 3.0615466 0.018533504 1.6643002 3.8338683 -0.21093482 -0.99042505 0.28715482 1.3889455 1.1025673 0.71972924 -1.6405547 0.35134208 0.3315004
4277 1.2465936 -1.3341862 -0.28977117 0.39194176 -0.41894042 2.199869 2.7875538 -0.9605897 -2.081801 -1.9260682 -0.78714937 1.0301468 0.6073112 -1.4824028 -1.6148992 0.87877816
1738 0.22579117 -1.1352904 1.3600137 -0.5172078 -0.4210819 1.9762855 0.5218874 0.022338428 -0.6908908 -0.2315067 -3.0657218 -0.009438741 -0.42968866 -0.321728 -1.6984994 0.94100404
259 -0.038276903 -1.0390743 1.2337434 2.809292 -1.1322004 1.2127614 1.7102153 1.6043643 0.1455685 2.061691 0.5949442 0.6375751 -0.29533193 0.6265767 -1.2881119 0.31003553
3875 -2.1143394 0.3243871 0.5776833 1.2523061 -0.49249023 -0.104897805 1.683406 0.3604455 -0.34840572 -1.259688 -2.1195972 0.8595992 0.43823567 -0.84896165 -2.5217187 2.4757612
7497 0.40959826 -0.94313216 2.6215317 1.1620924 -0.42200574 2.6400416 2.041465 -1.5275563 0.39709693 1.5075951 -1.0316631 0.92899716 -1.0882888 -0.14553066 -0.46451828 -0.37427908
2770 -0.2317247 -3.3740644 0.8252519 1.6601921 -0.6075882 1.5155227 1.7760642 0.552325 -2.9180295 -0.067843 -0.46586472 -0.27412108 2.3581371 0.6115586 0.6039363 -0.1392921
547 -0.91178375 -0.95606726 2.7143407 0.85948366 -1.2896335 -0.21634272 0.6957258 1.3888274 -0.4563907 0.51268804 -0.34549817 0.5202861 0.43339786 -2.5774603 -1.88201 -0.13565539
2415 -1.7800924 0.0628901 -0.9402054 1.6292561 -1.3953695 3.2370512 2.0590675 -0.5949848 -0.20019597 0.75726104 -1.803174 -1.1528876 2.5733783 -0.2923736 -1.4366176 -2.146878
602 0.49507958 -2.2024183 0.9016241 0.56538475 0.78018767 1.292261 2.997279 -1.9926856 -3.5682127 0.20960325 -1.1686078 -0.2732769 1.6410198 -0.14576495 -1.3092244 0.88294995
3682 -2.3101356 -1.2491033 1.6883395 -0.3588553 -2.4577844 2.1540546 1.0975279 -1.5811931 0.4698231 -0.6217618 0.34740052 1.6471617 1.0889997 -0.7157436 -0.95557564 -1.4484544
1182 -0.061926104 0.29170954 2.0601034 0.6654607 0.47216088 2.5911393 0.781144 -0.76667327 -0.6275086 -1.4934078 -1.0089854 2.0069308 1.3738271 -0.5478213 -3.1788557 0.6190259
4950 -1.9075596 0.9320302 -0.32810768 2.4076416 -0.0017528409 0.47662193 1.2015975 0.86029005 0.52779377 0.100172386 -1.5268098 0.9377073 2.1736846 1.0585077 -3.8519983 0.109817564
1404 -0.60728735 -2.452984 -1.6587018 0.3176995 -1.149089 1.1909001 1.5293237 -0.38191077 0.7491959 -0.12906565 -1.868886 0.5534811 1.0681175 -0.87634367 -2.3443465 1.0252141
130 -2.6073804 -0.2254235 1.8640391 1.1938088 -0.7044823 1.9180437 1.3219073 -2.1460233 0.45234126 -1.1596305 0.3084017 1.918802 1.2649184 0.5407792 -1.0277842 0.15504566
1341 -0.7789634 0.7304851 -1.6299627 0.97400415 -1.1704043 1.3195778 2.1750383 -0.95436734 -0.47034317 1.8461497 -0.38354322 1.4621588 2.6264918 0.3716874 -1.9755939 1.206258
1320 -1.5389397 -3.3496158 1.9663216 0.39688194 -0.2258802 0.6874713 1.9200556 0.89095414 -0.756472 -0.09504678 -1.5969455 -1.6336281 0.4851351 1.1307279 -2.4999008 0.75033647
1134 -0.49075875 1.1788517 1.4502959 1.4612671 0.44659713 1.4283137 2.6173887 0.4224013 0.54565233 -0.34931028 -1.7115282 1.3517376 0.09380225 -1.620912 -0.6242079 -0.78944105
4838 0.27477917 -0.7147246 2.41208 2.3340805 0.18538158 1.8614002 1.4193523 -1.8478932 -0.4839368 1.1817563 -0.9344338 0.32885084 -0.8537932 1.3437321 -0.3093437 0.8862862
54 -0.083867766 -1.2894083 -0.34089926 2.2561705 -1.6054231 0.77840304 2.3654797 1.5149702 0.6536586 1.455557 0.26442182 -0.4033699 0.09955915 -1.4741395 -1.1442087 0.4818248
463 0.65738845 -1.8032842 1.3331593 1.2747083 -1.2103276 2.3746085 1.9956646 0.8976362 -0.23122102 -0.92879915 0.74210143 1.7685248 0.88152385 0.53318334 -0.23172744 0.05932835
1400 -2.2619088 -0.12690915 0.8887971 0.4397358 -1.4543132 0.74605924 1.1901745 0.48762318 -1.8907926 1.3295643 1.7509906 -0.0041699084 1.73815 -0.44553095 -0.47056082 0.18512249
2592 -1.0913482 -2.5093076 3.1438704 0.6417962 0.023922017 1.3602847 2.7357824 -0.2395625 0.5396379 -1.0132086 -0.32481948 0.7355307 -0.45240232 1.5865489 -0.90318775 0.70298064
985 0.27685478 0.23759934 1.8364645 2.6315956 -1.8299501 1.071324 2.0433912 0.09487674 -1.6822189 -0.8744126 0.46457055 -0.63742554 1.6487244 0.12630944 -0.34880295 0.26540852
167 -0.5772316 -1.0092639 0.0017333862 2.2859943 -0.65859634 2.100274 1.09417 -1.8063476 0.20822816 0.0047413604 -2.3267632 0.7313331 2.1982675 2.1474428 -1.2261494 0.20843019
74 -2.1883883 -1.0592941 0.47403204 1.0331123 -1.695501 -0.99449724 1.6185186 0.042120963 0.25767073 2.4676347 -0.33596265 2.2684858 0.25575024 -0.29542074 -0.5648924 1.5048777
411 0.08951856 0.6207761 1.9861679 0.29058212 0.596054 1.5436115 3.2238436 0.22709568 -1.4633868 0.41821614 -0.69921714 0.23647179 -0.66545224 -1.7205148 -1.8537174 -0.7390098
221 -1.6342201 1.1628823 1.6679682 1.7541515 -0.7264498 0.21336795 1.1527057 -0.33956426 -2.371499 -0.56934017 -0.63992256 0.54553497 0.46942618 -1.1181375 -0.5509703 2.8393939
2341 -0.9286535 -0.17723614 3.7158494 1.5617912 -0.64059454 1.6768055 0.84165585 -1.5736161 -1.8852956 0.16247337 0.52107334 1.0638224 -0.0010336018 0.4115518 -0.14018695 1.2497643
4658 -1.974537 -0.2512474 1.5055614 2.4342737 -0.24601746 0.5051203 2.2033284 0.15887529 -0.05872237 3.2067251 0.69120055 0.3479102 0.94652545 0.9176183 -0.98565763 -1.7313913
2214 0.43735063 -0.6072214 0.6301322 -0.34809756 -0.83151734 0.09804709 2.5004888 -1.1147218 -2.5641582 0.9136424 -1.2533385 1.8780221 -0.7698847 -0.8726897 -1.6102494 -0.77185184
1099 -2.0976963 -0.8708811 -0.3197256 0.81418306 -1.1744802 -0.3982131 1.824293 2.1276588 -0.7459119 -0.066048056 -1.3680956 1.6655068 -0.37303716 -0.7345755 -0.7596895 1.7704138
1071 -1.83593 -1.2557327 1.3786632 1.9970722 0.50033474 0.93892103 1.7522902 0.42731133 -0.5573239 0.5083214 0.11361824 0.13815422 3.6054642 1.1462245 -0.71652937 2.4672647
3765 -0.8967015 -1.3953224 1.6672251 0.538474 -1.2052444 1.6707476 1.9268581 0.82167363 -2.946398 -1.4657788 0.19855136 -1.7446536 0.6670179 0.044774365 -1.2340596 1.2168118
154 0.00858088 -0.32042333 -0.3381688 1.2573261 1.397998 0.80826044 2.2077396 -1.4354464 0.1129046 0.72598094 -1.6511965 0.7664571 2.8727453 0.5717173 -1.7482276 -0.7623715
6364 -1.8426919 -1.0084047 0.6862281 2.2085092 0.021921568 -0.030809589 0.73477125 0.95505136 0.09278454 -0.74404556 -2.088258 -0.6381931 -0.074701324 0.09735847 -2.405049 1.8519853
1358 -1.4357206 -0.7953781 1.076871 2.1050265 0.35942346 -0.99120116 0.5261643 0.34823143 -2.987096 -0.5848007 -1.0663415 0.73812115 2.4458106 -1.7879839 -1.6958631 -1.0824785
3444 -3.4660475 -1.0625544 1.8115327 0.32900614 1.24695 -0.015055494 2.6450162 -0.12524527 -0.3853356 -0.4306944 -2.256371 0.64028734 0.034371827 0.9193164 -0.32620227 0.5454158
919 -1.863385 1.7269338 1.3356048 1.3559892 -0.98934036 1.0897794 2.2246854 0.7417305 0.73848885 0.5282914 -0.32949927 1.0090013 2.3234327 -1.8944651 -0.7273739 -0.39236018
1629 -2.5259068 -3.449905 0.2881008 2.0464323 -0.88656545 0.33654597 0.78667367 -1.0889523 -0.8703492 -0.7013533 -1.8446854 2.3111432 2.261676 -0.7454671 0.2611718 0.7739511
209 -1.4525279 -1.9536154 0.8319718 2.0299118 -1.7755772 0.48289412 0.06291051 0.9499443 0.0013073351 -0.1521418 -3.1836343 0.196868 1.8989966 0.8321209 -0.7178274 -0.32596138
2550 -2.2782352 0.8236538 1.0225966 0.96423495 -0.82393456 2.3397815 0.39971545 -1.590242 -1.2354983 -0.5283762 -2.3738656 1.1498648 2.4187663 -0.664543 -0.2310944 1.6553509
218 0.054878205 -1.26255 -1.1036648 2.4479635 -1.6192632 1.6254519 1.794249 -1.0106816 -1.3132672 1.8578482 0.025478289 -0.8346947 0.30907848 1.029898 -0.91674656 1.2530038
831 -0.7602226 0.855855 1.4792448 0.80338126 -0.20828438 0.037584156 2.304399 -1.5367159 -0.48256198 0.8043359 -0.8522542 0.50620216 3.5303884 -0.74453646 -1.0222439 -0.86013114
2715 -0.27390903 -1.952531 0.4437755 0.4923184 -1.42309 0.74427885 -0.4500032 -0.18500641 -1.709276 2.2757447 0.20283093 0.9236168 1.6997778 -0.7837782 -2.534144 1.0715013
9161 0.011930997 -0.98173 0.9144222 1.939875 -0.2636898 0.9400027 0.7824991 0.015462965 -0.23896717 0.26375607 -0.09289783 0.09121871 -1.0902547 0.17736232 -0.0131867295 -0.3485268
1596 -2.691304 -1.0351119 0.5619321 -0.06185965 -0.7124554 1.6110425 -0.4282834 -0.4602951 -1.7919512 -0.31136972 -2.0977004 1.4581124 1.4532744 0.33278802 -0.25025573 -0.5150796
242 0.3277713 0.48392078 3.1808622 1.1822827 0.6957579 1.9139104 2.6465232 0.12127319 -1.7384802 1.7740659 -0.46131885 -0.0042951475 0.5551167 -1.0394816 -0.9262234 0.22735688
4816 -0.37700865 -2.271679 1.6713983 -0.2992512 0.23241472 0.5653162 1.5539628 -1.6085109 -2.792156 1.7436628 -2.1473997 -0.16312192 -0.37963277 -0.9633309 -1.7659461 1.3831586
3842 -2.200179 1.3644598 0.31536642 0.94195545 -2.5656989 0.85711133 3.2954445 0.8926486 -0.64032763 -1.711759 -0.40034032 0.5597013 0.9368126 0.4039825 -1.0570889 0.21640673
5481 -0.29430756 -1.9510238 0.27876863 3.2394025 1.3350364 0.43970573 2.8462622 0.26963302 -0.7917635 -0.5971055 -1.0746886 1.5371833 -0.19508351 0.80490047 -0.8746838 2.3172886
706 -1.434764 -0.28089786 0.9455316 -0.3811708 -1.8310366 -0.5848507 2.8181632 -0.18292417 0.96796554 1.5600246 -0.94968176 0.13023022 -0.24500202 0.5406496 -1.8382593 -0.31583154
632 -1.9621519 -1.0169243 1.6498737 0.33131933 -0.8161448 -0.020127647 1.24515 1.1252118 0.039594453 1.6853585 -2.3164768 1.7731645 0.2919598 -0.09077008 -0.5174428 -2.213324
943 -0.1936554 -0.46229848 -0.04387879 1.8268818 -0.07488034 1.1769991 2.9003377 -0.5451958 -0.20689775 -0.7658511 0.701489 1.6213186 0.1263332 1.9730852 -2.82794 -0.32249066
180 -0.863077 -0.768785 0.47760653 2.5295794 -0.34599027 0.5622147 2.9444268 -1.3932649 1.6717281 1.5306171 -1.2979845 -0.17713138 -0.57909214 0.6586074 -1.455682 -1.1840522
6421 0.021734258 -0.17415446 -0.08370033 2.336251 -1.3457037 0.17912331 0.94450504 0.931494 -1.3141084 0.21197179 0.110607095 1.3420426 1.39439 1.592979 -3.4130874 -1.8747355
3417 -1.2706212 -2.7923343 0.76069695 0.5512998 -1.0889723 -0.1294528 2.3896933 -1.6979661 0.10087004 0.2847361 -2.789962 -0.95420396 2.4180546 -1.5593491 -0.26327506 -0.90652984
4870 -1.5718457 1.2239206 0.55669403 1.2671859 -0.039025057 1.7196884 0.32085875 1.1247219 -1.7790898 2.6124365 -0.9396024 -0.22437142 0.66832966 -0.6724331 -2.1888733 -1.1189408
2454 -2.7548203 -0.38866076 1.2737107 0.36391345 -2.6889987 1.8024793 2.219702 0.43307948 -2.5234945 1.0205684 0.15147427 0.31222525 -2.1208787 -1.3918291 -1.3747435 0.8615761
563 -1.2893298 -2.66253 0.32720977 -0.1850382 -0.24434824 0.8047834 0.45607284 0.39664534 -0.2400291 1.8506184 -1.0747865 1.5301043 0.99046564 -1.5880426 -0.57383686 -0.55059695
1816 0.23589048 -1.7689041 1.8056511 2.837138 -2.005379 0.06035471 0.4712123 1.8585123 -1.5611262 0.3129239 0.04729688 1.2220204 0.6488395 0.47298196 -1.3116686 -0.19921532
3075 -0.8575519 -0.49288952 1.9453567 1.9660469 -1.7206607 0.5021321 2.3024094 0.5716862 -0.5829192 0.29994354 2.1069274 2.2758443 1.2990918 0.33281106 -0.029286763 0.5899724
1217 -0.70793396 -0.24871005 0.54370296 2.5125012 2.1563635 1.6315737 2.1307607 1.7816947 -1.6842381 0.61965084 -0.84543735 0.029584039 0.0015771332 -0.71018565 -1.9186808 -1.3463961
6519 -2.4090502 -0.3533827 2.3494837 2.16363 -1.1352113 1.0250388 2.4001117 0.5381093 -0.042729303 2.413215 1.4311684 -1.4011962 0.48036072 -0.30643153 -1.0600168 0.17779392
5628 0.055458028 -0.6634746 2.4503174 1.065157 0.5226624 2.8812625 1.17393 -0.80805635 -0.0674033 1.2091379 -1.1609123 1.9465729 -0.31410918 0.27796504 -0.71911746 -1.4196495
2630 -0.50124556 -1.1633509 0.7164883 0.8491354 -3.1526833 -1.1221906 2.764695 -0.826713 -0.90320516 1.0286005 0.5172981 0.9039099 -0.57890797 0.84923023 -2.5205455 -0.3428965
12 -0.95811176 -0.99847424 1.9100319 1.8248367 -1.2005405 2.2118828 1.0129805 0.66805124 0.6595536 1.4523375 0.6480299 0.33685347 -0.1708533 0.47092682 -0.6964165 1.3163583
250 -2.4813426 -1.0200068 0.86189955 -0.9554647 -2.271771 1.454703 1.8816836 -1.2583871 -0.8926541 -0.2721336 -0.14010039 0.9516222 0.74391896 -0.65218806 -0.3573281 -1.3521208
2667 -1.6412704 -0.55706006 1.7473606 0.32779098 -1.533149 3.1022377 1.1133866 -0.060900792 0.4144572 -1.4193283 0.76348275 1.4997467 -0.07250747 -0.31361666 -2.4444537 -0.50232327
1453 -1.5665908 -2.2683237 1.397035 1.0540166 -0.08652655 2.5471566 2.1013427 -0.3463353 -0.62550664 -0.0781749 -1.4816328 -0.15846725 -0.22469456 0.60917044 1.3509917 -0.20592336
798 -1.0164306 -2.9324937 1.4262552 1.5340339 0.05330051 1.660702 1.3475169 0.2142514 0.47029725 2.188438 -0.88417655 0.0059865867 0.6993958 0.3938314 0.62354743 -0.6319586
1174 -0.65829057 -1.0765308 0.08510198 2.3069286 -0.60991985 2.152687 1.301541 -1.9144061 0.35315895 0.23654269 -2.5479467 0.6025079 2.263946 2.3959703 -1.0234028 0.051397804
1117 -2.13453 0.269607 0.7325094 1.7277133 0.31704897 -0.041373666 1.9718735 -2.2196581 0.8603085 1.413905 -0.80481946 0.71362096 0.9307223 -0.9823606 -1.4640025 1.8913336
4537 -1.8967122 -0.6774292 -0.36519644 0.66963476 -1.4667761 2.2785382 0.54909146 -0.06960365 -0.65185285 -0.6641956 0.41558456 2.0254962 0.42832622 -0.56294155 -1.9447522 2.8487227
1837 0.4177544 -1.8283571 2.8513846 1.5320383 -1.7631589 -0.062487546 0.8644206 0.1404674 -2.372516 -0.28276718 -0.27446383 1.8852549 -0.0055623055 -0.34643593 -0.552843 -0.17607473
2917 -2.0938187 -1.6597139 0.15252587 1.5447441 -1.0145342 1.9269277 0.7004057 1.008924 -1.2886528 0.3345341 0.49332845 -0.16220313 -1.3043892 -0.039303128 -0.5220897 -0.45962635
8113 1.4620014 -2.1905272 1.153039 0.6388453 0.7911228 1.2404615 2.7958968 -0.2658133 -1.0666585 0.8176036 -1.22899 0.2492471 0.64097786 -1.5785263 0.28457713 -0.099006176
2135 -3.033534 -2.235749 0.14037564 0.7513521 1.5016607 0.35198262 1.5738033 0.08543895 -0.11427702 0.8426506 -2.418584 1.0447766 1.1246148 -1.186806 0.16012412 1.3943948
882 -0.23663142 -0.65031207 -0.34048268 1.746173 -0.063590765 1.098959 2.9012916 -0.5688959 -0.3346599 -0.816146 0.5345868 1.8417134 0.23685752 2.0590785 -2.7726786 -0.26888558
3416 -0.23084898 -0.07175257 1.0282948 2.6629128 -1.5002238 -1.0464898 2.107757 -0.2526402 -1.2705029 -0.4582941 -0.7066691 -0.31375408 1.1181538 -2.372776 -1.0446553 -1.7768471
2812 -0.1232664 0.06885577 -0.41283232 0.26675382 -3.1854365 1.7339059 1.6709192 -1.5801706 -2.2584605 -0.98081595 -1.3343203 1.2892232 -0.2111508 -0.81529254 -2.235028 -0.62591493
980 -0.39529398 -1.422577 -0.1318818 0.82698166 0.944929 0.14232223 2.9336972 -0.9880115 -1.4141182 -1.3688153 -2.0099277 0.011860636 0.70223683 0.007576122 -0.22781637 -0.52927446
2669 0.65303 -2.5984735 -0.27550432 1.514548 -0.3179418 1.1554419 2.395558 0.9941378 -2.7237983 0.06424239 -0.2794223 -0.57016504 1.9340669 -0.18275215 -0.647343 0.24220003
1966 -1.1354804 -3.2549112 1.8602496 0.1312447 -0.10621314 0.68634164 1.9855968 0.96286505 -0.7327294 -0.079018 -1.7365136 -1.579688 0.37246493 1.009944 -2.181207 0.52186733
4289 -2.1647925 0.3120116 1.00916 0.11968242 -0.47936082 1.2430449 2.8076012 0.6389844 -1.000431 1.3908533 -1.590541 -0.6569256 0.049837377 1.9887649 -0.61862016 1.7339212
8035 -1.6647027 -0.019431451 -1.5612859 1.3694469 2.0094981 1.3103787 1.6439217 0.651342 -1.7109745 0.79348654 -0.7326421 1.2424893 0.8008533 -0.52924174 -3.34538 0.66833127
4996 -1.412639 -2.4058 1.1263874 -0.5618854 -1.6114655 0.08140271 1.5945964 1.6568804 -1.9076339 0.179027 -0.51279783 2.7885814 0.53699535 -0.14414711 0.31503534 0.29943162
1698 -1.1285629 -2.68593 1.228048 0.46703532 -0.103483185 0.94987607 0.8286821 1.248528 -2.9930522 0.63562375 -1.0744783 0.30455196 1.6105437 1.037843 -0.5344013 -0.6831094
2496 0.26812124 -1.1972647 0.51283395 0.7000298 -0.5960673 2.5479548 1.3583789 -1.0835811 -0.23134312 -1.6336768 -0.69931984 -0.10053938 2.050212 0.73283297 -2.263285 1.1816345
3522 -2.0290117 1.4360245 0.7510394 2.6179473 -2.6324341 1.6668146 1.1737998 -0.31038654 -1.6723737 0.019902974 1.3296894 0.30226725 0.39234132 0.69975716 -1.7679524 0.2703707
1236 -1.4727222 -2.521079 1.076135 -1.3590783 -0.37022138 2.0709178 1.4360505 -0.14171089 -0.59705234 1.9116739 -1.5812659 1.0229248 2.2357168 1.1849511 -1.6116407 1.2690264
4080 -1.1235394 -0.7964307 2.3300703 2.2737863 0.04012897 -0.16666779 1.9113122 0.94802326 -0.48548347 -0.20302416 -1.6023548 -0.49742603 -0.4966726 -0.16483471 -3.909698 2.1892197
8595 1.3043908 -0.31298202 1.4039606 2.7429175 -0.4335991 1.050261 0.96388054 -0.91611284 0.23943597 0.25646877 -1.249055 3.3643184 0.3875289 -1.1113423 -0.4346054 0.6798992
3607 1.0687641 -1.0757276 2.4900062 2.8523254 -1.5707489 0.6108363 1.135827 0.9923591 -0.7969664 0.8686015 0.59969264 1.8313286 0.5909538 -0.66129464 -0.46706125 0.2025472
69 -1.0344449 -1.1738349 2.3487995 1.0202122 -1.3524566 -0.39801368 1.7346598 1.4841435 -0.504997 1.5330374 0.36620978 0.5079718 -0.015518512 -1.5918462 -1.2700428 -1.3053665
4598 0.20319325 -0.826267 1.2959287 0.7634245 1.5735852 3.5336812 0.66467834 0.11782732 -1.0339261 0.8877826 -1.2092174 2.3082569 1.0342076 0.017789641 -1.7987585 -0.7319629
1118 -0.9066031 0.34437907 1.4678787 0.31830075 -2.3543274 0.5916871 3.554189 0.1417664 0.15045422 -1.3275638 -0.848518 -0.21197559 0.35205382 0.34432763 -0.5934027 -0.28539872
6682 0.45830673 -0.7303779 1.6447796 -1.0336471 -0.7063269 0.91997695 3.1064901 -0.5749914 -1.0211619 0.051362842 -1.6186393 2.3689718 -0.52409106 -0.37914774 -0.18201253 -0.29594094
63 -1.8732208 0.010248051 1.4476018 0.57088876 0.76810163 -0.8916086 2.8610058 0.36503422 -2.0752215 1.8538827 0.33874744 1.7887206 1.3746117 0.85564095 -0.8818313 -0.45738372
1296 0.20097025 -1.2755497 0.9383938 0.43055198 -1.1273359 0.11907852 2.1566792 -0.802144 -1.302957 0.52985924 -0.99077904 3.1315064 -0.7559852 -1.5670394 -1.7670135 -2.0767837
3578 -2.1421354 -2.1039202 -0.0110247545 1.5711238 -0.3499805 2.4696426 1.5853721 2.45977 -1.3407454 0.9664438 0.42093343 -0.7845484 0.6871834 0.370303 -1.1240515 0.023370128
1084 -0.9879936 -1.6726819 1.6592273 1.3531369 -0.19569263 -1.3704673 1.0438747 -2.043886 -1.0017372 -1.2062544 -2.2051063 2.0429459 1.5889488 0.45641977 -3.0270753 0.2646468
5574 0.4677159 0.23632534 -0.41798404 0.30459267 -0.7352376 1.3634713 0.5055999 -0.1523637 -1.0288587 0.4861795 -2.6553319 1.3920044 1.0092425 0.97440153 -2.206696 0.31124035
1472 -0.034786977 -0.17502265 -0.15054932 0.127684 0.26551488 1.4633554 3.2390513 0.013608667 -0.57267517 -0.5613201 -1.4224681 2.4273188 -0.26856518 -1.27159 -0.9527856 -0.26182982
2776 -0.7370397 0.44588256 0.17319316 2.471266 0.80678195 0.57618755 2.319813 -0.5123055 -1.7294493 -0.105168134 -2.8320432 2.1773021 1.2952592 -0.20279029 0.479644 -1.2425919
3964 -0.5957253 -1.3587935 -0.31236902 1.8050686 0.7219666 0.86631525 0.2200723 1.5164967 -0.7143535 1.994881 -1.1225418 1.6819713 2.099381 0.52476627 -3.0662153 -0.89304125
1838 -0.52730703 0.1355337 0.19542442 0.20019856 -1.3055351 -0.7378843 3.132369 -1.0129948 -0.68894243 -1.1887385 -2.0168667 0.46016577 0.17561463 -0.7201487 -2.4952443 1.0710877
6202 -0.09157132 -1.3491457 2.230664 1.3626751 -0.8440262 -0.81414634 2.1601913 -0.70431185 -0.9723213 -0.97257334 -0.4273659 2.1351798 -1.4806228 -1.0515602 -1.4874232 -0.08504625
1419 -1.1726948 -1.7643178 0.96267474 1.4189959 0.66471964 1.0379992 0.6332856 0.6762917 -0.22630008 -1.4724098 -1.6244382 -0.7356589 2.0102334 -1.123988 -1.6528103 0.6069388
6645 0.42968908 -2.7559366 2.0968306 1.8274667 -0.48031467 0.43177193 0.9153866 -1.1394835 -0.12134605 -1.9467535 -0.872115 0.41850466 0.33241582 0.11268639 -1.1634068 -0.25026777
1893 0.153648 -0.11677095 2.2034948 0.27715915 -1.5148549 -0.54076576 1.3979124 0.6567334 -1.5810438 1.5984516 -1.2169403 -0.07867899 1.4008181 -1.7815578 -2.469978 -0.34002426
1029 -1.8080021 1.10834 0.016669584 0.49965638 -2.414485 0.5484557 3.0620475 0.44672394 -0.6855547 -1.5517895 -0.6960766 0.69674027 1.1795238 0.5662866 -0.8659564 0.20843363
3062 0.81630754 -0.99046457 0.30377057 2.5951512 -1.2784381 1.2199664 0.67194116 -0.18995778 -1.4314848 1.6669521 -0.9283557 -0.6937726 0.13808586 -0.630848 -0.8361818 1.8086495
101 -1.1404626 -2.8928967 1.2231658 0.5403437 -0.11628923 1.1545175 1.2432415 0.87121034 -3.040672 0.19753842 -0.4961809 0.31016934 1.893563 1.0196701 -0.048720945 -0.06395707
3344 -2.0442002 -1.5704868 2.9694963 0.35674238 -0.17318891 0.16274618 2.1489456 2.1830618 -0.6601286 0.7224505 -0.33199775 0.55351335 0.68115246 -1.907031 -0.38634616 1.1357492
779 -0.59954494 0.98350036 2.0393531 1.0326864 -1.1285988 1.667728 1.4370738 -0.65486956 -3.1103468 0.043182768 -0.5772897 1.2044187 1.4067551 -0.85946596 -0.40740627 2.3621294
2199 0.09158792 -1.1961447 3.3010063 0.62248605 -3.1822107 1.5425619 1.0729754 -0.3102225 -1.2163846 0.743571 -0.6403927 0.77055943 0.86271894 0.84310156 -0.53903246 1.6741986
5359 -0.42522877 -0.48952955 0.78961134 1.0758865 0.8217505 2.692985 2.2484426 -2.7113895 -0.4918934 0.6351472 0.017629689 0.84683776 0.77557904 -0.17630942 -0.3629742 -0.2178309
3030 -0.19764222 0.7759339 2.3208911 1.587596 -1.5662498 1.2233931 3.8108497 -0.47583324 0.019867884 -0.8617128 -0.5979118 -0.20039192 -0.51344705 0.6271618 -0.450189 -0.77478796
607 -0.99389386 -1.9879211 2.4056108 1.3483483 -1.3945248 -0.29197046 0.37750843 0.39957753 0.06654613 0.43877298 0.066438496 -0.21430475 1.0338161 -0.7286552 -0.7746647 -1.2981014
1194 -1.0462128 -0.7702834 -0.6310944 1.2102468 -1.8482622 3.3157907 -0.16997093 -0.12194207 -1.4155047 1.8557299 -2.0993836 0.5554219 0.5077086 0.69694126 -1.2404597 1.4588298
1105 0.089544624 -0.10499467 1.2467872 1.7953426 0.78389 -0.81390464 1.170228 0.23703606 0.08868215 1.2636704 -0.569249 0.9931835 2.3584566 -0.17187804 -1.7554734 -0.71010107
1080 -1.1815748 -0.15967315 0.17552845 0.9880214 -1.7024934 1.44618 3.4396868 1.1970159 -1.261994 -1.303662 -1.1101104 -1.2802677 -0.19229406 -0.6987844 -1.6779474 2.0159945
1355 -1.602094 -0.20717871 -0.4633959 1.5555826 -2.7223036 0.54032654 1.8149261 0.83169276 0.123173654 1.6204544 -1.7661675 1.1417617 0.3763964 -0.043929406 0.49941874 1.4108367
1032 -0.6870504 -0.14608839 1.0033172 0.5187247 -0.9988798 -1.0798506 2.353605 -0.45820594 -0.2626968 0.47887826 -0.6759563 1.5555321 2.8869796 -0.047983237 -0.43116304 -1.2988304
173 -1.1696233 -2.1431553 -0.014382276 -0.3925406 -1.3399923 1.1837701 0.44463784 1.5071628 -2.1688988 1.4082872 -0.2605188 -0.3387921 0.33894265 -0.86483973 -2.0544407 0.5640621
1730 0.056843005 1.0850433 0.92317235 1.6156116 -1.4578645 0.7125982 0.37720802 -0.8431855 -2.1160645 -0.11426249 -0.9286393 1.563571 0.8348029 1.7380514 -1.2458113 0.2725145
2809 -2.014417 -0.641652 -0.79255015 1.048388 -0.8429894 -0.6316768 2.4520383 2.4696944 -1.2888235 0.44963372 -2.1896286 1.5315841 0.92189413 -0.9448147 -0.25222647 1.1423538
