5241 32
60 -0.13875361 -0.6904312 0.4531378 1.401022 -1.1297493 -1.6331781 0.8201393 0.86209303 -0.34305573 0.05382277 1.4882534 -0.0926193 0.7757778 0.28104633 -1.1656796 -0.8693713 -0.63054734 1.1980214 -0.65423316 -1.7609869 0.5244584 1.8049681 1.7465998 -0.98954934 1.1882259 0.41318598 -0.69122505 1.0038561 -0.8083444 -0.18344593 -1.5667456 -0.50204444
44 0.7407156 -0.7759138 0.47844097 2.0695906 0.5906822 -0.60665405 1.4706907 -0.35428467 -2.1856353 -0.007543795 0.05960716 -0.99864393 0.6600489 -1.1681981 -0.9940415 0.71659946 0.7036499 1.8114977 -0.1885216 1.9781375 -0.6136594 1.8076422 2.0338438 -1.886561 0.13453299 -0.29117247 -1.2155248 1.0780734 -0.6079644 -0.63090736 -0.15881747 -0.5150544
195 0.73678 -0.27829856 0.36035576 2.243169 0.3503725 -0.33887625 1.6404653 0.56313306 -1.8215884 -0.71800244 0.43087795 -1.14699 1.303436 -1.2805383 -0.654977 -0.060686667 0.16807675 1.4974877 0.74046147 1.6761532 -0.73042095 1.9297111 2.3040013 -2.1194408 -0.36198354 0.5251329 -1.1029849 0.9809145 -0.6749343 -0.72789615 0.6058794 0.054876614
10 0.062257882 -1.2236291 1.4444264 0.3283448 -1.0383439 -1.8219848 0.68787175 0.63269144 0.09121666 -0.7937625 1.380454 1.0859445 -0.0884196 -1.3905073 -0.44023588 -2.5830686 -0.740631 0.6910413 -0.79222846 1.2984163 1.5754681 2.0665028 1.357377 -0.9856367 0.21556331 1.2574314 -0.50937474 -0.56104434 -0.122727565 -0.73224294 -1.0927805 0.29398143
85 -0.22771479 -0.20311715 1.153858 1.6126432 -0.55520666 -1.2109855 0.71678716 0.82719916 -0.3271627 0.8073235 1.4352322 0.25669935 1.6651917 -0.42107832 -1.5174644 -0.22315644 -1.149487 1.318355 -0.519586 -1.5664307 0.5505554 1.47918 2.4284863 -1.6308918 1.0113966 0.6997462 -0.8079838 1.2985058 -0.30374107 -0.010222051 -1.4876971 0.22757009
23 0.038642902 -0.44397372 -0.087918974 -0.8882444 1.3921052 -1.1287963 2.6013415 0.10795141 0.06225432 1.5874857 -0.08925777 -1.5539626 1.3835434 -0.65500915 -0.13161105 -0.11915656 -1.470373 -0.70049554 -0.280579 1.1022644 0.052426647 2.2431588 3.0735772 -1.5472544 -0.6967176 0.14172323 -1.5271616 -1.7526301 -0.5504601 -1.8862922 0.04113369 -0.31848916
134 -0.43731844 -0.6574776 0.76788723 1.8079152 -0.18747729 -0.6792276 0.13431476 0.78065115 -0.8460215 0.7511426 0.83707184 -0.24458066 1.8925766 0.0607592 -1.0691804 0.1369117 -1.4257845 1.3146168 -1.1988847 -1.5678669 0.8620611 1.6268533 2.4468894 -1.795608 1.4546795 0.6980387 -1.4008398 0.9676471 -0.5490551 -0.16014847 -1.4166884 0.07285179
255 1.587089 -0.6369426 1.7836196 0.87244636 -0.25849107 -0.2931737 1.9443053 -0.6401762 -0.9557538 -0.1450335 -0.43083763 0.60343647 0.6771598 -0.1677697 -0.51140326 1.1730455 -1.9976778 0.0036561727 -0.35024565 1.3502754 0.6124019 2.5935915 1.6152836 -1.1013868 0.523497 -0.32796368 -1.2296332 -0.9188953 0.40138313 -1.8956459 -2.2681382 -1.8692045
241 -0.5182771 -0.88623476 -0.20547007 0.28954834 -0.0673319 -2.316212 1.6710337 0.9134212 -1.2117494 1.45671 0.9490398 -0.79330283 -0.9925145 0.66406626 0.6720107 0.83645034 -0.20105514 -0.300153 -1.0711476 1.17667 1.2198195 1.9929403 0.18191797 -0.99383765 -1.186002 -0.56996244 -2.4803102 0.6358195 -1.4161378 -2.6472673 -1.9668702 -1.4660312
50 2.0421848 -0.30203605 0.9262269 0.6519794 1.5763514 -1.6819761 2.4045854 1.2152374 1.0534061 0.3695419 1.029802 -0.48428136 -1.112132 0.13789114 0.09320829 -0.40222213 -1.2433534 -0.15432054 0.3750225 1.1806564 1.8212973 0.57196254 2.480096 -0.28522703 0.44917327 -1.0001256 -1.7767328 1.6189728 0.9563882 -1.4926004 -0.55108994 0.28141215
84 -1.0734787 -0.4221426 2.255238 1.8338253 -0.1920322 -0.2793024 1.4576381 0.3933062 -0.6068709 -0.30172217 1.5176067 -0.09500143 0.6971307 0.42111558 0.1509361 1.2169659 -0.4284946 -0.3589695 -1.2821039 0.6741572 1.2925589 1.3268251 1.5603372 -1.5935229 1.6032022 -0.0955911 -0.8058251 -0.06950119 0.4816164 0.531193 0.9117187 0.4298297
286 -0.8860344 -1.8308969 -0.18512256 -0.16595283 0.4596391 0.31769133 1.4441016 -0.132086 0.65914303 2.2061393 0.82122135 -0.03279434 1.0844166 -1.9229614 -0.39140186 1.578256 -1.7071878 -1.3638626 1.5569799 0.90518504 1.0902618 2.1345057 0.5995155 -1.2289782 -0.31746134 0.5342836 -1.113409 0.7774177 0.0024320437 -0.018355552 0.60826135 -0.48251057
11 -0.28429306 -1.3935924 1.7407591 1.0121232 -0.73667175 -2.230506 0.92818636 0.3585448 -0.054012183 -0.66850054 1.9854692 0.6520708 0.4393206 -1.7301314 -0.40193632 -2.2656958 -0.88532865 0.6428134 -0.2961835 0.879067 1.0137353 2.0140052 1.074185 -0.5140908 -0.0029584146 0.86067593 -0.48501426 -0.11858043 -0.37081602 -0.99318814 -1.1738596 -0.34977913
201 1.340828 0.060259756 1.9409462 -0.012636274 1.1001687 -2.0303462 2.6473582 1.6622233 0.13548616 0.4071826 0.7845732 0.043761894 -1.2847753 0.062004432 0.5019569 -0.14870189 -1.5066794 -0.36289337 0.8444688 0.47840157 1.3794315 0.79502064 1.916721 -0.71481794 0.2791802 -1.1919372 -2.9274495 2.0801275 0.7154483 -1.5088854 0.2916675 -0.06844714
721 1.231953 -0.35117462 1.6837275 -0.24351443 0.79980665 -2.5497742 0.46784985 -0.4103693 -2.4231687 -0.6501643 -0.37071604 -1.0470402 0.78570163 0.33245564 0.31710657 1.1684127 -0.99261105 0.10030429 0.66252434 -0.10532191 -0.50838935 2.1708252 2.1661377 0.58423924 -0.2021575 -0.012909646 -0.9084283 1.8779569 0.18914923 -1.1017574 0.85205036 -1.1324375
148 -0.15411764 -1.5632092 1.3912926 0.45600843 -0.7246842 -2.3219857 1.1058682 0.08718988 -0.9344478 -0.43949252 1.8292553 0.5988338 0.67818373 -1.4063462 -0.1759176 -2.4560452 -0.42113772 1.1030608 -0.27620664 0.5224221 0.6004788 1.8415233 1.2929134 -0.7807408 -0.0014099025 1.1022915 -0.30917272 0.007822625 -0.41901752 -1.3061941 -1.1722074 -0.6150248
124 -0.22898279 -1.4681921 1.4039559 0.38690943 -0.8161931 -2.1467354 0.97130615 0.134186 -0.70789653 -0.54231244 1.7001638 0.8956229 0.3022499 -1.1780298 -0.15823287 -2.427223 -0.55065435 0.94554234 -0.5564925 0.68123853 1.0850586 1.7843603 1.289148 -0.8462901 0.42611662 1.1010783 -0.33899143 -0.16227062 -0.10575162 -1.2618715 -1.0512257 -0.40655842
112 1.6207521 -1.9420117 0.32469174 1.0934324 -0.34757185 -1.3896784 1.4820722 0.7347718 0.2645466 1.7370235 -1.6439918 0.45256254 1.7047977 -0.77273047 -1.4617834 -1.0046674 0.56091225 1.1457071 0.23823135 0.20088999 0.3337556 1.7152166 1.3770806 -0.08093921 -1.1243514 -0.76936215 -1.0539297 0.5711734 0.20318355 -0.13218112 -0.7607965 0.57667536
131 -0.43671632 -0.9534691 1.7128383 2.3102186 -0.3188365 -1.3946388 0.34518346 -0.51710016 -0.3863046 -0.18257444 0.5203617 1.0732156 0.6566499 0.7305386 0.61480284 1.0417674 -0.3623262 -0.43628678 -1.6534367 0.6130093 1.2066191 0.6917173 1.591675 -2.0096843 1.4186411 0.20662864 -0.63782704 0.80994326 -0.5655937 -0.614897 -0.1829978 -0.11430772
674 0.72292304 -1.6346024 0.79211515 0.29752275 0.029625589 1.0625445 0.13193575 -0.11850026 -0.11159135 1.1812378 -0.1782466 -1.7939523 0.40564126 -0.59753937 1.2009907 -0.37820473 -0.2923297 -0.04058716 -0.18802223 0.26731735 0.8441137 0.5907879 2.6815715 -0.6449797 0.52112865 0.8680899 -1.8922116 2.2478309 -0.7000411 -1.4269271 -1.1532935 -1.7441881
590 1.1246048 -0.95840156 1.2014029 -1.441008 0.2703104 -0.50521994 0.30386811 0.09734928 -1.1816559 0.0540726 0.015930878 -0.3095893 -0.97994614 0.36895365 -0.47179437 -1.0958626 -0.24281175 -0.42244136 -1.478287 1.5180827 1.2059082 1.6474408 2.4667916 -2.1360981 0.4933001 1.7624836 -1.535118 -0.37619862 -0.4156358 -1.5687995 -0.56986934 1.0567763
1010 0.26389128 -0.43387923 0.94760454 0.29337266 -0.016345108 -0.6941305 0.54419327 0.29510677 -0.2531254 0.007885659 -0.93755144 0.103677675 0.2677469 -2.495803 1.1231467 -1.1962668 -1.5541474 -0.43024594 -1.3212975 0.650348 1.4792172 1.7787654 0.43818957 -0.9062901 1.9378693 -0.69808114 -1.6542113 0.7998999 -0.18009375 -2.0358317 -1.1827176 1.9870186
70 -0.2611537 -0.7207706 0.733969 0.20638804 -0.17786686 -2.3162901 1.2404501 0.97837585 -0.34362254 0.6140681 0.51726395 -1.1862146 -0.51000667 0.28202933 0.039382074 0.60591227 -0.8910341 -0.3196078 -0.6106674 0.25891876 0.5816855 2.1887794 0.4636015 -0.8494305 -1.4173927 0.5445322 -2.0092013 0.49939585 -1.4971795 -2.4169443 -1.6208736 -1.1456089
432 -0.16631949 -1.7770591 0.31040245 -0.24027258 1.1428927 -0.79593426 1.5318499 0.9840032 0.078125246 0.16253501 -0.65343606 -0.3586289 0.84643763 -0.8597487 -1.6448263 -0.05437754 0.24705096 -1.2639521 -0.7415966 1.5374447 0.45003515 2.499309 0.9258522 -1.0832683 0.29321086 -0.55728346 -2.6450813 1.1977657 -0.38799447 -0.8038372 -0.8215789 1.4097695
317 -0.4890254 -1.7702471 1.6623589 0.5099341 -0.3260162 -2.0846164 0.64640695 -0.041132722 -0.94579595 -0.45891252 2.3146374 0.60600215 0.69401807 -1.4059472 -0.45022073 -1.8357842 -0.19623397 0.9919223 -0.3522889 1.1579795 1.2346675 1.5148379 0.96194285 -0.3867534 -0.17081705 0.77799296 -0.32486233 0.42054507 -0.23184143 -1.480708 -1.2087731 -0.14268889
779 -1.2715026 0.4666442 1.3812544 0.7543758 0.9698425 -0.30687082 1.8621051 -0.42203802 -1.3849684 -0.02534469 0.46482304 0.097787194 1.6224296 -0.55242914 0.2189713 -0.81902915 -1.4107747 0.2829389 -1.0776167 -0.20743051 1.3381404 2.1346695 0.74451387 -1.7708615 0.46134448 0.06383908 -1.725957 -0.32653028 1.1728752 -1.0620944 1.1133868 0.60835946
419 0.5539896 -0.43251517 0.19531602 2.6391096 -0.2751318 -0.39643323 1.6833652 -0.31685302 -1.6196601 0.54806 0.06618343 -1.317804 1.265521 -0.61940616 -0.71940947 1.0540265 -0.2864483 1.369538 0.23891875 0.70361316 -0.2559501 1.9600313 2.54422 -1.9405112 0.68279165 -0.01859612 -0.87794125 0.42972454 -1.3488648 -0.6739938 0.23597163 -0.22133964
1315 -1.3973455 -1.0650389 -0.08186527 1.6725069 -0.7682761 -0.7747005 -0.4259015 0.76242507 0.4731739 1.2740921 0.116543785 -0.78368264 -0.5932868 0.10821835 -0.2819432 -0.61606616 -0.4389213 -0.15673816 0.8381445 1.697625 0.9187158 2.7514324 1.7284623 -2.0235882 0.29287657 0.7234112 -1.2082134 0.6521692 1.0942148 -1.1750144 0.71129745 0.88647497
71 0.9739723 -0.40908384 0.9269774 -1.4386673 0.12221628 -0.9375132 0.3561391 0.6567756 -1.076202 0.061022628 -0.091343105 0.09756114 -0.83129704 0.060294848 -0.0471402 -0.8528424 -0.14484113 -0.20444418 -1.3324915 1.7775832 1.2353681 1.4228003 2.2577493 -2.3255084 0.55027425 1.4641188 -1.2924079 -0.23794262 0.12923817 -1.3643087 -0.6887293 1.1023933
549 -0.07115988 -0.71546596 2.108662 2.057768 -0.0069822995 -0.38575807 0.17336307 0.661719 -0.21455945 -0.08743196 1.2609767 0.49584213 0.96055526 0.52089334 -0.23653415 0.6493063 -0.32037875 0.10359426 -2.0029738 0.59054697 1.0335393 1.6903285 1.727717 -1.6517495 1.0265952 0.3516345 -0.6407622 0.8549581 -0.063756034 -0.12249066 0.18147239 0.33941686
192 -0.56171596 -1.1094133 1.7424353 -0.2421432 -0.05635398 -2.2815673 0.6372964 -0.72401816 -1.3348279 -0.50069433 2.0713828 0.9480977 0.4943618 -1.2393374 -0.23498195 -1.3995914 0.056556366 0.7340358 0.11050474 1.2478553 1.6845763 0.9500602 0.8213214 0.12299488 -1.0033219 -0.26953903 -1.4630694 1.3325905 0.4736272 -1.3061609 -1.4686253 1.1436945
555 -0.24876136 -0.24988773 1.411158 -0.12294387 -0.7909244 -0.20770922 1.9872769 0.4974967 -0.60118836 0.40784073 1.5875374 -2.455253 -0.14691068 -0.6744827 -0.9326731 -0.62385553 -1.4136956 -0.45365366 0.89072216 0.090670064 1.6437645 1.3035855 1.6535568 -0.48060694 0.6660884 -0.54860485 -1.4017875 -1.2265706 0.13049755 -0.6133618 0.24956022 -0.7368036
130 0.25977656 -0.33153906 -0.25099337 0.48834515 1.2957891 -0.31744662 0.37143204 -0.0079565635 0.6097307 1.0643828 1.9169528 -0.28507075 0.4967471 -1.2364573 -0.2872255 -1.564392 0.16310696 0.51117164 -2.2782154 0.44206232 -1.056921 0.89064443 1.9191413 -1.7431192 0.0009993982 -0.8195436 -1.2759496 0.33123627 0.11962743 -0.599501 0.8454234 -0.16977176
106 0.51552105 -0.80679256 1.197496 0.37448594 -0.74626005 -1.0015229 2.0390341 0.60429096 -2.0889888 1.51265 0.41409627 -1.526378 -0.12856032 -1.3982719 -0.35503483 0.5591972 -1.2367193 1.1583817 -0.028584102 0.622241 1.6041301 0.71947414 0.9642022 0.74037796 1.3941871 0.5352442 -0.80999786 0.4852153 -1.6800034 -0.810175 -1.3289509 0.20896767
114 1.348698 -0.25221735 1.1651504 0.90367246 0.69887424 -0.024263527 0.4613984 0.63271314 1.159185 -0.3042342 -0.18093166 -0.70959616 2.3956492 0.9740916 0.17753763 0.41390473 -0.09166246 -0.30487064 -0.78567666 1.0718983 0.80534005 0.60266626 1.6402527 -1.3079891 0.38747373 -0.27826408 -1.1500205 -0.369437 -1.1095265 -1.8352288 -0.7211463 -1.4147389
657 1.1541961 -2.2413576 1.3344029 0.528206 0.053237066 -1.2721838 1.1051985 -0.21424496 -0.23426525 0.50358886 0.96402645 -0.5696372 0.43597665 -0.441371 -0.5488836 -0.6272207 -1.9518371 -0.976865 -2.1372566 0.5159672 0.6091971 2.294606 0.6917543 0.114790566 -0.6742362 0.40881622 0.2676966 0.3730965 0.6124894 -1.4460833 0.32232112 -0.047651824
6 -0.1285593 -1.0424693 -1.0203978 0.062457155 -0.015051391 0.027034953 0.9717233 -0.35853767 -0.23467639 0.107112 1.8403811 -1.2364681 0.15073419 0.22171335 0.80868924 0.56884766 -0.98266894 0.63394785 0.4427362 1.3558301 0.8567235 2.521796 0.98174703 -1.4634615 1.1028327 -0.37633726 -2.7182963 -0.16498579 -0.0792791 0.08311305 -0.661086 -0.4221328
410 1.4671006 -0.9412571 0.67575556 0.06474842 -0.0063796896 -0.43329245 2.0229075 0.3367276 -2.3254795 1.4676576 0.96615976 -1.2257073 -0.5653366 -1.3338927 -0.8230133 0.019162657 -1.0003625 0.45983192 0.23052374 -0.2707948 1.5328219 1.2980638 1.12212 0.8830013 1.6269293 -0.15408638 -1.291688 -0.049467415 -1.7634078 -1.2755392 -1.4656785 -0.1122959
121 0.40324754 0.13961175 0.4593673 0.14228079 0.6949991 -2.1577816 0.65761876 0.9268961 -0.38720116 0.49481103 0.39360383 0.4310207 -0.86737615 0.1492299 0.14512183 -0.28476828 -0.6075727 -0.5157303 -0.6427785 -0.24758305 0.65406144 1.2253488 -0.17409034 -1.1035511 -0.61748683 0.23902202 -1.4859284 -1.6307969 -1.1214175 -1.9727267 0.13879609 -0.062473413
710 -1.2864171 -0.08870278 1.2796707 -0.28252122 -0.016570443 -0.42420736 0.9834048 0.04603306 -1.2985561 0.4981485 1.688077 0.5979096 -0.90422475 -1.4893966 0.20485604 0.31949237 -0.5396545 0.18409444 0.93750703 0.15343502 -0.51899433 1.8931997 1.6189492 -0.23443642 0.7427402 -1.0092238 -1.6335833 1.131876 -0.13351895 -1.8914518 -0.88137907 0.13049933
230 0.7833898 -0.75623405 0.21068521 2.0683122 0.28745845 -0.88182616 2.2023 -0.18110278 -1.7697374 -0.2144174 0.3497128 -1.2883298 0.709868 -1.2956002 0.06233298 0.12044126 0.5026747 1.3131384 0.46031642 2.327845 -0.71960145 2.06426 1.5705489 -1.5613364 -0.08978809 -0.27836514 -1.0511436 0.32227618 -0.95143265 -0.82561666 0.2487784 -0.31232697
315 -1.6554879 0.35646698 1.8841957 0.5641663 0.36864045 0.5748157 1.817727 0.06965146 -0.9006076 0.7744041 0.66983265 -0.6485613 1.1499441 -0.31565216 -1.1412987 -0.7286203 -1.3077556 0.3968807 0.3614271 -0.589082 1.1631998 1.4964008 1.2128736 -1.0579665 0.21433987 0.07521995 -1.6330984 -0.47427657 0.80160403 -0.9474088 0.7035432 0.6494037
395 -0.0063372506 -0.38781172 -0.16541348 -0.77767676 1.1910043 -1.1266744 2.015408 0.13170633 -0.2466077 1.5187213 0.006078563 -1.2478751 1.448005 -0.90908825 -0.39250943 0.61146164 -1.2505947 -0.53581804 -0.33329666 0.9831766 0.6493924 1.9510027 2.9638083 -0.723873 -0.6341393 0.24307802 -1.4482807 -1.6306767 -0.7371059 -1.332965 -0.06674076 -0.017248709
232 0.4145802 -0.19368419 0.72748154 0.32843623 -0.58691037 -1.0824821 1.925636 0.57350194 0.0021635124 1.1937282 1.5299945 -0.45002756 0.19299011 -0.080833875 1.4441298 0.8047124 -0.79446965 -0.5064033 -0.4374588 -0.26504093 0.69322073 1.9248061 0.57763237 0.098037235 1.4757333 1.6964468 -2.348712 -0.43159053 0.86073184 -1.8856173 0.6597864 -0.0746745
56 1.509797 -0.8816291 1.9625108 -0.21006808 -0.73267525 -1.4618266 1.4439614 1.2424527 -0.12678011 1.2717661 0.81100893 -0.49178603 0.47247714 0.5057539 -0.48678973 0.26264957 -1.4242733 0.87637335 0.43600217 0.78752637 2.3283982 0.009493973 0.6649478 -1.0898945 0.48477328 -0.18088163 -1.9869976 0.26098865 0.3767947 -1.151384 0.057165816 0.8740789
559 -0.26528302 -1.2715442 1.3445778 0.8413942 -0.63752323 -1.9312928 0.5230183 0.12934542 -0.4534033 0.025196148 1.9427199 0.66561645 1.1401293 -1.1890866 -0.75440776 -1.9519681 -0.59372413 1.2790421 -0.6422099 -0.019758461 0.6306474 1.4281716 1.5893111 -0.7758392 0.28491223 1.2535542 -0.28751165 0.44520995 -0.269782 -0.7390772 -1.4878985 -0.3303165
47 1.1247866 -0.65800047 0.80391616 -0.9255211 1.845521 -0.8146599 0.96514255 1.3270993 -1.2399933 0.7555341 0.050024606 -0.67671406 0.52547044 0.8950907 1.148269 0.10997744 -1.3799057 -0.5635181 -0.72451943 -0.043442845 0.96430606 1.8578986 0.72396404 -1.2803603 0.8924038 0.9011541 -1.0769112 1.4011452 -0.45390236 -0.14280102 -1.5985616 0.052259583
156 -0.61842704 -0.81373364 1.1653315 1.8917164 -0.44872066 -1.0903771 0.73718107 0.32186875 -0.3682081 0.5806752 1.3088539 0.40259424 1.7456272 0.3621644 -0.6833582 -0.25770926 -1.3732497 0.9697402 -1.8693284 -1.2509111 1.3425776 1.6661065 2.433101 -1.800694 1.0464451 0.48631084 -1.1833663 1.264042 0.09066736 0.080102496 -1.7253578 0.4865435
36 1.9995863 -0.48125443 -0.7454522 0.9432742 0.40257326 -1.2734723 -0.1339992 0.059788093 0.11274909 0.85312855 0.5515901 -1.0951351 -0.018700149 -1.2874607 -0.79907906 -0.66273254 -1.082436 0.25391012 0.07777504 1.1452346 1.6225868 1.2876236 1.4620332 -0.0018981897 0.4015888 -0.5066945 -1.6206582 0.24806048 1.1864564 -0.6465512 -0.5449382 0.85865265
669 -1.2761365 0.38864926 1.363309 0.42021823 0.8769325 -0.13557282 1.8615624 0.1715898 -1.3453984 0.23841831 0.37617767 -0.30087402 1.4177883 -0.5897557 -0.46932197 -0.22051707 -1.3170973 0.26893616 -0.98372257 -0.3363423 1.4176732 2.1922204 0.94545317 -1.2065623 0.1843238 -0.2797256 -1.6549063 -0.5213831 1.0073124 -0.35453424 1.2722653 0.7261757
231 -0.22780225 -0.67126155 0.70821744 0.19088158 -0.19687645 -2.0752559 1.0531565 0.91433406 -0.20918599 0.51390815 0.4025635 -1.0965464 -0.4537347 0.345987 0.012156233 0.6047902 -0.8322559 -0.34170717 -0.6035507 0.1185508 0.56173253 1.9505937 0.40135074 -0.7622986 -1.270577 0.5264932 -1.7203575 0.35808897 -1.4053802 -2.1928892 -1.5033823 -1.0556592
535 -0.61096096 -0.2859116 0.82926464 0.6828001 0.6178157 -0.9333204 1.0157081 -1.0225556 -0.8054236 0.2262771 -0.3877892 0.27393544 1.000917 0.23820832 0.2866454 -0.74289995 -0.54007196 0.3438853 -0.8490649 -0.31964156 1.4756104 1.3955812 0.6169524 -1.3239876 0.20051901 -0.6373509 -1.9861759 0.3122565 1.1135149 -0.96939534 1.4088411 0.7292531
1002 -0.7586184 -0.6965274 1.5576141 2.054817 -0.11037828 -0.71250427 0.7317601 0.43138328 -0.48774925 0.17236061 1.3051883 0.52365714 1.8821042 0.4391605 -0.36755553 -0.0652457 -1.1012897 0.52724344 -2.1707826 -0.865306 1.4700171 1.6046617 1.8701018 -1.8056517 0.90936744 0.2696398 -1.0941967 1.2490863 0.2233573 0.125601 -1.0613668 0.5741494
938 -0.39479998 -1.0599759 -0.95930135 -0.15067938 0.009418807 0.11204694 1.2006785 -0.5158321 -0.2751008 -0.062156584 1.9892063 -1.261233 0.08331487 -0.22933999 0.6236894 0.54875 -0.5008502 0.4940947 0.8181712 1.0295335 0.77561367 2.3037455 1.1082103 -1.7444338 1.3718857 -0.75876325 -2.7243996 -0.3418378 -0.12118466 -0.074824564 -0.50705045 -0.7448999
735 1.5290544 -0.49982777 1.0733109 0.8466128 -0.70204264 -0.40947348 1.0545027 0.14741068 -1.27932 0.958342 0.7916269 -0.18785128 1.3229281 -1.297393 1.2201852 -0.33840102 -0.49948612 -0.32081494 -1.7255363 0.30217594 0.7731597 1.6609976 2.3636298 0.47638944 0.44126096 0.14379211 -0.30477726 -0.28815168 0.55136424 -0.8246684 -0.051764138 0.6182796
1483 -1.0735445 -1.1479683 -0.28838855 1.4590763 -0.14008576 -0.99610794 -0.03820535 0.9277115 0.4211961 0.6421384 0.34120658 -0.9588859 -0.2808759 0.96510136 0.53701466 -0.15875404 -0.23045163 0.3585976 0.61511475 2.0041187 0.40720522 2.87755 1.7074218 -1.6409461 0.69012004 0.5984959 -0.93008393 0.9684339 1.3303472 -1.2380452 0.44060776 0.6585153
544 1.3601534 -0.6287363 1.4908789 0.5795134 -0.05070197 -0.30306053 1.6966206 -0.46681 -0.4057412 -0.28150117 -0.17121902 0.7316735 0.7353783 -0.5184079 -0.4411099 1.3686018 -1.6705837 -0.14888588 -0.3709197 1.0000968 0.54614663 2.3846714 1.4840747 -0.8682121 0.61532784 -0.18915437 -1.0347726 -0.70882726 0.7513876 -1.5540028 -1.9128224 -1.6822988
717 0.5713407 -0.7217602 -0.036321275 0.62080145 1.4145167 -0.64069945 1.8770077 0.1866488 -0.6520176 0.8892915 1.656228 -0.26698917 1.4602973 0.6842828 0.621125 -1.5483652 -1.0316284 -0.21716172 0.19226208 1.0603726 -0.43021795 1.2872128 0.4786412 -0.44180405 1.0860895 -0.019182203 -0.8191354 -0.23585834 -1.0591642 -0.40931004 -0.8784793 0.81712145
597 0.06597293 -1.220851 2.295685 1.5896769 0.18907733 0.6453922 1.4161426 0.3892234 -1.2630715 1.2461052 1.7611756 1.0234603 0.8621622 0.11331104 0.5002566 -0.8117749 0.025486792 0.40395895 0.26129082 0.79536086 0.7171583 1.0483809 0.15098317 -1.2090448 -0.73733884 -0.5773337 -0.9128315 0.83630157 0.13139527 0.55235523 -0.76743746 -0.03010917
1564 -0.80360585 0.6369743 0.5926938 0.9691348 1.4608654 0.9128546 1.7733684 -0.53802663 -1.6573914 0.2846138 0.42461133 -0.4840927 0.4672162 -0.90910125 0.030957088 -0.03950524 -0.7335418 0.76379013 0.38506398 0.29859707 0.08496475 1.9323051 1.0819267 -1.9325354 0.04597042 -0.337184 -1.7361938 0.49295574 0.84731156 -0.8088234 0.85630053 1.0140297
475 -0.0303607 -0.32190976 -0.19657479 -0.72193134 1.0633931 -1.0087314 1.8644317 0.07385535 -0.21105142 1.4738663 0.037038047 -1.1530502 1.3708528 -0.8778302 -0.38940477 0.53693515 -1.2020199 -0.488812 -0.3435601 0.8960676 0.552037 1.8977957 2.8343508 -0.72365195 -0.5631025 0.1986621 -1.3566656 -1.5736581 -0.64754707 -1.2774065 -0.12596512 -0.049653083
159 -0.7622688 -1.5459708 -0.40263656 0.69255304 0.72287524 -0.49199167 2.751832 0.45587835 -0.60393214 -0.5066638 0.05544361 -0.63993424 -0.14302538 -0.2504545 0.29260916 -0.18819217 -0.6029975 -0.29583955 -0.37239397 0.43360367 1.7841785 0.8827084 0.47899294 -0.9539897 0.29638243 1.7503686 -2.4244359 0.07193284 -0.7431578 -0.59403485 0.17754805 -0.19031526
2046 0.7881052 -1.1984797 0.6964005 -1.5336474 -0.4336621 -1.3796622 0.44322503 0.3342011 -1.1431293 -0.116005585 0.3864593 0.48520294 -1.037429 -0.033292733 -0.22035335 -1.7342993 -0.0401961 0.32472718 -1.2721881 1.8960403 1.6459605 1.8546369 2.2302067 -1.6474975 0.49726528 1.6686411 -0.84489137 -0.48781997 -0.29203907 -1.6386503 -0.91371876 0.26656836
1942 -1.3154413 -0.06962313 0.9168887 -0.23777443 0.12853748 -0.013142152 0.6166378 0.50569636 -1.5094988 0.27236673 1.7621455 0.34211442 -0.833817 -1.3418666 -0.17691605 -0.16643757 -0.4127472 0.20841639 0.5314843 0.08662557 -0.06381469 2.2942386 1.5602618 -0.48786524 0.9136827 -0.98966575 -2.1028671 1.5285356 -0.3936459 -1.9577917 -1.0917813 0.030403221
304 1.6677547 -0.056783486 1.5075686 0.13324526 1.156678 -1.7351148 2.3908806 1.3858958 0.5431258 0.38182133 0.7649984 -0.2845753 -1.1079211 0.3254208 0.27542925 -0.31561235 -1.3671856 -0.0640884 0.5933384 0.75147367 1.5438915 0.42495707 2.1018045 -0.52630234 0.16550073 -0.9268901 -2.1603987 1.7086097 0.74973184 -1.4214908 -0.09340158 0.0002419197
1037 -0.5762964 0.53892857 0.6739757 1.2769117 0.36573517 0.80267096 1.7627888 -0.4695899 -1.7992946 0.41939044 -0.23682736 -0.46939662 0.49473298 -0.8017817 0.40241763 0.04166227 0.51778877 0.90670174 -0.39250517 1.2414159 -0.18780352 1.9346936 1.6150755 -0.9553302 -0.80419683 0.37977755 -2.2005682 1.2229022 -0.074820995 -0.3724086 0.4049988 -0.17101452
1022 1.8702015 -0.62959975 -0.1500004 -0.28465763 1.8711874 -1.1247622 0.6951342 0.12339723 -0.6300382 0.32787716 0.7328051 -0.88481605 0.008578609 0.17548314 -0.5662468 -0.2862476 -0.74445236 0.4148181 0.60685164 -0.7409257 0.70020485 1.0413278 1.0247935 -3.236609 -0.241105 -0.7478222 -1.1906649 0.4835413 -0.6687796 0.045024585 -0.015975107 0.71827173
12 -0.7177558 -0.6459246 0.82668084 -0.3472519 -0.5258906 -0.40416214 1.6225537 0.6939075 -1.2471871 0.66068363 0.60333204 -2.2253823 -0.3551792 0.06900747 -0.81536454 -0.71471584 -1.2946466 0.2587328 0.18554986 0.4549371 1.3190712 1.061554 1.3860787 0.09910969 0.43498534 -0.6117553 -1.0763856 -0.5984089 0.44369322 -0.32278526 0.19844434 -0.52373254
446 -0.25332633 -1.3967689 1.3896674 0.6348441 -0.7469956 -2.219058 0.8031202 0.10854309 -0.7584991 -0.30881983 1.890886 0.6548351 0.6258999 -1.0685484 -0.3368932 -2.086935 -0.45782152 0.99400616 -0.5313999 0.26115397 0.9021132 1.5613436 1.200915 -0.51632994 0.10007346 0.95220405 -0.30034244 0.41780338 -0.3737473 -1.2233262 -1.3846377 -0.25494194
1458 -0.51113415 -1.1988201 1.0778029 -0.705222 0.5476659 -1.4326371 0.84885895 -0.3770727 -1.7013056 0.0018444906 1.7316904 0.634055 0.49603236 -0.5132224 -0.54378206 -0.18559216 0.16988613 0.88335425 -0.16091582 1.4088236 1.8874482 0.8415781 0.7330137 -0.0019299742 -1.000054 -0.5467008 -1.6951575 1.6544862 0.66281384 -1.5438181 -1.3042395 1.4081169
138 1.0588763 -0.9190088 -0.6061275 -0.24030212 0.94668615 -1.6770573 1.5076889 -0.10345596 -1.00938 0.5497732 1.4188327 -0.8781146 -0.46265516 -0.09686179 -0.9202783 1.0935781 -1.273141 -0.5286347 0.07187901 0.030070532 0.38207722 1.135693 0.66761667 -1.0156311 1.0680088 0.007714203 -0.76130974 0.6889917 -1.4920402 0.912864 -0.79113185 -0.013891886
334 -0.6334437 -0.5939339 -0.13292018 0.78513294 0.47688434 0.24825011 1.2623556 0.79328007 -1.6242164 0.6473921 0.20945443 0.12563829 0.17318696 -0.16272183 0.8797648 0.56917757 -0.4989233 0.245075 0.3567844 -0.16773276 -0.3517816 1.4957786 0.7132374 -1.6472037 0.22478358 0.0010327508 -0.55942565 0.39507407 0.3121263 -2.270073 0.8015041 0.48964834
2727 -1.7794796 0.001449229 0.22875185 -0.019558255 -0.20207551 0.7555457 0.4424758 -0.014062372 -1.2485722 0.2775955 2.4133334 -0.3062484 0.42083263 -0.57869494 -0.13922559 -0.34835908 -0.4933582 0.908205 0.77441895 -0.5010038 0.035647176 2.2057998 1.6333072 -1.4700768 1.6235873 -0.47079292 -1.2715794 0.38816065 -0.34902123 -0.5272128 -0.799968 -0.055607706
1495 -0.54078937 -0.43204004 1.1414952 1.5838194 0.15177551 -0.5563026 1.0048485 0.14768964 -0.23049548 -0.09232949 0.6237268 0.5719031 1.4619174 1.0017049 -0.41487837 -0.11889798 -1.0624292 0.48420787 -2.1391444 -1.0933343 1.5910678 1.7625902 1.7445201 -1.8141478 0.7348957 0.25747555 -1.4312652 1.5535026 0.6009706 0.2558057 -0.8792162 0.47363287
1935 -0.4199733 0.82085896 0.19877852 1.4572399 0.5957091 -0.050746545 1.6878401 -0.61613095 -0.39814878 0.0076264404 0.4739283 -0.018394805 0.90731186 -0.3384592 0.5272635 -0.50529164 -1.0913734 0.5912442 -1.2068301 -0.62355506 0.2496159 1.6365665 1.0869634 -1.7752635 0.27540225 -0.770077 -1.7791016 1.1678553 1.4283109 -0.4285255 0.3682955 0.83753103
454 0.41944662 -0.31724188 0.1949316 0.57991856 -0.24703422 -0.5684582 1.2871766 1.4609584 -0.52522147 -0.700532 1.0516953 -1.0257171 0.34920752 0.17346981 -0.80471146 -0.49127868 -1.6595422 0.90869546 -1.0293503 0.71582925 0.41350618 0.8943933 1.5858623 -0.47559255 -0.80102783 -1.0043594 -0.96251994 0.65246606 -0.013517117 -2.2700472 -0.14398694 1.8185706
634 0.23046426 0.23754571 1.4093874 -0.5540489 1.289678 -2.2941513 1.3672341 0.076247945 -0.46734843 0.72187614 0.16345054 -1.071406 1.0349623 -0.33602554 0.90856445 0.029303543 1.202944 -0.10547514 0.63288033 1.8510165 0.49549794 0.7649408 2.2211947 -0.8094558 1.4360946 0.40850493 -0.5182089 1.1081756 -0.11119452 -0.6471695 -0.41726694 0.8459641
847 0.33231762 -1.2740184 0.56998885 -0.72143495 -0.6702659 -1.0902529 0.9418803 0.15461393 -0.41864118 -0.62242466 0.44439486 1.1131957 -0.16787943 -0.634639 -0.02652198 -2.2570553 -0.34022608 0.5529587 -1.3091475 1.3008832 1.952259 2.099865 1.280543 -1.110605 0.69578725 1.1823679 -0.5054546 -0.43964168 0.009489747 -1.1093271 -0.6090492 -0.034813836
546 1.2822874 -0.59745467 1.4729214 0.516545 -0.04701178 -0.29892173 1.6053965 -0.4352016 -0.43391156 -0.21818535 -0.15006466 0.7477634 0.72879416 -0.45822418 -0.46075997 1.2995236 -1.6555628 -0.13236472 -0.43053144 0.88622814 0.5385632 2.3484595 1.3948601 -0.86832374 0.571008 -0.17490706 -1.0522889 -0.73232794 0.7188717 -1.4997833 -1.9710965 -1.6327821
434 -0.25968096 -0.7595088 0.4239596 0.16918404 -0.25201148 -2.2171338 1.1937141 0.92398256 -0.36742237 0.78324234 0.5388772 -1.0143632 -0.5892594 0.41207218 0.35380876 0.5231706 -0.73854125 -0.49951658 -0.7559205 0.38012853 0.7657145 1.8545495 0.4249101 -0.95501673 -1.28436 0.27256963 -1.8495868 0.39555728 -1.4684948 -2.2323852 -1.811821 -1.1681066
942 1.0130749 -0.9178699 -0.05835561 1.8294889 0.63249636 -0.6217629 1.980786 -0.37910765 -1.7285608 -0.39035717 0.062311035 -1.1973355 0.53807676 -1.0611562 0.08060765 0.16245359 0.24645887 1.1594702 0.25697663 2.0804684 -0.48757166 1.9220542 1.6413924 -1.6656837 -0.03183703 -0.295256 -0.8664134 0.54815996 -0.74586594 -0.47391474 0.347578 -0.43679044
115 1.331731 -0.119658075 -0.47025517 -0.48721114 -0.48646432 -0.48100698 1.3686794 0.67505413 -0.34693825 0.27444848 -0.2585709 -0.3499862 -0.67047375 -0.1317801 0.016183395 0.09772074 -0.78615445 -0.38397706 -0.8614193 0.14733875 1.4652028 1.876887 0.0327198 -0.3062454 1.2901804 -0.56942195 -0.48186612 0.055435933 0.10313139 -1.434905 0.77542347 -1.0407683
2211 0.53134227 -1.1283758 0.5317537 -1.5038954 -0.38729894 -0.8617391 0.53293306 0.24198525 -1.1372441 -0.07576386 0.40859178 0.5939044 -1.0273905 -0.13605614 -0.3012522 -1.579338 0.07020758 0.34659952 -1.1009433 1.8168017 1.5177414 1.7952186 2.3850906 -1.7812632 0.62044567 1.4406308 -0.92454827 -0.47504196 -0.28718978 -1.5641818 -0.84257823 0.4189473
368 0.9859673 -0.60341495 -1.3967007 -0.573977 -0.13552624 -0.8194171 0.43656418 -0.055636007 -1.3211681 0.08783634 0.94666785 -0.7954976 0.33203733 0.77466995 0.48896456 -0.3543499 -1.0857915 -0.009154795 -0.97148865 -0.20766275 1.5490719 1.1395754 1.3102058 0.3267977 0.41201812 0.35922286 -1.1324725 1.4080127 -0.65786713 -0.76711035 -0.2774965 1.2448717
523 0.65746444 0.1904977 1.341871 0.24397348 0.3303992 -1.8304366 0.087799564 -0.6561761 -0.7352171 0.23789687 0.7781391 0.15188171 1.0768504 -0.75161445 0.31864762 -1.1203369 0.037444808 0.43971312 1.1312034 -0.7415691 0.67812425 0.724617 1.6907349 -0.2931575 0.08137997 0.5571742 -2.2604399 -0.8470965 -0.6027864 -1.5408511 -0.566211 1.3690559
296 -0.45932654 0.5676329 0.82567173 1.234416 0.6996694 -0.15341024 0.7687508 -0.661168 -1.2508116 0.2576074 0.3066053 -0.11254946 0.27002186 -0.38281506 0.21615237 -0.3633961 -0.2469767 1.029263 -0.15873024 0.74578804 0.5152349 0.920114 0.42871013 -1.160459 -0.7895223 0.5750716 -1.9086639 1.3916616 0.68718946 -0.045820817 0.40792555 -0.90471935
128 0.18668741 -1.4909889 0.88010526 0.3146574 1.0864793 -0.72559184 1.0179396 1.4537466 -1.5865562 -0.6228496 0.54557043 -0.042056818 -0.87317973 -1.295219 -1.35704 -0.4214759 -0.35387146 -0.08787933 0.019951047 0.40846318 0.70987594 0.32459867 0.8934151 -0.9294354 -0.4742936 -0.25061518 -0.69034064 -0.01900658 -1.2512953 -1.2038743 1.0049382 0.23665464
3 -0.16448216 -0.62777495 0.81467825 -0.43193492 -0.35486585 -0.4088253 1.989605 0.81539935 -0.79776514 0.30303997 0.90733737 -2.236632 -0.24109031 0.019719213 -1.0906031 -0.87590545 -1.1428143 -0.33187303 -0.05299593 0.26165935 1.1612633 1.1808867 1.4683162 0.030460304 0.41390654 -0.4722599 -1.1771708 -0.7943057 0.6463531 -0.12561893 -0.2800937 -0.50966364
495 0.016737947 -0.33312592 -0.14703593 -0.7708792 1.18053 -1.03686 2.0298295 0.13155456 -0.1152309 1.3757033 -0.039727956 -1.2924228 1.3680575 -0.7286121 -0.21047015 0.2725328 -1.1519977 -0.59866375 -0.39354375 0.8565533 0.33544844 1.8187017 2.6522634 -0.9855885 -0.66701293 0.22506195 -1.2481738 -1.6044056 -0.63120216 -1.3458023 -0.030087277 -0.1701577
329 0.21091399 -0.27321762 0.5709163 0.20886274 0.03954677 -0.79797333 0.8977332 -0.030632442 -0.3310483 0.26717463 -0.95007014 0.26275325 0.36145583 -2.295957 0.82477593 -0.5390411 -1.2144188 -0.8157979 -1.4032094 0.44578645 1.5330039 1.8320631 0.35671803 -0.89239514 1.5151725 -0.46769485 -1.5915594 0.38190562 -0.036166873 -1.9113193 -1.2640854 1.6444796
1490 0.72589374 -1.1151379 -0.6205746 0.9276703 -0.2682201 -1.9153587 0.40556958 0.7885616 0.08702257 -0.076504044 0.28358504 0.7003617 -0.7655632 -0.65826637 0.10794755 0.02099026 -1.3715713 -1.2430469 0.5153404 0.92430735 -0.8227744 0.5197632 1.4709071 -1.1708274 0.8107308 0.14372055 -2.530243 0.41141343 -1.3132902 -0.677524 -0.53632534 -0.5420499
35 0.3412464 0.24737623 1.3911015 -0.3794119 0.9540484 -2.0770125 0.8369893 -0.16729029 -0.32098433 1.0164409 -0.16598321 -0.6589116 0.6661657 0.16936605 0.638919 0.3600975 0.7077598 0.0008873588 0.31087032 1.5868134 0.14328934 0.55941623 2.2038665 -1.1887231 1.0091872 -0.32887295 -0.6605276 0.9676507 -0.59196967 -0.6837442 -0.3491374 0.8670858
697 -0.19803639 -0.62242967 0.31525183 0.16586633 -0.023394387 -2.1727884 1.0332276 0.82381064 -0.31376013 0.7157168 0.54981935 -0.97878164 -0.2649823 0.37769836 0.5146818 0.58044964 -0.8874892 -0.71580994 -0.43351862 0.4400609 0.7367397 1.7633386 0.14933506 -0.83540154 -1.3917392 0.3922177 -1.5899664 0.21205492 -1.360745 -2.1170752 -1.6021296 -0.94131017
116 1.4632317 -0.61412215 1.8008338 -0.08696782 -0.79471517 -1.2660965 1.3689497 1.2390676 -0.30848175 1.52504 0.681295 -0.44210532 0.372023 0.530547 -0.52793807 0.43160143 -1.3159741 0.9449887 0.391182 0.96228737 2.4618921 -0.039781645 0.78079873 -1.064305 0.4348019 0.118760064 -1.796055 0.4613956 0.033753693 -1.3254554 0.30711484 0.7527859
117 0.3826932 0.40877008 0.023031892 0.3976759 0.6105094 -0.9763251 1.1695333 -0.6065807 -0.71282655 -0.3198236 1.0439562 -0.30827096 1.2186168 -0.71818095 0.039972737 -0.75505954 -0.56978434 0.6353872 -1.2466989 -0.34137127 -0.5238826 0.7704885 1.6329114 -2.3021638 0.8534596 -1.1693988 -1.0595849 0.30236027 0.865152 -0.42887235 -0.5063242 0.39243227
539 -0.9882655 -1.5024822 -0.5448034 0.70171475 -1.2625732 -1.283581 1.7676896 0.6627055 0.17699437 0.2531268 -0.008330701 -0.41152552 0.040516138 0.1455723 -0.44017434 -0.986731 0.25068462 -0.3438806 -0.58971536 1.3999693 0.07969557 0.23762058 1.0851113 -0.70790184 0.11499677 -0.23994596 -1.5626056 0.34688205 0.46246514 -0.27368873 -0.3760028 -0.5710077
570 -0.092811264 -1.6915901 0.46331668 -0.4297055 0.75390697 -0.44311312 1.3605281 0.87004346 -0.16783753 0.21826227 -0.5946764 -0.005147357 0.50214714 -0.95497924 -1.441949 0.016923778 0.3025327 -1.2748011 -0.6514179 1.1904157 0.71310097 2.2849154 0.83995557 -1.0766784 -0.18928882 -0.54482615 -2.5459425 0.92071813 -0.49172902 -1.0003492 -0.55532634 1.4204509
629 0.76232 -1.021381 0.49514228 0.0135802515 0.88369465 -0.8889947 0.5654729 -0.16459358 0.17463611 0.20504113 1.097759 -1.8061976 -0.001289096 0.2394107 0.50767785 1.0550702 -0.48092023 0.5666668 0.49028346 0.6116412 1.6413623 0.86698383 0.4297649 -1.4713116 0.53568834 0.18344443 -0.77850753 0.25931367 -0.06427242 0.1590616 0.58737093 0.6434219
258 0.32536262 -0.30907896 0.36223525 0.41093203 -0.016137892 -0.69567746 0.6095646 -0.11255982 -0.23966718 0.22402035 -0.73267883 0.21152505 0.32362756 -2.1241603 0.7023858 -0.39263552 -0.8280259 -0.49842444 -1.1393617 0.5005697 1.1512184 1.6494356 0.27929616 -0.6208014 1.2320037 -0.35301802 -1.324453 0.44291085 0.11135936 -1.5886384 -1.0759524 1.3988389
962 0.66952807 -1.2611908 0.42941406 -0.96597934 -0.69555455 -1.1837999 1.0055654 0.34375232 -0.46443224 -0.49528548 0.44996157 1.0458518 -0.48165238 -0.90902877 -0.023411764 -2.1694973 -0.46765003 0.4435851 -1.08209 1.6359755 1.8934855 2.1030977 1.5014282 -0.93566334 0.5072618 1.0100392 -0.4584048 -0.7622786 -0.30470425 -1.4553906 -0.7977728 -0.026626362
686 0.66497886 -1.3741378 -0.34571835 0.6467392 -0.12668881 -1.4436109 0.4269104 0.59233695 0.41912708 -0.13192351 0.8029223 0.92913467 -0.57668895 -0.70009613 0.37745014 0.28814298 -1.1968783 -0.80184156 0.6511096 0.24978319 -0.70455 0.8279573 1.5718318 -1.2607311 0.70161486 -0.1704372 -2.0331252 0.6451491 -0.72667843 -0.53532076 -0.50555366 -0.55290794
601 0.010961016 -0.93313473 0.9643193 0.99668306 -0.9922907 -1.9862748 0.38755992 0.61954796 -0.34970167 -0.07109299 1.448272 0.42089677 0.903527 -0.5569266 -0.80937487 -1.6012055 -0.7267814 1.2654638 -0.75039804 -0.9827874 0.56801546 1.3958633 1.7705666 -0.77199566 0.8176819 1.071744 -0.33738223 0.49598566 -0.6821239 -0.60517055 -1.5279484 -0.3638822
856 -0.13690817 -0.2601345 0.7758398 0.6357618 -0.8583904 0.1627854 0.7986865 0.045492183 0.71945995 0.43169785 -0.6275821 -0.33803642 0.67093664 0.45199692 -0.3397566 -0.5283494 0.9095932 -0.46638528 -0.9370532 0.7354142 1.082967 0.8015858 0.8271487 -0.5094816 0.012297154 0.63622254 -1.6262594 -0.35717058 -0.31410292 -1.2692863 -0.26235545 -0.6212483
1228 1.9345777 -1.0523806 0.31024742 -0.32985365 1.025641 -0.9866731 -0.031557918 0.5965733 -0.45711896 0.41737345 -0.3134741 0.32313928 1.1060632 -0.78401977 -0.5460473 -0.26843828 -1.4954336 1.4529948 0.024390219 1.5837322 0.25435498 1.7696515 1.0950748 0.68889844 0.4363966 0.36341628 -1.3474351 -0.07430674 0.6212052 -0.9608559 0.33018473 0.4135245
455 -0.5006583 -0.5248581 2.205863 1.7253251 0.12689334 -0.57568514 0.54956555 0.6715181 -0.66785794 -0.14410417 1.4264106 0.45449024 1.016574 0.5759274 -0.21775834 1.0020472 -0.21947026 0.040630188 -1.6428626 0.5221771 0.9514454 1.3874202 1.4661832 -1.4896748 0.813661 -0.14227822 -0.90462273 0.9572784 -0.030115107 -0.028630236 0.08784884 0.20425244
277 -0.6839717 -0.27141044 -0.09123333 1.4122458 0.8311221 -0.21592338 0.44516367 -0.80559903 -0.29072535 0.62657946 1.1181673 0.08766189 0.23325399 -0.18179998 0.59762734 -0.73083746 -1.3297504 0.5330279 -0.25632647 0.07845774 2.0555084 -0.038896106 1.4713477 -1.56932 0.1027788 0.06625691 -0.5846856 -0.114116184 0.743036 -0.4375337 -0.41197425 -0.8019082
181 1.1717445 -0.9361411 -0.12831736 1.0060592 -1.0713686 -1.4142345 1.0581781 0.7879001 0.21647722 0.12794541 -0.40063283 -1.1844115 -0.15280108 -0.124327935 -1.3090715 -0.09384987 -0.06889701 -0.253216 -0.77669936 0.17142907 1.5015264 1.1618968 0.63810474 -1.1315356 -1.317994 0.58707756 -1.6982833 0.3457331 0.52104753 -0.6963541 -0.6124604 0.65322095
477 0.5367516 -0.74688214 1.953507 -0.31759134 0.9925483 -0.83929235 1.125817 -0.23911016 -0.32393292 -0.25142223 -0.8216892 1.4874535 -0.022698775 -0.5189009 0.04885278 0.06791563 -0.86467874 0.45010787 0.45505556 -0.19080184 0.17514436 1.382322 1.2511839 -0.9860291 1.447231 0.22984304 -1.9657015 -0.66233104 0.17523775 -1.2013029 -0.61248475 -0.5347748
1261 0.25671247 -0.60828805 1.7837893 0.2894685 0.44179407 -1.7231929 0.91844666 0.21552153 -1.6128808 1.1457465 0.06213656 0.2542577 -0.39573956 0.31011006 1.1953762 -0.30017504 -0.44571683 0.013868142 -0.49499488 0.78159595 1.024903 1.8184274 -0.7484084 -0.35880283 -0.51700175 0.5170454 -2.14019 1.6351519 -0.15554783 -0.41627896 0.39820835 -0.9237597
586 0.61859465 0.34800866 1.1810158 0.3677502 0.53212994 -1.8163552 0.31665862 -0.053517587 -1.365512 -0.023203805 0.61375713 0.3281562 1.3883147 -1.2151017 0.57826334 -1.2823524 -0.63034904 0.45002076 0.765534 -0.7107487 0.6657095 0.4306309 1.831687 0.17385891 0.059466604 0.43279722 -2.201865 -0.5134692 -1.1604422 -1.2418705 -0.43992287 1.1716666
1281 1.2917691 -0.39743137 1.3848172 -0.84648705 0.38401717 -0.74658847 0.31019703 0.9833639 -0.5983825 0.17119128 0.1778393 -0.47172734 -0.5793724 0.55571747 0.13582866 0.217281 -0.019249342 -0.7032964 -1.6042402 1.2150106 0.8181424 0.91762054 1.6329926 -1.9402841 0.5911043 1.1779965 -1.2035933 0.1923516 0.09154096 -0.7019535 -0.07323905 1.4503111
168 0.02690586 -0.5304977 0.798067 0.20909674 0.10682667 -0.61560017 0.7290879 0.07707056 -0.36167327 0.39511782 -0.69186074 0.08974793 0.2770114 -1.8164247 0.71257216 -0.611199 -1.0738155 -0.62534595 -1.171897 0.4588164 1.262142 1.6212268 0.31845224 -0.67899793 1.2985514 -0.56932634 -1.5283575 0.5430533 -0.08294032 -1.7004318 -0.99589676 1.5742468
82 -0.24723779 -1.1921488 -0.012840503 0.113757856 -0.0057255416 0.27310002 1.1336403 -0.6762751 0.30720213 0.9036224 0.5400161 -0.11847628 0.20192997 1.0365086 -0.22148025 -0.83722216 0.8741995 -0.17343414 0.2819835 0.33569878 0.64874715 1.4657294 1.2265626 -1.0413388 0.96113205 0.08674704 -1.7084211 -0.40981957 -0.53079104 -1.0699326 0.69997543 -0.52425975
524 -0.14866902 0.26712996 0.10959167 0.6501209 -0.36692178 -0.59386957 0.13793314 0.1421848 -0.34713885 0.44021514 -0.46512127 -0.25977376 0.66682214 -1.4821419 0.31541175 -0.102609456 -0.08957482 -0.31302717 -1.35429 -0.36931798 0.62687075 1.2738764 0.03459315 -1.1918222 1.2835706 -0.06718477 -1.076241 0.512099 -0.014797291 -0.6610296 -1.21911 0.95957756
509 0.043647707 1.0347148 -0.007465218 1.3687071 0.3276486 -0.47973585 1.3812264 -0.6904765 -0.0863152 0.23933136 0.8598809 -0.7474882 -0.20801798 -0.6764913 0.24692887 0.118597224 -0.81802374 -0.05067758 -0.5569294 0.30497727 0.36584166 1.0600938 0.96578366 -0.7557211 -0.1546674 0.67348874 -0.43459374 1.1550199 0.89424413 -1.327396 0.44088152 1.463274
178 -0.74343675 -0.79145217 0.4939599 -0.05161478 0.02140766 -1.8805549 0.23555595 -0.47530144 0.22507505 1.4237543 -0.17641461 0.08861216 1.3433912 1.0146877 0.46335563 -0.26648188 -0.090517186 0.82812315 -0.95572245 0.4684952 1.32298 0.31818748 1.2870964 -1.3088454 0.5385708 0.39152429 -1.030979 0.69958025 -0.59886897 -1.4500184 0.099839374 -0.0322257
762 -0.0117096165 -1.7785273 1.4178336 1.1508415 0.29966187 0.41682553 1.1080711 -0.14333697 -1.6607492 0.95981014 1.7291257 0.37232354 0.86066973 -0.020195583 -0.48914197 -1.566725 -0.8825731 0.48696196 -0.14080805 1.1338303 1.3442217 0.34217948 0.075546674 -0.8024544 -0.76836026 -0.77448374 -1.4195067 0.20782529 -0.1568859 0.28965557 -0.8007935 0.46024922
858 0.82025206 -0.47795126 2.069917 0.31463173 -0.06294622 -0.6892651 0.2377197 0.19444844 0.08619421 -0.21797615 -0.033218037 0.23360676 -0.43527555 0.82422316 -0.86058736 -1.2239636 -0.1438151 0.31812298 -0.061692104 -0.78734314 0.8449722 2.1204376 0.57753277 -1.3205166 0.06783472 0.07198452 -1.8390915 2.002147 0.8263788 0.17841579 -0.4609346 0.49673566
1157 -0.5684514 0.58618736 0.038429976 1.0320951 0.75835365 -0.30614746 1.2290385 -0.54920274 -0.2758441 0.45821053 0.32298043 -0.049797125 0.6344365 -0.22903952 0.24680449 -0.38660848 -1.3125377 0.26226997 -0.6096929 -0.42936555 0.72963685 1.4711463 0.86561507 -1.6294305 -0.025585854 -0.42715257 -1.6695267 1.2155453 1.0562088 -0.3709188 0.25890428 0.8317567
32 0.97773224 0.30824924 0.93056726 -0.13675645 -0.30269328 -1.6975983 -0.5682979 0.034014534 -0.122561984 1.5559844 1.077571 0.12794887 0.49856746 0.07705631 0.055036746 -0.14912271 0.104830705 -0.4192317 0.7524748 0.79850775 1.1016777 1.6142539 0.9543618 -0.43757015 0.5613685 0.9281711 -0.9159288 0.49053285 0.1497373 0.2732616 -0.058109872 -0.687309
846 -0.7084327 -1.1722026 1.4096373 0.5867852 -0.37027052 -1.6727595 0.9552279 -0.1882408 -0.49263954 -0.5134965 1.6116376 0.6757455 0.93176067 -1.1042225 -0.26466954 -2.0240054 -0.6242565 0.90698814 -0.61826366 0.34257635 0.8871803 1.5721134 0.8871998 -0.74959373 -0.13133894 0.67468804 -0.29021755 0.03620057 0.077519625 -0.74715894 -0.577131 -0.3773082
582 0.36579326 0.2637097 -0.34244287 0.83211213 0.7193264 -0.51187277 1.2503366 -0.17476548 -0.8549232 -0.24527062 1.072085 -0.44609612 0.82864046 -0.49693707 0.3969717 -1.0901022 -0.2721203 0.6808469 -1.3919156 -0.77203935 -0.5423884 1.5136305 1.2593311 -2.220471 0.8510503 -1.1162274 -1.1467888 0.7794179 0.87766355 -0.4996016 -0.44495952 -0.07221823
280 -0.34803617 -1.1005602 -0.9447616 -0.0055972836 -0.14292122 -0.098458834 1.0071082 -0.4268535 -0.28236857 0.13004312 1.6568179 -1.1200975 0.34006903 -0.12288978 0.6233538 0.45686013 -0.6717122 0.5339391 0.601803 1.0646583 0.7638198 2.221351 0.8278818 -1.5720165 1.2529815 -0.44764245 -2.422703 -0.16487512 0.0017864204 -0.018622695 -0.39790753 -0.36344337
960 0.6380299 -1.1022158 -0.69267714 0.88141316 0.6325866 -1.1090475 1.9481597 0.05468466 -0.9471122 0.40649432 0.49062857 0.34130934 -0.3782312 -1.1930867 -0.16357559 1.0133244 -0.05565834 0.7177853 -0.47021928 -0.615288 0.26117972 0.43430328 0.7578197 -1.9385473 -0.09957682 1.1371224 -1.594681 0.8554272 0.24482188 -0.596963 -0.2280066 -0.1472131
468 0.72697705 -0.46873307 0.6365123 -1.2678001 -0.024374563 -0.78169465 0.32561502 0.4998062 -0.8791735 0.030490186 -0.055583213 0.13131137 -0.85792226 0.06724277 -0.091546044 -0.81482816 -0.050126307 -0.08880594 -1.0800569 1.5497607 1.1251721 1.2944034 1.8693165 -1.7965969 0.37421128 1.2229397 -1.0183208 -0.25472954 -0.039267085 -1.1715529 -0.5902467 0.71779275
1566 -0.9504194 0.24919336 0.5087945 1.4737608 0.36417565 -0.3081569 1.2279389 -0.71201086 -0.17627567 0.49194857 0.19846973 0.24170563 1.3500668 0.43236932 0.04844913 -0.2034173 -1.708904 0.6661564 -1.3476034 -1.0268532 1.515161 1.4847071 1.2580736 -1.6346332 0.4314244 0.101766445 -1.6727787 1.2570215 1.1217542 -0.2028321 0.18484046 0.68343663
520 -0.0026073582 -0.3237357 -0.17065394 -0.70221794 1.0815423 -0.9819944 1.8781512 0.099369906 -0.17704634 1.3656089 -0.0386286 -1.1990744 1.2366261 -0.73121864 -0.28363183 0.3227297 -1.1120743 -0.46111393 -0.36570778 0.82578987 0.34934545 1.7781445 2.636138 -0.8233358 -0.6457015 0.19966939 -1.30471 -1.4730865 -0.6630703 -1.3299148 -0.09125123 -0.22234786
1232 0.3963504 -0.20617029 -0.10306421 0.8885801 0.078727454 -0.2131261 0.92047924 1.3539531 -0.40438542 -0.40878454 0.9200889 -1.1774955 0.24569224 0.14279282 -0.6596933 -0.4837254 -1.7053568 0.90874326 -1.1279933 1.0859921 0.84848243 0.834621 1.9057599 -0.37544924 -0.71373767 -0.81149334 -0.8181357 0.6618411 0.045010988 -2.2072926 -0.426446 1.4933558
1436 -0.7044637 -0.1556982 -0.013609202 1.3511415 0.48487997 -0.15538222 0.6213242 -1.1270828 0.01279773 0.62842077 0.4618951 0.19711562 0.74455947 -0.03793893 0.40699595 -0.20474665 -0.91512156 1.3223052 -0.5253084 0.18383975 1.6114849 1.0029957 1.1067201 -1.8977661 -0.6238616 0.30302238 -1.2777166 0.77721006 0.7913667 -0.47671917 0.29184937 -0.95775086
2715 1.0848038 -0.18801557 -0.12660113 -0.06316165 0.51983917 -1.2049633 0.3259424 0.79025984 0.6137679 0.62152743 -0.48599854 0.5820246 -0.05707285 -1.7970243 -0.20809008 -0.8778081 -1.6378298 0.31259343 0.08913866 1.609233 1.3712575 1.3526878 0.4874342 -0.0193532 0.7607107 -0.62076074 -0.9747333 0.3931789 1.280802 -0.45758593 -0.39632267 0.5867815
2141 -0.645487 -0.45037848 0.6620156 0.579726 -0.0014243909 -1.112283 -0.06764104 -0.99790484 0.18288943 1.3346171 0.064352 0.055110235 1.5399975 1.4241306 0.39619768 -0.15057239 -0.18941206 0.13848014 -1.3788568 0.5393391 1.5997356 1.0625261 0.5366078 -1.4989479 0.9302515 0.31776038 -1.6207455 0.22792225 -0.6268556 -1.3687346 0.9289393 0.015689582
188 0.22528973 -0.66797715 -0.39288378 -0.23815738 -0.5700976 -1.8226191 1.9904116 0.10754673 0.6874179 0.3337313 -0.25532717 -0.3088636 0.5750423 -0.73705363 0.24193229 -0.14236659 -0.17670023 0.7695332 -0.08072442 -0.0145141715 -0.5698434 0.7567949 0.07986643 -1.3278271 0.50887066 0.025969082 -1.5267184 0.911635 0.20449997 -1.0659968 -0.3704898 -1.1786307
221 0.7119852 -0.19340935 1.2801479 -0.9201731 0.69653046 -0.17260437 0.5625816 0.3496855 -0.8413833 0.040419083 0.4240846 -0.23481399 -0.58958435 -0.056905 0.13900587 -0.39444485 -0.03561656 -0.75128406 -0.8138413 1.0815665 0.27500758 1.0827384 1.3425192 -1.9212285 0.46394348 1.1056532 -1.410257 0.18590422 0.01588471 -0.7331714 -0.17542742 1.4615943
247 0.94673234 -0.3550419 1.266395 0.35304523 1.3102956 -0.8769714 1.2392657 -0.47197673 -0.5372377 0.806965 0.8798622 0.6779222 0.11774022 0.22793134 -0.4210796 -0.5520952 -0.5434571 -0.21210074 0.1206615 0.43491697 -0.70159227 0.7125273 0.5193274 -1.1987175 0.4382802 0.68388563 -0.55184543 0.11599554 -0.53025186 -0.08995006 -1.2879733 0.8492631
1954 0.6068172 -1.7557914 0.41387662 -0.049218662 -0.05071214 0.52022314 0.063452356 -0.16731955 -0.41432047 0.54216725 -0.2407246 -1.106114 0.35030764 -0.35171753 0.6393642 -0.73235494 -0.4332391 -0.32988396 -0.2153376 0.43427017 0.8698579 0.45936158 2.3735304 -1.0717866 0.6473496 0.65508014 -1.3846034 2.2864559 -0.29857033 -0.972653 -0.62252474 -1.4588019
893 0.6041492 -0.0024549842 1.1506449 -1.1489445 0.88332516 -0.19430424 0.6067867 0.3999936 -0.90466434 -0.0131647205 0.28150958 -0.068165466 -0.46342134 -0.11404174 0.199628 -0.44450268 -0.06410432 -0.92913765 -0.8686568 1.4116508 0.09803031 1.2239567 1.3531084 -2.237757 0.49777436 0.99077064 -1.432149 0.29008862 -0.086382836 -0.9280262 0.024078244 1.463327
335 0.649966 0.13649707 1.3250226 0.35929114 -0.030678788 -0.7457116 0.31098503 0.5122569 -0.40571344 -0.30933535 0.26950613 0.5372389 -0.7260524 0.3562384 -0.7017615 -0.68952954 0.21655603 -0.09129486 0.2133744 -0.7283126 0.9137167 1.5815018 0.66656655 -1.054501 0.31243056 -0.24801357 -1.3814378 1.2881027 0.051959816 0.5157876 -0.25444278 0.19814175
161 1.5853238 0.42380914 1.172377 -0.015407158 0.03964017 -0.116083145 0.53819233 1.2599833 -1.3622277 0.475001 0.965495 0.100192 -0.11343791 -0.78028905 -0.9420674 0.9699326 -0.80745536 0.48088297 0.035932068 1.3267992 0.35488164 0.3535519 1.3309289 -1.136405 0.8847329 -0.562029 -0.39919096 1.099063 -0.5192461 -1.4163985 -0.14495696 0.19665337
897 1.2603886 -0.2004022 1.3471055 0.18645276 0.6602246 -1.2742689 2.0643198 1.2212691 0.59337413 0.4721539 0.95945376 -0.5484405 -0.92853713 0.56196195 0.20570475 0.15218034 -1.2028365 -0.03412104 0.5956162 0.83122337 1.5337012 0.23061623 1.5596294 -0.48910683 0.36686665 -0.81083435 -2.1095011 1.1004484 0.67723554 -1.0656593 0.2382701 -0.02470375
402 0.7534632 -0.6474102 -1.1622124 -0.15506606 -0.48110706 -0.874429 0.25519904 0.11623676 -1.1168655 -0.8047178 0.9384068 -0.73423237 0.91631 0.6486851 0.94390213 -0.15912884 -1.6296654 0.0027485536 -0.93444335 0.30269986 1.5001919 0.96240115 1.7771175 0.35453215 0.50410026 0.51010025 -0.52817744 0.676668 -1.1614683 -1.000984 -0.1794164 0.6658392
766 1.384281 -0.62953347 0.22740115 0.7392955 -0.7235312 -0.6543126 0.7154653 -0.31300545 -0.27562156 -0.89036703 0.8105221 -0.44516298 0.106958754 0.7703322 0.9123927 -0.2683362 -0.3558595 0.06621258 -0.6343964 0.68780184 1.9724722 1.5315715 0.18924269 -0.6339195 -0.5115896 -0.27058846 -1.4590609 -0.051011216 -0.15975238 0.04379478 -0.79893845 0.17973347
500 1.4418539 -0.037404224 1.3305883 0.22316432 1.0091974 -1.5052446 2.2052407 1.2739 0.56507397 0.33145285 0.9035912 -0.32818165 -1.0589212 0.31465077 0.28048432 -0.06740757 -1.1834278 -0.11661371 0.5493811 0.68801814 1.4140089 0.42532447 1.8587584 -0.39938655 0.28561237 -0.86426926 -2.0374026 1.526188 0.6466492 -1.2088497 0.0071674697 -0.031538967
761 -0.34428927 0.32547018 0.66828406 0.6754211 0.35027114 -1.4116113 1.2786955 -0.48858598 -0.6289982 -0.7012335 0.21228293 -0.5224629 -0.74531007 0.037377622 0.40678588 -0.8281452 -0.11084729 -1.3199593 0.050349414 0.9799129 0.58334327 0.5892279 0.26818478 -0.6578058 0.31280634 0.8719747 -1.4067643 0.8469004 0.35848802 -1.5695664 -0.39972904 0.039424967
1090 1.5781045 -0.40923142 -0.05183983 -0.0064598215 1.5139487 -0.3591284 0.72539467 -0.22556368 -0.73655665 0.5187696 0.31732613 -0.9569232 0.12567829 0.056318738 -0.24201466 0.093326405 -0.7284568 0.29830873 0.2880121 -0.40836412 0.3089292 1.2350882 0.74634033 -2.8914049 -0.43908018 -0.38476202 -1.3286501 0.5821396 -0.2647073 0.24356228 0.10122283 0.92554754
522 -0.046742883 -0.28888905 -0.13693568 -0.78945965 1.0561535 -0.94898504 1.8980364 0.08018051 -0.08846492 1.2729669 -0.015912332 -1.1651292 1.211631 -0.6673907 -0.23474056 0.22219685 -1.1392593 -0.56823814 -0.34219018 0.7991159 0.27793205 1.6943923 2.549738 -0.90436894 -0.6171432 0.17609368 -1.1808934 -1.5124215 -0.56581926 -1.3196422 -0.027228242 -0.1956163
492 0.36433992 -0.31029654 0.5654993 0.4106285 -0.6331727 -0.861877 1.6613641 0.45409185 -0.0375252 1.0251793 1.3034196 -0.6265254 0.10841442 0.12344372 1.2989547 0.47506914 -0.8139704 -0.43939865 -0.35139787 -0.15888935 0.44758844 1.893809 0.6089434 -0.059178263 1.1973175 1.350369 -2.3038287 -0.3021579 0.6659547 -1.7287395 0.52267873 -0.18813719
908 1.3014319 -0.5610443 -0.27161384 0.54430884 1.0897243 -0.50262475 1.6625202 0.16479908 0.13614424 0.7028802 1.5899969 -0.5633447 1.1210874 0.41771945 -0.075613804 -1.3696116 -0.76507074 -0.065926425 0.2697796 1.1469471 -0.13697259 1.3457872 1.0048037 -0.21101543 1.0594183 0.5096977 -0.3624434 0.2589546 -1.148685 -0.50164086 -0.5213578 0.6688558
1370 -0.3305571 -0.9049628 1.7146058 1.6732997 -0.4739203 -0.66496897 0.12080405 0.5691704 -0.20792452 0.12341729 1.3687595 0.3091847 1.2171197 0.4914651 -0.3784113 0.43895662 -0.5233916 0.23894395 -1.43303 -0.2948487 1.1865591 1.0931181 1.4933509 -1.2587043 0.7689846 0.25417832 -0.6595196 0.8526334 -0.32234916 0.12883516 -0.8295402 0.12535968
68 -0.583962 -0.47566494 0.6842586 -0.51637584 -0.29215965 -0.39677802 1.5170199 0.47107938 -0.80568415 0.59773177 0.53727585 -1.7657175 -0.06141426 -0.073657624 -0.70211065 -0.53764135 -1.1790769 -0.015587684 0.22113183 0.16181785 1.0770833 0.91089225 1.1635933 -0.0913733 0.3053416 -0.40533504 -0.84984666 -0.6241602 0.35602483 -0.16858087 0.10205044 -0.54118717
2355 0.4517221 -0.08392688 -0.37560222 0.4581137 1.7720398 -2.0983572 1.8582594 -0.7282588 -0.24562792 0.5983653 0.49244842 0.730356 -0.39669618 -0.19522327 -0.6605702 0.7904488 -0.6675535 -0.4028309 0.1728659 0.83150744 1.1875702 1.522542 1.545228 -0.7557035 -0.05709471 0.12534103 -0.7920839 0.8538906 -1.5344511 0.69769144 -0.29978663 -0.49375087
1944 -0.43176094 -0.78401005 1.259908 -0.66387665 0.49937266 -1.46559 0.6824911 -0.63232934 -1.5894552 -0.051992666 1.4111537 0.5880304 0.3448271 -0.6214269 -0.1861789 -0.31842586 0.08654793 0.556739 0.11326203 1.3048636 1.731305 0.8160484 0.9335136 -0.08955119 -0.87362385 -0.6942859 -1.9442732 1.556667 0.47754315 -1.4706647 -0.99690217 1.3191102
1031 1.6126598 -0.4088096 1.0482935 0.82660455 -0.63387924 -0.15902224 0.84617084 0.0070530926 -0.9039226 0.8296455 0.4573238 -0.23859206 0.9537881 -0.8861499 1.215287 -0.41388613 -0.7214169 0.030825304 -1.7675252 0.32042298 0.591969 1.4395943 2.430176 0.26373854 0.048771653 0.2591326 -0.63748306 -0.39137432 0.4367993 -0.83059746 -0.109982416 0.5976605
946 -0.6303355 0.2871076 0.44354865 0.30047333 0.64270175 0.3831715 0.8773711 -0.2270058 -0.6233225 0.3863963 0.10062491 0.1680337 0.25188127 -0.48748773 -0.2003081 -0.20560768 -0.32267588 0.138361 -0.039563023 0.15275322 0.051264763 1.1018255 0.56068027 -1.0947502 -0.20873378 -0.06854592 -0.97656035 0.028195463 0.44812304 -0.48484525 0.44782022 0.6418989
663 1.1930823 -0.48780054 1.3958268 0.55603606 -0.14867787 -0.28249878 1.542881 -0.43162647 -0.5637453 -0.21596916 -0.23301402 0.65870756 0.6179501 -0.30646706 -0.43376666 1.1826525 -1.6005641 -0.07762009 -0.32081074 0.96224606 0.4807066 2.1316142 1.3439628 -0.80778795 0.53620785 -0.21512428 -0.96863186 -0.75332046 0.5797309 -1.473665 -1.8433801 -1.5908301
305 1.1782329 -0.31369826 -0.23137563 0.10922079 0.5791354 -0.7447327 0.034267288 0.08904606 0.05728547 0.4582044 -0.38624105 0.1901958 0.22401573 -0.92988676 -0.06806892 -0.49294508 -0.969539 0.5183608 0.07936902 0.8774311 0.5224381 1.1711224 0.6495519 0.2290425 0.33450094 -0.25756988 -0.9992726 0.19389024 0.7143102 -0.4953002 0.17435727 0.46280608
458 0.90720934 -0.6598328 0.030431753 -0.16107967 1.7278309 -1.3068616 1.3741093 0.11050874 -0.5252072 0.5948599 1.0369844 -0.7191317 -0.29372168 -0.25336722 -1.027065 0.50340885 -0.5414569 -0.3751761 0.07969343 0.2718108 0.6592516 1.553942 0.60284597 -1.5297115 0.6504013 -0.54138446 -0.46938828 1.1570845 -1.3145577 0.739508 -0.29227453 -0.50742126
1832 0.10371565 -1.383622 -0.25318918 1.0173528 -0.15543395 -1.3050168 0.19116727 0.4443761 0.71655506 0.039825168 0.44834515 1.0222517 -0.512426 -0.93500024 -0.11189832 0.5644357 -1.6710002 -0.7071322 0.85396224 0.96035063 -0.36897048 0.7243221 0.89700824 -0.95087415 0.4529785 -0.2131624 -1.8975894 0.19709751 -0.5744268 -0.47187307 -0.4865305 -0.49292955
608 1.6171837 -0.3297873 0.2736719 0.10891849 0.4132189 -0.96219456 0.19145915 0.59019 0.36191142 -0.038097426 -0.31404257 0.08634036 0.0013380208 -0.6880187 -0.24955648 -0.3041028 -0.9693206 0.06561635 -0.4727527 1.0334588 0.6726947 1.1887636 0.57707655 0.531882 0.7107174 -0.18686692 -0.9497665 0.3744752 0.5841631 -0.87720263 0.33991793 0.23502398
494 0.5250616 -0.23328704 1.8267531 0.067919955 1.2544066 -0.9845164 1.4182202 -0.40099052 -0.74803513 -0.34349358 -0.6430237 1.4000393 -0.24559405 -0.34566498 -0.02516287 -0.02489279 -1.009655 0.64493406 0.41326708 0.13725987 -0.10461156 1.0416154 1.1393317 -0.8183068 1.5928006 0.4612062 -1.9210113 -0.7219811 -0.066462815 -1.2561166 -0.6622783 -0.45701218
1793 0.05580729 -0.2574455 0.726872 0.47392204 1.6357636 -0.28078115 1.5558937 0.02967691 -1.0880591 1.3097789 1.7124827 -0.13145164 1.400469 0.65069556 0.77643394 -1.2584833 -0.5206892 -0.13951331 -0.17629264 1.0359198 -0.62704676 1.3117098 0.8588387 -0.5341256 0.6274839 0.076967835 -0.64407396 0.25141504 -1.0243484 -0.54839635 -0.95380557 0.5546115
2444 0.44147322 -0.5891847 1.2705536 -0.01908104 -0.38735256 -1.6559031 0.6322624 0.64263785 0.2684908 0.50787205 -0.04740121 -0.039679393 -0.021873266 -1.4985526 1.2647141 -0.0078028664 -1.4346051 0.32730347 0.6059248 0.39664972 0.49411884 0.42175204 1.293327 -0.1925542 0.098377116 -0.43003324 -0.49143478 -0.31486508 0.22046785 -0.86512643 0.1014738 0.058029186
440 0.10742326 0.14431769 -0.118342064 0.48985004 1.6059011 -1.7198728 1.605094 -0.6603485 -0.23669381 0.6694231 0.20172243 0.97822803 -0.33842853 -0.055347268 -0.327775 0.7083855 -0.4617755 -0.040522598 0.010780357 0.6898558 1.09604 1.4210762 1.6511515 -0.9051165 -0.11922773 0.37921417 -0.7694554 0.6104149 -1.3084294 0.4181765 -0.32269585 -0.25767615
412 -0.31723857 0.5539158 0.65634346 0.99734974 0.653576 0.52959424 1.2230314 -0.30468276 -1.2991025 -0.020385368 0.065481484 -0.37191898 0.4049367 -1.0157936 -0.04800556 -0.081338555 0.35614094 0.64937323 -0.29592898 1.2194008 -0.17757256 1.3066169 1.3252891 -1.0515501 -0.5897092 0.432862 -1.9076344 1.042976 0.20971245 -0.56397533 0.029653907 -0.2937025
2775 0.3505413 -0.25249794 1.3733588 0.5068861 1.3727828 0.66618115 0.78783476 0.4389231 -0.59832036 0.65229684 -0.13682339 -0.3373754 1.4845546 0.6191804 0.55210054 0.25529036 0.77000904 -0.013272679 -0.55932146 0.9976333 0.6976268 0.2934365 1.6140829 -1.1949335 0.24026309 -0.004087851 -0.85928756 1.4121047 -0.5311998 0.6159005 -1.1062152 -0.20618756
542 -1.1024367 0.18237387 0.83936864 0.27906418 0.7400863 -0.25927967 1.7350537 -0.3840716 -0.7957065 0.30143374 -0.007636353 -0.25418594 1.3861983 -0.43221486 -0.041279234 -0.32458827 -1.2352407 0.024287464 -0.59375894 -0.033679616 1.0330374 1.4280378 0.9151507 -1.2662948 0.090282984 0.0036503423 -1.418085 -0.7983839 0.89432186 -0.78987116 1.0031521 0.6174488
776 0.8900273 -0.1104466 1.3825988 -0.18642788 0.017633753 -2.0800774 0.62367857 -0.14118989 -1.8344843 -0.26102942 -0.1280143 -0.4840046 0.4833131 0.22670527 0.3374147 0.57960886 -0.51782906 0.5996203 0.07788814 0.016279498 -0.15923224 1.5901438 2.0432336 0.35671258 0.16344349 -0.2272493 -1.0913407 1.3993756 0.3712873 -1.6502728 0.4946251 -0.83279705
726 -1.1573989 0.18062721 1.2802577 0.52223045 -0.2534122 0.1507354 1.3644387 0.6368015 -1.0597287 0.9510957 0.47684437 -1.4934789 0.7332237 -0.25040397 -1.3907615 -0.52771544 -1.3284488 0.24748348 0.21325946 -0.70261633 1.3080921 1.6100582 1.182982 -0.5252639 0.6133527 -0.104126595 -1.1162975 -0.44299504 0.45462197 -0.41388792 0.16637677 -0.17126094
1285 0.8111572 -1.1296664 -0.66361594 0.9887519 1.0406847 -1.3168061 1.7897159 -0.03834262 -0.49371785 0.6897727 0.17874932 0.8101841 -0.21287544 -1.3292863 0.15729496 0.9717988 -0.28599805 0.66208 -1.0458566 -0.6456872 0.39878297 0.7073405 1.022268 -1.7414902 -0.32228824 1.0886134 -1.5304546 0.63620496 0.36282203 -0.64702904 -0.24135002 -0.1535973
1332 -0.2805049 -0.21182649 0.09741553 -0.8898385 1.1014545 -0.93443435 1.84356 0.1957686 0.05763882 1.5601425 0.15977111 -1.114802 1.3328359 -0.8724528 -0.29733914 0.40843633 -0.7798046 -0.3794458 -0.11253092 1.157466 0.2614449 1.4637659 2.2692509 -1.082067 -0.30128607 0.03210083 -0.8144295 -1.1863513 -0.477173 -0.80734056 0.12556127 -0.10854181
1388 0.10500186 -0.62608504 0.6564726 0.7147807 -0.78873265 -1.9924278 0.4743472 0.52680576 -0.33330807 0.06118456 1.3628025 0.46893585 0.82180274 -0.59605014 -0.6874672 -1.6367699 -0.92076266 0.9053018 -0.3552228 -0.9677746 0.54435545 1.0619538 1.4023185 -0.4550112 0.78686446 0.9691894 -0.37118527 0.48383653 -0.5077641 -0.70753604 -1.6033224 -0.04620906
29 1.1686616 -0.30535185 -0.25836372 0.25175166 0.8272207 -0.4114835 1.5067288 0.20622517 0.427332 -0.04266507 1.4388348 -0.4129073 0.60025823 0.099243484 -0.37598383 -1.0352103 -0.8965722 -0.17942539 0.28442198 0.94721854 -0.075355016 1.2018222 0.6392681 -0.316187 1.1332575 0.44687048 -0.5191915 0.1554422 -0.9223441 -0.5128069 -0.2935335 0.88733244
1353 -0.2768237 -1.2292916 1.6131516 1.2297912 -0.66992414 -1.2502692 0.18218146 0.022124877 -0.42160362 -0.35750452 1.4077004 0.8060993 0.7684294 -0.733703 0.006618184 -1.2238398 -0.48266795 0.29447642 -1.34585 -0.17111838 1.161042 1.2003056 1.0125942 -0.36869785 0.43742225 0.46255812 0.17257173 0.4748299 -0.11996368 -0.5323103 -1.1030979 0.3025837
763 0.41516495 -0.32314807 0.64917976 0.45125815 -0.62545955 -0.90162295 1.6482916 0.49128106 0.07351613 1.0481968 1.3496603 -0.6841105 0.048976548 0.23218235 1.2487644 0.6603025 -0.85935944 -0.54843843 -0.22509103 -0.37224185 0.5209359 1.7726637 0.66979563 -0.114528455 1.1265055 1.2409098 -2.2928336 -0.14608674 0.68410933 -1.549267 0.48994997 -0.24237372
1145 0.18091743 -0.038853657 0.4445012 -0.073993705 0.42451477 -0.5973735 0.35224032 1.2133104 -1.1076446 -0.31908083 0.7812565 -0.37348834 -0.12221165 -1.4346515 -1.273817 -1.400082 -0.33254868 -0.18301357 -0.060869537 -0.12565447 0.24599837 0.7220496 1.5381669 -0.17370142 -0.38630813 0.4872112 -0.41072947 0.1795019 0.2129876 -0.4041014 -0.35023683 -0.08510951
600 -0.62887734 -0.47716773 1.0766269 -0.17553836 0.0062741004 -0.53989124 1.8515859 0.4641193 -0.836819 0.38190934 1.0956202 -2.1211343 -0.12233855 0.040399186 -0.61352193 -0.3764241 -1.470549 -0.12327507 0.47083193 0.7333809 1.3825876 1.0110797 1.2834944 -0.31701562 0.44710332 -0.6273919 -1.414491 -0.83212435 0.21770886 -0.42581832 0.6937124 -0.6212075
681 -0.46429732 -1.316911 -0.49450564 0.5069087 0.46047232 -0.56218237 2.567255 0.6289037 -0.5007403 -0.31732517 0.06885399 -0.52497447 -0.15805213 -0.40170318 0.55182874 -0.031108461 -0.4446102 -0.075172275 -0.2476584 0.25171047 1.7761464 0.9198322 0.48178372 -0.8981253 0.112711005 1.7361965 -2.282126 0.1628435 -0.6050924 -0.44201905 0.110844135 -0.42455938
435 -1.0094053 0.55565095 0.60721797 0.27837756 0.3697138 -0.85124266 0.16777219 0.74611944 -0.67073977 0.936702 -0.14557353 -1.0645244 0.9370755 0.24126682 -0.60162205 -0.103051394 -0.26319286 0.19136816 0.48967162 -0.6220787 0.83237964 0.18392725 1.7739087 -1.4087456 1.0743427 -0.13571538 -0.60991853 0.6377156 -0.0833924 -0.8462121 -0.25620455 -0.0933447
1073 -0.3590178 -0.71763176 0.6658173 -0.30348262 -0.5349775 -1.2086697 0.060938988 0.2283184 -0.5241399 -0.81206983 0.3133503 0.539538 0.9622333 0.15735354 -0.79734063 -0.34049743 -0.8764852 0.78535765 -0.8536792 0.3705971 0.6205446 0.8252785 0.581122 -0.78655654 0.12124208 -0.2058845 -0.12916325 0.25024378 0.06967769 -0.14669225 -0.12519048 -0.22125556
932 -0.6328663 -0.87199223 -0.98555464 1.0464332 -0.47501788 0.028804887 1.0223255 -0.517036 -0.76412153 0.8715246 -0.14707452 1.0582983 0.3912547 -0.08863197 0.24575353 -0.39420065 -0.8091829 0.22264345 -0.9926011 -0.1710149 0.7210892 1.1576903 1.2685263 -0.28828803 -0.12560208 0.027265307 -1.3948612 0.8362806 -0.15095429 -1.9677421 -0.53374875 0.15888683
1870 1.3912895 -1.1205558 0.8261335 -0.67252266 -0.71206313 -0.51353514 1.2102318 -0.12056064 0.50518006 -0.13055405 0.48622605 -0.9913712 -0.11523363 -0.42693672 -0.2929744 0.42907658 -0.28556082 -0.40067124 -0.41786805 0.52581125 1.1316388 1.1518064 0.46905562 -0.6837583 0.3169898 -0.24628355 0.30379003 1.571417 -0.3807999 0.16754274 -1.0416619 0.027775697
379 -0.048825204 -0.09102157 0.9468006 0.8589979 0.08357572 -0.5203915 0.69037396 0.37923202 -0.1743108 -0.11298316 0.2710387 0.6060385 0.44139904 0.6432333 -0.46634698 -0.37624463 -0.717439 0.05378669 -1.0047269 -1.17445 1.1792305 1.4074633 1.0293734 -1.3599691 0.61018735 -0.08861392 -1.3980979 1.3186927 0.54693276 0.37557727 -0.6004697 0.41645703
428 -0.48071307 -0.5883742 0.96928793 1.5634207 -0.23717795 -0.8633648 0.7283139 0.43490487 -0.31709895 0.46776235 0.9684435 0.3558402 1.6137592 0.45351735 -0.6514097 -0.118718654 -1.1638212 0.6742694 -1.5782288 -1.3007715 1.125263 1.4408778 2.1045635 -1.7054889 0.9346937 0.42629352 -1.1298103 1.226135 -0.0048260884 -0.025306718 -1.4355083 0.38724923
708 1.6239343 -1.4077532 0.16170809 -0.4437106 0.57185036 -1.0781609 0.14928707 0.60487986 -0.5564036 0.27610442 -0.61122435 0.16409412 1.1840514 -0.60366124 -0.37537858 -0.19511077 -1.0315611 1.4320221 0.21966155 1.3209727 0.18807758 1.559724 0.8875697 0.4235353 0.34646836 0.413356 -1.2745289 -0.3583014 0.43624872 -0.9771933 -0.06692759 0.4226345
236 1.3099515 -0.37639526 0.78082085 0.6334334 0.90739584 0.3171667 0.44615754 0.96682006 0.8905214 -0.21492106 -0.71958816 0.003990963 1.5823872 -0.14617914 0.07934342 0.18126915 -0.22852738 -0.18095344 -0.5774328 0.24783061 0.45086265 1.1627547 1.4998695 -1.7739289 0.5710664 -0.3668129 -1.2616725 0.035610847 -1.0998012 -0.8067336 -0.79789156 -0.78731436
143 0.56143695 -0.93566865 0.2678076 0.29314545 0.3490618 0.66784376 0.1690604 -0.08173456 -0.14147012 0.65033543 0.16185614 -0.9819502 0.2301498 -0.46638432 0.8444677 -0.6064259 -0.042297903 0.05179798 -0.34576848 0.026216734 0.023037734 0.32640168 1.6320493 -0.8652875 0.3179124 0.12739481 -0.8696238 1.4546397 -0.37708724 -0.9315386 -0.3254786 -1.1461588
789 1.0096667 -0.028233822 -0.32185584 0.6968423 0.3084545 -1.8739849 0.45104036 0.033060797 -0.07121173 -0.3065868 0.064975575 -0.24526703 0.27033255 -0.56223613 -0.36773175 -0.35366482 -0.9615686 -0.37556812 -0.2884462 0.6834747 0.8962684 -0.29090208 1.3368012 -0.18831918 0.8138724 0.64039 -1.6134009 -0.17612974 -1.055552 -0.14933583 -0.18817255 -0.75699615
58 -0.01532616 0.17191215 0.7987527 -0.76729107 1.0136635 -1.3656284 1.0925301 -0.087396026 -0.10197175 1.2728912 -0.18880752 -1.0501378 0.83499134 -0.14132003 0.41591007 0.48778555 0.36423758 -0.30332667 0.41863245 1.3591632 0.035126057 0.49870118 2.1304958 -0.86665434 0.443536 -0.3104162 -0.47549167 0.023920251 -0.43958163 -0.47892994 0.03714614 0.5497493
341 0.734018 0.12539339 1.2144725 1.2415346 0.53523886 -1.312867 0.91841453 -0.23489244 -0.45690835 0.994713 -0.89510596 1.2220683 0.21170042 -0.5440307 -0.03525053 -0.2912329 -1.0209984 0.06235837 0.21379925 0.8371828 -0.10425693 0.89859384 0.62146807 -0.5199013 0.6837468 0.81432915 -1.2076126 -0.6420346 0.30624965 -0.47603744 -0.5259128 -0.5427878
59 0.8232749 -0.7784086 0.8098101 -0.76878124 1.5397125 -0.60852695 0.8893095 1.2149053 -1.15217 0.84127706 0.09663599 -0.5804121 0.32511654 0.8621007 1.0562215 -0.03989978 -1.1261784 -0.22117117 -0.99474114 0.13159417 0.69308627 1.666609 0.70997995 -1.2354912 0.7413363 0.6379722 -0.7867862 1.0726323 -0.27424508 -0.10850019 -1.5768886 -0.107603095
1009 -0.91109747 -0.7077306 0.5068974 0.45079383 0.1515861 -0.50006187 1.4338624 0.54782206 0.35317877 1.1105894 0.16686498 0.4587495 0.6952985 -0.7961561 -0.7599371 1.1845593 -1.2120117 -0.039301198 0.38776416 1.1799493 0.74773365 1.0722879 0.21576923 -1.8334359 0.081112586 0.011112223 -0.4041906 0.41999778 -0.19025582 0.4294607 0.026864883 -1.0846664
488 0.19603246 -0.024798652 0.2760245 0.6787791 0.63977456 -0.6351928 1.1783977 0.7261612 -0.74168885 0.20568602 0.60243034 -0.32931677 -1.3748485 0.7373621 -0.66620135 -0.26672524 -0.53536403 0.5166286 -0.25698656 1.6510656 1.7109653 1.0550721 0.7732355 -0.3931176 0.1939664 -0.341213 -0.029596781 -0.50448805 0.43944293 -0.61358553 -0.6381147 -0.24090625
1123 -0.89141524 -0.60008097 0.4429626 -0.034092903 -0.037969645 -1.670007 0.01775312 -0.9103293 0.30412075 1.5292627 0.007890437 -0.06917349 1.3981359 0.8484281 0.062792726 -0.3748239 -0.26019514 0.62229997 -0.98024195 0.64093876 1.2570379 0.53227603 1.184171 -0.96833795 0.87808555 0.63087714 -1.4472317 0.6527708 -0.6986446 -1.4122281 0.0007565955 0.21448839
153 -0.54719305 0.14544736 0.32237616 0.74711883 0.4683737 0.32500753 1.0090963 0.17626254 -0.4745556 0.44410703 -0.11149849 0.19439736 0.29163963 0.06546799 0.25499716 0.25254896 -0.34675166 0.45601508 0.13982138 0.05718045 0.13964279 0.8931602 0.51215565 -0.7003082 -0.27903852 -0.25467616 -0.93645614 0.45140854 0.55152786 -1.2000693 0.39446566 0.5330704
380 0.39546937 -0.23230448 0.20890422 0.54684395 0.8773851 -1.9395871 0.29888067 0.48053128 -0.43867552 -0.19802111 0.83875155 -0.08129622 -0.27685645 0.3025027 0.40515465 0.08820793 -0.19253094 -0.67828065 -0.3836923 0.108951874 1.1878048 1.4883881 0.1623254 -1.2405673 -0.33080843 0.31092733 -1.2188655 -1.6696362 -0.53157765 -1.5234946 0.41089493 0.44064918
212 -1.1632594 0.052574284 0.62329495 0.010727522 0.5498693 -0.12533288 1.661575 -0.35483956 -0.7424541 0.33866796 0.15665926 -0.5452837 1.0500227 -0.39476332 -0.10171576 -0.1136714 -1.1986675 -0.20314346 -0.23350546 -0.009799751 0.9901285 1.2623477 0.7381836 -0.86570394 -0.035822425 0.08501333 -1.2604632 -0.7710713 0.7085906 -0.4448749 0.96169484 0.18418533
2028 -1.325553 0.48339072 1.1395844 -0.10583739 0.6491147 0.76366913 1.0981569 -0.21103054 -1.4848328 0.3006296 0.94127125 0.44117925 -0.33880344 -1.2604179 -0.12134687 -0.23973605 -0.55963993 0.10405493 0.41826147 -0.03136249 -0.0728406 1.8748847 1.0985827 -1.0785156 0.4931601 -0.4526868 -1.5804187 0.570815 0.39351773 -1.2727995 0.12141165 0.6615861
2888 -0.008452993 -0.80641556 -0.94116557 0.3653896 -0.2125591 -0.81252515 0.56673884 0.17087394 0.3726717 0.4202037 1.4572834 -0.18270989 1.1081058 0.13370837 0.23150289 -0.37918773 -0.87112033 0.64133126 -0.094414495 -0.2354394 -0.24501692 1.1646006 0.6273112 -0.79948074 1.3205681 0.36589423 -1.3598641 0.39789033 -0.61073846 0.66204965 -1.3863093 -0.585819
1060 -0.937769 0.024837058 0.21807577 0.45500678 -0.24625124 -1.1094272 0.2730298 0.95904183 -0.4755877 0.8033917 -0.051717255 -1.2556974 0.69070774 0.32264736 -0.42275292 -0.48158908 -0.64426035 0.3594348 0.24439327 -1.0533779 0.83726084 0.031033464 1.8345897 -1.843654 0.61931705 -0.32216507 -0.7662677 0.38593397 0.062107105 -1.2046536 -0.51395273 -0.5824662
1193 -0.57813466 -0.4717964 0.88478816 -0.16763371 0.146708 -0.5097287 1.510881 0.40849116 -0.65291834 0.32979584 1.1065894 -2.1940074 -0.20244555 0.35654953 -0.473434 0.041828565 -1.3060393 0.031635594 0.45103326 0.9564798 1.2343873 0.8094701 1.2930685 -0.41074526 0.64146 -0.57701355 -1.539391 -0.7708375 0.18426229 -0.21215637 0.75933653 -0.67275316
617 -0.14077415 -1.48902 0.33931094 -0.389905 0.7254659 -0.44425967 1.1398902 0.76711184 -0.102006 0.22089966 -0.5236697 0.0006791856 0.53356785 -0.82262385 -1.3132436 0.0047910917 0.23086609 -1.1532634 -0.58134705 1.0900682 0.56990683 2.0381956 0.615057 -0.9678821 -0.062064275 -0.46511194 -2.2457244 0.87710387 -0.3796088 -0.78591484 -0.6152173 1.260899
1502 -0.2407285 -0.53315216 0.63264453 0.23150149 0.3493151 -0.52302444 1.1534327 0.577411 -0.046689898 -0.2564921 1.7507393 -1.8415443 -0.5594154 0.89054304 0.43890893 0.92089874 -0.8544704 -0.025212403 0.260989 1.1408341 1.2665513 0.8686199 0.7923383 -0.75458103 0.83717424 -1.0860778 -1.9532466 -0.08680878 0.15904197 0.18806086 0.5677719 -0.4921379
176 -0.8011783 -0.09303518 0.15798102 1.1627399 0.291838 -0.5249159 0.718251 -0.8639016 -0.16658503 0.39598703 0.39955607 0.10101277 0.7155626 -0.04499654 0.21692708 -0.32004723 -1.3302335 0.8544163 -0.40619737 -0.29034996 1.3651882 0.96519005 0.8594296 -1.6846539 0.091039404 0.13586044 -1.1025252 0.8290287 1.0092741 -0.44424176 0.07128708 -0.31567338
251 0.36941737 0.13279709 0.077305146 0.15783663 0.67278427 -1.8118377 0.3517763 0.5297623 -0.58907866 0.039264396 0.64323926 -0.19377515 -0.5482844 0.15585892 0.15416871 -0.36125284 -0.5243786 -0.27962112 -0.20811197 0.261046 0.77020127 1.4216174 0.1355148 -1.2045072 -0.191598 0.19139558 -1.0506536 -1.5741192 -0.5710744 -1.0598031 0.040193167 0.4652254
339 0.18305959 -0.39605868 0.3512057 -0.3073909 -0.2798097 -0.33216625 0.5443688 0.4297954 -0.19990416 -0.032188203 0.0014230015 -0.15233326 0.12093748 -0.2608227 0.08187052 -0.06403729 -0.22201595 0.068583876 -0.26130858 0.34310895 0.29715353 0.26931322 0.4421441 -0.33262405 -0.14766161 0.02008303 -0.20107116 0.03503832 0.08155899 -0.17121798 -0.41897783 0.14158161
362 0.40146735 0.27486393 -0.31881556 1.0010082 -0.56985855 -0.38377327 1.787261 0.1900776 0.7999062 0.1858528 0.720797 -0.58596045 -0.25936866 0.19940214 -0.9789232 -0.8290949 -1.1210102 -0.7802123 -0.5772773 -0.30236247 0.78027564 0.75724983 1.2039814 -0.42455772 0.46111545 0.02294747 -0.7100732 0.41007376 0.16921338 -0.8737553 -0.9654139 -0.5609326
336 0.70837635 -1.1291634 1.087669 0.7622435 -0.32026035 -0.926394 0.7171645 0.12683006 -0.40657154 0.32238385 1.4315146 -0.055938795 0.08018314 -0.91627055 0.5062955 -0.9696643 -0.9616347 0.16550678 -0.02109006 0.25283954 0.92313445 0.9116874 1.1861603 0.3417719 -0.08974463 -0.14220847 0.44470876 -0.15940875 -0.64662766 -0.4521458 -0.50533813 -0.09286465
1560 0.68621546 -0.5245486 0.6360594 0.30122864 0.6790185 -1.3671885 0.6988847 0.31474632 -0.76808476 0.42112413 -0.40502286 -0.16582657 0.24726307 0.04003425 -0.11124315 -0.12897025 -0.7095879 -0.52613264 0.1074247 0.09568852 0.9678478 -0.17556398 0.7439305 -0.5544984 -0.026688587 -0.70883685 0.2213736 -0.07108738 -0.7467518 -0.6664475 -0.42920884 -0.31567115
252 0.018450664 0.28972435 0.057657056 -0.0145927435 0.46911997 -1.2370615 1.166781 0.6033324 -0.7371806 -0.41504684 0.054035787 0.50716203 -0.7237402 -0.8275504 -0.059400037 -0.27491435 -0.38882238 0.30348647 -0.44100997 -0.4178289 1.1518534 0.8784351 0.80911225 -0.0876228 -0.7029087 0.32277933 -0.563191 -0.012621135 0.02781393 -0.21782586 -0.5404209 -0.6708946
538 -1.4294553 -0.43077537 -0.2871301 0.3923362 -0.42129257 -1.3522029 0.85997516 -0.54088503 -0.45410857 0.14050275 0.26890147 0.23398042 0.44088054 -0.75518334 -0.24170825 0.3453356 -0.77050745 -0.22487289 -0.54904276 1.2064629 -0.084916875 0.6987454 0.85900253 -1.048099 -0.52964073 0.0045531415 -0.8055211 0.13605016 -0.31742164 -0.65946305 -0.7372283 1.1850859
682 -0.5366332 -0.018059723 0.1210287 -0.79297286 0.35909054 -0.7952828 0.42997587 -0.575624 -0.116446696 0.04740565 1.0155696 0.15985511 0.37755942 0.07888401 -1.1106852 -0.020225707 -0.92563486 0.47311226 0.63847464 -0.01241558 -0.05006194 1.0302371 1.4760603 -0.7160981 0.020612007 -0.22465597 -1.284213 1.5561182 -0.6904787 -0.69190365 -0.6901657 -0.34914297
1977 -0.17771783 0.40847683 0.48106393 1.1343671 0.10663794 0.4259553 1.37332 -0.15615597 -1.0817622 -0.06761311 0.23076797 -0.5242107 0.44733033 -0.78311044 -0.0019139928 0.17482705 0.5745311 0.8578019 -0.2284903 1.216783 0.16978793 1.0680119 1.5593058 -0.72418207 -0.7167527 0.83094996 -1.5441827 1.3220671 -0.10651302 -0.4160372 -0.0023743883 -1.1698396
1300 -0.011328152 -0.44506302 -1.142735 1.0727555 0.095470265 -0.21725823 0.67967016 -0.519007 -1.3259784 1.0242314 -0.29702935 0.9454485 0.7324133 0.17070931 0.05299295 -0.027256122 -0.5340175 0.44090444 -1.3595548 -0.4313636 0.5243604 1.3875983 1.313375 -0.771727 -0.09601466 0.45467553 -1.2003534 0.78494245 -0.40007 -1.9224036 -0.61439973 -0.29022282
389 -0.7376205 -0.63774484 0.6452129 0.12652247 0.29989782 0.34641695 0.05701601 0.044624437 -0.44004488 0.060990803 -0.17544968 -0.30192715 -0.313469 -0.28212738 0.20760159 -0.03452591 -0.7278396 0.26855105 0.7029422 0.24493462 0.9143291 1.0875102 1.074497 -0.5736685 -0.92248017 1.1268731 -0.6852358 -0.20411934 -0.297103 -0.8679775 -0.6589015 -0.180381
133 0.26947635 0.056078106 1.1163841 0.36674425 0.03636635 -0.8956989 0.34743682 0.5524722 -0.31864744 -0.4567257 0.30487508 0.42040855 -0.49615481 0.34050208 -0.5028203 -0.93482023 -0.01788685 -0.21838243 -0.09586461 -0.7458238 0.9985352 1.3164705 0.59332055 -1.0280153 0.3010611 -0.08728337 -1.3164899 1.2262452 0.25160867 0.37482876 -0.3565462 0.289884
1147 0.39164647 -0.2905318 0.12480912 0.119289674 0.30324546 -1.5371428 0.18023059 0.22657183 -0.06368017 -0.090602696 0.036545135 -0.09340284 -0.4804313 -0.41231814 0.04254747 -0.44522664 -0.45524254 -0.579059 0.23670983 0.5303646 -0.43803024 0.12659185 1.326582 -0.246762 0.5045797 -0.07763333 -0.88864475 0.06692562 -0.78807783 -0.24131171 -0.13310497 -0.3247602
170 0.69493794 -0.79099977 -0.43403694 0.58382076 0.61758786 -0.29535425 1.0892537 0.08820121 0.33083707 0.6919862 1.0974927 -0.29230708 0.8562242 -0.07368977 -0.06863397 -1.2301383 -0.645193 -0.5772513 0.49871233 0.65687 0.26997498 0.94058937 1.0213854 -0.4571588 0.4211686 0.30706492 -0.47129297 0.11474411 -1.0890361 -0.419517 -0.59172827 0.816419
309 0.46982065 -0.90165037 0.10316563 1.4120886 -0.6949992 -1.6645191 1.0114799 0.37020424 0.3010881 0.8843652 0.14602618 0.21968925 0.61884296 0.8327819 -0.5682216 0.08300968 -0.41704264 0.734433 -0.47748688 1.4109585 0.2692524 0.6475431 0.77881956 -0.08531384 -0.46047714 -0.4301928 -0.703267 0.496649 -0.2343035 -1.2755978 0.050105892 0.5157005
781 1.8997743 -0.11370315 -0.54787385 0.8262177 0.26467085 -1.0451319 0.022498062 -0.021996433 -0.09935014 0.39497375 0.44304603 -0.2991005 0.07062572 -1.235556 -0.6094999 -0.4907077 -1.3457974 -0.0598773 -0.21127361 0.9854088 1.2788695 1.6136613 1.226012 -0.0067270747 0.1744938 -0.45730516 -1.4508934 0.7023456 1.0791559 -0.50191724 -0.50013125 0.7374799
1133 -0.16252512 -0.4383095 1.0183164 -0.65219617 -0.7191359 -0.13047545 1.0081663 0.477973 -0.09430225 0.20701177 1.1382953 -0.16935071 0.22341448 -1.2134105 0.29218546 0.35178614 -1.1319966 -0.15912189 -1.0123324 0.8894399 0.08748005 0.14554533 0.9743962 -0.24506238 -0.38982293 -0.16852415 -1.2131648 1.2737 0.6308516 -0.80325747 -0.40051305 -0.07516005
2325 -0.2856765 -0.38427368 0.81191266 0.8599527 -0.14234 -1.0804548 0.57702065 -0.8553295 -0.01167318 1.0275514 0.122641414 0.36145192 0.99823016 1.4470946 -0.19855171 -0.3718648 0.41446134 -0.30260068 -1.1181096 0.113879055 1.2580324 1.0034883 0.71003044 -1.2205236 0.7596819 0.17044014 -1.3414959 0.24752258 -0.91022384 -1.7830218 0.6996663 -0.5406371
1857 1.5876473 -0.4847577 0.13539794 -0.1196747 1.1139438 -0.75975925 0.45898187 -0.064239234 -0.4624487 0.14900786 0.437739 -0.43400842 -0.09284467 -0.016271325 -0.15665716 -0.29833332 -0.49881142 0.74724716 0.4964497 -0.60259366 0.111389 1.0382488 0.7937341 -2.5587475 -0.6100298 -0.17191675 -0.5382128 0.17564614 -0.66086 0.04281048 -0.0121813975 0.55385846
777 0.75984263 -0.92753625 1.8279829 -0.87428635 0.07300414 -0.35276905 0.011926444 0.3129874 0.19610932 0.30800286 0.86827123 -0.69111913 0.10124706 -0.37128386 -0.5462839 0.56751513 -0.9591953 -0.031000396 -0.1815548 0.38948372 0.31229955 1.5318363 1.1003993 -0.3539947 1.1880885 -0.35810998 -0.04364257 -0.041476876 -0.23314007 -0.91063786 -0.8204875 -0.12639213
581 0.34314194 -0.16257146 0.61292744 0.9040159 0.14331296 -0.3999356 0.7153205 0.21359043 -0.6799616 0.21319917 0.27910513 -0.06996252 0.08843072 -0.22790286 0.77383167 -0.524104 0.17710002 0.37453777 0.74005586 0.70920914 -0.22832493 0.87180656 1.30291 -0.42061007 -0.36881518 0.90737844 -0.14772618 -0.7563274 0.37004888 -1.3272597 -0.5350067 -0.42604193
194 -0.7653067 0.16748555 0.8430648 0.5148759 0.631771 -0.1481443 1.4786462 -0.39659083 -0.94853395 0.10679522 0.18268168 0.07007118 0.88471776 -0.5822291 0.09187117 -0.54683375 -1.120561 0.33002642 -0.5139228 -0.28484172 0.9895662 1.5598862 0.59743255 -1.1722385 0.13465579 -0.23964012 -1.5176804 -0.0048220805 1.126434 -0.68282276 0.7615291 0.7284668
361 0.42844498 0.11356881 -0.21108973 0.4957153 0.25503665 -0.5731622 1.1736978 -0.29311997 -0.98580897 -0.33010632 0.7403036 -0.23274067 1.0046971 -0.28608358 0.40780482 -0.76350105 -0.322406 0.6848884 -1.0615834 -0.55777895 -0.38839763 0.9995407 1.4159666 -2.3033617 0.7898469 -1.0828228 -0.9243475 0.64335114 0.74609274 -0.56986916 -0.4214017 -0.09924842
1449 -0.22017054 0.42019585 0.37462163 -0.26885352 0.059559744 -0.44465256 0.93862474 1.2056056 0.45675716 -0.8659509 0.38863042 0.30987236 -0.040265564 0.22129008 0.03258426 -0.37653598 -0.30997303 0.24674957 0.002136826 -0.062394794 0.61152875 0.9777486 1.1364805 -0.36832196 0.11890733 -0.5201 -0.4515933 -0.19638889 -0.18467094 -0.8141935 -0.9083545 -0.30095175
330 0.63483965 -0.6880788 0.2173306 1.6610706 0.37862134 -0.7346504 1.4807739 -0.25193977 -1.4008837 -0.32450473 0.2421962 -0.8058555 0.6240001 -0.9972125 -0.1209986 0.083520055 0.43694675 1.1595927 0.21540211 1.6687568 -0.47291738 1.5210353 1.3653222 -1.2791128 0.02691094 -0.1767029 -0.73358065 0.46125188 -0.6747272 -0.41720915 0.3190343 -0.415482
238 0.042523567 -0.95603216 0.89513355 0.46287015 -0.6440826 -1.6683248 0.63669866 0.29652438 -0.51840466 -0.3188534 1.3671849 0.47195253 0.3363623 -1.1116394 -0.54401356 -1.6874399 -0.26670462 0.95415026 -0.16425163 0.4167489 0.48514396 1.4643923 1.1870095 -0.67633075 0.102623925 1.0635613 -0.1041577 -0.174246 -0.4275506 -0.7129752 -0.77179253 -0.5399278
1089 -0.26095173 -0.30786937 0.11949576 2.1104271 -0.39122164 -0.2818707 0.9142423 0.123303734 -1.082704 0.43353045 0.5775616 -0.8706606 1.4710491 -0.37465388 -1.0087614 0.4691744 -0.3858115 1.6544911 0.02049103 -0.46621764 -0.20016402 1.6297699 2.3143895 -1.6269714 0.85989714 0.25904518 -0.7528135 0.9463912 -0.7471983 0.07693311 -0.6443019 -0.14712003
288 1.1786681 -0.7132903 0.30713853 0.90444475 -0.87932235 -1.2275066 0.65842074 0.8861692 0.258073 0.34284478 -0.45600826 -1.1431533 0.2582163 0.046989035 -1.1764152 -0.38053992 -0.3395294 -0.10527197 -1.0147274 0.2062298 1.310673 0.62810516 0.63993883 -0.9985537 -1.2197253 0.37643343 -1.8787533 0.24359259 0.20708102 -0.94048005 -0.5731099 0.48164728
1439 1.6149685 -0.30449206 1.5601088 -0.15744372 -0.012835904 -1.3133003 1.7156794 1.2835821 0.19606966 1.0352205 0.67490005 -0.3624422 -0.2723636 0.5879718 -0.2216806 0.23363146 -1.2869104 0.5286292 0.5620382 0.69754666 2.0599048 -0.2274212 1.0142028 -0.6343058 0.3098403 -0.35631886 -1.7847174 0.8290807 0.46278647 -1.1769487 0.21722448 0.555864
610 -0.50349146 -0.5443399 1.6472973 0.7625128 0.2409776 -0.5259853 0.65919536 0.6781338 -0.36632916 -0.16008714 1.4611377 -0.77919745 0.30571622 0.45391724 -0.10971052 1.2733632 -0.12591988 -0.025969796 -0.7766876 1.2402512 1.1045523 1.2145827 0.9354837 -1.0293418 0.7701685 -0.49703228 -1.2498591 0.2221858 0.033727203 0.1685326 0.9282849 0.016269203
508 1.7440345 0.281067 1.1057287 -0.059668247 0.14292121 -0.123084836 0.56700635 1.2703283 -1.1284949 0.16789077 0.5854492 -0.031148266 -0.028194303 -0.791504 -0.84313345 1.0961105 -0.79519284 0.5455743 0.08502697 1.230096 0.59974885 0.22703165 1.32769 -1.1673893 1.0821753 -0.35249493 -0.7853726 0.9913961 -0.76505494 -1.298172 0.14896713 0.10950455
660 0.6627084 -0.28834713 0.3012698 0.23994815 -0.06416382 -0.099804245 0.5826783 -0.19606522 -0.5225325 -0.13381061 0.017139923 -0.43376556 0.46462697 -0.29221168 -0.24301814 0.09875534 0.13595155 0.5153226 0.10433764 0.85766286 -0.18703541 0.6071997 0.47280976 -0.77762365 0.07954295 0.059728265 -0.041407954 -0.06516618 -0.6054985 -0.48373935 -0.2907327 0.084589645
733 -0.15573211 0.323352 0.48529512 0.44469917 0.21980667 -0.8330006 1.2172663 0.5233055 -1.0901402 0.6477711 -0.007950906 -0.40699512 -1.2185128 0.81779057 -0.5768621 -0.5404003 0.047413968 0.041326858 -0.32710513 1.8097565 1.7913067 0.9019857 0.95824504 -0.40388247 0.96624315 -0.582049 -0.24678381 -0.25422782 0.09388185 -0.7317403 -0.4090194 -0.44200048
344 1.245752 -0.6990164 -0.15021968 -0.13255495 1.2959971 -0.76036364 0.61484706 0.025297241 -0.3361597 0.4208791 0.45999599 -0.66959894 -0.0027694546 0.08926296 -0.10438588 -0.18608126 -0.5767463 0.30260178 0.23674521 -0.37794924 0.4521004 0.96611726 0.82833964 -2.3386686 -0.060626045 -0.28250557 -0.9363447 0.48219618 -0.41255325 0.000995172 -0.21409178 0.63752973
2496 -1.2915096 0.15681012 0.53989315 1.179888 -0.3833998 0.19253905 0.83757365 0.39211914 -1.1014472 0.6421852 0.5779656 -1.3379402 1.2080039 -0.11551485 -1.2427244 -0.21750939 -0.7972635 1.1824917 0.42154205 -1.1442538 0.49125156 1.1810231 1.668621 -1.2377878 0.91569144 -0.18359421 -0.8568089 0.19636074 -0.036840327 -0.24087562 -0.26277062 -0.27492297
507 0.627195 -0.0069523943 0.7034088 1.1537538 0.7312427 -1.3197553 0.8568047 -0.2525852 -0.48004562 -0.32271227 -0.11569491 -0.3886913 0.626135 -1.3611732 -0.36713296 0.10612072 0.26419958 1.3391057 0.037704818 1.1387103 -0.024455251 1.077169 0.63336885 -0.81792104 0.19316348 -0.03960783 -1.6610632 0.7819234 -0.9454067 -0.38642466 0.73392993 -0.29656518
1526 0.47471535 0.60576963 0.8247912 1.0385232 0.053131435 -0.71969545 0.5154451 1.1529883 -0.40061864 -0.05233409 0.43977517 -0.4221822 -0.09348813 0.7521888 -0.27363402 0.1611261 -0.68099004 0.07846508 0.09136378 -0.27020863 0.91817576 -0.036820784 0.99144024 -0.64280725 0.06227962 0.003114595 -0.8630712 0.30749696 -0.74882245 -0.30130488 -0.5712953 0.04095915
418 0.9889288 0.0027134889 0.8791984 0.17074905 0.46855682 -1.0422719 1.6150347 0.9529238 0.49643922 0.39829776 0.711968 -0.36020845 -0.6639017 0.4878054 0.316561 0.21027964 -0.9517993 -0.16359639 0.37679002 0.30994025 1.0952864 0.2277123 0.9897929 -0.27006146 0.25408772 -0.46267805 -1.6004233 0.775059 0.600661 -0.81540567 0.14386044 0.031224146
1486 0.2790679 -0.9230031 -0.2223778 -0.12905356 -0.3475728 -0.61248934 0.6507901 0.47663477 0.095148034 -0.29145855 0.16148213 -0.055109635 0.4153622 -0.051275104 0.33623087 -0.24579543 -0.20139344 0.29586086 -0.21776605 0.22594628 0.06986202 0.689515 0.6147809 0.03411143 0.56591344 -0.18063614 -0.22883359 0.18304805 0.026731133 -0.28508845 -0.47635612 -0.341047
2672 0.06458519 0.17548345 0.19591482 0.94199973 0.25048256 -0.8093807 0.42019212 0.014849535 -0.8377606 0.6422912 0.11335957 -0.19116434 0.9189879 -0.71177465 0.023386909 -0.4467788 -0.28270167 0.7642903 -1.0997483 -0.95896417 -0.34048626 0.98807865 0.4087052 -1.8919379 0.90311 -0.4866202 -1.0222312 1.2426387 0.0033437314 0.12517752 -0.6616093 -0.21619573
1922 1.4545082 -0.44304472 1.4961785 -0.33324736 -0.34834704 -1.1044065 1.2682928 1.2352945 0.018219551 1.1894343 0.5843112 -0.5404405 -0.09780528 0.5465449 -0.37208062 0.28603667 -1.1146135 0.50322294 0.49750307 0.8226424 2.1113725 -0.23283342 0.8443749 -0.8534339 0.3693955 -0.14217465 -1.6262841 0.49410895 0.30075586 -1.0457681 0.18497804 0.7236116
1206 -0.95084536 0.09861205 0.9990456 0.9742377 0.43891323 -0.63356376 1.5373235 -0.4563451 -0.8371891 -0.074218065 0.2933473 0.23843932 1.4365586 -0.31044263 0.017382266 -0.99650675 -1.352641 0.55869156 -1.064611 -0.57920724 1.3063307 1.7150422 0.6365582 -1.4241173 0.32080492 0.024702193 -1.3678027 0.025468696 1.1982698 -0.51909 0.6409499 0.5511021
1084 0.71470326 -1.4052396 0.6105327 0.22640108 0.010070667 0.62758255 0.29197374 0.089574136 -0.7569551 0.68929493 -0.38936216 -0.94771916 0.3991939 -0.101194054 0.5893719 -0.38271394 -0.26644528 0.06086019 -0.07648335 0.64059204 0.6954829 0.7265547 1.9910549 -1.0230781 0.4526358 0.6689431 -1.2485343 2.11589 -0.351408 -0.71239877 -0.5405927 -1.2676175
824 -0.43852654 -0.1597424 0.5446132 0.025842415 0.90450937 0.20762093 0.8924246 -0.06345028 -0.75538963 0.42245555 1.5188193 0.23880316 0.37816936 0.30383238 0.3867631 -0.58712757 -0.5064629 -0.08361083 0.32025284 0.31556344 -0.34814066 1.152263 0.64791757 -0.7184304 1.0308464 -0.17233424 -0.7171222 0.18426459 -0.42393717 -0.3696776 -0.8487235 0.65551794
372 0.6676476 -0.16162723 0.04191666 0.112173624 0.026468007 -0.50694615 0.14648509 0.040657617 0.039515726 0.10665421 -0.25141522 0.0073932125 -0.21704791 -0.7576151 0.034117036 -0.1919134 -0.5255153 0.07732446 -0.021931171 0.5846751 0.4514791 0.67059904 0.58555466 -0.0045674527 0.082905434 -0.13031141 -0.4249262 -0.030429276 0.27585432 -0.3813381 -0.24164382 0.330405
1635 0.812127 -0.23276387 1.8245842 0.33995634 0.74761814 -0.7592171 1.1959288 -0.506046 -0.5410732 -0.108213276 -0.7521441 1.592203 0.092955 -0.43049648 -0.06222787 0.2924277 -1.1769806 0.45056975 0.34068647 0.30746713 -0.093614005 1.2152501 1.015622 -0.6853567 1.1870935 0.3525185 -1.4108999 -0.9033829 0.33317828 -1.0704653 -1.1333226 -0.95357805
917 -0.51749223 -0.38929373 0.6022576 0.44821906 0.5666215 -1.4976587 1.4180117 -0.62389696 -0.53044724 -0.32191083 -0.009145136 -0.69081336 -0.8581747 -0.5013935 0.5373422 -0.64089656 0.07546654 -0.9265933 -0.000622423 0.7628281 0.6769382 0.37703153 -0.043698195 -0.70487994 0.8197143 0.97195363 -1.3480068 0.6151587 0.47178036 -1.5133824 -0.6688255 -0.028339528
1999 -1.0358813 -0.31688517 0.96558183 -0.48625126 -0.04079111 -0.3224805 0.6642773 0.18492731 -1.3263288 0.22997397 1.6324295 0.469974 -0.7017757 -1.14805 -0.12022219 0.062455647 -0.3294776 0.222051 0.65739805 0.19839619 0.03379883 1.6868198 1.3469647 -0.29284334 0.621727 -0.8199901 -1.6498237 1.1198965 -0.23617892 -1.5975685 -0.95358294 0.23587123
478 -0.43535933 -0.34227496 0.84097743 -0.14387934 0.07572906 -0.40839922 1.4410338 0.40298185 -0.5619457 0.28134695 0.8889963 -1.796703 -0.22313282 0.14473121 -0.42867213 -0.09172604 -1.2268031 -0.009717267 0.47262794 0.6933661 1.0700237 0.7642173 1.1601512 -0.3712483 0.5032352 -0.48383123 -1.216741 -0.66261107 0.16234073 -0.3213214 0.5295172 -0.57906324
579 -0.18493868 0.32308787 0.3430812 0.3263793 1.141781 -0.19679007 0.8907465 0.5909117 -1.610634 0.40436926 0.14448853 -0.078198455 0.16651879 -0.21172279 0.73428214 0.9400609 -0.7572206 0.6028549 0.12023879 -0.23366994 0.25698358 1.2868167 0.78664607 -1.2501931 0.27590358 -0.3288735 -0.50001365 0.03532225 0.23414975 -1.6861477 0.073683456 0.1885572
227 0.24426064 -0.2918999 0.72851026 0.14859419 0.12768775 -0.43010867 1.277633 0.23378587 -0.14870101 -0.23487693 -0.048490845 -0.13664757 -0.6943147 0.107303284 0.33502164 0.19456089 0.39861944 -0.4993803 -0.11733453 1.3278002 0.39651534 0.41634828 0.74340993 -0.48515195 -0.15757027 0.04291641 -0.6344735 -0.20553575 0.20801331 -0.2836162 0.101045564 -0.32086262
688 0.60238034 -1.4973396 0.45597777 -0.032244295 -0.095931515 0.34954932 0.15129201 -0.013102817 -0.404088 0.56093407 -0.16988504 -0.9626318 0.43866694 -0.15480104 0.61489207 -0.4738408 -0.44444168 -0.18167996 -0.06977901 0.34591386 0.7808262 0.61965984 2.0787368 -1.0261828 0.6327966 0.58776563 -1.2466161 1.8837373 -0.3834802 -0.8141906 -0.7253221 -1.1427761
1690 0.6840429 -0.60987157 -0.22156435 0.207588 0.33172014 -0.83781934 0.751062 0.074323796 0.45515054 -0.4334464 0.31861004 0.50377995 -0.54142416 -0.63745487 0.009107755 -0.19144557 -0.78849083 -0.0005854056 0.19316372 0.7273431 0.085140795 0.73085475 0.7449419 -0.26513135 0.04816113 0.012275143 -0.61074585 0.16539507 -0.29801935 0.092678465 -0.2812628 -0.13996764
290 1.3403493 -0.88578063 0.299274 -0.27274507 0.36181533 -0.87950027 -0.048171207 0.5100549 -0.54505974 0.3234206 -0.4894664 0.3582169 0.91024125 -0.46129587 -0.4333754 -0.23609601 -1.0126472 1.3105755 -0.0265999 1.0593361 0.5604627 1.3603767 0.96369296 0.3023534 0.35914013 0.28427058 -1.3083209 -0.122040056 0.4987693 -0.67054445 0.22701335 0.25385725
1801 1.0168017 -1.7093214 1.0667593 0.8266671 0.3740622 -0.811796 1.0735724 -0.3800089 -0.32600266 0.53052175 1.0475496 -0.27487808 0.43834537 -0.14389138 -0.64078665 -0.4858074 -1.7003722 -0.8266408 -1.6678295 0.55794895 0.7752317 1.8846037 0.35072187 -0.02932409 -0.5637376 0.43803775 0.09036516 0.32899016 0.7205372 -1.3065559 0.15035674 0.1874137
1253 0.4060088 -1.3635671 0.9562197 0.32934073 0.08425202 -1.0791731 0.7247968 0.16453071 -0.4633353 -0.43384758 0.09339325 0.16301174 0.42547292 -0.21887583 -0.5903123 -0.4831658 -0.39238206 -0.38542974 0.3368657 0.018111745 1.0383141 1.1076633 0.14949882 0.6940818 0.01599287 -0.79177076 -0.917426 0.68236506 -0.37830818 -0.2699316 -0.04056633 -0.2828463
63 0.4320037 -0.86267275 -0.79693896 1.042513 -0.08498841 -0.7445803 1.4415776 -0.13813157 -0.88941085 -0.24107069 0.44816917 -0.33349657 0.3521058 0.29863396 -0.853407 0.9383553 -0.4369007 -0.085791215 -0.16602217 0.53569186 0.07623096 0.21244314 1.1782527 -0.9396053 0.55406064 0.43482324 -0.7248543 -0.110198915 -0.53060627 -0.55278945 0.35645038 -0.04161374
1066 1.1697074 -0.1456788 0.25502396 0.99640465 -0.90168667 -0.08354379 0.52772206 -0.050475806 -0.19420083 -0.54963046 1.1185495 -0.52236754 -0.10595744 0.4727325 0.4875166 -0.72098947 -0.23904315 0.030057173 -0.35409993 0.49492115 2.0792892 1.8779066 0.32798445 -0.7377157 -0.5968222 -0.06325289 -1.7552097 -0.23195519 -0.39768532 -0.1929855 -0.9482589 -0.017190875
1224 0.65115434 0.8770348 -0.06990149 -0.41799495 0.065152176 -0.36423126 0.42354703 0.30512497 -0.334988 -0.44656947 0.32563567 0.111063905 -0.08402444 -0.52875596 -0.6588848 0.46572077 -1.4727253 -0.16434671 0.06957445 -0.11311964 0.3833148 0.9707624 1.2609113 -1.2012724 -0.28966293 0.18905403 -1.4789878 -0.17610903 0.014692281 -0.71534204 0.43586856 -0.5638859
72 0.33482525 0.37154046 0.23585586 0.6521465 -0.010570593 -0.38873583 0.32637212 0.3276805 -0.26920685 0.4075822 0.3332078 -0.23026173 -0.20225081 -0.44549805 -0.36312595 -0.22625555 -0.09399821 -0.21635035 0.56827265 1.0535058 0.21437638 0.8306159 0.79728687 0.14762554 -0.1540725 0.44683513 -0.5845359 -0.11206559 -0.53627694 -0.5262257 -0.27756023 -0.8327661
976 -0.43092504 -0.6869614 1.9125093 1.6999638 0.09753058 -0.3080693 0.66312945 0.47984052 -0.60895365 0.03505723 1.1956071 0.5207877 1.0854166 0.6944366 -0.24066678 0.54124683 -0.37597123 0.02901162 -1.4999857 0.22526355 1.1379241 1.1347985 1.3286692 -1.4338862 0.7434026 -0.06501618 -0.9500436 0.8780588 0.08224781 0.2533789 -0.23951977 0.3738102
1762 0.8270475 -0.70768464 0.1902467 1.9952629 0.11759804 -0.53150254 1.3943222 -0.06373369 -1.3128377 0.1668166 0.07891903 -0.7636541 0.60930306 -0.54902536 -0.61573327 0.9154791 0.18031572 1.034042 0.33901817 1.2026075 -0.2555383 1.4466897 1.6781662 -1.5155594 0.06604705 -0.14536038 -0.79262596 0.4521414 -0.7849205 -0.4809622 0.488351 -0.4462449
828 1.9041986 -0.22423199 -0.57374185 0.6843406 0.3040987 -1.0902718 0.086393006 -0.082887985 -0.108049005 0.3007087 0.5655707 -0.1649281 -0.0067223664 -1.2989417 -0.55092853 -0.46888563 -1.2266402 0.11770685 0.05718963 0.9732961 1.1173439 1.5018419 1.1172073 -0.025448253 0.14990024 -0.41996443 -1.4003099 0.6545964 0.9833373 -0.49491027 -0.38108724 0.54064935
1617 0.57882017 -1.4634979 1.2212543 0.6303061 -0.048032925 -0.77267236 0.49254933 0.16374075 -0.2762019 0.2862218 1.5348537 -0.14249104 0.41457757 -1.1978602 0.39429042 -1.3134786 -1.0509771 0.27594626 -0.36076435 -0.03891537 1.1390359 1.0014957 1.3337891 0.6208979 0.13201419 -0.009919579 0.3057414 -0.008810157 -0.55520993 -0.4170506 -0.87557405 -0.038461942
262 -0.121736586 -0.5083626 0.44220963 0.56884557 -0.70550036 -0.39250427 -0.025687668 -0.1271765 -0.11173212 0.31332824 0.21784104 0.1344969 0.41350776 0.38896433 -0.13179441 -0.31596237 -0.16360831 -0.10004802 -0.25534394 0.30179292 0.740858 0.8863952 1.2954681 -0.18176116 0.14574894 -0.04980315 -0.25313538 0.27774575 0.41343457 0.28237528 -0.6724149 0.17008208
1751 0.42317268 -0.8999236 -0.11967308 0.6930227 0.79069406 -0.39405224 0.32609245 0.2805646 0.32696804 0.49163458 1.8013362 -0.28328735 -0.22151108 -0.77648354 0.03474279 -1.774154 0.4000239 0.6213468 -1.365955 0.21094306 -0.46511096 1.334235 1.2455193 -1.1474801 0.22879598 -0.4343111 -0.89085495 0.68670064 0.19017573 -0.55577123 0.5779289 -0.3314269
487 0.15854885 -0.89992994 0.65093344 0.45119244 0.8501871 -0.5968108 0.023125283 0.73741806 0.357774 0.008169954 0.8837803 -0.6488332 0.83140534 -0.67924446 0.6276898 0.10055308 -0.9882836 -0.52251476 0.4531512 0.329489 -0.30204526 0.5069217 1.5333263 -0.7065407 0.108848944 -0.6820093 -0.8783862 -0.6806583 -0.34815037 -0.9080456 -0.40090472 -0.35476196
1190 1.6805352 -0.5398516 0.2502754 -0.1112228 0.60154486 -1.1468719 -0.18755457 0.36219898 -0.20992169 0.3440366 -0.22209996 0.14398564 0.6639493 -0.7577432 -0.5445065 -0.40359142 -1.2914836 0.818177 -0.10101537 1.2029145 0.5635068 1.0992681 0.611982 0.54108465 0.5189942 0.28554562 -1.1267527 -0.079825245 0.5984813 -0.92732495 0.2234636 0.14311096
282 0.76230377 -0.6470966 0.18223286 1.7097247 0.34854186 -0.45343995 1.6422638 0.017967442 -1.3556725 -0.24066475 0.16124 -1.0629954 0.5282725 -0.9595616 -0.08568359 0.28755993 0.45946315 1.0227802 0.14961982 1.7782656 -0.42670062 1.5077614 1.4284453 -1.2106233 -0.03099886 -0.16831584 -0.6574858 0.42995843 -0.5779355 -0.5361701 0.1746102 -0.5061619
1268 0.2130096 0.2446576 -0.1634962 0.2749045 1.5635703 -1.7711974 1.38368 -0.66969174 -0.39483547 0.74633116 0.15683714 1.0238434 -0.050710935 -0.23706268 -0.2777933 0.74455 -0.46320182 -0.15779895 0.076169446 0.70967144 1.2593641 1.4111793 1.807731 -0.77780867 -0.19132435 0.12209149 -0.97330725 0.4137923 -1.3043596 0.40988424 -0.1921998 -0.43186834
1975 0.34019104 -1.2325916 1.4387358 0.8995674 -0.51006263 -0.64806384 0.76468486 -0.13265142 -0.8631065 0.36932737 1.6080003 0.5305553 0.8354619 -1.0872308 0.32571015 -1.8271366 -0.42743725 0.5091711 -0.42489526 0.43606782 0.6612432 1.0374521 0.7303914 0.018816872 -0.5511783 0.29223835 -0.13812864 -0.13674434 -0.09264318 -0.3501408 -0.70265335 0.019690065
447 -0.2522907 -0.47649172 0.43700528 -0.9096325 -0.4775797 -0.8894724 0.7937348 0.2609252 -0.108604275 0.5471651 -0.032273293 -0.13951054 -0.062315688 -0.18960358 -0.6775569 0.18101244 -0.29590148 0.8173811 -0.1100186 0.6138243 -0.047422595 1.0557995 -0.21163057 -0.6617026 0.84787065 -0.16423339 -1.6596348 0.67943656 0.26941004 -0.50004715 0.013782804 0.58128595
25 1.2204555 -1.0253698 0.7620839 0.034463715 0.30108616 -1.0672432 0.19756903 0.33790612 -0.43685716 -0.16257985 -0.11893442 0.42782462 0.8001439 -0.8355799 0.48716265 -0.045205884 0.049996123 0.8798973 0.43575674 0.3131906 0.27529675 0.86662126 1.029447 0.23688222 -0.257316 0.036515124 -0.6940566 0.21922761 0.5692754 -0.9370899 -0.2835071 0.4155404
711 0.1268061 -0.07281838 0.7699653 0.5865161 0.2474538 0.20423938 0.7044419 0.38968197 -0.6130231 -0.37960353 -0.102319494 -0.13620454 0.24203062 -0.17794618 -0.07911834 -0.28754014 0.5124418 0.43217397 -0.27566987 0.5916756 0.35235867 0.5655185 1.04203 -0.8525795 -0.3374595 0.6314162 -0.65033734 1.0283393 0.021787588 0.35163826 -0.24188454 -0.55151707
668 0.036413483 -0.9780728 0.3455279 0.25353423 -0.23193748 -1.7304612 0.67981493 -0.264355 -0.87658435 0.8999122 0.67844784 -0.00057308935 -0.064918004 0.7330828 0.06481759 0.62879 -0.3092734 0.63131565 0.07250823 -0.009211532 -0.10679909 0.84138304 1.0588772 -0.1858426 0.6034644 -0.38155058 -0.55185246 0.66571134 -0.1350797 0.34730372 -0.49868077 0.37819263
1763 0.2833746 -0.65308064 0.3894976 0.08336323 -0.086976655 -0.4364221 0.60776854 0.42458445 -0.12662055 -0.30748776 0.7230929 -0.40915704 0.08798778 -0.55898947 -0.27631 0.18360858 -0.06293562 0.25621042 -0.44229627 -0.15471314 0.7504686 0.28796452 1.0082566 0.4188121 -0.54703045 -0.5417439 -0.39527935 0.5323844 -0.52132803 -0.39136118 -0.8845124 -0.109272875
214 0.102404535 -0.43403494 1.2961876 0.29179418 0.4534718 -0.94253254 0.65972996 0.05641339 -1.0608209 0.4069153 0.04717745 0.17263159 -0.33826217 0.22266246 0.7131581 -0.32316905 -0.3384733 -0.09803794 -0.41782323 0.53782254 0.84133023 1.1934445 -0.4590942 -0.3191413 -0.3392109 0.41629267 -1.3428501 1.0679607 -0.12399019 -0.37213904 0.47605312 -0.5612634
1525 -0.052882444 -0.43479717 0.6762979 -0.54162824 0.57408595 -0.84833574 0.11914137 -0.4204749 0.4738641 0.14662935 -0.16949782 -0.1838667 0.111176595 0.016769309 -0.015034872 -0.16311194 -0.21138619 -0.30364832 -0.1161417 0.7732739 0.27851295 0.43945938 0.6313727 -0.91005284 0.91126114 0.053039756 -1.1900812 0.23456407 0.68234813 -0.45023075 -1.2067872 -0.7321309
1127 -0.1509094 -0.5440952 0.9148745 0.41884547 -0.22616939 -0.7618634 0.2122595 0.26246244 -0.5644681 -0.07812559 0.29046884 0.57675487 0.12636526 -0.64554286 -0.36333096 -0.46253717 -0.52791005 0.4670125 0.29637897 0.44932216 0.5058777 0.6944974 0.117933884 -0.44303942 0.25153247 0.42606372 -0.22305256 0.20477134 0.092403546 0.121782936 -0.5595177 -0.8979988
