9875 16
269 -1.4407343 -1.2224689 2.1718032 2.3793614 2.0238976 1.9117391 3.9939163 0.82091266 -0.27308336 -1.2948802 2.0050886 -0.59514195 0.02650323 1.1933477 -1.119127 -0.019519327
114 1.2160659 -0.6113901 -1.6070843 -0.120221026 3.724972 0.97179586 2.887741 -1.5514784 -0.5488517 -0.59568256 -2.2058635 -0.1082902 -0.48369825 -1.024847 -2.1044385 1.3884572
223 1.5801553 -0.9854339 -1.0988276 0.24507783 3.8575175 0.31135634 2.2395937 -2.2560549 -0.8895145 -0.18847017 -2.7739925 -0.9658423 -0.047538277 -0.5136884 -2.7645502 2.1485999
652 1.051732 1.5975822 1.9354522 3.0305793 0.8548227 -0.0959037 4.2282777 -2.1944284 1.2088867 -0.42014042 0.26224715 1.275731 0.9110322 -0.36767548 0.129135 0.21793087
288 -1.0653692 -0.7898078 1.1292249 3.5247366 1.3209199 2.025536 3.2928324 0.7352338 0.3349025 -1.5227146 1.6953398 -0.7929048 1.14978 -0.56967074 -0.93334246 -1.605436
733 0.6379219 1.0824257 1.867201 3.906707 0.74337494 -0.16510123 4.0656843 -1.5626615 0.24273528 0.69314873 0.24527034 1.1275213 1.3611238 -0.53875613 1.1628363 0.077849835
13 -2.6034667 -2.1594374 -0.27213106 2.2004945 1.0656056 2.0662863 1.9259584 0.08655379 1.499768 0.10382534 -0.26173553 1.3272334 -1.3072456 -2.7138178 -2.7078102 -1.3447553
109 -0.23409155 -0.67925245 1.8476952 3.96933 1.6940013 1.6688833 0.06257386 -0.7022393 -0.86212295 -0.01512603 -1.3538415 -1.8874053 1.1102611 -0.107653424 -2.0202534 2.0624995
172 -0.6145484 -1.7703646 3.357763 0.32287356 2.0897753 -1.1507038 2.0924833 -0.96857214 1.1500678 1.7731445 0.4375812 1.6223909 -0.05448184 -2.8934853 -1.2306844 1.7302947
210 -2.6967225 -0.4340418 1.1016953 1.5442623 1.3817638 0.26606548 3.638948 -2.873073 0.49692908 1.1646575 -0.32274112 0.45799193 1.6931545 0.71842974 -1.6778492 1.0566587
231 1.0264206 -0.8020666 -1.3553907 0.2953721 3.562014 1.314324 3.1422994 -2.6573133 1.3987037 -0.038665857 -2.572898 -0.53994507 -0.00621726 -0.9699457 -2.738781 0.91469353
919 -2.1875284 -2.0255246 2.223653 1.3622028 0.2823506 2.2290392 3.0070832 -2.6302395 0.38517895 0.3347472 -0.85246325 -1.9297829 -1.1036255 -2.8262148 -0.07089652 0.61817974
225 -0.092677005 -0.5782893 1.9639021 4.3351936 1.7710562 0.97564256 0.23487096 -0.67943627 -0.8289716 0.24521643 -1.1526787 -1.5019447 1.4328771 0.27296913 -1.6924169 2.249657
100 0.32545546 0.9549756 -1.5569475 1.8830637 1.7410443 -0.29780358 3.0251384 -1.9365326 0.33842376 1.9673275 -0.464216 -0.5933573 0.23412281 -1.4777844 -1.9116645 -1.5385011
17 2.5024683 -3.906552 -0.79684854 1.6111188 0.79519725 0.8055445 2.996661 -1.1185433 -1.7613088 -0.050502 -3.1500354 -1.8583761 -0.90783316 0.07923472 0.41740426 1.2516664
95 0.03766838 1.5630814 0.39127755 2.1756759 4.259665 0.17690991 1.07255 -1.2310692 -0.52445036 0.6959618 0.9699928 -0.5209636 -0.99576056 -0.8320337 -1.1568992 0.3967648
64 -0.0556082 -1.9498082 -0.1859886 2.028451 1.8878669 0.5730824 4.4638658 -1.4015818 -2.6665952 1.4344528 -0.307577 1.5272689 -0.08529995 0.20405878 0.52779186 2.2997525
376 1.8505574 0.46249056 0.5643395 2.0277193 2.734666 0.38522488 2.209355 -1.6497356 -0.18410234 -3.0656655 -1.0229515 -1.081273 0.027897255 -1.7864959 0.2896504 -2.109001
280 0.43403462 0.0838927 0.42504704 2.0889733 3.123661 -1.5156089 3.398459 0.5814521 0.28372654 -0.99008167 0.93059784 -1.1022462 1.5178764 0.23429878 -2.4227889 1.4630772
513 -0.25536132 -1.3162048 -0.015253592 1.5233526 1.4163134 -1.6334981 2.0469596 -1.1731675 -0.116313554 -3.8257701 -0.22732636 0.42265177 1.2603531 -1.2373309 -1.7385436 1.8421086
628 -0.11899495 -2.4735608 1.6440822 2.4239595 0.03820145 1.0079614 2.8214934 -0.12975103 -1.254451 -2.2441144 -0.8783079 1.0703281 0.4731457 -2.878993 1.7125036 0.37291956
642 1.8110485 -3.2351797 -0.21761134 3.9023855 -0.27895522 0.70635587 2.818893 -1.4389896 -0.41480824 0.2548913 -2.233439 -2.1759837 -0.77481925 -0.47824767 1.0433722 1.5350232
491 0.10818118 -3.5754306 -0.606796 1.9645307 0.84513444 2.2292285 1.4022224 -1.9144068 1.9521832 -0.26605704 0.24409303 0.9658455 0.23659225 -0.12702134 -2.6202252 2.7176833
858 -0.2778001 -1.8071378 2.9903123 2.0667484 2.0777514 2.0751567 3.1336663 -0.3487261 0.19850491 0.7564316 0.78751016 -0.66506976 -0.29878917 1.5904076 -0.4897247 -0.5270954
244 -0.8855224 -0.29815158 1.4784311 3.4067926 0.9396787 -1.4092432 2.1536825 -1.0180867 -0.34961733 -0.89606625 1.9816357 0.094656356 -0.7335092 -3.7728221 -1.9609728 0.28896627
115 -2.5820358 -1.941279 -0.29555446 0.90530616 2.1310022 -1.0620638 4.1438146 -0.3938382 -2.9227276 -0.40018135 0.17338036 0.6131766 -0.053973347 -0.7176138 -1.3604543 -0.8346311
294 -0.8308782 0.10849935 1.2315017 3.3785465 0.8293 -1.3819649 2.2911344 -0.81900144 -0.4610936 -0.81054544 1.8637661 0.21945073 -1.1750652 -3.7276864 -1.9408431 0.78328216
71 -0.039124317 -3.5325842 1.867484 1.1083076 0.3981238 0.2863869 3.1097982 -0.53721297 -0.98976386 -1.7465107 -1.0838505 1.6218581 -0.0064284396 -2.959185 0.5172683 -0.46198782
742 -1.0056684 -0.84479415 1.3022544 1.1998074 3.243574 0.25830054 1.7345976 0.6248868 -1.5532322 -1.0478584 0.49491417 -0.26542637 -0.83902395 -2.9154272 0.3761185 3.4097214
309 -1.9088293 -2.2022943 2.3213902 1.5954975 0.72150403 2.4192712 2.5299435 -2.3829148 0.2817806 0.6564066 -1.4466758 -0.53805715 -1.5652136 -1.8886139 0.5133587 0.56058174
1267 -2.3543482 -2.0473173 -0.1664606 0.86276484 1.9480479 -1.1442609 4.333256 -0.43938854 -3.0510607 -0.7586861 0.4142641 0.3436634 0.40573654 -0.7701531 -1.1870829 -0.9959318
1134 0.52630526 -1.4206165 0.06366705 2.0529997 0.9858592 -0.1656772 1.4399772 -3.380133 -1.7108768 -1.8248694 1.376409 1.1261941 -1.007514 -0.8426559 -3.5869477 0.08315397
192 -0.18329093 -3.4807987 1.49515 0.96497214 0.197369 -0.072256625 3.278016 -0.92275006 -1.6149095 -1.7628574 -0.39573824 1.4415537 -0.20732653 -3.0530849 0.49555308 -0.5733196
807 0.5508837 0.059803203 1.4213029 1.935219 2.3321178 -0.8305474 3.098454 0.65076256 0.2789773 -0.26789352 0.8328854 -1.3094858 2.4663587 -0.6115323 -2.6886046 0.9605684
416 -0.89586717 -0.5014314 -0.7128437 2.8694205 1.4789959 1.1277767 1.2329074 -0.6696761 2.0213695 0.9508715 -0.18936409 0.88724566 1.6059505 -2.8558006 -0.57099235 1.4771664
39 2.196245 -2.1781652 1.7922636 1.2240174 2.5964885 0.5979412 2.4173968 -0.3125533 -0.09020512 -1.1321743 -0.47676164 0.2627977 2.0294056 -0.99637306 0.6020654 3.6269197
1365 -2.3902998 -0.2497341 0.53731805 2.3031301 3.038398 -1.474361 1.9714729 -0.9319373 -0.9581004 -2.4274259 -0.34962687 0.9194985 -0.15449236 -0.36529994 -0.66222876 1.6611396
2787 -0.5838898 0.4604757 1.8287573 2.8156312 1.1530432 -0.9556444 2.025471 -0.75102097 -0.24750292 -2.8333685 -0.7716208 0.13837749 1.3001233 -0.61162525 0.5878305 0.7611351
786 -1.0870296 -0.7971014 0.70858884 2.0707572 2.251246 1.8128747 2.6424005 0.9755937 -0.36567187 -1.5859363 1.6738545 0.025450319 0.9510522 0.03780384 -0.43800518 1.4352365
347 1.5390389 -2.3105428 -0.62339705 -0.92624664 3.2695262 0.13231929 3.7506235 0.19929081 -1.1545498 -0.1448281 -1.5168706 -1.0433396 -1.2250625 -0.514525 -1.0892047 0.9429689
153 2.8208363 -3.1672516 2.1717052 0.90002954 1.0061095 -0.6699542 1.6416727 -1.8440261 1.3406116 -0.012978204 0.40231335 -0.3641646 -0.84809685 -1.4224757 -1.8716481 -0.19097139
211 -2.3982632 -0.7343839 0.9478207 1.3990489 0.89111596 -0.21700792 3.9241652 -2.7453632 0.78888786 1.2984036 -0.7084683 0.03849058 1.3415273 0.7151381 -1.6555398 1.2224907
372 -1.2204956 0.0836507 2.6391728 0.66667026 3.4232712 1.1842815 1.9939504 0.037503246 1.2288828 -1.4854022 -2.036152 -0.16369067 0.9046719 -1.8805869 0.46390948 0.12893276
326 2.1000934 -1.9326888 1.3500607 1.5433159 2.533027 0.4897469 2.476303 -0.16957004 0.4269717 -1.0157975 -0.52887917 0.20937368 2.145771 -1.1778382 0.7442081 3.9716203
332 -1.0950338 0.53219163 1.6546652 2.7286885 0.98342645 0.32717812 2.15911 -0.43946505 -0.78085756 -0.49419895 0.1016204 -0.20923124 -0.88215905 -0.5922111 -0.86311394 -2.368764
715 1.2597046 -0.17155692 1.9480104 1.085594 0.27104965 1.1713862 2.2783551 0.45220038 -1.5536228 1.7730953 -1.0462546 -0.12605195 -0.17998074 -3.1013591 -2.5471308 0.25314078
1013 -2.3806682 -1.7004783 -0.30042803 2.8848188 2.2100935 -0.140617 1.0323977 -0.020345978 1.4991739 0.21993308 -2.666389 -1.2432247 0.20713441 -1.7362008 -1.7537149 -0.6334583
454 0.3951959 -3.1890292 -0.5124033 2.0236077 0.6118807 1.7046586 1.6402061 -1.460478 2.0280602 -0.24259855 -0.4277223 1.1162887 -0.012781688 0.15842575 -2.6102335 2.320316
143 0.8267904 -3.3141298 -0.055963024 -0.6623171 3.4667587 0.13526699 2.077174 -0.4981166 -0.3011937 -0.4836415 -0.36106947 -0.59506416 -1.8283551 -0.24940416 -2.135872 0.23741311
727 -1.7300938 -0.08094687 2.1216545 2.5105076 1.2621765 -0.5458199 1.7712382 -0.95711285 0.19446987 0.6424631 1.2267675 -0.72074455 -1.1514798 -0.71731305 -0.7062013 -0.7297939
264 -0.5447262 0.29193112 0.8989291 2.3861835 1.6732149 -0.48817497 2.8880894 -0.041205138 1.20183 -1.2016909 0.12242498 -0.85974926 2.3557072 -0.73587525 0.1717836 1.5621289
2162 -2.2015896 -1.562699 1.283285 1.5973932 0.6608952 2.0491395 2.7443833 -2.3349166 0.1875955 0.816225 -1.0351591 -1.1072931 -1.2558123 -2.073057 0.9238822 0.78587687
745 0.02102837 -1.3776911 -0.07820966 1.9497993 1.7734426 1.1600647 4.202707 -1.7459888 -2.7271993 1.2384382 -0.38135955 1.3382807 0.09026791 0.07770824 0.5003313 2.2867093
190 -1.1589383 -1.544123 -0.7076165 4.4030046 0.6358642 0.41191164 1.8179952 -1.2057148 -0.18490982 0.010216295 -1.0321237 0.5984883 -0.7045145 0.14227282 2.182131 0.40186536
158 -1.9295185 -1.1266389 0.2434467 2.6821725 1.3223988 -0.51880497 1.0852116 -0.33606395 1.1040202 0.5031746 -2.4856393 -1.2989308 0.34536114 -2.3378718 -1.3387125 -0.5189949
532 -1.8955488 -1.8313195 1.9476213 1.3617085 0.670256 2.066862 2.493141 -2.129726 0.11060026 0.645014 -1.0923045 -0.6977476 -1.3005666 -1.6631162 0.77296394 0.6208409
1723 0.056088544 0.108406626 2.1853473 1.4231158 -0.25949094 0.37739488 3.7420583 -0.7881646 -0.8634255 -1.8794676 -0.26392284 1.065023 0.840767 -2.0813723 0.9387196 1.1143428
53 -0.46435618 -2.6366758 1.0582385 1.1785157 2.181592 -2.4748936 2.6523845 -0.17415841 -0.7705311 0.0012958549 1.2042485 -0.3878339 1.1230931 -0.9007461 -0.41117454 1.4575338
805 -0.2555738 -2.1563022 0.69153994 1.915841 4.142253 -0.07093714 2.076579 1.0051236 1.0734661 0.92849773 -0.76474226 2.1323838 -0.56494707 -0.6333388 -1.0036455 -0.4506927
998 2.8544774 0.5750113 0.837612 2.2142155 0.6132589 -0.48781788 2.5596936 0.58920187 -0.8872449 0.80766183 0.2276899 0.064627334 -0.8662349 -1.8686996 -0.10082194 0.8140915
424 -0.4278729 -1.4331633 2.9411511 0.47060952 2.1598756 -2.0172555 2.1533732 -1.7288629 0.31543672 1.4552536 -0.12181144 1.2101573 -0.0814457 -2.4792397 -0.7143682 1.680637
2519 -1.2656509 -0.9043497 0.48123384 0.30962956 3.5339766 0.38827452 2.830077 0.39799684 -2.1393158 -2.0867147 0.81145364 0.100851715 0.12651561 0.26490384 -1.5921115 1.9476902
1109 -0.046185397 -0.3528884 1.7933525 -0.43327984 -0.216939 1.0057213 4.0933824 0.11360549 0.3138488 -1.8666906 -0.57188714 -0.3096848 -0.44487903 -2.5288172 -0.7911061 1.5749375
738 -0.41267124 -2.4788089 1.7524117 1.1011634 2.6980138 -2.5528336 2.860114 -0.12944195 -0.61238545 0.40891784 1.5237254 -0.28911284 0.7652337 -1.0086048 -0.095070906 1.275883
445 -0.68037325 -0.5324111 1.4591242 3.8000715 0.91322756 1.5858936 3.0551684 0.036278863 0.9380962 -1.0977554 1.8760418 0.16845882 -0.09067248 -0.23628916 -0.51876867 -0.81194633
902 0.1198462 -0.8550698 -0.5417484 1.9969308 1.4113728 -2.6958804 2.0665865 0.6892668 0.31503108 -0.37592927 -1.1641461 1.4078689 -1.9401485 -2.0708086 -0.7174388 0.38762343
1046 1.4867918 -2.6095998 0.3558182 3.6424494 -0.29047632 0.4071399 2.5410585 -0.999692 -0.9961735 0.22067003 -2.469007 -2.1841848 -0.75335366 -0.5580701 0.9594235 1.3970788
909 -0.6221002 -0.98684466 -0.30468574 2.4298131 1.7412542 -2.6876798 1.9410925 0.832561 0.7599889 -0.17728905 -1.258326 1.4194237 -1.7424606 -2.0153084 -0.7489061 0.6926608
282 0.7190747 -0.81817394 1.444857 2.7528446 1.2510163 2.8044853 0.6780737 -1.9907589 1.5631737 -1.7338324 -0.5725934 -0.80496705 0.6243817 -0.67102474 -0.83346957 -0.58668953
44 0.7423211 0.047459036 1.0577854 3.4891655 1.067273 -1.011216 1.5685165 -1.3260652 -0.7825196 -0.76506937 0.7172711 -0.11466324 0.112199605 0.8653023 -0.78582674 -0.44716743
985 -0.18280882 -2.431804 0.5978658 2.3793533 -0.6409605 -0.53933525 2.067899 -0.8830046 0.52479184 -0.4746211 -1.6733737 -2.190924 -1.9894284 -1.5120828 -2.5244179 -0.45269406
183 -0.686719 -1.809357 -1.7354413 2.4026484 0.03880437 -0.008916552 3.2262795 0.037031576 -0.121515535 0.94855815 0.9423394 -0.46141368 -0.59934896 -0.87998396 -2.5353358 -0.048357688
168 0.43322182 -0.085879944 -1.4784191 1.955826 2.323605 2.297166 1.9037153 -1.2948197 0.48086098 0.12346992 -0.62823194 -0.23975103 -1.308519 0.22586963 1.051337 1.5989088
812 -1.1176702 -0.4562595 -1.0973623 2.7777267 1.3871064 0.31414148 1.8821687 -0.5691642 -1.097241 -1.4541285 -0.68084437 0.31242317 -1.1177149 0.1372054 -1.933648 -2.1001515
247 -0.13011347 -1.6282766 -0.739792 1.107616 2.4470363 1.3205372 2.6250868 -0.3838861 -3.0075011 0.06344176 1.3725717 -0.86486626 -0.8534158 -0.8277775 -0.6819768 0.5730838
1135 1.5003455 -1.8781441 1.4037186 2.1357114 2.7881231 1.4262878 0.70109814 0.458895 0.82353157 0.4249518 -0.5934148 -0.86393857 0.056091662 -2.5886781 -1.9616287 -0.91657114
1212 1.3883516 -0.8035334 0.2099378 2.2346056 0.47533602 0.90031475 3.1953335 -0.036051203 -1.0394704 -0.23602366 -2.5698328 1.1330202 -1.2665004 0.82401705 -1.7782719 1.6802452
755 0.92107 -0.8697901 1.0565677 2.5012448 1.8035358 -0.53813255 2.1890628 -1.8265153 -0.7424317 1.1439946 -0.53770214 -0.95997655 -0.8488274 -1.9870028 2.5567522 -0.83211553
342 -1.4653169 -1.0740236 0.8193191 3.3286774 1.2749103 1.3321728 2.9638093 1.4074702 -0.44552028 -0.92592216 1.5793986 -0.28952187 -1.2119557 -0.60732037 -1.0840167 -0.54038525
573 0.13090943 -0.45138747 0.39396462 0.51518893 -0.17268194 -1.0700483 2.44372 -1.8864877 -1.0779928 -0.7296613 -1.9504424 -0.6011024 1.1287516 -1.7750311 -1.9108306 -0.8250185
485 1.3587472 -2.049739 0.93492275 1.796807 2.7401094 1.6122358 0.28415042 0.24392436 -0.3401343 0.6320368 -1.3179563 -0.09601912 0.75777024 -2.6413972 -1.9775717 -0.29032758
479 0.6062735 -0.21191528 1.4443502 4.198585 1.6640052 1.020167 0.6116409 -0.30136952 -0.8012967 -0.343949 -0.5281804 -1.3967625 1.4660261 -0.033536762 -1.4778048 1.786439
482 -2.039488 -0.257125 1.1654131 1.2233057 1.3971076 0.08084749 3.9349139 -2.4594126 0.98977053 0.7470432 0.046345852 0.68017834 1.2973565 0.6108698 -1.9219371 0.8044945
523 -0.10029002 0.92753327 0.87158555 3.0902226 3.7022479 -0.33463976 1.8151217 -1.0640999 -0.7112945 0.9824727 1.3447415 -0.5245887 -0.89128214 -0.47114044 -0.28351066 0.24312094
129 -0.31052977 -1.7471123 -1.6220577 2.8147647 1.795403 0.31910437 0.71036834 -0.76570356 -2.3087883 -0.4242454 -0.6823936 -0.50298923 0.8748868 -0.5752461 -2.2275515 1.4284111
1024 -1.8061411 0.53543556 0.25770873 2.9192867 1.3106622 -0.12740438 1.7808884 0.24617186 1.137698 -0.9013137 -1.9599698 -1.0794502 -0.39275792 -1.1992705 -0.4012576 -0.9502996
1363 -1.2146962 -0.69438726 1.0858111 1.1820285 2.7999437 0.38477638 2.0454755 0.8219737 -1.0635113 -0.70191747 0.6699949 0.07974076 -0.6854559 -2.3366318 0.030420829 3.4143572
1782 1.463013 0.4738797 -0.6128393 3.9657624 2.0290136 -0.017526316 1.5328554 -0.50133747 0.2541952 0.34316167 0.15963744 0.84150124 1.4096061 -2.3244257 0.2134098 -0.11790604
1312 2.5669115 -1.4140134 1.0515269 2.1025984 0.3064699 -1.2962973 3.3333876 0.7297586 1.5083295 -0.37755838 -0.67947435 0.12647188 0.2109974 -0.93829316 -2.1084504 0.36547974
1369 1.9317684 0.7070199 2.156755 2.0372818 2.0800035 -0.5632081 2.151601 -2.2324119 0.9363635 -1.1235061 -0.38503563 -0.058798585 0.9174826 0.37376466 -0.7279796 1.3958186
1264 1.6401669 -1.8460866 1.3893481 2.256586 2.8712835 1.4255543 0.5642486 0.1258095 0.7008128 0.78797436 -0.3432619 -0.56171656 0.38560474 -2.8171625 -1.985685 -0.98068446
1352 1.2462842 -0.496288 1.7008141 1.3080242 0.1138738 1.0265851 2.5435054 0.4159926 -0.63238066 1.4288104 -1.1137104 -0.2974615 -0.29670942 -3.3840718 -2.5154293 -1.0069721
2073 0.13878645 0.16495295 1.26168 1.4612306 0.7048337 0.06806881 3.715837 -0.14614516 -0.9905335 -2.1941588 0.19813953 0.14892635 1.3211402 -1.288407 1.2335291 1.1729604
517 -0.5560555 -1.6455652 2.6496599 1.0694851 1.789196 -2.0502803 2.4468389 -1.2945724 0.575418 1.6009651 0.45492873 1.368692 0.21600729 -2.0562572 -0.26100016 1.8255253
2 -1.3255982 -1.8424371 -0.62022316 1.5389516 1.0099764 1.5543729 2.0491924 -2.345801 0.25146514 0.4021125 -1.5678606 -1.4951627 -1.8487588 -0.864132 0.48199782 1.7288597
2353 -0.09641121 0.09642976 1.792398 1.8359376 1.7647257 0.40085742 3.207447 0.70559645 1.1813782 -1.7024413 0.5900837 -0.34929678 1.7834771 0.026183397 0.04864525 1.5456269
1417 1.6338277 -1.7977434 1.3723665 2.2659993 2.536286 1.2414881 0.36331853 0.49916947 0.15190099 0.8144638 -0.8648713 -0.5441531 0.47951517 -2.7538998 -2.0148058 -0.79158777
3039 0.6014592 -3.6617675 1.2040286 0.1610897 0.877953 -0.72477 1.6972779 -0.9993663 1.6884456 -1.0463568 -0.72082067 0.28493625 0.45332202 -3.238004 -0.6764309 0.79201216
171 0.8475696 0.36355603 0.15663484 1.82878 2.5098526 0.36072847 1.6285473 1.9397353 0.18533005 -1.5077684 -1.4264696 -1.2258759 -0.53202873 -1.767159 -1.6034373 1.1376127
589 -0.09534606 -2.1673095 0.73250717 1.4741511 0.6946266 1.0364139 2.3019679 -0.5834954 -1.1112535 -2.0435944 -1.0235729 1.1074009 0.6269198 -2.5833073 1.3899858 0.29309937
28 1.004387 -2.7166836 1.401109 1.5010195 2.068426 0.4479975 2.0650473 0.6590642 1.3464586 -2.083334 0.0782069 -0.96565425 -1.6209664 0.22360337 -0.33420518 1.3815956
228 -0.33132416 0.20449896 -0.6690109 0.7694517 1.8617219 2.588757 2.0449 0.27577055 -1.1061561 -0.21705303 0.23127238 0.46199962 -0.35210678 -2.4847574 -0.75494397 0.18927185
953 -0.37274668 -1.4981865 0.37043068 1.4589278 0.37306896 1.278654 1.0985054 -2.061334 0.13102837 -1.516113 -1.5364991 1.4518776 1.1122177 -0.72335374 -1.0486112 -1.2414805
325 1.1964386 -0.60925376 1.3485202 1.0571375 2.7199693 -0.43424973 2.4770064 0.49177188 -2.1892567 -0.58880067 -2.3920164 -0.49186313 0.123455785 -0.352516 0.012494326 0.12624714
2168 -1.2207347 1.0150442 1.0900539 2.2077076 0.5973022 0.16324681 1.988419 -0.9310982 -0.43223444 -0.42879015 0.98652023 -1.9334027 -1.1202604 -2.2261262 -1.144829 0.13062036
499 0.2166837 -3.4775248 1.9936047 1.5951213 0.76467913 0.4587454 1.6601197 -1.3836116 -1.0673736 -0.7160541 0.9485518 0.41121835 0.2554953 1.1279454 -0.3524684 0.9997304
1064 -0.81669825 -0.115751676 1.1028335 2.6866767 0.74195194 -1.1662793 2.4149451 -0.8643739 -0.4080966 -0.566941 1.7516078 -0.2948747 -1.4494933 -3.0699632 -1.6502289 0.03569747
1210 -0.68524605 -0.771018 3.1766279 2.6299732 1.9681673 0.5874984 2.5498352 -0.7848684 0.52298045 0.5345624 1.4352691 -0.7007686 -0.89405286 0.32936496 -0.55112827 -0.7221418
566 -0.77449715 -1.9262549 -0.26139694 2.5039065 0.61779886 -0.59159416 1.5481242 -0.8357487 -0.24366952 1.2442994 0.039739266 -2.0189297 1.0185798 -2.064142 -0.8717154 -1.0764952
675 -1.0552771 -2.1323035 -0.87591416 0.9446479 2.228834 0.37968624 3.5385273 0.8615428 1.4083741 0.16891846 -0.35082418 -1.2244396 -0.03378251 -0.33182293 1.0669385 -0.25365072
1038 -1.6147672 -2.069909 -0.7183092 1.3833238 1.218 1.3771373 2.1606135 -2.1558404 0.8757421 -0.15508309 -1.4623953 -1.6760446 -1.37328 -1.0964009 1.0224581 1.9452392
1073 1.0616122 -0.62276286 0.8786678 2.7592058 1.9244392 0.0498193 2.113857 -1.8984883 -0.56768066 1.1331742 -0.5574821 -0.9895344 -0.2350288 -2.2749255 2.6531036 -0.4396128
982 1.4642237 -1.2130921 -1.1313844 0.3416286 3.0824025 1.3095505 2.1755276 -2.1064806 1.1912696 -0.063124254 -1.7986577 -0.14403646 -0.32449564 -0.8954899 -2.4736788 1.2193456
4207 0.9142921 -0.5301896 -1.466981 3.599598 0.19687939 0.60314995 2.0797446 -2.0233352 0.009045737 1.4128231 -0.48364687 0.9855399 0.8439074 -1.4278098 -1.1900767 -0.8161915
872 0.17024525 -0.19702134 1.6556249 3.2615817 0.79528606 0.8046224 3.1866744 -0.8730931 0.87147164 -0.5598219 1.5445305 0.38181093 -0.09915065 0.35236782 0.5749595 -0.835601
1225 0.09053823 -1.6380243 0.110628955 2.3068144 0.57388264 0.5863918 0.93833154 1.2502681 -0.9128773 -1.1645772 -0.1690424 -1.1580292 -0.19781516 0.2680972 -1.7797171 0.90159404
1779 1.412457 0.74229985 1.7518232 1.7404817 1.9130154 1.6735053 1.8194802 -0.52881354 -0.14360586 -1.7554784 -0.7074139 -0.086639635 1.1462095 -1.0008761 0.1187944 -0.7851022
1370 0.16881298 -0.031052778 1.2083899 3.0070143 0.9003514 0.64288974 0.114604786 -0.8963445 -1.5072654 -0.27511528 0.42059803 1.1409959 0.7301406 -1.7574626 -0.9589462 0.63309497
619 1.5353926 -2.087722 -1.1371651 -0.4394676 2.9048529 0.08111016 3.3912022 0.24903226 -1.3762622 -0.899286 -1.2738758 -0.5826176 -0.6202253 -0.104171336 -1.2391206 0.91802627
563 0.55756575 0.43056324 0.52532285 1.7178351 2.50406 0.71412253 1.4729447 1.8078023 0.59037334 -1.4135852 -1.4509466 -0.73256165 0.094123915 -1.9340369 -1.9298972 1.0025721
533 -1.1098521 -0.9080799 0.78973734 2.668657 0.66225624 0.18974093 0.9211479 -2.9273129 -1.0046229 -0.54668164 0.08924989 -1.9831507 -1.1523585 -1.0771416 -1.5438789 1.4429215
256 -1.3803104 -3.158973 0.8351903 1.0273583 0.7295209 -0.7071803 1.7557075 0.3594422 0.15584582 -0.67947584 -1.0928502 0.89685005 -0.6777258 -2.3317773 -0.39161167 -0.1839959
2081 0.17379425 -0.6270381 -0.73473173 2.3165245 1.3507692 1.2175677 0.8559878 0.8883398 -1.999485 -1.1412967 -0.38034472 -0.6283565 0.63707966 -1.1485265 -2.373908 1.7112964
1009 -1.0173815 -2.2072117 0.94806534 0.77749854 0.75185055 1.1058192 0.9433433 0.014415607 -0.08077676 -0.6851565 -1.8252206 -2.1159945 -0.60246867 -0.4316978 -1.538358 1.3344036
362 2.0074897 -1.5092986 1.429399 1.173742 2.3632154 0.35652632 2.4318376 0.12825656 -0.16697529 -0.8895149 -0.14021778 0.10872699 1.788057 -0.7358655 0.3722256 3.438745
1021 0.027098555 -1.3272297 2.4404383 2.3562965 2.373038 1.3813928 2.835709 -0.17554536 0.39625612 0.6983433 0.97813976 -1.049385 -1.1020963 1.4822522 -0.69167835 -0.48332646
2757 -1.9412167 -1.7935884 1.4602259 1.0931501 0.65032613 2.2727585 2.7056274 -1.9557595 0.15218273 0.41933495 -0.9001341 -1.1919686 -1.412366 -1.694297 0.6149025 0.33950314
2565 2.7461944 0.23395099 1.8922781 2.2647817 0.76522094 -0.6031487 2.3285925 -0.2793834 1.2484242 -0.7109887 -0.1888207 1.0388352 -0.44610834 -0.912479 -1.7806005 -0.08134994
977 1.1745719 -0.86959255 1.6944832 1.2188886 2.9603455 -0.716563 2.4273622 0.38595825 -1.769678 -0.44859347 -2.6620765 -0.6966274 0.15514044 -0.3257813 0.25101405 -0.14860274
116 0.39724118 -1.1217777 1.5578437 0.73474854 1.9843965 0.454708 1.6984158 -0.8534517 -1.5954884 0.49228057 -0.36863592 2.0621727 -1.5915239 0.48116878 -1.3075703 0.37379432
456 -0.634343 -1.1776834 0.10651545 0.45643157 1.1454662 0.49283355 1.8791417 -1.3436826 0.1791115 0.5757185 -2.3683934 -0.40313482 -0.6812145 0.79660696 0.07471473 0.8642688
34 -0.9546912 -1.7509097 -0.48796466 0.47306052 0.59775496 2.110429 2.2840848 0.42754063 -0.4310128 0.29446548 -0.9457223 1.1925564 -0.97744966 -1.8084277 -0.64950806 -0.4175955
2100 -1.085071 -0.6980066 0.19762285 3.2113292 1.2069004 0.84617186 2.8895116 0.89753675 -1.3672142 -1.1330603 0.80243325 -0.00033505916 -1.3140246 0.15307784 -1.5332962 -1.1940048
1618 1.9350325 0.10440874 0.9134598 1.3379239 2.1663744 0.31748587 2.7669475 -1.7687392 -0.63049126 -2.749121 -0.9818276 -1.2612861 -0.43054935 -1.4212316 -0.25070915 -1.6622316
430 0.03385602 -1.6109235 0.42755604 1.660436 -0.9376476 0.08197681 1.8744766 -0.76442933 0.049002595 -0.26253587 -1.3201996 -1.5597248 -1.6581135 -1.126739 -1.9702352 -0.44260326
204 1.326431 0.10288901 0.94441634 0.43372428 2.3410704 0.63282275 2.9734893 0.31209347 0.09445462 0.42716712 -0.77231693 0.35677508 -2.5726101 -0.8569371 -1.046525 -0.076939344
43 0.19900076 -1.0165375 0.22599961 2.580336 2.122841 0.1919006 1.4943681 -0.94181 -1.8333578 -0.19573416 -1.017965 -2.727852 0.28981203 -0.21211305 0.51903915 -0.8388107
1776 -0.20732185 -0.26511556 -0.90390396 1.7529266 1.6036936 2.5851977 1.5630015 1.2645351 -1.602322 -0.50501055 -0.44290897 0.50053394 -0.68419963 -2.8342016 -1.207276 0.5282742
752 -0.75457937 -2.4644754 1.6094322 1.1632925 2.6864119 -1.9581577 2.6716373 -0.16217187 -0.5350987 0.9125846 1.7026877 -0.3228967 0.6347909 -0.7817874 -0.7285037 1.0475055
688 0.121113874 -1.4089067 -1.7340443 2.836414 1.5891217 0.36941454 0.7535109 -0.6336516 -2.069456 -0.58796394 -0.7294208 -0.5008943 0.8034858 -0.91015416 -2.268681 1.8859729
2704 0.36279944 -0.54434353 0.8372274 0.92858225 0.58665 -0.48774776 2.1726067 -1.1870004 -0.46349624 -1.5936749 0.8345393 -2.67138 -1.2468557 -1.123553 -0.09957216 1.9406018
163 0.47301966 -2.6035707 -0.39122933 1.7323083 0.45191833 1.329976 1.2468612 -1.1387887 1.7257787 -0.1522034 -0.4094232 0.9668717 -0.08939268 0.15570393 -2.3919194 1.9866304
189 0.7064342 -1.2119457 -2.0246866 1.8306465 0.7468742 -0.98781633 2.4626155 -0.6155357 0.09944215 -0.6925716 0.09704634 -1.9364038 -0.6228145 -0.63522434 -0.17424141 1.4552842
545 -0.261057 -0.49067223 -0.7957944 1.3725662 1.3708929 2.8757694 1.9795177 0.06234665 -1.4008296 0.19996291 0.1172354 1.0021031 -0.8782151 -2.5275497 -0.8976836 -0.14256477
93 0.13473046 -1.761857 -0.27588618 1.7460088 1.2029067 -0.35147154 0.65918434 -2.483678 -1.025387 -1.4316027 1.2583134 0.8195275 -0.55957663 -0.94240797 -2.3014915 -0.12377492
130 0.06654225 -1.8853647 0.46417484 2.0565863 -0.7406594 -0.000257047 2.0080967 -0.88212246 0.21553925 -0.35459718 -1.4189788 -1.8279172 -1.8845799 -1.396107 -2.1474557 -0.5762897
623 0.3503027 -0.89431375 -0.32934442 1.7429672 1.3018545 -0.61748534 1.7062284 -1.8008423 -0.2401308 -3.4454408 -0.6494416 -0.3185213 1.2233515 -0.8696133 -0.9816251 1.8041215
751 0.14470255 -0.3248008 -1.8153428 0.61969954 2.816637 0.08152259 1.770527 -0.89636683 -1.0033585 -1.2991627 -0.9488115 1.0349985 -0.119092315 -0.15093082 -0.6961864 -0.20866798
2549 2.5510306 -1.6067181 0.89440477 1.869173 0.3940098 -1.4333391 2.9064581 -0.0705924 1.7229395 0.54153854 -0.5687406 -0.14282298 -0.427919 -1.3712852 -2.330264 0.95160383
1936 0.37095013 0.07781756 0.49303597 1.843748 0.628631 0.18845475 2.981311 0.13938622 -0.69312954 -2.1832411 -0.1444983 0.2498529 1.2597306 -0.51346105 0.3272244 1.2451565
1888 0.44960332 -1.0437784 0.024204507 2.012287 0.86574674 -0.8053699 1.8100394 -1.3588444 -0.4844262 -3.537821 -0.62772214 -0.4863927 1.379939 -0.91100216 -1.4947407 1.6604494
240 -0.26899666 -2.0965276 -0.43284842 1.3545485 0.8270776 0.7474468 1.3887644 0.11149889 -0.67969334 -0.9007407 -0.31851375 0.32855433 0.7377665 -2.8954165 0.95493674 0.2926306
584 1.5150657 -0.011910165 1.648217 1.4339292 1.6033937 0.746955 1.0902977 -0.27329186 0.0037928056 -1.2093825 -1.1958984 -0.17910856 0.79129297 -1.095819 0.46103886 -0.8421008
2883 -0.5084806 1.6637639 1.7399871 2.5307982 1.995054 -0.2744676 2.122823 -0.075110435 0.4866591 0.63471764 0.19440512 0.31388685 0.11208827 0.30478558 -1.9146526 0.67636037
3355 -0.022767043 -2.9363127 -0.018833144 -0.21846177 3.5205343 0.8963607 1.7478191 -1.1600963 0.44304776 -0.4768245 -0.32195926 -0.23067039 -1.0710833 0.2058848 -1.723275 -0.17303707
216 -0.024713498 -1.9196569 0.6564251 1.3846291 0.6309491 0.8193344 2.4252548 -0.48438588 -0.9072129 -1.6910189 -0.8397556 1.3731639 0.45802635 -2.5220256 1.39265 0.11875948
507 1.435292 -2.058332 1.433735 1.7109762 2.6841896 1.6535062 0.15709433 0.30130154 -0.12260094 0.53177875 -1.2328484 0.003462524 0.45656234 -2.3230417 -2.0191963 -0.13156234
27 -0.28039762 -1.5913357 1.4289434 1.1099244 1.0890728 0.19899169 2.2493825 -1.180549 1.575508 -1.6417549 0.60613066 -0.8901991 -0.7094141 1.2615621 -1.8763596 0.8015328
1072 0.16406427 0.009238639 0.55955535 1.2000383 1.186824 -0.45894107 1.3047615 -0.3943454 -0.55741763 -1.289704 -0.04315402 -2.682091 0.33903208 -1.0382634 -0.9204579 1.2601169
395 0.17402345 -1.6542227 -0.17070158 1.7015724 1.1540921 -0.3463028 0.7413781 -2.532387 -1.0763142 -1.4847817 1.1031975 0.83712196 -0.7345981 -1.0188972 -2.4591553 -0.18307123
1018 0.6420323 1.1063476 0.20710234 1.9930025 2.1132717 0.4635833 1.6295981 1.7199471 -0.4319281 -0.67775005 -0.78115773 -1.1228731 -0.12957948 -1.5914812 -1.838906 0.8316797
1944 0.6015164 -0.5554136 1.1288174 1.6247866 2.9663427 0.7796437 2.1735961 0.5350332 -1.4540496 -0.5998961 -1.0984098 1.3267298 -1.354034 -0.25716177 0.32040706 -1.0206677
394 0.65838194 -1.4367838 0.5989549 2.0166705 0.977195 1.9374492 1.5984632 1.0700277 -0.8800896 -1.5383681 -0.77759546 1.7565348 -0.50508696 0.2959893 -1.1809291 0.61500376
600 -0.22750027 -0.9424791 -0.23995598 2.681172 2.8985717 0.48107246 0.8630209 -1.227917 -1.0061188 -0.65837985 -1.3269627 -2.5638478 0.90276295 -0.84167695 0.86184794 -0.5139479
2589 -0.1452562 -1.1919757 -1.233165 2.65682 1.3185594 1.7779554 1.9152455 -0.69738364 1.9299198 1.6929181 -0.48556262 0.80171466 0.7738736 -2.126232 -0.40071648 1.2064646
1152 2.4107313 -2.7731135 1.6127548 1.308748 1.4209644 -0.26272514 1.4790965 -2.057217 0.7981424 0.12418025 0.80299735 -0.18242015 -1.3790829 -0.8660568 -1.4600348 0.015364501
2298 -1.8758924 -2.4532669 -0.61733484 0.6322296 1.751515 -0.9776531 3.7045944 -0.66591465 -2.3952417 -0.10796849 -0.43907493 0.3045212 -0.3647147 -0.92207825 -1.238165 -1.115865
522 0.16315268 -0.5153547 1.3946041 -0.3122604 0.162776 0.743268 3.2799337 0.1712117 -0.21012694 -1.7189442 -0.8823653 0.43629438 -0.21172261 -2.041914 -0.7215583 1.4608724
1611 -1.5689801 -2.0011983 -0.36315644 2.5519052 0.69885314 -0.3866984 1.4202735 -1.1707112 0.04598041 1.1839485 0.041949954 -1.4584552 0.6942682 -1.3208576 -1.0376984 -1.5725245
323 -0.7877407 0.7754153 1.049998 1.1994371 1.8222228 -0.2832279 2.6552854 -1.0091888 0.54647046 0.57343596 0.1677695 -0.43160522 1.6696504 -0.1252187 -1.4207805 0.7957447
2136 -1.0633034 -0.8114124 1.0309472 2.6055164 1.0000423 -0.0075194174 0.7119775 -2.7432764 -1.259431 -0.744803 0.001330286 -2.0592356 -1.2407054 -1.1609856 -1.3349164 1.075686
90 0.57206094 -0.69110733 2.440514 2.6652994 0.38456285 0.0858204 0.845184 -1.9344665 -0.6933895 -0.6490569 -2.7193966 -0.048041027 -0.15325885 -0.40870067 -1.0365924 -0.016111726
496 -0.48086762 0.875767 0.83172166 2.6830914 1.6472001 0.081062526 1.5846711 -1.0831125 -0.1686618 0.13271984 1.2122755 0.092637904 -0.21958362 0.04741747 -0.43308035 -0.49414164
1112 0.78828174 -0.66961193 0.7377526 2.6258225 1.9020371 -0.5165622 2.0239673 -1.8584628 -0.8689085 0.9156086 -0.69025856 -0.95819217 -0.49870473 -2.2789917 2.5991008 -0.60857725
140 0.136992 -1.7069474 -0.20905364 1.5760051 1.0590192 -0.35189235 0.6986024 -2.3358428 -0.99912024 -1.3796337 1.0517281 0.8314509 -0.5717764 -0.9669985 -2.2395918 -0.2278846
590 0.7859246 -0.19525993 -1.8654035 1.9347116 0.58776975 0.2726921 2.9882474 -2.0288117 0.07381519 1.1569728 -0.026941743 -0.27359462 0.51334643 -1.1503267 -2.4740999 -0.50820935
82 1.2362925 -2.619094 1.319456 1.4511036 2.1855993 0.49734068 2.190991 0.5993498 1.348123 -2.2138004 0.07786832 -0.7684582 -1.4760143 0.11455271 0.05783141 1.1136712
2713 -0.10973819 0.6904708 0.5743437 3.4117024 1.214347 -1.5472244 1.940108 -1.4061872 -0.9836381 -0.774465 -0.2029518 0.5985701 0.9579603 0.24952042 -1.4501121 -0.04984801
728 1.2275348 0.6402879 -0.65158105 3.2970319 1.369475 0.19762191 1.5282762 -0.8587218 -0.15964274 0.09868057 0.008589882 1.2358533 0.87871915 -2.163642 -0.062110204 0.06625696
602 -1.1294805 -1.6135224 -1.5530632 2.1256511 0.41215056 0.016465724 3.0430508 -0.3480096 0.042706925 1.0007477 0.8507338 -0.73247737 -0.5142335 -1.0413505 -2.4655201 -0.13962103
546 -0.7711514 -2.4880984 0.19835557 0.87494165 -0.21338731 -0.12913382 1.1776676 -0.50287044 -0.6467599 -0.94810814 -2.088769 -0.3493729 -0.55393213 -0.84970284 -0.87704796 -0.2557408
610 -0.41861832 -1.9617686 1.9323671 1.4121816 0.827118 -0.7624552 1.616071 -0.49554908 0.16320746 0.3249585 -1.4833018 0.36464357 -2.4015458 0.5016994 -0.96147007 -0.011197215
1145 1.7339121 0.59641623 1.966313 2.2175937 1.7267922 -0.39391539 2.397226 -2.222402 0.7751491 -0.8156599 -0.3507194 0.34992692 0.9431654 0.2420698 -0.45334756 1.2410551
36 0.012194857 -1.3337358 -0.40105566 0.23221976 1.1471103 -0.5436795 1.9205415 -1.2383052 1.0792505 -0.35796878 -0.21433394 0.74523985 -1.5863118 -2.7185452 -0.123355426 1.9255233
118 -1.145565 -1.8084817 -0.87296546 1.0904036 1.9069823 0.09483565 3.1577866 0.39024484 0.7634582 0.3953177 -0.6194204 -1.0771849 0.05793834 -0.007486132 0.8939873 -0.5631945
196 0.8716389 -2.2958038 0.92503774 1.9208518 0.5956337 -0.018131 0.62573415 -0.78233576 -1.4402362 1.4430264 -0.21792957 0.11569514 -0.8779419 -1.1971475 -1.2936543 -0.99774444
660 2.0616372 -1.0069084 0.688983 1.8994124 0.2417639 -0.9332784 2.5217671 0.62986016 0.9440463 0.018289577 -0.3719512 0.2585763 -0.14201084 -0.7760701 -1.9332746 0.5640411
146 -0.6014986 -1.5530168 1.6923317 2.3588955 -0.1304975 -0.33130917 1.114593 0.26084077 -0.26307163 0.3218952 0.17107993 -0.27147493 -1.2175997 -0.019953247 -0.045955967 -0.19423011
475 0.57095224 -0.2092566 1.2778828 2.0000103 0.29641938 0.62720746 2.3921957 -0.52552545 0.49172178 -0.19559489 1.030653 0.34282574 -0.027011665 -0.10744085 0.29561615 -1.0642285
979 0.12887603 -0.6470642 -1.4264653 1.387079 0.43067947 -0.81348914 2.3071373 -0.61361915 0.8352769 -1.3828847 -0.47287413 -1.8777508 -0.2171828 -0.5528798 -0.5807693 0.9653197
863 -0.035760712 -1.4636084 -0.13407911 1.6070708 1.5337772 0.58958167 3.8332472 -1.3807111 -2.327754 1.1515851 -0.4619191 1.3528202 0.16884525 0.26477784 0.46562713 2.079135
2544 2.2822113 -3.204538 1.0824271 0.8330075 1.8936948 -0.28824946 1.1790688 -1.8050188 0.3964069 0.15301473 0.6293367 -0.08238555 -1.6105008 -0.9478612 -1.2654822 -0.30115438
2555 -0.047938947 0.4290864 1.4879164 2.8696525 0.76335514 2.0439417 1.0085512 -1.5529202 -0.08143149 -1.1258909 -1.2380531 0.2496789 -1.3793286 -0.75581086 -0.7083323 -1.6251681
2235 1.0928994 -1.002983 1.0853201 1.5097466 2.7222633 0.5782062 2.4533978 0.7134562 -1.6998821 -0.55048656 -1.546184 0.5655414 -1.579936 -0.44469956 0.9403824 -0.69215655
1411 0.82051444 -1.4558393 -0.99729925 1.1836662 1.4145904 1.7262002 2.4677017 0.06374554 0.034787983 0.43654072 0.79296654 -0.86063266 1.2928072 -0.81842136 0.18370923 -0.693024
975 -1.5842602 -0.15702628 0.56904346 1.7660984 2.145703 -1.083877 1.5871117 -0.22609575 -0.767448 -1.7825079 -0.12998201 0.9135525 0.11486607 -0.64272267 -0.89733 1.2822726
1838 -0.7483693 -1.7507453 2.108555 0.66337055 1.3822113 -1.2026881 1.578148 -0.69579124 1.4816669 0.6720523 0.7085549 1.0745928 -0.38871065 -1.8399227 -0.45661846 1.1920165
138 1.3988771 -1.7314204 0.2829318 0.8522944 1.2331072 1.3535746 2.2478137 -0.9799716 1.9330022 0.07919798 -0.41697887 -0.8590791 1.2181424 -0.6994822 0.9169819 0.19027282
3615 1.8157325 0.6213694 -0.100906424 3.9016557 0.9285513 0.17528947 2.228176 -1.2135534 0.077141166 0.6084962 -0.53025436 0.98382634 0.9564062 -1.6851484 -0.067645475 -0.36193535
443 -0.64728034 -1.4922209 -0.927414 1.4927828 1.711921 0.3740183 2.9327657 0.973595 0.4162446 0.07677749 -0.29636762 -0.9351559 -0.07460653 0.5282395 0.51458246 -0.8667785
3737 1.0545796 -2.0217698 -1.6456817 3.4426022 0.05284012 1.602417 1.4901847 -1.4067587 0.49428338 1.3672003 -1.0251727 0.71036696 0.14675777 -1.802874 0.14423454 0.50669366
3019 -0.40908653 -3.4977927 1.0555545 0.08104396 0.7382641 -0.65617657 1.9623522 -1.1046373 1.2855775 -0.8464704 -0.5869747 0.7776051 -0.0017726069 -3.0607333 -0.6030078 0.6008722
1427 0.70245445 -1.2903976 0.028023077 0.61495614 -0.25094774 0.024156164 2.217516 -1.4556546 0.70919687 -1.0645174 -2.0232337 -1.451512 0.8757521 -2.516425 -0.69303155 0.3583594
54 -0.8311548 1.0433605 0.9649256 1.7528362 0.13384011 0.33210728 2.654423 -1.2178414 -0.53388536 -1.320955 0.23108228 -0.12171904 -1.5138481 -1.8995247 0.43962216 0.8466589
260 -1.0194819 -0.6317908 -0.01781855 1.1828066 0.033487406 0.1099813 2.6843624 -0.90344715 2.4825501 -1.1819881 -0.04593026 -0.5077884 -0.100404166 -0.40008715 -0.92759204 -0.36415038
2029 -0.8085174 0.7499687 1.3758769 2.8295593 2.2857838 0.14304411 1.5950019 -0.89050686 0.7311588 0.70721245 1.247155 -0.17521548 -0.26432085 0.4249768 -0.6763606 -0.18706577
1151 -1.5690556 -1.8102444 0.864415 1.3451858 0.7288681 1.7881844 2.2850633 -2.3995593 0.5282014 0.62191767 -1.3956952 -1.0205823 -1.6260101 -1.4981805 0.7818071 1.3078204
1127 -1.504316 -0.58149964 -0.123038135 3.6379116 0.85064423 0.49673074 2.2027647 -0.7185774 -0.6608306 -0.30191714 -1.6117005 0.48531386 -0.019098634 0.31345344 1.7489183 0.19407496
521 -1.0507299 -1.4892799 -0.43312353 1.0307647 1.451714 2.5062778 1.5243154 -0.2165462 -0.20896317 1.014301 -0.30485347 0.7507155 -1.7701068 -1.789981 -2.00832 0.09294544
408 2.700136 -1.0738946 -0.084609695 0.789203 1.8495682 0.42308074 1.7311713 -0.19771469 -0.3077345 -1.6364306 -1.2261469 0.48151603 -0.10636467 -0.37576795 -0.98055774 -0.5931969
555 0.29108903 -1.9693887 -0.54374945 2.0795557 1.3093865 0.7253439 1.4078037 -1.7295482 -0.9126161 -0.34833452 1.2104136 1.5430574 -1.0385019 -0.5397522 1.0892072 0.35160732
922 -0.24942754 -1.8302501 0.6504998 0.60258895 0.6055906 0.11941915 1.0845051 -0.75956154 1.5003567 0.40830302 0.21720849 -0.031655096 0.05676779 -0.40587464 -1.3662727 -1.4182931
1015 -1.8299732 -1.1699759 1.83886 1.5319161 0.93470055 0.6422039 3.07438 -1.3062812 0.80512303 -0.2100065 1.0961335 -0.13497883 0.089212686 1.0317078 -2.0468733 1.1466235
712 -0.36673203 0.26966715 1.4837645 1.825477 2.225963 -0.3621664 1.5292265 -0.51940095 -0.45773894 0.91109014 1.503666 -0.18435453 -0.15500699 -0.25640023 -0.33246946 0.7605316
31 -1.7339488 -1.2054496 0.2874315 2.0977035 1.3082387 -0.28007498 0.956029 -0.15254131 0.97999644 0.13378899 -2.038499 -1.0326248 0.10735155 -1.7334943 -1.1929864 -0.33303082
1803 -1.965515 -0.9690169 0.6612408 2.432399 1.7032092 0.2640206 1.359762 0.2529583 1.0399121 0.207999 -2.646613 -1.070447 0.19059233 -1.732046 -0.97012293 -0.7855689
122 -0.28702515 -1.1994339 1.9543302 0.33097968 1.4398477 -1.6163613 1.9416097 -1.115316 0.07705014 1.2440429 0.12992482 0.9604228 0.076171316 -1.7109015 -0.08761391 1.2704859
1262 0.77519166 -2.055666 1.8101724 2.6366308 0.29945484 0.5383557 0.8702311 0.1350268 0.40374947 0.8027387 -0.8739275 0.7980967 -0.7571741 -1.145765 0.85840744 1.3980181
427 -1.2391351 -1.258348 0.7299628 2.3401573 1.3645474 -0.02409147 0.46994767 0.37520376 0.0016796824 -1.0058335 -1.3813514 1.3403654 -1.0935333 -2.1949084 0.25552112 0.15540382
265 -1.3037034 -1.7933352 -0.5198961 0.5980012 0.9192459 0.04068556 1.6291296 -0.3703851 0.04528676 0.031790026 -1.771723 -0.68934053 -1.3491193 0.31223768 -0.23592664 1.0160697
1484 -0.057628438 -3.4227884 1.6974139 0.70631176 0.46545142 -0.3129451 2.6765838 -0.27700505 -0.80792624 -0.8878068 -0.61615425 1.1382238 -0.22362465 -2.5845876 0.2685896 -0.5706124
789 0.13310133 -3.099932 1.0198661 0.10354427 0.6686075 -0.28811413 1.61439 -1.201895 1.111068 -0.77262765 -0.3518909 0.14382388 0.76683474 -2.1587234 -0.5627409 0.7351132
2445 1.1977594 0.0011169524 1.795102 0.6414386 2.336882 0.79423946 3.0033379 -0.024675421 0.3862284 0.83060706 -0.7921722 0.5680368 -2.7315533 -1.2324405 -0.8929885 -0.108638376
621 0.25012514 -1.1330695 0.5977676 2.1179066 1.3893214 1.7260139 1.4401056 1.0898937 -0.34883308 -1.9204975 -0.8231721 1.8420494 -0.9239714 0.3606433 -1.6835185 0.6761179
3 0.06810507 -1.9832449 0.27436957 1.75865 0.8247458 0.63005173 1.3668063 0.95522356 0.80298537 -0.093278795 -0.9760308 -0.30847827 1.1214975 0.9157057 -0.6798936 -0.3127742
1397 -0.8375947 -0.76392365 -1.1731358 2.2445529 1.1672338 1.1170664 1.7627354 -0.63385844 1.4397864 1.3985597 0.19652908 0.5246667 0.96921134 -2.344384 -0.758301 1.2920173
4210 1.3042349 0.66702133 -0.72720605 3.0157316 0.28597972 0.3735566 2.1712897 -1.6255108 -0.28785866 1.0651716 -0.54520714 -0.3376249 0.6167237 -0.6642358 -1.2071601 -0.5994846
191 0.6348402 0.4049708 -0.14163329 2.009993 2.0877457 0.5226104 1.2054894 1.5833085 -0.30543947 -0.3616347 -0.4407963 -0.77324426 0.24229647 -1.5172746 -1.6709582 0.92936456
86 0.22119269 -1.6560458 -0.2847282 1.5808862 0.19331767 -0.0831384 1.8521136 -0.13964431 -1.7625462 -0.21204396 -0.58945817 -1.259395 0.8183397 -1.42489 -2.472367 -0.63187915
166 0.39974743 -0.99589324 -0.18606533 -0.25072902 0.799674 -0.48129764 2.1146595 -0.15219165 0.19799499 1.0273017 -0.39988312 0.7619641 0.13321656 -0.3870608 -1.4809437 1.2050858
4342 -0.25947633 0.37547335 0.82382065 1.8036791 -0.35756558 0.38075596 2.028253 -0.23443362 -2.630676 0.88095164 0.29876104 0.2039538 0.63603556 -0.18549621 -1.3600358 1.0640061
460 -0.47447243 -0.92338485 0.6407391 -0.54778564 0.10479411 1.2786063 3.3337047 -0.45741946 -0.14635257 -0.73333037 -0.5722685 -0.5773002 -0.7716783 -1.4733545 0.43948033 0.9856961
603 0.67655134 -1.027817 1.2230039 0.61989725 0.9582106 0.24736658 0.966833 -0.31778392 -0.65542346 0.5378561 0.27154893 0.12826777 0.9264489 0.3429874 -0.31245348 -0.10576878
438 -1.2077945 -0.5844835 -0.34886253 2.455365 2.6560168 -0.5057761 0.6140312 0.4885595 -1.3267336 -0.86363095 -0.013582216 -0.717916 -0.0652769 -1.0996244 -0.9760225 0.029419767
510 0.17552707 -2.9755085 2.6478305 1.4688827 0.8792849 0.3129606 1.6291242 -1.2341944 -0.9845454 -0.57170814 0.56570065 0.16997176 -0.36111996 0.9565399 -0.36067313 0.4418576
2584 0.2799297 0.26666096 0.85133487 2.5587306 0.13251986 0.79455465 0.42825493 -1.1625539 -0.17284699 0.074312314 -1.5302231 0.76021564 0.14962666 -1.3845965 -0.19341025 1.1942438
1452 0.13387245 -1.5871888 -1.4489061 2.6061761 2.3848934 0.72509575 0.29604846 -0.91130775 0.3957569 -0.05914885 0.1477214 -0.8282848 -1.4637398 -1.6672695 0.2793917 -0.06992716
2063 1.1305803 0.4168987 2.0062492 1.5540687 2.299013 -0.05750648 1.6145234 -2.4906905 0.26038334 -0.9205062 -1.6254379 0.92300606 1.2240553 0.21564329 -0.76036394 0.6387732
3433 -0.39238605 0.7161634 0.59575075 3.3809485 1.1216598 0.587854 1.1187938 -0.670338 0.10547964 -0.7924055 0.5776132 0.78621715 1.808108 -2.4686344 -0.3806028 1.8448123
180 -0.19654772 -1.6944269 1.8596529 0.9249551 1.1836189 0.3078912 2.4825907 -0.9352977 1.8354622 -1.0845475 0.7424528 -0.5062961 -0.6392951 1.0948699 -1.517683 0.95454204
1586 1.1941005 0.71994567 1.5314116 1.9480131 2.3227477 -0.18247257 2.0292492 -2.7229373 0.655096 -0.86263907 -0.67660326 0.4924299 0.87697244 0.6139662 -0.5690318 1.1257554
219 0.11473602 -0.22397631 -1.2158779 1.9545368 1.531489 0.91644603 1.4793625 0.13594799 -0.85141903 -1.3926055 -0.3333271 -0.58785874 -0.59961206 0.10852829 0.8572846 0.68033075
758 -0.074410304 0.07558141 0.5619367 2.043227 1.62986 -0.34167093 2.7499554 0.06967527 1.7094975 -0.7879343 0.48732355 -0.8095706 1.7693602 -0.50666624 -0.009890109 1.2143916
1108 -0.115007445 -0.30012408 1.4205996 -0.5261652 0.14070788 0.6425711 3.1653755 0.12516548 0.074615516 -1.2801969 -0.62665206 0.33169574 -0.22492163 -1.7207937 -0.7593871 1.2803091
1419 -0.5513916 -1.2210177 -0.6680725 1.1026537 0.3939872 0.35591292 2.1230369 -1.2406964 0.27495503 1.3340101 -0.1920765 -0.51567966 1.5586017 -3.038965 -0.44113782 1.7187922
378 0.7276033 -0.6544232 2.3221855 2.8273127 0.3022415 0.24050102 0.8187671 -1.9714901 -0.19980001 -1.0476979 -2.5662236 -0.13484034 -0.3371435 -0.20458184 -0.8782222 0.34201106
864 0.07157551 -1.545205 0.3762052 1.418926 -0.20606576 1.1303183 1.8635257 0.338369 -0.235334 0.6330444 1.0020007 -1.3301576 -0.6783471 -1.1228068 -1.0287632 2.1616619
1171 1.5860686 1.0015019 0.19298689 3.1594493 1.1341921 -0.032422487 2.9368405 -1.2583582 -0.12270786 0.49067634 -0.26111865 1.37848 0.7511855 -0.80149287 0.2874302 -0.19569007
899 -0.10954265 0.1497474 0.7755505 0.34013787 0.97883207 -0.50278115 1.4939266 -0.37342107 -0.19781551 1.2416317 -1.9731729 -0.93154734 -0.6536401 -1.3886256 -0.5587846 1.4834198
1908 0.48144397 -0.5257564 1.060354 1.8135233 2.6598535 -0.14226821 1.028308 0.5259056 -1.0189393 -0.58547586 0.19036129 -1.6537923 0.046254158 -0.017553076 -2.0824444 1.9634099
1532 -0.92404664 0.7154152 0.93416196 1.6929271 0.082382835 -0.3667366 2.3929353 -1.482912 -0.28439185 -1.7626657 0.02075837 -0.09149024 -1.4515773 -2.1344745 0.4736236 0.5186962
2681 0.30045858 -2.175128 1.6402262 2.5461357 0.7104733 0.46419746 1.0127652 -0.27296335 0.9439128 1.0673563 -0.5209351 0.91358924 -1.3075866 -0.79210085 1.1486737 1.1058792
308 -1.0303389 -1.0308248 0.50015354 1.7849815 0.76740533 1.2902942 1.5321274 1.0348153 0.02948567 -0.1740738 0.504614 -0.666946 -0.9852153 -0.46474102 -0.3103971 -0.3833289
4212 1.8851752 1.0099286 -0.33621588 3.3247843 0.63299596 -0.8187467 2.359968 -0.88285524 -0.44971985 0.5890548 -0.6512799 0.307168 -0.20859455 -1.2842987 -0.1683999 -0.24356216
1240 1.3134114 -2.6043196 -0.4183647 3.1099901 -0.3170119 1.0769268 2.2547135 -1.3225756 -0.31697652 0.6052889 -1.744257 -1.1506103 -0.3045767 -0.40983486 0.61114967 1.0484824
2123 -0.2685536 -2.3070974 0.41968226 1.4962344 0.6758131 0.77045834 2.3337429 -0.37350476 -0.968039 -1.3031404 -0.5318688 1.3895215 0.97109795 -2.7880306 1.1639429 -0.07577256
1055 -0.21733251 -1.311267 1.039419 1.6360688 0.23844585 0.7042579 2.9261415 -0.6737273 -0.8559958 -1.9412845 -0.40781805 1.4378963 1.014331 -2.5031488 1.3071121 0.27801478
74 0.40398028 -0.56100047 0.33536538 0.431269 2.0051296 0.541223 0.41739985 -2.0081625 -0.99847454 0.44147176 -0.7953163 -1.0681437 0.3038974 -0.2553363 -0.84935856 -0.18514293
2113 -1.4676371 -1.1686567 -0.28719586 2.9030983 1.2581658 -0.76989424 1.0438827 -0.53288734 0.6176175 1.0844473 -1.1136106 -1.1062505 0.72635 -1.7481545 -1.0749705 -1.1697732
867 -0.59659815 -1.2550399 -0.4530183 0.81138164 0.60706264 0.46364877 1.9976479 -0.66635114 0.5023378 1.1872877 -0.3969534 -0.46482185 1.6832577 -2.4928951 -0.8701681 1.4218135
740 1.143907 -0.047456615 1.3845932 2.3111904 1.0135795 -1.0118957 3.2627637 -1.9647735 1.1451381 0.4053536 -0.033421025 1.1793747 0.56205314 -0.87758183 0.83002836 0.58097154
2745 0.075007975 -1.4220299 1.6994691 0.9981284 2.6168876 0.7407918 1.2794453 -0.71812665 -1.0825382 0.27807552 -0.59782773 1.8382393 -2.0779748 0.19884883 -0.18041424 0.83514494
1637 0.5656827 -0.97851616 -2.1944714 1.9932498 0.8546714 -1.0507686 2.8278453 -1.1153237 0.5278935 -0.97614074 -0.051286377 -2.0006883 -0.4463423 -0.7556506 -0.65885127 1.2172669
81 0.8242022 0.47875413 0.43118876 1.7382528 1.2323332 0.607968 2.0890357 0.24473986 0.9011421 -0.5868942 -2.1168168 1.934442 -0.89103997 -1.7096292 -0.7126634 0.08607499
567 0.69384676 -0.16467047 2.2975469 1.0837278 1.9654218 -0.56750685 2.0034344 0.16187827 -0.85290706 -0.97986597 -0.062852696 0.3271226 -0.3394231 -0.19214897 1.0764365 0.32872117
483 0.26099548 -0.57154524 0.7564289 0.22670773 1.1812128 0.88013947 0.93872774 -0.66588527 0.27326587 0.9286081 -1.8749001 1.0804973 -0.46652877 -1.0440285 -0.8292448 1.6727271
2480 -0.61582583 -1.9333209 1.3386575 1.6231731 0.9990213 1.1893897 0.31483394 0.055932812 -0.4217423 -0.46922708 -1.7983056 -1.3583859 -0.16500396 0.24117546 -1.427634 1.2193985
413 1.0153856 -1.4947788 1.2161307 1.046404 0.8325015 0.7267421 1.0443964 -1.418513 -1.3984367 0.6256407 -0.69044185 1.093836 -0.008834203 -0.65092546 0.74018687 -0.560775
2575 0.14641894 -1.3512619 -0.42522526 0.4189981 -0.07861371 0.4865362 1.9909912 -1.7370083 0.50587636 -1.2375475 -1.6984774 -1.330369 0.46692103 -2.7491405 -1.3636837 0.033976417
769 -0.009672624 -2.561118 0.66452223 1.4474531 0.6544018 0.5783459 2.2971675 -0.3825464 -0.71476793 -1.3858567 -1.0639347 1.4594222 0.092191584 -2.4292839 1.5663223 -0.0011072939
1033 -0.28233752 -1.943772 0.33794174 1.3796959 3.5226145 -0.16675062 2.1572604 0.8200348 0.9012312 0.60895115 -0.7908266 1.9417356 -0.5407429 -0.7468066 -0.5214382 -0.519535
1361 1.2316073 0.12968047 -0.8113844 3.4071865 0.85318947 0.1603693 1.2903249 -0.81435525 -0.212154 0.23798408 -0.1220414 1.1947148 0.54767823 -1.7939348 0.12928374 0.10250366
617 -1.3776381 0.13323176 0.94347733 2.14754 0.70010674 -0.7156102 1.0173764 -0.22494462 0.40799004 -1.5125612 -1.4575908 -0.57574916 0.6812005 -0.84383535 -0.27068824 0.1752806
3525 -1.1167477 0.8825934 0.8282065 1.9195603 2.23808 -0.33253738 1.3213766 -0.78652865 -0.8238092 -1.363092 0.39423713 0.5231136 0.15648241 0.14037178 -0.31673843 0.5561449
2335 2.9778252 0.11105022 1.374352 1.9484174 0.8299469 -1.0243738 2.6785872 -0.4799505 0.84193474 -0.5133599 -0.17153566 0.89601076 0.023068381 -0.87757146 -1.5645617 0.694856
2574 0.066555515 -0.0643824 0.18247962 0.8482423 -0.36074707 0.990189 1.5330641 -0.4214904 0.70698416 -0.059221365 -0.04112952 0.34997496 0.94309783 -0.8200272 -0.5544036 0.69910383
2463 0.863711 -2.3810167 -0.96943307 3.5623975 -0.19709593 1.3459816 1.5792409 -1.0467168 -0.3925384 0.8933799 -1.6684359 0.13460132 -0.35452497 -0.8941172 0.7690175 0.5670933
1825 -1.4659425 -0.68106246 -0.5529377 2.794791 1.0573205 0.5248891 2.0599754 0.1246452 -0.88352036 -1.4886738 -0.3725615 -0.34029555 -0.73499244 -0.27545586 -1.0479281 -1.8610272
509 -0.48207724 -1.1823969 1.2615638 0.13587652 2.080646 0.28914446 0.55955637 -0.65359986 0.4800464 -0.3005256 -1.5264436 -0.24787726 0.13289334 -1.563055 0.6205233 -0.039220788
14 -1.8166357 -1.9634072 -0.038046535 1.7970803 0.9872865 1.0312735 1.1458899 0.028028158 0.40577552 -0.013026068 -0.10459612 1.1730714 -1.6906111 -1.9237269 -1.7385336 -0.50362223
744 2.464617 -1.9897557 -0.70507807 0.009501112 2.4026651 -0.120183595 2.620599 -0.39935136 -0.5524622 -1.1313106 -1.6217121 0.24578884 -0.5651617 -0.27091563 -1.0819113 -0.009168793
1499 0.50488514 0.31762683 -0.121966146 0.69642675 1.4721459 1.7303786 1.4565117 -1.8810254 -0.34742618 -0.3569758 -0.27321118 1.1280555 0.67951536 -0.53615147 0.14071988 1.2917476
1800 1.4209657 0.12124293 1.6201354 0.56668925 2.2832472 0.60259956 2.9029994 0.1020909 0.36519456 0.5044577 -0.59386724 0.52260166 -2.3735054 -1.3262619 -0.6685073 0.35224667
2361 -0.85868615 -1.5153905 0.48494488 1.6200241 1.2827475 -0.47424695 1.1161308 0.5299884 0.82545525 -0.67612886 -1.2777641 1.8466226 -1.8083249 -1.8522303 -0.31209767 0.56825155
540 -1.6765792 0.31742415 1.1722813 1.5823768 1.4725113 -0.43406922 2.5585616 -2.059853 0.099590756 0.8343196 0.008820026 -0.13014042 1.1501012 0.46167883 -1.567634 0.7511205
881 1.0916822 -1.018296 -0.20465283 1.2692593 1.6596092 1.9884833 0.87517595 -1.3828667 -0.04652756 0.41712138 0.4204708 -0.661144 -0.31892198 -0.0965553 -1.4802411 -0.62339133
2851 0.4228848 -1.7919859 -1.3505461 2.746355 2.4383342 0.4318877 0.42158845 -0.8706775 0.89517707 -0.09838264 0.26894855 -0.39182734 -1.2572837 -1.6825646 0.5364743 -0.62347597
3630 -0.60761774 -1.0840691 0.09555337 0.20195718 0.35072002 0.6955069 0.5985619 -1.1730332 -0.7701264 0.15445969 -1.0388545 0.5558722 0.56433964 -0.26539803 -0.7587915 0.55677277
179 1.020339 -2.5316372 1.2660431 1.2494898 1.8561811 0.37878296 2.0208507 0.5192593 1.2548013 -2.0995634 0.197234 -0.7865114 -1.6609529 0.16681735 -0.09745103 1.2577196
1957 1.1106076 -1.624286 -0.5724393 0.9854012 0.10061417 0.034277376 2.8000803 -1.3066713 -0.04396771 -1.3408751 1.1641759 -1.1043835 -1.0131243 -0.6984332 -0.07970203 0.673489
845 -0.37842086 0.013288707 -1.5321376 1.8172488 1.9705696 2.0958865 2.240969 -0.9348442 0.070171274 0.35709143 -0.59269863 -0.5193704 -0.16216053 0.00054446206 0.8247281 0.71680117
2171 0.08724816 -0.7371479 -1.4494365 0.6114081 0.7029033 0.91786915 1.5379305 0.099275336 0.6346902 0.7425991 -0.4463509 -0.73598796 -0.3689777 -1.317237 -0.6470674 -0.034754768
1978 0.14735581 -1.8900791 -0.8802948 0.0905704 0.10614982 -0.1385572 1.8482121 -0.5749843 -0.6502519 0.4030731 -0.14236487 0.09002536 -0.10874765 -0.20421135 -0.41805914 0.2663912
453 1.55076 0.10785619 0.88403314 1.3867118 1.9556081 0.54207057 2.347678 -1.333588 -0.55014133 -2.25645 -0.7598889 -1.0581753 -0.22270063 -1.2306559 -0.17699303 -1.545055
147 -0.20599851 -0.7422662 -0.48128965 1.8293525 1.2433316 -2.0168967 1.4165123 0.33404893 0.4367105 -0.52357966 -1.1266845 0.99116445 -1.4856464 -1.7722965 -0.5259272 0.2851944
87 0.29402083 -2.0503175 0.7283232 1.0943187 1.1599277 -0.4850949 1.4668589 -0.104476824 -0.945603 -0.2969995 -0.45536557 -0.36746112 0.47848547 0.7671759 -2.787393 0.093106486
710 -1.0484165 -0.90833086 -0.9471327 0.41056725 1.6606568 -0.12165941 1.8893571 -0.6732387 -1.1988208 0.023286497 -0.5149057 -1.5055007 -0.861014 -0.75521106 0.04453874 1.218215
1734 0.91524327 -1.6904461 0.46497777 0.6870189 2.068626 1.2206026 1.8564236 -1.3338338 2.0390484 0.020699708 -0.5061679 -1.1344852 1.1390548 -0.21627036 0.73539174 0.19575103
988 -2.1342223 -0.24115412 0.35343483 2.0020525 1.778697 -0.9370473 1.7250496 -0.584383 -0.7929765 -1.9109117 -0.80739695 0.666637 0.29134494 -0.53995484 -0.5736845 1.0175585
2017 -0.009503045 -0.1608192 0.7361859 2.7193642 2.5555546 -0.8676893 0.10260976 -0.38782266 -1.1309645 0.90893775 -0.024555327 -0.4617627 -0.57068497 -0.56472266 -0.27866292 1.0537856
1882 0.53239596 -1.5506223 1.653041 1.5155643 2.2382543 1.8108001 2.5353727 -0.21366346 0.034522492 0.39415166 0.34272945 -1.1253119 -1.0200901 1.7984391 -0.815322 -0.40269682
1115 -0.23049003 -1.8252584 0.41232416 1.5043856 3.5367708 -0.18327862 2.0290003 0.84156233 0.8978124 0.76278996 -0.64847785 1.9561558 -0.69245684 -0.78152853 -0.52812326 -0.40210298
346 -1.7162628 -0.8533818 1.8085011 1.8584604 0.80905414 0.7804288 2.2922754 -0.67822474 0.49130684 7.19613e-05 1.2769775 -0.23702544 -0.15127687 0.3711266 -1.4840517 0.7349645
1180 -1.3729188 -0.7034088 1.0792887 1.050843 0.3191842 0.8766295 2.0847645 -2.0227757 0.16447538 0.54078996 -0.7253876 -1.276913 -0.56790245 -1.3187294 0.74795806 0.966662
1430 1.7161331 -1.6066103 0.48483166 1.1432985 1.2543777 1.7348702 0.4541845 -1.2187692 -1.1146194 0.6751796 -0.624254 0.86827546 -1.2034785 -0.26409656 -1.3340634 0.53245556
353 0.56920516 -1.0483764 -0.5762479 1.6562335 1.0196882 0.8469912 1.3351177 -1.3097986 -0.1549772 1.7226119 -0.20933592 0.15413378 -0.21717305 0.78548217 -1.3247793 0.09046126
432 0.46200228 -0.8753518 -0.61830425 0.59683204 0.7628921 0.07442821 0.48481882 -1.5135161 -0.98879856 0.022389965 -0.17026606 1.0269563 -0.98586214 -0.6426448 -0.7242372 0.24070126
306 -0.20274514 1.360621 1.1142173 1.0105608 0.75523347 -0.50745493 2.576445 -0.6289622 0.44366682 -0.5044198 0.12720288 -0.19175716 -0.58571255 -1.0212601 -1.7694105 0.49536353
22 -0.7429544 0.035778172 0.66723436 1.1906946 0.41652405 -0.04045658 1.6025375 -1.4940401 -0.94310844 0.56927884 0.3237258 0.2088321 0.5006163 0.5212977 -1.4436786 0.21194226
19 0.9273589 0.52083695 0.8920446 0.619552 0.7066716 -0.995234 1.9136492 -1.2558819 -0.19281863 0.42110702 -0.49253234 0.13460651 -0.324904 -1.0409961 0.43077785 0.8729446
2818 -1.394833 -1.5604303 0.452418 -0.29559407 0.7028454 1.6099524 3.767692 -0.17098689 0.4711552 -0.022069084 -0.73583406 -1.2748789 -0.77610695 -1.0753736 1.0692372 0.3464355
809 0.4153056 -2.6716266 -0.41054404 1.7557223 0.63495314 1.6186721 1.5303712 -1.3003566 1.7796685 -0.036001295 -0.24523154 0.57465327 0.39399463 0.27602717 -1.6545547 2.1076047
1597 -0.97412527 -2.182113 0.15881714 1.8364815 1.114121 -0.63083506 1.1880263 0.34452444 0.5514532 -0.97357446 -1.2197689 1.5803418 -1.7626889 -2.5628657 -0.38446915 0.34112033
4025 -0.46121976 -0.6844379 0.39016613 1.3258414 0.4075238 1.8328917 1.4324901 -1.8663939 0.288217 -1.3666946 -1.5191541 1.3777955 0.8425551 -0.9627061 -1.1280929 -0.8712732
56 0.6298489 -1.9751858 0.37676534 -0.35206613 1.2848667 0.023262199 1.7707245 0.2680259 0.19006455 -0.7988549 -0.61281943 0.10761708 -0.012669766 -0.7921633 0.71815866 0.022946676
370 1.0952709 -1.4525479 0.7517552 1.4487329 0.8965668 0.3070445 0.14029676 0.6877219 0.37630096 0.37331071 -0.50943696 -0.7721686 0.81045675 -1.4864042 -0.82437664 -0.042351015
2031 -0.5553667 0.7449545 0.550917 2.4425561 1.1357372 -1.1361475 1.287402 -0.8936591 -0.48158526 -1.2105927 -0.36990416 0.38014376 0.39229694 -0.12107583 -0.8500926 0.12689255
198 0.47646764 -1.1576213 0.7625073 1.8015716 1.4810162 -2.0607576 0.99070853 0.092168204 0.6239077 0.20251912 -0.37264416 -0.72520304 -0.7406284 -1.2780095 0.14099312 0.20786807
553 0.4324456 -1.1695276 1.4564526 1.3883346 1.7249477 2.0508723 1.0839138 -0.33928794 0.33745143 0.29256353 -0.52815515 -1.6246198 -0.25546905 -0.28813836 0.5232291 -0.38293004
2495 -0.42167094 -1.8692719 -1.6546618 2.0424082 0.31765762 0.18715389 3.2812743 -0.06796908 -0.14974274 0.69705534 0.8002616 -0.060709022 -0.7934253 -0.59689593 -2.478796 0.14934668
1622 0.38102666 0.32509542 0.795782 1.9169492 0.48561284 0.15789789 2.0833304 -0.9856264 -0.262651 -1.2405176 -0.40019378 0.7276409 1.4929652 -2.4116826 0.5403168 1.37107
1235 -0.7772078 0.13883315 1.3829497 1.3762928 1.030047 -0.47680032 3.642647 -1.5884795 1.0774604 0.46997118 -0.18332478 0.65391374 1.5294411 -0.00641379 -0.550475 0.9452063
570 -0.9352019 -0.98273677 0.6530561 -0.11444307 1.036317 0.3608393 1.6646049 -0.99404114 -0.34535766 0.55263704 -1.2033213 -0.8055154 -1.086474 -0.8719838 0.7019391 1.0243789
2714 0.5708384 -0.38125312 0.9830387 1.8323493 1.472987 1.6505424 2.8243666 0.52137727 0.42752102 -1.3632787 1.4243318 0.37858206 1.0603993 0.35914993 -0.7305194 1.5610514
134 0.7493102 -0.4412663 0.56168133 0.10217761 1.4764813 0.24553376 1.2076894 -1.9749346 1.1069376 -0.5697128 0.12643921 0.7414673 -0.85659254 -1.6605277 -1.7084409 -0.23781013
221 -0.0072615114 -1.0423596 -0.03236502 1.4523823 -0.30837044 1.2325094 2.2473145 -0.14819297 -1.0553176 -0.24036235 -0.87676626 1.1316518 0.2093852 -2.6112628 0.15736023 -0.21261917
2058 -0.9379812 -1.0200498 0.099228054 1.1725875 1.580413 1.1069454 0.64921904 -0.3098003 0.71316904 -0.14660122 0.18760669 1.04113 -1.1696887 -0.39401248 -1.2174008 -0.7907939
1229 0.24537988 -0.23172323 -0.010948628 0.10100753 1.0379909 -0.84221077 1.4714165 0.24982716 0.54759204 -0.14343515 0.3358993 -0.5906388 0.3295797 -0.78221303 -1.2074885 0.6334877
3270 -0.38497502 0.6928132 1.5964067 2.9745986 1.0395974 -0.121759795 0.9705954 -0.63623655 -0.7431054 -1.7276608 0.09814556 0.08716063 1.1408533 -1.208675 -0.7762018 1.7593029
1165 -1.1815149 -0.03645827 0.49990258 1.8349252 0.59511316 0.56394696 0.74155587 -2.1178925 -0.34097674 0.29116887 -1.3378087 -0.3120842 0.9122032 -0.81234175 0.050625615 0.30028042
250 -0.13302752 -1.3010507 0.26847106 0.7901863 -0.63732827 -0.41859105 1.4410081 -0.68362355 -0.109269716 -0.5732524 -0.7551437 -1.1638207 -0.8710074 -0.5705075 -0.8876513 -0.40989235
1491 -0.25673297 -0.21089716 -0.263298 2.0151856 1.5475619 -2.6296709 1.89426 0.13539745 0.7144521 -0.16286582 -0.8222157 1.0282328 -0.6650944 -1.2973206 -0.56171197 0.53412914
1696 -2.0025823 -0.3848451 0.16489789 1.5417438 2.4593656 -0.73382795 1.7778114 -0.18333206 -0.9787904 -1.9868995 -0.19395965 0.7336511 0.060000397 -0.5640703 -1.0216962 1.4454225
2342 -1.7216691 -2.2866058 0.29790774 2.3608441 1.6268985 1.4954739 0.6672947 -0.5112721 0.83126247 0.36069694 0.060745858 0.87993747 -1.2978437 -1.0431391 -1.8064181 -0.78288305
857 0.46420997 -0.06641355 -0.9488978 1.7113118 0.3589408 0.41889927 1.3175774 -0.78532696 0.631009 -0.16194257 -1.561594 1.1562952 0.1869533 -0.41091296 -0.12032828 1.02415
119 0.33424678 -1.4434758 -0.12560342 0.60430276 0.83760184 -0.91804385 2.3592317 -1.9575951 -0.7245794 -0.16346501 0.33852267 -0.36340883 0.956474 0.25896773 0.3580787 0.55131817
1098 0.20470911 -0.9397304 -0.5795965 1.4685985 1.7661964 0.8320551 1.7479143 1.0365808 -1.4847265 0.1058291 -0.017010404 -1.0525886 -0.6061459 -1.038024 1.123086 0.79651004
1587 1.421601 -0.547048 -0.024437657 2.101025 0.4204938 0.7428593 2.7835832 -0.27173516 -1.0466202 -0.5282083 -2.024188 0.88577956 -1.144481 0.74403787 -1.2998254 1.6363957
819 0.34188795 -0.94922405 -0.46324852 1.1802559 2.1080675 -0.6245723 -0.06332281 -0.5190543 0.19641785 0.6860215 -1.3333938 -0.3719407 0.39158273 -1.5988705 -1.2259346 0.3593774
2264 2.2740524 -2.2254171 1.8086487 1.2026563 1.1664762 -0.166222 1.2464038 -1.8045295 0.7702655 0.051064834 0.75594956 -0.29287523 -1.3009173 -0.69478893 -1.2009333 0.1702646
3856 1.3735166 0.37895957 1.2744666 0.56766516 2.0216618 0.76125497 2.6495607 0.16269372 0.44279814 0.55081916 -0.48855793 0.4846514 -2.4296284 -0.97618985 -0.77819675 0.12811501
996 -1.095571 -0.6019659 2.034667 1.0588892 2.5887947 1.0012045 1.1823757 -0.28748327 0.5776368 -1.4536625 -2.2424583 -0.19721514 -0.3170845 -1.5754377 0.072795816 0.03113929
199 -0.6638832 -0.64629364 0.1726598 1.951007 1.2970859 0.6119724 1.8949598 0.6468946 -0.71351016 -1.0277321 0.49147 -0.28730607 -1.2311437 -0.06316116 -1.4145887 -1.1698748
1096 0.22994447 0.57577604 2.1344447 2.0202317 0.85720026 -0.035746526 2.363762 -1.09835 0.3488982 0.29741606 0.42923287 0.46593347 0.3001074 0.25539988 -0.031370785 0.42117167
1847 0.50586593 -0.38571396 -2.2943478 1.6331458 0.80281425 -0.76339316 2.8496037 -1.5813923 0.22519198 -0.30854002 0.6244495 -1.4579078 -0.43623114 -0.66604334 -1.069283 0.63828075
604 0.92098355 -1.3225772 -0.008092623 0.51553404 0.28702217 1.1707187 1.1116703 -0.93429375 0.9085186 0.04654265 -0.35589975 0.22278182 -0.4577172 0.22598727 -0.8012218 0.57977134
76 0.15536435 -0.42731437 0.4032272 0.1288927 0.77480394 0.14976038 0.57137954 -0.25692192 -0.35741276 0.0076493085 0.0545648 -0.16926278 0.31963202 -0.62801397 -0.28721485 -0.055224393
962 0.7764675 -1.6964209 0.63998365 -0.21191604 2.1620522 0.50478244 1.8175328 -1.081368 0.53991145 -0.3603417 -1.9085097 0.4575828 -0.54159313 -0.22729345 -0.008942153 -0.59146845
959 2.2395673 -0.94087136 0.7009359 1.8988798 0.25893196 -0.9749923 2.6317663 0.46517047 1.047209 0.15050696 -0.397263 0.18946303 -0.15975963 -0.85797745 -1.9270924 0.4492708
834 -0.7406989 -1.1508528 0.21791556 0.3461915 1.6188215 -0.26255018 1.0341272 0.28676096 -0.49315664 -0.45667318 0.0496068 -0.5495094 -0.4728808 -1.1193441 0.84726524 -0.045472223
3066 -1.3501316 0.7241338 1.0406582 1.6131092 1.7138157 0.31227052 2.345001 -0.20420949 -1.4196502 -0.52752715 1.2161837 0.7902548 0.8199816 -0.4834673 -0.43493944 1.2109042
1317 -1.2621691 -0.674681 0.3939507 2.1425781 1.3147366 0.6736051 0.60416776 -2.1577818 -1.3583393 0.41333026 -2.3043227 0.21839161 0.6548732 -0.4346888 -0.14651671 -0.31175137
1284 0.7628928 -1.7685148 0.31020597 1.3258259 1.4288818 -0.67322683 1.707467 -0.22103952 -0.8085739 0.011816452 -0.46202502 -1.0408775 1.0582741 0.8221425 -2.750244 -0.29799855
1928 0.20646508 -1.2673881 1.0053642 -0.15975267 0.8511744 0.12306052 2.3422515 -2.1001637 0.14713272 -0.28368843 -0.79715484 0.58666945 0.45420498 -0.30790734 -0.18594946 -1.3428621
1468 1.1171703 0.6436733 -0.42182598 2.774443 0.6950235 0.002105173 1.3942548 -1.0972394 -0.005746476 0.77643687 -0.6197597 -0.096726924 0.40402398 -0.92099464 -0.78997 -0.5470582
451 0.8620195 -0.7802507 1.3181366 2.1284451 1.3658828 0.83957636 0.18830621 -1.6395262 -1.5893188 0.06793484 -0.39619103 0.9410931 -0.4953253 -1.5823482 -0.23707585 -0.6954649
410 -0.72180563 -1.7212669 -0.92295223 0.5306148 0.699636 1.0336152 1.4076519 -1.3450234 -0.34094787 0.5037228 -0.524215 -0.12768534 0.18915892 -0.25472558 0.24849106 -0.20988443
1188 -0.8335357 -1.2187659 1.2515053 0.93313193 1.28047 1.0478172 1.2712729 0.69203 0.021301435 0.12033417 -1.2418623 0.96389663 0.7568807 -0.2660347 0.6208808 0.16195558
2794 1.2827828 -1.6037369 -0.4776882 1.0364512 0.09439119 0.40602186 2.611247 -1.5979875 0.25998253 -1.3223263 1.3065444 -1.0057771 -1.0741931 -0.8108314 -0.032678034 1.2949185
498 0.12966616 -1.2215197 -0.4074443 1.1167009 1.0805768 0.9946945 0.92302483 -2.2269661 1.2488092 -0.6438938 -0.48605075 1.2936792 -0.88237804 -0.28612047 -0.23857884 -0.17462122
2205 -1.0469548 -0.81434155 0.852853 0.88771355 2.5956068 0.24208084 1.6794382 0.8406207 -1.1575592 -0.99497443 0.56936175 -0.3133655 0.052908357 -1.540491 -0.762563 2.688525
2018 0.64729017 -1.2761838 -1.8673805 2.002524 0.86758375 -0.8885877 2.231922 -0.7710834 0.79760146 -0.99042475 -0.44498593 -1.9410516 -0.49526265 -0.56260735 -0.43695804 1.1936463
478 -0.7605342 -1.1507838 1.5071734 0.99688643 2.0796647 -0.90930676 1.3904315 -0.10174318 0.97798085 0.3238181 -1.239631 -0.02010589 0.6662402 0.017183958 0.19356652 0.62069744
266 1.1566323 -1.669052 0.25554642 1.4063979 -0.005443625 0.054492995 1.5468119 -1.7753263 0.115459085 0.31976455 -0.3918565 0.30719116 -1.671122 -2.5851755 0.47535917 0.33305466
1548 -1.5577668 -1.1297846 1.0234857 1.1986262 0.59683007 1.269336 2.0892692 -2.523086 0.17536874 0.54347163 -0.7036307 -1.3109604 -0.47912687 -1.0942988 0.97902244 1.0326716
349 0.087456554 -0.24491453 -0.49122897 1.0407959 1.4934131 1.8235245 0.94043857 0.25106528 -1.5653138 0.0026079067 -0.0029139922 -0.15135807 -0.15383826 -1.7697763 -1.2537217 0.23098904
291 0.8170141 0.40488127 -0.04748689 1.93375 1.3387262 0.84994376 2.1905963 0.36411905 1.0366406 -0.7781815 -2.3262458 1.7882906 -0.9284292 -1.8011919 -0.8946785 0.37284026
1187 -0.75991607 0.33257097 0.4754575 1.5686406 0.98730445 -0.6816125 3.1964579 -2.05045 -0.62264633 -0.4495925 0.7536094 0.8594933 0.661009 0.37710482 -0.47208247 -0.13270645
4437 1.4316847 -0.21114434 -0.70043415 1.719188 1.2515867 0.852098 1.8903067 -0.8725088 -0.48756105 0.90386146 -1.3852628 -1.5326033 -1.210894 -0.26683304 -0.23915431 0.05258983
1541 -0.03947388 -1.2369772 -0.18521537 2.0432339 1.1634966 -0.27799606 0.97815335 -2.3181503 -1.1592503 -1.5555383 0.7989572 0.61764973 -0.839642 -0.952523 -2.2862806 -1.0178776
1373 0.7134784 -0.0050481954 1.1720972 1.0654637 0.45992893 0.10664532 2.6639633 -0.7317368 -0.6159738 -1.901338 -0.59458834 0.78235054 0.8761373 -1.9190685 0.3201151 0.697546
1044 -0.10570903 0.6325839 0.8065807 2.8514555 0.9509889 -1.4395318 1.5715834 -1.1305883 -0.4925882 -0.7879269 -0.59372365 0.47237232 0.30422285 0.07885845 -1.1419426 0.27501073
1962 -0.44618958 -0.7091484 1.1702842 1.0732273 2.1361442 0.58347166 1.6643299 0.5292348 -0.850393 -0.56867164 0.00092850765 0.26580703 -0.7334159 -2.5878062 0.4015369 2.9285388
1138 -0.82724553 -0.76171637 0.7517174 2.233259 0.8195545 -0.9384695 2.0596085 -0.8401234 0.107604854 -0.38083306 1.7019649 0.08632398 -1.5003144 -2.8807065 -1.7610043 -0.0060814284
2789 -1.6987045 0.8998605 0.8306178 2.2664 1.2097145 -0.29426476 1.677165 -1.5205065 -0.49435174 -1.2601565 -0.11821218 0.7440012 -0.30605578 0.24780032 -0.8116127 -0.80450743
622 -0.062485225 -1.8648014 -0.84050614 1.6174014 1.9211802 0.929433 2.0084655 -0.047554825 -2.5104709 0.92913944 0.6416254 -0.74123776 -0.79661274 -0.5238299 -0.3899893 0.5036595
729 -0.26883835 -0.78793824 1.8827689 3.1122148 1.9833528 1.091766 0.8740402 -0.20550966 -0.7536562 -0.45953798 -0.18036787 -1.5107917 0.63474584 0.5692779 -1.0298434 1.3248687
2032 0.02903745 0.37891242 0.78737736 3.1313822 0.7933861 -1.1927651 1.3997204 -1.4553486 -0.6834001 -1.1162573 -0.46062028 0.83041096 0.5972202 0.22530302 -1.3536121 0.32895306
436 0.51065415 -0.8045247 -0.28483027 1.5144914 0.27932605 -1.7831846 2.1194198 -1.2585305 -0.18234935 -0.50884783 -0.6747834 0.47105172 -1.2651571 0.29570022 -0.72764266 -0.061157655
4322 0.5597588 -0.21136717 1.7845807 2.3915238 1.3394583 1.8586752 0.5755533 0.80966884 -0.17684773 0.2852641 0.89386386 -0.24349746 0.18904024 -0.8501389 -1.9787425 -0.019772626
284 0.7614312 0.07031759 -0.52474755 1.8161414 2.4812407 0.3162493 0.94192487 -0.8685367 0.07280855 -0.7297864 0.6723584 0.9382535 -1.4925184 -0.35508218 -1.8679986 0.8092278
722 0.6223093 0.4065743 1.4047883 1.4837627 1.9930717 0.053940237 1.2285957 -2.2985418 0.017022716 -0.7200394 -1.1944469 0.36580426 1.1110197 0.03745011 -0.72971416 0.64387333
695 -0.5210829 -0.38066438 0.2494268 0.38786215 1.0270321 0.058819495 0.50427717 -0.3257462 0.13710174 0.1624818 -0.47664303 -0.100205556 0.35473153 0.027743952 -0.42178145 0.37765297
921 -0.0754117 0.75942993 0.71503687 2.2053332 0.69479996 -1.0299827 1.078687 -0.6892885 0.21088183 0.041892916 -1.2727363 0.45404914 -0.05061494 -0.097486004 -1.5219119 0.25550088
1184 -2.297684 -0.34309083 0.56130254 1.9710808 1.850998 -0.9528922 1.5328879 -0.6420649 -0.8582951 -2.0711212 -0.8574144 0.8357325 0.19764614 -0.5854889 -0.6451107 1.1585553
1238 1.0787576 -0.79252064 1.4763895 0.9932844 2.7272012 -0.4422066 2.3098545 0.49818245 -1.9877597 -0.48445702 -2.2944503 -0.40900338 0.14616992 -0.48370448 0.045772962 0.08177972
1875 -1.0353819 -0.9526546 0.82575285 2.4504075 0.92126834 -0.03701348 0.72529906 -2.5594218 -1.0160896 -0.6494494 0.1170808 -1.8452157 -1.2109375 -0.9262545 -1.2888408 1.2181976
2492 0.086650096 -1.2781143 0.9541224 -0.2922995 0.066728026 1.2273548 1.9139444 0.24906184 -0.3802659 -0.97384745 -1.5109147 -0.7296024 -0.198237 -1.3775314 -1.1712071 1.9610933
830 0.3035979 -1.0386423 -0.36671072 0.32689175 0.18775354 0.40406471 1.1461271 -0.8863921 -0.7146047 -0.2600402 -0.2949626 -0.6470311 0.16912031 0.06578751 0.09075313 -0.12535515
3334 -0.67818034 -1.0566953 0.37965578 0.72705424 2.0712667 -0.48360512 1.6540643 1.152415 -0.026796956 0.5888671 -0.3180899 -0.61637926 -0.23526724 -0.75426346 1.0383669 -0.09745523
1077 0.90677416 -0.91506714 -1.4919566 0.12563476 3.042725 0.43864322 2.0167575 -1.471686 -0.046651375 -0.6334007 -1.7920897 0.26366112 0.14067538 -0.8577579 -1.6496727 0.14827265
1941 -1.0941339 -0.2518281 0.59040713 3.1750858 0.9835002 0.74212545 2.2099779 0.45220903 -0.78222144 -0.68754894 1.2398206 -0.15140611 -0.9244477 -0.22376578 -1.1061065 -0.80384713
802 -0.8605539 0.21814679 0.75029266 1.9224249 0.53316486 -0.75918525 3.2496214 -2.0802555 -0.07935901 0.67447364 -0.08971027 0.7859164 0.94390094 0.40008214 -0.46809587 0.23699345
1754 -1.3186058 -1.2057009 -0.51376235 -0.6068497 1.7775208 0.41028702 2.049159 -0.5806251 -0.28151572 0.48121235 -1.6675848 0.43979278 0.043062393 -0.6278248 -2.0922165 0.22405624
1214 0.44351166 -0.52347356 0.5093149 2.3279903 2.1643624 -0.1253153 0.9479269 0.34133804 -0.8600235 -0.8072009 0.07642479 -1.8699633 0.89625597 -0.2925588 -2.0119991 1.8403577
354 -0.7420336 -0.99251866 0.63608044 0.11312587 0.07638687 -0.5588842 1.737598 -0.91053593 -0.76486105 0.2559119 -0.6687513 -0.8138906 0.37651667 -0.6543359 -0.29355207 -0.5694774
1302 0.31486815 -0.88528806 1.106854 2.523134 0.9334151 1.8761557 0.2741394 -1.5836614 0.9152361 -1.4494162 -0.3847322 -0.5910154 0.6965805 -0.70248216 -0.8428001 -0.6696285
1485 0.7302369 -0.4179308 0.553611 0.85427517 0.15708108 -0.4286481 2.3998241 0.09601746 0.1885573 1.0702609 -1.2253693 -0.06690759 0.1684254 -0.5493924 0.37077495 -0.636809
847 0.44209594 0.15584055 0.9399475 2.0140505 0.9900131 0.58847135 2.0267656 -0.22093098 -0.0737195 -1.0871902 0.9907347 0.3117023 0.6079054 0.8338675 -0.053312972 0.34861577
1010 1.0147016 -2.0378568 0.6256785 1.2039251 2.513794 1.3081552 0.000468126 -0.005817448 -0.57435906 0.37270638 -1.4774283 0.2983362 0.5670066 -2.1065183 -1.854552 0.32714468
1799 0.30883703 -0.7915389 -0.25727442 0.60640955 0.47875953 -0.16551013 0.41334862 -0.17838013 -0.08766778 -0.24907176 -0.33032817 -0.38740405 -0.09860703 -0.22290078 0.02036041 0.39351824
770 1.0838475 0.24129045 1.0236027 1.239852 1.438872 0.6629215 1.1228986 -0.53644645 0.23688498 -1.4379327 -1.1845278 -0.13784015 0.29978612 -0.614595 0.38820246 -0.7293408
457 0.08158861 -2.0618312 -0.1339958 1.9529059 1.2204969 -2.2113001 0.89750487 -0.3095486 0.11234748 -0.08211992 0.3687461 -0.33831355 -0.6182914 -0.97208405 0.23188847 0.44094518
1494 0.54356086 -1.1762294 0.45966467 1.2045574 1.2870432 -0.9506994 0.12931387 -0.81563056 0.115870915 0.25064874 -0.30781975 -0.38982525 -0.82805014 -0.63734394 -0.50531405 -0.8678429
3126 1.2131308 -0.2475574 -0.6838008 1.982989 0.76735705 -1.8726484 2.1394217 -1.5055137 -0.500524 -0.15504968 -0.7394512 0.43671066 -1.480576 -0.23209803 -0.61145645 -0.5457313
736 -0.106604636 0.78750473 0.34794003 2.808557 2.6460466 -0.2608785 1.5227265 -1.008294 -0.41717228 0.7370403 1.2556174 -0.575304 -0.8508295 -0.31767756 -0.36283502 0.123751305
472 -0.033263788 0.5194961 0.12351613 1.7668518 2.313015 -0.027667224 0.06664222 -0.57085663 -0.82436067 0.4405892 -0.09085079 -0.64274246 -0.6600931 -1.3238107 -1.0500115 0.7176391
1027 -1.3258353 0.07515541 0.6004806 1.5319035 1.7973822 -0.9668864 1.6615968 -0.41826844 -0.64259744 -1.5545489 -0.25160787 0.91699725 0.44333503 -0.3191098 -0.64272517 1.2866882
1533 -1.1818949 -1.3555149 0.5188664 2.4825304 1.0532206 0.38384 0.32857752 0.23872569 0.22261636 -1.5088855 -1.4323454 0.8524984 -1.4374111 -1.5825475 0.3188727 0.26134634
2161 -0.94253284 -0.63683945 -0.1808175 1.8259617 2.7907767 -0.14243649 1.067834 0.77441293 -0.96151906 -0.8759611 0.39845005 -0.93410605 0.54753625 -1.3277912 -1.3021615 -0.51016015
148 0.21697651 -0.61107284 1.0699517 1.3141203 0.05932317 -0.24998382 1.0633675 0.3712254 0.37543386 -0.13693142 -0.687382 0.19919373 -0.110855594 -0.460563 0.8774964 0.95924026
2292 -1.061542 0.64463985 1.395371 2.0002034 0.10973331 0.18995167 1.829732 -1.0624683 -0.5418502 -0.7480455 0.6355105 -0.33681825 -1.7693635 -1.4219238 0.15384142 0.24959859
3282 -0.08765799 -0.16215764 1.2432274 2.9444258 0.7184228 -0.7045223 0.3177854 -0.46532744 -1.098602 -1.0059514 -1.037136 -0.14118436 0.5857 -0.6280509 -0.85205716 1.5458184
574 -1.1811152 -0.94638747 0.30711204 1.0567342 0.98946875 0.3904432 2.0392337 -1.1330531 2.22052 -1.136287 0.44224256 -1.0030507 0.092662506 -0.22028175 -1.0145445 -0.32885104
4149 -0.22228555 -1.3046006 -0.36128095 2.0903506 1.1122168 0.4069766 0.86303264 0.10860749 -1.3477904 -0.7865694 -0.49735868 1.7914042 0.30461007 -1.0899138 -0.10819874 -1.0907167
299 0.593418 -0.5153935 -0.7230805 0.17029263 1.2616702 0.42506808 0.48039567 -0.33917516 -0.28259945 -0.098540574 -0.0761598 -0.55136186 -0.14922751 -0.9154251 -1.1442093 0.6315204
18 -0.995484 0.1251403 -0.8878692 1.0244908 2.501684 0.009039597 2.655452 -1.3380743 -0.7246637 0.43773523 -0.13559096 -0.030229285 -0.5539253 -0.4032612 0.7983618 0.48282638
3357 0.59269947 1.0470997 -0.13427345 0.83015245 1.5990809 0.40909582 1.1571097 -0.5884188 -0.18139245 -2.189697 -0.9473465 0.7145967 0.84261906 -0.9860297 -0.74749804 0.8920468
2210 -1.5507077 -0.29146484 0.17541385 1.206085 2.6862638 -1.0703732 2.0234373 0.024675379 -0.85194236 -1.4933808 0.10131038 0.49324486 0.67732555 -0.7611959 -1.5319538 1.4091674
882 0.32274416 -0.657613 0.6157905 0.14740032 -0.15203024 0.4331501 0.98195386 -0.27335748 0.18299279 -0.17453308 -0.2615937 0.3543343 0.0788486 -0.3001124 -0.5700387 0.25163153
104 -0.5956911 -1.0100415 -1.3452234 1.2589059 -0.30722147 0.95126027 2.8287718 -0.91466653 -0.6631418 0.024807975 -0.22741649 0.5474585 0.8297219 -1.393569 -0.5781411 1.4480462
133 -1.4999394 -0.60501814 0.7081316 0.8816296 1.3361785 -0.0012297821 0.7287776 -0.98239464 0.2939708 0.53054917 -0.30560583 0.50602204 0.87419975 -0.20177759 -0.9525305 -0.07473877
1206 1.2584089 -0.7797215 0.74142414 2.2233024 1.9253297 0.8626326 0.20580742 -1.6629704 -1.869572 0.3733735 -0.8197946 1.1095589 -0.24884403 -1.0228193 -0.24892426 -0.4541903
1382 -0.28357363 -0.08597635 0.86284053 1.075634 0.233196 1.3058354 0.79712206 -1.2114036 -0.1142372 0.20530185 0.35126716 -0.69461894 -1.068915 -0.9562297 0.010768502 0.10659572
1747 -0.29186442 0.4203692 1.2288219 1.565003 1.6742163 -1.2189126 3.1631072 -0.7510055 1.1823248 0.38679847 0.05727158 0.22140387 1.6285043 -0.2746776 -0.94631404 1.1484166
2363 0.018620493 -1.0328825 0.12120584 1.502467 1.1595694 0.62348676 3.0743418 -1.0836556 -2.3765783 1.1381055 -0.234543 0.9069723 0.15216438 0.334601 0.3289068 1.7386137
1556 -0.9047547 -2.457461 0.3238393 1.4375666 0.9904531 -1.2427443 1.4087083 0.40739775 -0.10982471 -0.84430385 -1.2783899 1.2964453 -1.0533134 -2.4254665 -0.1303489 -0.14186908
1904 -0.83840024 -0.29750323 1.343199 2.3947954 1.848321 0.91103065 2.0083225 0.3596395 -0.92038214 -1.1508516 1.4989651 0.32772788 0.2402154 -0.054003365 -0.76044834 1.3080366
901 -0.9548977 -1.0868815 1.6570581 0.5733474 2.3689036 1.0681221 1.1889526 -0.17061195 -0.086024664 -1.4415892 -2.112656 -0.3791059 -0.20473284 -1.6895853 0.4760671 -0.1711561
796 1.4406631 -0.6545293 -1.0032297 0.11463067 2.754261 0.5521675 2.3596334 -1.4489843 0.4349871 -0.46720785 -2.0763893 0.1636 -0.028517498 -1.0920045 -1.5616478 0.35882187
618 -0.09144928 -1.0104014 0.308075 1.2877859 0.19846445 0.5320063 1.1320838 -0.44412103 0.6050538 0.41340095 0.85056067 0.7181992 0.48686445 -0.37755945 0.3762953 -0.29706582
1699 -1.6838969 -2.0869458 0.326811 1.9752338 1.4310673 1.4630263 0.78200155 -0.5016007 0.51601684 0.041992232 -0.14223056 0.8471617 -1.3161192 -0.9622016 -1.9623613 -0.44567654
1899 -1.4609575 -2.129072 0.020464264 1.8515798 0.91104114 0.20004593 1.1513727 0.33055553 0.042912256 -0.5719442 -0.84891576 1.5484213 -1.8240176 -2.1037335 -1.0451195 -0.12043043
1371 0.27028227 -0.40819433 0.56665957 1.6402693 2.12561 -0.16131568 0.9226673 0.49828774 -0.78395826 -0.46490446 0.17974427 -1.4752419 0.18345764 -0.30858785 -1.4492618 1.5480288
99 0.99386185 -0.24066713 -0.30127975 1.5003424 0.009665356 0.8189342 1.5837228 -0.45770684 0.99011636 0.37569422 -1.0170845 -0.575006 -0.91601807 0.17873314 -0.72764534 0.6357848
1948 -0.33121616 -1.5578109 0.067655705 1.8137616 1.3562328 0.45239913 0.9023036 0.44512695 -0.76964706 -0.5108695 -0.23366575 1.5673758 0.63647574 -0.52241266 0.34221265 -0.5243516
559 0.25255835 -0.6449244 1.1537939 0.4289294 2.6270063 1.7906942 1.1558123 -1.3377858 0.39635524 -0.21368337 0.20229124 0.55309105 0.26096272 -0.67453927 0.63942605 0.7314185
2968 0.25917104 -0.733866 0.60082173 1.5360879 1.5451925 0.56132567 1.1189563 1.995501 0.7089006 -1.0874604 -1.5779076 -0.057754617 -0.009739155 -0.6049842 -1.3311825 0.85876584
1608 -0.41722023 -1.5326244 0.3441364 1.2763081 -0.91076 -0.32675767 2.274572 -0.8852095 -0.00093717995 -0.4187024 -1.088145 -1.2262988 -1.6322734 -0.63521135 -1.621777 -0.47467273
1374 0.8137265 0.076579675 1.146877 1.1180489 0.74557865 0.28177726 2.6546009 -0.9829389 -0.24004486 -2.1649046 -0.5492819 0.8267552 0.92448306 -1.7355142 0.5681426 0.8616391
3269 -1.0075839 0.3269557 1.1636585 2.4771936 1.1933236 0.21934879 1.1226417 -0.44902715 -0.7802631 -0.93436813 1.3861501 0.6021228 0.7132129 -1.2026905 -1.1791749 1.6495245
3542 0.5052068 -0.22276883 0.795382 0.4757421 0.037677836 0.8381744 0.85527664 -1.0591058 -0.32036275 -0.37498775 -0.16577302 0.2515825 -0.607052 -0.86855173 0.45870444 0.92860156
2138 0.08457775 -1.6030799 2.4556441 1.9893719 1.250315 1.0746204 2.2966764 -0.071548074 0.066655464 0.044467404 1.0242447 -0.6306845 -0.3796379 0.9077807 -0.32053232 -0.08783891
3845 1.7409737 0.06870685 0.84494257 1.5548087 1.986412 0.99341625 1.7390708 -0.24691974 0.06965491 -1.6983896 -1.3858523 0.064452104 0.6109339 -0.5857449 -0.08202848 -1.2311695
3023 -0.1601099 -0.2844197 -1.0101813 0.39418343 1.6738794 -0.48818573 1.9589797 -0.6464722 -0.91771656 -1.0967366 1.7914846 -0.7563611 -0.2369269 -0.5531695 -1.8564401 1.285079
1927 -0.74372405 0.12520145 0.84631574 2.2273996 0.058377117 0.7828685 2.1621172 0.20222624 -1.2738332 -0.20346928 0.7430047 -0.97628105 -0.8213189 -0.6826519 -1.0962299 -0.7928524
2871 0.41292658 -1.7488039 0.9087586 1.3896747 -0.060072064 1.4017178 1.9615753 0.4476225 0.23161653 0.7918081 1.1155063 -1.277773 -0.4965363 -1.211507 -0.87113285 1.8412298
2114 0.71344274 0.46803316 0.15244935 1.779057 1.3011397 0.7474786 2.231868 0.28704888 1.0218391 -0.582338 -2.3135371 1.9036756 -0.8998203 -1.6853195 -0.84071684 0.3255564
37 0.7065862 -0.47036046 0.24537894 1.4962243 0.6470328 0.21528572 1.9011987 -0.8328412 1.0647504 -0.23447464 -0.2998823 0.2364871 1.553855 -0.4710922 0.547047 1.7325987
785 -0.52694774 0.49247265 0.47657537 1.3375934 1.025149 -0.52928525 2.8173597 -1.8647499 -0.34900072 -0.43209845 0.8383001 0.30243436 0.5548334 -0.16195948 -0.3046371 -0.22566205
2612 0.7973966 -0.46090463 2.1531105 1.5014701 0.8381228 0.4778789 2.301456 0.6371551 -0.91039324 -0.82684886 0.2839097 -1.1603538 1.1995012 0.7855148 -0.067515835 0.8713597
552 1.5883875 -1.3955206 0.21534936 1.2648458 0.30881518 0.2128912 1.2948037 -1.6464309 0.41062206 -0.28341776 -0.3014137 0.22511272 -1.7513599 -2.8113198 0.09500872 0.74329907
1337 -0.3667214 0.48463902 1.3112496 1.4467845 2.455288 -0.6966259 2.5736258 -0.01591776 1.2659185 -0.495929 0.16460769 -0.44943932 1.691487 -0.49717727 -0.9713384 0.7171385
1247 -0.49704936 -1.829028 -0.11005422 2.2353258 0.48817998 -0.23184013 1.1338983 -1.7117856 0.03915993 0.6587809 -0.034651633 -1.5767133 1.0575584 -1.1202526 -0.69543016 -1.1917809
3776 -0.2757478 -1.4347035 0.7561812 1.9990289 0.6710755 0.11898286 0.23709568 0.15168051 -1.6656641 -1.9682158 -0.4350436 -0.8570636 1.4815058 -1.2698052 0.16468501 0.9353357
4140 -0.18258578 -0.29556084 0.14254515 0.6958074 1.8017731 -0.34827596 2.1861293 0.48816696 1.480466 -0.12638476 1.5632663 -0.8638674 -0.09112704 -1.3158846 0.30713165 0.97083694
324 0.8040993 -2.1660326 1.2778728 1.1653413 1.595978 0.43070772 2.0587413 -0.0565534 1.3772802 -1.9885008 0.23721184 -1.0054969 -1.300716 0.6291849 -0.57534313 0.9340707
625 -0.27465418 -2.3168616 1.9987109 1.2679794 0.72998536 -0.4511967 1.8832467 -0.32843477 0.13604818 0.60552603 -1.1174597 0.9048689 -1.8452361 0.33770257 -1.0328852 -0.20290482
2473 0.7036222 0.8416864 1.0811955 2.1787992 0.5526366 -0.22378652 2.52938 -1.2699472 0.8741672 -0.0400886 -0.49756014 0.33774444 0.32712945 -0.42909 0.31312564 -0.58970565
1467 -0.37922242 -1.094179 0.050181687 0.80060047 -0.50301194 -0.65364724 1.621468 -0.6590907 -0.0027795369 -0.5506279 -0.76959246 -0.9812952 -1.1800225 -0.6873406 -0.80760664 -0.17944014
609 -0.5335968 -0.5678456 -0.41016823 -0.52783734 1.6047244 0.19825445 1.9808388 -0.22662137 -0.2041416 -0.27280927 -1.1826049 0.44552377 0.12660384 -0.6614795 -1.2268935 0.48524463
1808 -0.4999834 -0.7968306 -0.8391137 0.6460542 2.0119286 -0.51391196 1.6113302 -0.6774718 -1.4994253 0.39217514 -0.5478163 -1.5819694 -0.002676062 -0.94303495 0.1671286 1.3618884
2677 0.44271094 -0.8433316 -0.08548068 0.97237855 1.0869114 -1.2063943 1.989582 -1.424305 0.53525215 -2.3410013 0.13430841 0.18970717 0.9717664 -1.1649668 -1.1562467 1.375646
4267 -0.33903494 0.94816667 1.2004961 1.215767 1.3684827 -0.39962423 1.7245542 -1.5173618 -1.0430627 0.06751498 1.4805602 -0.04197278 0.41763344 -0.54103124 -0.8693887 0.7388295
3569 -0.30061588 -0.10601856 0.6973997 0.786495 0.43756187 0.6744981 0.40380716 -0.72058237 0.547385 -0.298034 -0.878697 -0.13809776 -0.685103 -0.39356977 -1.5033292 0.23980196
539 -0.68069464 -0.5446619 0.06904368 1.5283446 0.71017414 0.5708622 1.6495984 0.5069161 0.16255832 -0.23308127 0.28252736 -0.21681923 -0.6052176 0.46440533 0.2925175 -0.22537355
3455 0.50360465 -0.27666038 -0.8347772 2.516871 1.1503977 -1.8023182 1.0349879 0.12002168 0.3679135 -0.0730539 -1.2568831 0.7183158 -1.3438914 -1.4195358 -1.0052453 0.15171452
2079 -0.66098285 -0.7675929 0.98511845 1.1593528 2.1734965 0.45072192 1.3980652 0.45375368 -0.64522135 -0.45161554 -0.043955818 0.17213333 -0.7965334 -2.5557733 0.22285625 2.8978474
340 -0.22024804 -0.37113798 0.13768815 0.06222889 0.5800386 0.28733614 1.5405607 -0.34602433 -0.2882733 0.6320994 -0.92134756 -0.61986905 -0.32120493 0.37686124 -0.34522995 0.23173378
1272 -0.9959106 -1.4602063 -0.28508013 2.1403446 0.69759685 -0.3417449 1.0890708 -0.22194938 0.022128882 0.772562 -0.123385295 -1.3828257 0.6014879 -1.3284483 -0.39504996 -1.0271896
2451 1.1947297 -1.2946739 0.2080565 0.83070654 1.9482379 0.44306323 1.6044397 0.37095886 -0.38335958 -0.60566163 -0.51905143 0.32049382 -1.4578729 -0.057751592 0.7343416 -0.30517197
3550 0.7353774 -1.7766634 0.74044496 1.2586141 1.6700184 -2.3540685 1.4559202 0.12895353 0.38909683 -0.38081095 -0.02084283 0.67889756 0.2062448 -1.2856725 0.2640593 2.2501822
1280 0.32506847 -1.6401433 1.2619647 1.4256331 1.4052986 2.0750422 1.3213888 0.07771959 0.7286726 -0.51290333 -1.0716034 -1.5824924 -0.6795391 0.15640678 0.1892613 -0.24762177
4749 1.3528495 -0.5729466 0.1736897 3.2271378 -0.110005535 0.06364444 -0.10732608 -0.47022814 0.37342238 0.3850123 -1.2874382 -0.9184697 -0.5265153 -1.591281 -1.7927711 -0.36835167
1646 0.28028914 0.47060814 0.61451966 1.6892738 0.5356457 0.21428609 2.297286 -1.0191636 -0.18772978 -1.4598203 -0.4464458 0.78410524 1.5123703 -2.2466874 0.2436649 1.177981
3241 0.49722126 -1.3515042 2.0799823 1.8753544 1.0383843 0.48274568 1.5488454 -0.9252975 0.16811405 0.7313356 0.8207859 -0.3358112 -0.31534374 0.21118133 1.5322294 -0.39888677
48 -1.1974294 0.1374341 -0.012179859 1.5011561 0.4404115 -0.4449922 1.418801 0.34647062 -0.4942318 0.82812923 -1.1969985 0.1963874 0.6576903 -0.35967833 -0.023912236 -0.27050692
825 0.013396043 -0.30179656 0.23988308 -0.09960573 0.6938357 0.9646077 1.3085701 -0.07186726 0.21075657 0.053585477 0.28747794 -0.38720128 -0.15393785 -0.25876585 -0.38823527 0.4286269
4860 1.6873664 -0.505074 -0.9361658 1.9814495 1.0910493 0.63451535 1.9154435 -0.8712642 -0.39912474 0.4121569 -1.444143 -1.7445931 -1.3494363 -0.090199776 -0.13577329 -0.09330589
319 -0.5530337 -1.0511186 -0.29125714 1.0705365 0.97033936 0.72458166 0.61308545 0.7164389 -0.22524855 -0.31736785 -0.743157 0.94326264 -1.2158815 -1.9039876 -0.6137778 0.071898244
1327 0.73770064 -0.40743598 1.6189666 1.4706178 1.0952013 -1.2061076 2.5412025 -1.5713682 1.267468 0.670998 -0.019101284 1.337745 0.5635945 -1.1664237 0.6329392 1.022535
681 -0.17887668 -1.0053796 0.12392482 1.4399495 0.16751769 1.4927069 2.1937983 0.027540218 -0.70000035 -0.48744348 -0.54786724 1.4722946 -0.11102969 -2.6780224 0.68183833 -0.20038083
2377 0.49047995 0.42191166 0.70873314 2.4576702 1.2738549 -0.25970423 1.6946326 -1.089414 -0.6023763 -1.0298966 0.009214275 0.5412772 0.1913543 1.0434376 -0.54268837 -0.17308126
1406 2.3033447 -0.9231212 0.47203615 0.066225976 2.428794 0.81537 2.2203572 -0.25672683 -0.043897394 -0.3800599 -0.9958097 0.044702586 1.0714507 -0.9937595 -0.52820945 2.3721426
2830 0.08302791 -0.56243736 0.13711254 0.3629309 1.0238065 0.97800297 0.47932625 -0.91103774 -0.84396535 0.030876856 -0.45777458 -0.12741612 -0.53025025 0.23244566 -0.49642068 0.6477468
350 -0.2594711 -0.36295122 0.036327425 0.12630044 0.36699492 -0.21024401 0.90183914 -0.8122755 0.019418245 0.12113428 -0.023803737 -0.4204993 -0.42684218 -0.60785526 -0.60608184 0.0752894
1276 -0.69893616 -2.341617 0.34463686 1.4985865 -0.073173285 0.06464352 1.4242158 -0.5681129 -0.17648652 -0.6056037 -2.3761418 -1.4768554 -1.1699324 -0.77571195 -1.1501483 0.034668863
1228 0.24966295 -0.7606648 0.68743396 0.9027591 1.3021798 0.30280027 0.8012609 1.1429149 0.87447053 -0.30600297 -0.9788321 -0.5593118 0.8144837 -0.98997325 -0.5386257 0.57433707
400 0.32250902 -0.7644689 0.27211222 0.23731056 0.60905236 0.45107347 0.54516983 -0.13747175 -0.38190484 0.3404339 -0.78347707 0.1163439 -0.34078315 -0.27800438 -0.26670992 0.4657126
1 -0.5513981 -0.24965617 1.022738 -0.13814655 1.7191811 1.6826512 1.3248461 -1.880988 -0.35707134 0.028211417 -0.38944814 0.84203863 -0.24330136 -0.9969863 -0.9444817 0.12698913
301 0.08603591 -0.5167354 -0.044961646 0.40278548 0.35484773 0.285057 1.0394062 -0.64241904 0.30952263 -0.3970188 -0.030902632 -0.4416156 0.007174321 -0.10526474 0.34534755 0.3232412
1512 -1.0696745 -3.1056461 1.3534213 0.64356804 0.42207742 -0.61077994 1.7358643 -0.31147537 0.34605563 -0.82945937 -0.5070429 0.9059131 -0.019824052 -2.1533806 -0.2786881 -0.2017328
2920 0.09092313 -0.59359354 1.0081118 2.6920295 0.5286775 -0.69723564 0.26761213 -0.72288233 -0.6772024 -0.75853944 -1.0770437 -0.4965257 0.40993443 -0.33820337 -0.7318704 1.4407781
1739 1.2845306 -0.016512677 -0.32556304 1.2999253 1.7832241 2.0429773 1.4427143 -1.3119195 0.3334867 -0.3932154 -0.06749636 -0.83161366 -0.6367466 0.5192324 -1.1322906 0.033342924
4220 0.21872379 0.3169518 -0.67787445 3.0133173 0.55389696 0.24924509 0.9201997 -1.1756262 0.15183295 1.1714975 -0.98969567 0.007226386 0.8211907 -1.3862689 -0.98966646 -0.52154094
841 0.14632037 -0.44475153 -0.5030899 0.65678966 0.48583382 0.6038055 0.9209979 -0.2100587 0.43509108 0.1466722 -0.0016432262 -0.38015482 -0.1945417 0.0103166085 -0.26519808 0.15749754
1176 -0.37123078 -1.154036 0.94382626 0.5664514 1.7743752 0.029997362 1.1234268 -1.4216901 -1.5293616 -0.024494475 -0.13767314 1.153687 -0.67358875 -0.32690948 0.54338795 -0.33702746
1720 -0.19528654 -0.6506906 0.61751246 0.29845628 1.6334407 0.92704934 0.14427054 -1.0890367 0.04448573 0.3099795 -0.18687283 0.92913747 0.65228075 -1.1707304 -1.1168412 0.59319663
2914 2.2880359 -0.23828745 1.050397 0.54445446 1.0494796 0.14564575 2.1708407 0.76972103 -0.96420467 0.4297437 0.03210248 0.08019044 0.17174073 -1.1499835 -0.8805642 1.486653
2324 -0.1449197 -1.8246336 2.8498583 1.9187022 0.5863862 0.023929453 1.9697921 -0.8486574 0.65939534 0.16589399 1.5512681 0.8507659 -0.35556597 0.32121426 0.27912858 -0.045645878
1456 -0.6610157 -0.7338832 0.8748523 1.7376201 0.6800766 1.1501011 1.5426087 1.052352 -0.2957087 -0.39982873 0.80180776 -0.334386 -0.8442557 -0.65165293 -0.102986 -0.13885278
673 0.30691233 -0.9896409 0.07875147 1.6143895 0.717519 -0.036473062 0.8618649 0.05071472 -1.8460424 0.0032416435 -0.44887653 -0.852226 0.038578004 -0.4283381 -1.670403 1.4958093
67 -0.21057372 -1.3570697 0.20268497 -0.03200269 1.3866662 -0.5589049 1.5160693 -0.97584915 0.6726506 0.04568785 -0.5526259 0.34669843 -1.3079513 -2.6826005 -0.21350063 1.6000534
1343 0.06126273 -0.52922326 0.07524538 -0.37690753 1.6075242 -0.35557297 2.2670171 -0.966926 0.5637439 -0.2787585 -0.9139481 -0.7939451 -1.2009397 -0.7329634 0.49366486 0.78412205
1991 -0.13852428 -1.0677435 -0.51959234 0.4774708 0.06185025 0.6817871 1.4518346 -0.6424817 -0.9041146 -0.75730985 -0.5611579 0.48626158 -0.80439156 0.04355619 -0.018184463 0.43025914
1244 0.4184711 -2.1015027 0.44946766 1.4639798 1.026993 -0.54841864 1.3969706 0.035232183 -0.70210886 -0.1534721 -0.24909553 -0.8335037 0.34686053 0.85903275 -2.5753267 -0.020453807
5135 0.13468374 -1.6682956 0.8998365 0.9397722 0.9446622 1.1830764 -0.18579613 -0.95571125 -0.55285335 -0.086509384 -0.70807064 -1.1979489 0.3191803 0.0468785 -0.534849 1.2111727
379 -0.9711684 -0.038151875 1.2768421 1.0299232 1.3668668 -0.54955256 2.0461283 -0.23998952 0.43252665 0.49502933 0.74806917 0.06649543 0.1467951 0.021875482 -0.59497017 0.20448516
75 0.8160004 -1.3571922 -0.56639576 0.85295904 -0.11789463 0.17874865 1.3422809 0.18250652 0.36226135 0.08379766 0.042380575 0.2163107 -0.49290237 -0.40552515 -1.1113927 1.3706683
142 -1.2010654 -1.7879882 -0.2223087 0.28301755 0.2521422 0.792691 1.3388895 0.07540204 -0.11768747 -0.08541686 -1.1744063 0.31670994 -0.78079593 -1.2919757 -0.67628473 -0.31765082
831 -0.72911364 -1.328379 -1.2312826 1.1380222 -0.3191193 0.79267365 2.8217077 -0.6448668 -0.9053457 -0.095649324 -0.7267308 1.0514976 1.0936378 -1.4648226 -1.2083461 0.9248209
1416 1.7999642 -1.1483235 0.46589464 1.365822 0.3521946 -0.80660635 2.0960383 0.10002423 1.218232 0.46278846 -0.6486812 -0.3734414 -0.21476212 -0.88653183 -1.6827847 0.46569377
3593 0.19746234 0.48818818 1.0090444 2.2815113 1.3473554 -1.0171063 2.1629844 -1.2171979 -0.25440207 -1.0383737 0.66657317 0.73806167 0.6862909 0.23178259 0.255044 0.31329286
3338 1.2774744 -1.6695559 1.0744692 1.5316365 2.5320425 1.2019 0.45211568 0.315263 0.6276956 0.5891206 -0.2838352 -0.5452717 0.3249256 -2.282761 -1.554288 -0.5623894
599 -0.0066569913 -0.89808345 0.19164498 0.6299109 0.5097827 0.06584448 0.5237245 -0.2972984 -0.25274095 -0.6103088 -0.3802223 0.53538805 0.28567767 -0.20803745 -0.38863495 -0.40212372
4216 0.97908366 0.033088285 -0.016923295 3.1726847 0.85345197 0.54400826 0.614023 -0.72921854 -0.124683715 1.0361354 -0.7385144 0.46557516 1.0861049 0.2771211 -0.59387565 -0.19495738
1757 0.23394121 0.51091164 0.33669692 2.4114094 1.4360863 -0.14710465 1.7550658 -1.9823846 0.08216196 -1.2154227 -1.1646408 0.8324762 0.5511343 0.9950176 0.7390623 1.1032203
1903 -0.11409506 -0.97352326 0.27969775 0.44184238 1.3071864 -0.5961402 1.026078 0.14547914 1.0370833 0.3795301 -0.26127937 -0.71795875 0.21147041 -0.8804142 0.473553 0.3504427
1787 1.1567336 0.011596455 0.9982455 0.38493708 1.7050794 0.4705713 2.1037195 0.0701043 0.3963458 0.39045507 -0.38023558 0.46651676 -1.8904532 -0.8514187 -0.7310613 0.075170614
772 0.45104116 0.08716612 0.70485896 0.889757 2.028745 0.36892328 0.9765909 -2.2034154 -1.4696848 0.8927263 -0.5721042 -1.1137426 0.6227726 -0.61156464 -0.89449924 -0.22652416
1911 -0.23840171 0.59271216 0.29350236 1.7234365 0.81467557 -0.113128826 1.3187886 -0.63055575 -0.47618002 -0.49728778 0.9896756 -0.73911273 -1.5557009 -2.3006334 -0.968086 0.19543155
2993 -0.0793037 -1.183915 1.3834 -0.3053764 0.85253704 0.48166326 2.521931 -1.6897463 -0.5130793 -0.5283126 -0.84743786 0.04560109 1.0008417 -0.2598882 0.06717668 -1.0259889
300 0.111593194 -0.19305588 0.17478125 0.985049 0.15034918 0.02034061 0.33079776 -0.2525482 -0.30418366 -0.18145932 -0.27891812 -0.2662737 -0.0361119 -0.4413495 -0.5125075 0.5317191
1737 -0.5023565 -1.1156617 0.18078089 0.94271433 0.34214506 1.5411246 1.0266119 -1.3216134 -0.069030024 -0.9586647 -1.6156666 1.1831963 0.35014307 -0.9598894 -1.153759 -0.9967273
2185 0.4387214 -0.5752753 0.7193702 1.1572547 0.6655766 1.3348207 0.4350139 -0.83921635 0.33665276 -1.156111 -0.47850382 -0.19189359 0.5074698 0.063276574 -0.52293515 -0.28129882
1523 -0.5463764 -1.3743868 0.98152936 1.3304362 0.5804493 0.08511574 0.6915899 -0.9273964 -0.72258204 0.68487906 -0.6650435 -0.59356385 -0.6028434 -0.9144162 0.76216674 -0.6092273
2902 0.8837313 -0.9079567 -0.45121267 1.2683545 0.49188367 -1.8496858 2.3365955 -1.1598271 -0.74098164 0.01380102 -0.47143522 0.627315 -1.4395349 -0.0138071785 -0.5144078 0.05120456
978 0.052831866 -0.24939382 0.47199717 0.51902366 0.94166565 -0.48998857 1.5849 -0.8367307 -0.23033766 -1.174684 0.20256297 -1.9876682 -0.5427159 -1.1714807 -0.2688635 0.8299232
699 0.73537457 -1.7546577 -0.3630362 1.7946472 1.2078923 1.0400633 1.255948 -1.5175533 -1.2392821 -0.4524841 1.2535948 1.4073778 -0.50634634 -0.6255292 0.54236764 0.53469115
3733 -0.5250606 -0.45150924 1.5809665 0.87709236 0.6455994 0.016684532 1.4112408 -1.2952508 0.35949418 -0.8677832 -1.5856266 1.1219275 0.000403357 0.47263017 -0.22069561 1.5725517
1796 -0.37173578 0.32824293 1.3004612 1.5019119 1.9358628 -0.33696285 2.6655443 -0.11567279 1.1128068 -0.4551652 0.3763564 -0.42528182 1.8066131 -0.14846997 -0.6341853 0.63672066
925 0.53506696 -0.934271 -1.7770053 1.6243162 0.9361822 -0.5425227 2.4048915 -0.7074298 0.37603107 -0.71515197 -0.052749503 -1.6109478 -0.71324456 -0.48943257 -0.26487842 1.4272772
409 -0.47607175 -0.737996 -0.67066693 0.14702933 1.346935 -0.081607185 1.2266008 -0.9948624 -0.6384936 0.3256611 -0.45267248 -0.663779 -0.025840377 -0.21647604 0.11440328 0.9870319
1200 -0.82679415 0.16659346 0.7300987 2.185327 0.5757854 0.044478852 0.77815413 -0.56849945 -0.30698442 -0.4169597 0.80095655 -0.82060045 -0.98850673 -1.195624 -1.0967063 0.20825647
243 -0.7140856 -2.0277193 -0.86970365 1.141578 1.3227946 -0.42635387 0.8790565 -1.2225955 -0.052624214 0.6291111 -0.28652033 -0.09654511 0.079864524 -0.12550712 0.48103333 -0.0069824457
363 0.617344 -0.10118288 -0.09149373 0.20093079 0.4496657 0.6698252 1.4075129 -0.33560005 -0.042095445 0.026539193 -0.950482 -0.14498048 -0.09024694 -0.29090282 -0.35061845 -0.44325387
1501 -0.16756962 -1.196217 -1.0554343 2.4688098 1.1801429 1.4029577 1.6483278 -0.6436144 1.5471636 1.3063892 -0.41998142 0.69672894 0.88501364 -2.1958144 -0.3092028 1.0451323
2188 0.3238134 -1.7404557 -0.07806339 -0.0038245486 0.14804076 0.060567014 1.6295359 -0.3868692 -0.05097557 0.24560215 0.30392584 -0.59331584 -0.512811 -0.37487578 -0.09407601 0.866508
2610 -0.731886 -0.9052761 0.07768116 2.5738332 1.0002767 0.82183427 2.0443578 0.87335724 -1.0756458 -1.3445338 0.34915683 0.046528544 -1.1198504 0.021822438 -1.0802269 -1.1593783
1460 1.6901354 0.67125905 0.46281654 2.4409227 0.530127 -0.3342497 2.0951028 0.08467785 -0.24683289 0.41546997 0.06260525 0.06533562 -0.6603051 -1.5281329 0.1856636 -0.039458793
721 -0.18005967 -1.8267584 -0.9140206 1.2988136 1.7856334 0.84244025 2.085294 -0.15225469 -2.3319492 0.8550587 0.7261755 -0.74663043 -0.7157063 -0.6477796 -0.39251724 0.2923043
357 1.1395533 -1.2536908 -0.3243136 1.3032639 0.40084627 0.036185686 1.6280783 -0.45555136 0.5842896 -1.2001272 -0.8212995 -1.0721875 -0.016315341 0.08786623 -0.8079309 -1.0173194
3562 0.66324246 -0.55769134 0.051347446 0.293209 1.1005437 -0.41519478 1.0981365 -1.8944902 -0.3529751 0.060154725 -0.45744464 1.0555233 0.28498298 -0.66501766 0.23157473 -0.60851383
5245 1.0236773 -0.7490877 -0.6756962 0.0037776248 2.5989678 0.66405404 2.0056 -1.5768037 0.5316839 -0.2247788 -1.9266478 -0.069340035 -0.17762536 -0.8055972 -1.5160472 0.28693438
3434 1.140678 -1.2255591 -1.0791095 1.2463593 1.5448626 1.5260236 2.4111376 -0.2626198 -0.17058434 0.4547469 0.3845699 -0.80586827 1.5161611 -1.1854302 -0.03339014 -0.656071
1409 0.084081285 -0.3262483 1.2609718 2.5880506 0.6744165 0.9447943 0.20727229 -0.53245276 -1.5957015 -0.13504799 0.23450333 0.8329277 0.3247126 -1.38112 -0.69144183 0.48063093
290 0.1511794 -0.9558531 -0.03863452 -0.12799813 0.40507096 -0.068564095 1.4895588 -0.17754695 0.8022356 -0.83171195 -0.303886 -0.913745 0.3088005 -0.78547174 -0.9816018 0.4479085
79 0.013659907 0.5071541 0.6236747 3.1899176 1.2695647 0.3219665 1.2079765 -1.0566044 -0.0586617 -0.2578638 0.5688437 0.33016416 0.14974709 0.5436288 -0.811929 0.12608866
4089 0.69187516 -1.1631348 -1.45536 1.8993982 1.168684 1.3147192 1.0945671 -1.0193837 1.2498418 1.0271664 -1.1813512 0.59104204 0.60286987 -1.9072597 -0.43476972 0.92071295
817 0.48731986 -0.9479323 0.26396608 0.2576265 0.44068456 0.7580146 0.7989858 -0.67601854 0.44754195 -0.00738321 -0.48564267 0.41761994 0.074612804 0.113872625 -1.0583827 0.7864366
249 -1.0879605 -0.4138845 -0.2722102 1.465634 0.84416753 -0.6819027 1.3193573 0.06519244 0.09447959 -1.1452682 -0.91602653 -1.3413157 0.4800396 -0.7909601 -1.0960352 0.07195617
251 0.9039417 -1.9397608 -0.08266578 0.33217227 1.5345458 -1.0607598 1.0984969 -1.4645886 -0.18736938 0.4099861 -0.43832484 0.03642515 0.71596676 -0.7176336 0.2345807 0.4362876
489 1.2958126 -0.9419985 0.30144334 0.78977233 0.6622947 1.2098397 0.8678186 -0.56447643 -0.68180937 0.3931777 -0.46592087 0.3972164 -0.3720602 0.2705072 -1.2662221 0.33266753
1158 0.6413226 0.39251053 0.9220487 1.4831334 2.193098 -1.1282432 2.356733 -0.3410734 0.73930526 -0.06934654 0.587364 -0.67539656 1.0486265 -0.23970023 -1.6321849 0.68280375
3489 -0.89022076 0.1484009 1.2477851 1.7551197 0.6277845 -0.81411535 1.9029815 -0.6922551 -0.01450379 -1.9783115 -0.9549861 0.21736526 1.1819198 -0.3655168 0.03431592 1.1335354
1893 0.27209848 -0.2957299 -0.40890843 0.50283086 0.8455055 0.44064802 1.025701 0.15942824 -0.42351386 -0.21960989 -0.55348617 0.66105926 -0.59547514 -0.23819257 -0.20163377 -0.1126855
1395 -0.15990768 -1.4865296 -0.18576081 0.74589616 0.54222745 0.40679207 0.72314537 -1.4111478 -0.7497292 -0.35290956 0.09173802 -0.29743755 -0.41335854 0.22115272 -0.96483624 -0.5115782
1237 0.56218606 -1.1297393 0.9288582 0.953275 2.6611226 1.6936873 0.6672088 -1.706191 0.16571575 -0.106822014 0.06688547 0.6210189 0.5479933 -0.2668126 0.6640524 0.85109675
2498 1.4067436 0.12641057 -0.6158129 0.36613047 3.5646 0.06759024 1.4548799 -1.5705662 0.1257097 0.61439294 -0.5055367 -0.5244034 -0.68422884 -0.39591777 -1.002075 0.42782927
52 0.27718607 -0.653435 0.48347846 0.83819294 -0.074327126 0.11929013 0.64752626 -0.67662865 0.09673614 0.11231848 -0.5936899 -0.010690796 0.17487474 0.16433024 -0.058424085 -0.05850229
1583 1.0898708 -0.038231816 0.14555983 1.5394629 0.23979993 0.06491994 1.2335877 0.1503835 -0.08968336 -0.62123644 -1.1193615 0.90245515 -0.28142467 -0.29990426 -0.2697597 1.4323901
1909 -0.4474613 -0.24080117 2.3825648 2.6009777 1.7539221 0.48695594 2.1522577 -0.6162967 0.37949425 0.6275874 1.1274204 -0.44784132 -0.6633821 0.5837303 -0.68350095 -0.4928551
3638 0.32564908 0.3835322 1.0204219 2.5101104 0.12978436 0.8662174 0.74861175 -1.0984792 0.3123939 0.062245704 -1.7456075 0.49884677 -0.013795266 -1.098787 0.0046341764 1.2805326
2196 -0.63756627 -1.0435506 -1.7158375 1.1092373 0.47779593 0.28654024 2.531705 -0.2443576 0.34884983 0.9733701 0.29837695 -0.41034 -0.66321564 -0.41128796 -1.7739829 0.36905682
