1133 16
1 0.0925712 0.011565869 0.50466233 0.8916881 0.12607434 0.070968926 0.86662686 -0.12511057 0.032938 -0.50986207 0.22635123 0.010322517 -0.67944884 0.054076817 -0.6447883 -0.34987363
2 -0.14068104 -0.16997686 0.51308066 0.16005857 0.06095521 0.54452693 1.1193275 -0.23189366 0.22377093 -0.21796359 -0.10320019 0.10668058 -0.5603185 -0.21816136 -0.61232376 -0.39680463
3 0.37446415 -0.14713742 0.5725824 0.2522119 -0.13029136 0.44329244 1.2150431 -0.47266415 0.29622132 0.052533638 -0.49756646 -0.13194342 -0.16469155 -0.34336975 -0.7249567 0.037156425
7 -0.36562413 0.40594706 -0.0001050516 0.42583373 0.0044209734 0.38669914 1.4026448 0.2157646 0.3268918 -0.5106565 -0.06827787 0.02328181 -0.18474354 -0.17274027 -0.8920681 -0.83028954
5 -0.4298302 0.72514427 0.078711055 0.6336039 0.288854 -0.23415294 1.2372162 0.99948376 -0.060863286 -0.8537901 -0.11397796 -0.46719638 0.3120008 -0.036772925 -0.6369466 -0.28099963
6 -0.45102242 0.6392885 0.27097327 0.73091733 0.2027545 0.0049502836 1.0913529 0.86592084 0.51092446 -0.236212 -0.17402735 -0.5004647 0.2958979 0.079434544 -0.6339077 -0.42906937
23 -0.42004043 -0.05060994 0.29991543 0.9653131 0.09616709 0.79931706 0.8720929 -0.015783254 0.8787766 -0.34220406 -1.2535905 -0.45467132 0.050590824 -0.017252598 -0.29524526 -0.23798957
13 -1.014204 0.94759226 0.44819668 0.64880556 0.5639918 0.95051825 0.81757164 0.08811518 0.42498037 -0.33185068 0.111011624 -0.42280707 0.27964574 -0.054969393 -0.5233634 -0.5188327
9 -0.42085692 -0.15849757 0.71355027 0.13838916 0.056107156 0.75570506 0.99226606 -0.37263915 0.34309155 0.251287 0.06893207 0.2113504 0.1887869 -0.73438084 -1.03307 -0.7666473
21 0.011749466 -0.1557844 0.9070823 0.5815934 -0.38776222 1.0331827 1.2027723 -0.92569315 0.1751639 0.4958623 -0.6266062 0.004835953 -0.062004436 -0.44861105 -0.559897 0.16312166
14 -1.336279 0.27112946 0.16146424 0.66052324 0.8317657 0.69830865 1.0432585 -0.29816154 0.5267373 -0.14622647 -0.29740342 -0.46980768 0.5451762 0.37683168 -0.9691953 -0.45119166
4 -0.8894105 -0.28036723 1.1973042 0.07921252 0.15252101 0.9912284 1.6161934 -0.044869173 -0.48251513 0.4265158 -0.0905466 -0.083026 -1.0027717 0.19126163 0.6459278 0.50986445
10 -0.66107905 -0.5604064 0.17769514 0.14820172 0.2730334 0.16786358 1.6358886 0.35250276 0.05230522 0.48972812 0.7416375 0.1567393 0.7699463 -0.577426 -1.3496141 -0.43451172
46 -0.33002692 0.16195701 1.5247926 0.36384696 -0.07442783 1.6251595 0.99186814 -0.33537298 0.052636273 0.8170867 -0.88147247 -0.15710054 -0.95459944 -0.2843757 -0.5585877 0.16181162
39 0.19416392 -0.1566581 0.96440685 0.8555786 -0.19385731 0.9342424 0.9541082 0.021676127 0.8319237 -0.36750507 -1.2289428 -0.7238592 -0.13255873 -0.31396872 0.20330945 -0.083198555
15 -0.39966056 0.7875928 0.52655804 0.93424237 0.46451616 0.75587755 0.6385842 -0.043750808 0.7267628 -0.51572984 -0.79019225 -0.5573633 0.2647109 0.012409555 -0.9329234 -0.374548
19 0.030477412 0.077763475 0.081402175 0.15021312 -0.24721289 0.19374132 2.124627 1.2997719 0.5679895 0.39141163 -0.12984551 -0.1454193 -0.69299376 -0.10183142 -0.2111125 -0.48308218
42 0.34062165 -0.050337438 1.0683951 1.0846385 0.270748 0.64904594 0.62182677 -0.053962577 0.73462826 -0.86065644 -1.6812707 -0.6039089 -0.034927104 -0.36613438 -0.4480354 -0.17383198
18 0.12417407 0.13696861 0.4108781 0.7668599 -0.003853928 0.3162452 1.2703525 0.56255007 1.0354419 -0.38221383 -0.71554965 -0.61727285 -0.494233 0.17101245 -0.062749 -0.26449314
24 -1.4527609 -0.04394932 0.46789375 0.42230695 1.0731915 0.7855235 1.1983448 -0.0006656005 -0.31047904 0.18748431 0.98322886 0.35961375 0.36977842 0.1623735 -1.3781458 -0.1514556
41 0.6206974 -0.33212993 1.0261142 0.5090495 -0.704751 0.6967068 1.5675238 0.31717926 0.44189572 0.40804362 -0.049591426 0.06910428 -0.64423025 -0.10806937 -0.2402506 0.25499302
11 -0.085626885 -0.12017995 0.23860943 0.655836 0.12299783 0.56194663 1.6429445 0.1478618 0.6342729 -0.34645373 -0.54042315 -0.3926172 -0.94269234 -0.112052664 0.88840157 -0.050644595
40 -0.09907044 -1.0295726 0.8345059 0.54590654 -0.33984587 0.65790844 1.05651 -0.90609807 0.30696923 -0.013948995 -0.62630254 -0.2966948 0.49697918 -0.722484 -0.9917305 0.20294823
57 -0.692338 -0.13097511 1.6020242 0.6221724 -0.043299552 1.4785905 1.1284295 -0.18792038 -0.5875879 0.5768506 -0.51370305 0.17791614 -0.86454093 0.14967509 -0.22244962 0.25119781
16 -1.1139423 0.020196954 0.33004397 0.64750415 0.15099041 0.31288007 1.3597072 -0.21972348 0.059083633 0.03932787 0.72736853 -0.25413686 0.84480506 -0.7044627 -1.2059084 -0.51265913
76 -0.3359492 -0.33288887 0.497792 0.7660609 -0.23374633 -0.14993583 1.1446165 0.13784355 -0.00669285 -0.12778687 -0.7283158 -0.62155014 0.9158285 0.037082452 -1.5458828 -0.40006983
12 -0.054621957 -0.43357974 1.6475744 0.15705456 0.12366415 -0.107752874 1.4979998 1.0977608 -0.6379093 -0.39004347 -0.9563688 -0.15757509 0.5824985 0.6477859 -0.6908044 0.9644077
20 0.31424102 -0.38687837 1.133465 -0.18044935 -0.36793572 0.98213154 1.7283571 0.9513735 0.28366044 0.6613845 -0.3075444 0.40223432 -0.5160035 -0.4904168 0.24709436 -0.445773
25 0.14090335 -0.037614033 1.1462619 0.85012007 0.19039007 0.7853774 0.8129984 -0.24267533 0.6874051 -0.5841277 -1.0348533 -0.5527149 -0.39242262 -0.18114236 0.22575778 0.20183016
62 -0.07295189 -0.54497015 1.9429705 0.7499061 -0.17310698 1.1347011 1.1352333 0.4690357 -0.47849327 0.25080326 -0.54079556 0.24788103 -0.61735654 0.8317394 -0.29065177 0.22356892
49 -0.26977336 -0.8760433 0.9028613 0.20999442 -0.6417739 -0.1838529 1.4939111 -0.45088974 -0.41900387 -0.18137944 -0.3098282 -0.4613052 0.6982622 -0.93748826 -1.442016 -0.6150796
58 -1.0107085 -0.010982399 1.2419285 0.6048971 0.2615707 1.3835051 0.9610781 -0.60564977 -0.9366543 0.53351766 0.079824015 0.3019291 -0.36506465 0.11493218 -0.9280086 0.059482466
30 -0.5502979 -0.94077706 0.3389096 0.2538659 -0.23997289 0.016064605 1.7268214 -0.34630868 -0.17667453 -0.1779303 0.39482686 0.01470929 0.6752784 -0.7393429 -1.4625682 -0.41255674
80 -0.63275963 0.6504486 0.3841258 0.8117109 0.34085262 0.1834259 1.1883007 -0.0025053788 0.8866424 -0.29166612 -0.313869 -1.3649797 1.0236144 -0.68349 -1.712978 -0.725811
105 -0.07627055 -0.5009221 0.37291923 0.92489326 -0.16867685 0.13403155 1.2018666 -0.7134906 0.7228741 -0.22787379 -0.19373508 -0.7170266 0.6707646 -0.9370584 -1.005874 -0.71204126
140 0.28342074 -0.46010435 2.0198064 0.4822275 0.22583456 0.7323296 1.2859675 0.279968 -0.7736579 -0.28427917 -0.7483786 0.2229303 0.07255454 0.6948232 -0.5513753 0.98008764
45 -0.6968202 0.47061175 0.45936438 0.47753653 0.8045105 0.4484926 1.6575059 -0.6942032 1.0127138 -1.0046998 -0.87921625 -0.07133599 -0.5249642 -0.31731072 0.6468828 0.23301132
38 -0.19079149 -0.20151117 0.54835635 0.6646135 0.012705468 -0.58943844 1.847592 0.82632685 0.9972844 -0.31823948 -0.1605698 -0.78438455 -0.7101441 0.28579652 0.23203008 -0.6877403
52 0.39287478 -0.07126456 0.89037627 0.8648791 0.08957599 1.3837872 0.85168976 0.092851594 1.0883911 0.06278474 -1.1219437 -0.57431895 -0.4039127 -0.8877894 0.19132833 -0.031786483
81 0.430413 0.4315322 0.6687536 0.44142488 -0.16824783 0.8904638 1.1868718 0.9027409 0.72216326 0.26301673 -0.9903689 -0.26364097 -0.844408 -0.950696 -0.057666864 -0.44232255
54 0.25446036 -0.44210684 0.93452424 0.2565425 -0.18985689 0.32557237 0.9612909 -0.29856396 0.10384604 -0.20184031 -0.6507772 -0.58528274 0.2470392 -0.3277046 -1.5617218 -0.6199399
17 -1.4217007 -0.35189253 0.3160409 -0.14177863 0.91901755 0.41923535 1.4304974 0.026648248 -0.7963706 0.4556172 0.4889339 0.14987086 0.4456323 -0.12172439 -1.0200346 0.10290208
73 -0.6501019 0.6188402 0.76401746 0.050372742 0.9378564 0.40497345 1.453539 -0.15927269 0.6994753 -0.97055775 -0.53290445 -0.36021933 -0.41369843 -0.7746296 1.1139301 -0.3107486
44 0.14584239 -0.11690577 0.88961333 0.98454356 0.07125773 1.0140961 0.97293186 -0.04700496 1.3366169 -0.7004079 -1.3883543 -0.55507225 0.28335124 -0.92334163 -0.075059004 0.29065472
70 -1.0999278 -0.01168332 -0.15064868 0.034944788 0.67489696 0.341262 1.7709373 1.099962 -0.21096294 -0.13610561 0.7851298 0.2043145 -0.56498444 -0.05061552 -0.6986949 -0.85596657
94 0.10967159 0.7262072 -0.07481492 0.12716518 0.014968855 0.6925642 1.6831185 1.641483 0.36564085 0.3369224 -0.6060101 -0.39466792 -1.0177913 -1.23326 -0.19426188 -0.578416
27 -0.35051313 0.06430137 -0.0007934303 0.3648666 0.28948218 -0.1747478 1.7986279 1.3283854 0.43199334 -0.11804214 -0.23607217 -0.60191834 -0.7311999 -0.07078024 0.34682828 -0.47026354
106 0.38860098 -0.27265316 0.23407903 0.6474475 -0.47193483 0.8998659 1.7284919 0.80835104 0.7026199 0.5499473 0.2948342 0.2874763 -0.3829068 -0.11240657 -0.5225797 0.20827898
59 -0.97313637 -0.22645082 1.570452 0.48919722 0.18847717 1.6596062 1.1232438 -0.6501942 -0.49046743 0.7488604 -0.1611746 0.17439851 -0.8042097 0.066596635 -0.82056636 0.22277068
31 0.093638755 0.11869363 0.49361876 0.43440035 0.87438697 0.14242412 0.8893884 -0.09426361 0.056606397 -0.17789434 -0.77368695 -0.43617064 -0.053164963 -0.8962828 0.5231483 -0.07684577
74 -0.72606266 0.5483243 0.5443526 0.95533955 -0.08790461 -0.3493064 1.361336 1.0330908 -0.23978165 0.43601927 0.5312747 -0.952051 0.7323805 -0.5701544 0.52443385 -0.024461197
51 0.3314932 -0.7638834 0.20909815 0.22355016 -0.44503692 0.8230876 1.5410566 -0.029594587 0.61120784 0.42291772 -0.29342514 -0.5574137 -0.2561533 -0.5949955 -0.040212937 -0.55136204
72 -0.035407778 -0.22990933 1.7277675 0.7964099 0.012116612 1.069064 1.0133082 -0.05089745 -0.7647016 0.37913364 -0.60909075 0.21594253 -0.17427446 0.5182384 -0.6071869 0.63271135
116 -1.003191 -0.3853345 -0.000492836 0.5466995 0.20594648 0.16444844 1.4116077 -0.35987955 -0.08096314 -0.053087268 0.37476453 -0.465931 0.61958474 -0.7384698 -1.3105781 -0.5980056
135 0.086234845 -0.18034013 0.31204078 0.8356413 0.38240308 0.9032195 0.57848746 0.08559654 0.89174104 -0.18804558 -1.0773307 -0.52713585 -0.2191694 -0.93408144 -0.23969145 -0.10103966
69 -0.5823207 -0.2644069 1.6487088 0.63571286 0.2310363 1.5032854 1.0141957 -0.44522643 -0.52481157 0.83204716 -0.5181255 0.15821199 -0.60537356 -0.037476156 -0.18677568 0.33511406
64 -1.0949667 -0.12497554 1.6247342 0.4852693 0.5126876 1.6578553 1.1376634 -0.27308196 -0.89406246 0.68690544 -0.33226517 0.24625863 -0.9951943 -0.10583056 -0.052503847 0.21734269
143 0.026824482 -0.15969944 1.3167881 1.0405332 0.43198553 -0.31210628 1.0596746 0.92874694 -0.5495334 -0.5876243 -1.0599366 -0.29042605 0.65059936 0.5931398 -0.73529655 0.9412561
29 0.060231663 -0.31084728 0.8550788 0.18699564 1.1968886 0.7309893 0.7485859 0.6808958 -0.16713329 0.33036155 -0.23950061 -0.2807037 0.9756773 -0.09389147 0.15609619 0.84556174
65 -0.9855402 -0.22103383 1.3422625 0.66356117 0.50107723 1.7156707 1.2082623 -0.13787214 -0.8723397 0.99184597 -0.16059321 -0.06472931 -1.204518 -0.30609035 0.2093753 0.2608599
196 -0.52025855 0.050526302 0.40588066 0.98362684 0.14478725 -0.30508617 1.1140358 -0.11452886 -0.04396415 -0.13645467 0.59689164 -0.652719 0.70743126 -1.2264181 -0.60955304 -0.61531717
84 0.15799958 -0.3902641 1.4916294 0.7306348 0.076309346 -0.27163574 1.0797921 0.65662044 0.15416834 -1.0434083 -1.3689444 -0.6581712 0.7469349 0.38029346 -1.0969965 0.64900273
50 0.42158625 0.3739743 0.79394174 0.45584252 0.10251681 0.8785102 0.97868544 0.33551404 0.99332535 -0.23821606 -0.92904514 -0.6695538 -0.5222141 -0.8205585 -0.058093023 -0.037561268
134 0.12148192 -0.09699135 0.8455737 0.35180062 0.18305542 0.5133207 1.1102924 0.7257124 0.2593569 -0.0028874045 0.10135967 -0.21265212 -0.9436761 -0.48378584 0.5658094 -0.06472784
204 -0.42392686 0.16070792 -0.04319246 0.936716 0.5537635 0.052584093 1.3355161 0.036045216 0.37194395 -0.12639955 0.6511742 -0.6617656 0.91986173 -1.1591645 -1.031378 -0.52961564
85 -0.7779581 0.30963227 -0.26862782 1.2057781 0.16903627 -0.20849776 1.3304092 0.028699651 0.37922806 -0.44808203 -0.54084927 -1.2410542 0.7126673 -0.6589061 -1.2469769 -0.739312
8 -0.702825 0.40715724 0.59628636 1.0610478 -0.22690095 -0.5353917 1.339426 0.79950005 -0.7754276 0.38524017 0.0279291 -0.8967706 0.38220477 -0.35385808 0.49287865 0.19846678
233 -0.05622591 0.111259945 0.39398223 0.55373865 -0.0542129 -0.19466133 1.439266 1.26951 -0.2995776 0.6524109 0.58500046 -0.21593544 -0.82242084 -0.16005108 -0.39092252 -0.15341176
56 -0.08579499 -0.6891392 0.53419626 0.6131644 -0.43661577 0.26444316 1.3761213 -0.54287714 0.24655566 0.14984217 0.40747046 -0.7028979 0.66278183 -0.94006574 -1.0178701 -0.4740158
82 -0.7531628 0.001599136 -0.29762474 0.13953876 0.6465332 0.045078237 1.7267315 1.1442662 -0.15541951 -0.12615266 0.6936899 -0.32035518 -0.57718927 -0.29372987 -0.35723606 -0.7113067
142 0.01872689 -0.59381676 1.7928191 0.5436098 0.31670034 -0.0043633487 1.2094036 0.8595825 -0.66307473 -0.37385237 -1.1043085 -0.37930104 0.30019313 0.5958521 -0.5885539 1.0244409
86 0.018721482 0.33929187 0.10980299 0.16206884 -0.012933792 0.15619816 1.9395107 1.6462861 0.3852183 -0.15880188 -0.04810215 -0.6887869 -0.710251 -0.5595128 0.013364194 -0.65190107
88 -0.3925173 0.5744293 -0.22199452 0.82349604 0.073069 0.18327545 1.4121404 0.26032898 0.35804492 -0.22016585 0.2868679 -0.42135292 0.62603605 -0.6210816 -0.836134 -0.4895033
128 -0.028020736 -0.34229326 0.34950033 0.9288784 -0.51090544 -0.35005426 1.0142455 0.32572845 -0.17297672 0.28296152 0.034753643 -0.8706901 0.2999474 -0.9977956 -0.6652404 -0.34455153
131 0.25128978 0.009340758 0.17725211 -0.027645895 0.41458908 0.6926163 1.6405692 0.6502927 0.31062824 -0.15241128 -0.20019165 -0.5565743 -1.0814171 -0.84619296 0.66538745 -0.09209971
376 0.17497398 0.25268635 0.07603839 -0.024162821 0.58480996 0.44936332 1.4263287 0.8348529 0.42776012 -0.28508097 -0.5611508 -0.45862967 -1.0603343 -1.0471174 0.2787105 -0.5592254
101 -0.3101142 0.51258534 0.7733886 1.1505911 0.20334479 -0.85986865 1.1431025 1.2614603 -0.5381346 0.42450815 0.12888488 -0.5291399 0.21276638 -0.18488348 -0.3710097 -0.004855358
93 -0.60911775 0.55622077 0.019534873 0.253449 0.5252095 0.26323202 1.1971176 0.1071187 0.4537044 -0.43274087 -0.37969595 -0.3094524 0.14031616 -0.46583307 -0.121953756 -0.5628076
460 0.09683392 0.3110861 0.4938161 0.4279809 0.5233876 0.47300994 1.2782545 0.3303506 0.45415133 -0.10376157 -0.30536515 -0.38992178 -1.1846406 -0.8983304 0.71234727 -0.042273905
78 -0.8639567 0.49113554 0.38386133 0.88621 0.71324545 -0.14626452 1.0742668 0.81352144 0.060154494 -0.23149665 0.58851177 -0.6136855 1.1125998 -0.6404789 -0.430381 -0.26550654
28 -0.96683794 0.38802996 0.09533619 0.9092566 0.34289536 0.17120174 1.1880761 0.1786026 -0.8217612 -0.065288045 0.3005832 -0.29565516 -0.31630147 0.03181071 -0.082064815 -0.1875003
55 -0.21854194 -0.4003254 0.545408 0.6235616 -0.45611244 0.385507 1.0997592 -0.5978467 -0.15828852 0.14562201 0.03966282 -0.73890233 0.32440805 -1.05644 -1.1480514 -0.57173604
355 -0.39496106 -0.2738779 0.4638585 0.53991467 0.85852486 0.30767888 0.5804131 0.05440695 -0.020900656 -0.19315554 -0.1136385 -0.04901606 0.279084 0.10353634 -0.6592164 -0.014569721
137 0.32128838 -0.22178605 0.24162215 0.17233703 -0.037174437 -0.017356321 1.4156305 0.6846945 -0.030467505 0.25645834 0.22598054 -0.535791 -0.54489636 -1.0802794 0.17848453 -0.34188852
483 -0.47199103 -0.190191 0.8873472 0.37397683 0.6662829 1.2540513 1.1461331 -0.30821407 -0.5379196 0.4904894 -0.33546543 -0.090087935 -1.2870767 -0.53136146 0.5257519 0.30662784
183 -0.053139172 0.145582 0.72412974 0.8036645 0.547203 0.19780469 0.58869874 0.25310197 -0.071515486 -0.45597875 -0.26857096 -0.52249277 0.69134897 0.22294551 -0.7119123 0.021463852
341 0.16851358 -0.38163713 1.2468354 0.5989374 0.08494109 0.2822971 0.6529958 -0.18508452 -0.40625015 -0.18378149 -0.42158708 -0.045732725 0.36989528 -0.1480783 -0.7027557 0.27330065
122 -0.43084618 -0.601806 0.13572973 0.117758624 0.45709544 0.27091998 1.1919436 0.33951876 -0.17235461 0.17405652 0.5575503 0.110371985 0.40716267 -0.67410326 -0.73061055 -0.028541729
303 0.5190725 -0.73890024 1.1148955 0.66039664 -0.038370647 -0.026984498 0.73753905 0.1512533 0.1453382 -0.54304576 -0.7689998 -0.5656621 0.48356658 -0.49482426 -0.6232161 0.107038856
158 -0.66435575 0.3201889 0.52233154 0.66234535 0.5583218 0.30138433 0.8487341 0.23784113 0.15888667 -0.37529504 -0.21759465 -0.34527004 0.5252127 0.2983719 -0.52338046 -0.08286466
120 -0.78395003 0.064297006 -0.011783686 0.66324174 0.9355158 0.08349101 0.970924 0.5344224 -0.17522572 -0.26323858 0.45010194 -0.28661948 0.62837654 -0.29379258 -0.8288398 -0.47981012
354 0.5468257 -0.37598225 1.088725 0.57575655 0.19234785 0.20911555 0.9170122 0.33582866 -0.39127153 0.030214315 -0.64967227 -0.12360374 -0.061305407 0.21598445 -0.38859537 0.387408
147 0.24846952 -0.39331615 1.209785 0.2358636 0.51600885 -0.027466241 1.022948 0.40156677 -0.8286894 -0.22865902 -0.54994476 -0.44994184 0.70283175 0.27407718 -0.6959383 0.7374056
71 -0.14945163 -0.3149947 1.1822453 0.5944166 0.0026460518 1.1189077 1.2947268 0.2524119 -0.4910378 0.6468204 -0.02159635 0.16659129 -1.0228558 0.067834206 0.18067954 0.3319578
34 -0.8892282 -0.068408325 -0.15565507 0.47791806 0.5244706 0.30152884 1.3202897 0.40366346 -0.18708226 -0.044269893 0.49028128 -0.3116539 0.049177904 -0.17603339 -0.9334019 -0.6724296
83 -0.32908645 0.17771278 0.7666887 0.82287496 0.37731764 -0.21441749 0.9567369 1.3172807 -0.3763042 -0.79331994 -0.6284723 -0.5351441 0.43235666 0.4472646 -0.5580734 0.4302563
243 0.61517614 -0.29312348 0.80943143 0.65708256 0.06711227 -0.049207438 0.70730424 0.82222664 -0.2917394 0.07955676 -0.64392036 -0.5579886 0.0771768 -0.52223015 -0.31841925 0.2633369
198 -0.5480689 0.2254324 -0.1403008 0.8003811 0.5498723 0.15395801 1.3191798 -0.043324493 0.20437138 -0.27959242 0.36603722 -0.6129352 0.8505442 -0.8677973 -0.9937931 -0.48114938
205 -0.51686686 0.09797566 -0.15660624 0.84370095 0.43868336 0.017648773 1.377065 -0.10768718 0.36101475 -0.21302488 0.18453117 -0.95274377 0.8341766 -0.9920381 -1.1355919 -0.5472134
112 -1.2138557 0.15673734 0.19779189 0.40455726 1.0245603 0.6303994 0.96416754 0.032775618 -0.3278541 -0.16745505 0.34250852 0.042936303 0.47945675 0.010208044 -0.75719345 -0.12428749
396 -0.018310128 -0.33384892 1.2190253 0.67437285 0.5263953 0.29746577 0.5774841 0.28188306 -0.40136385 -0.29895306 -0.7672864 -0.3741297 0.19934581 0.3629984 -0.482029 0.6418694
333 0.08815364 -0.19388828 0.6594224 0.74392754 0.6735 0.10721295 0.5382914 0.0471632 0.030873444 -0.34689927 -0.6469084 -0.3307192 0.38373122 -0.3454693 -0.14915328 0.31247085
299 0.117405616 -0.24683522 1.3878819 0.9445657 0.46654937 0.2843566 0.7385956 0.6084545 -0.5761821 -0.3854414 -1.0043653 -0.18735172 0.09238712 0.54771054 -0.2693022 0.59452915
146 0.42317504 -0.45588204 1.5370257 0.5717608 0.49345383 0.16506168 1.1128207 0.68159276 -0.6952611 -0.4283877 -0.98190695 -0.18498187 0.2911956 0.45411277 -0.4172989 0.9221529
197 -0.7450541 0.2104475 -0.03615377 0.9463952 0.81035525 0.012116881 1.3117713 0.31399563 -0.060013 -0.24747556 0.7397429 -0.62055045 1.0088787 -0.8938007 -0.7040084 -0.5290982
90 -0.72058773 -0.298926 1.336149 0.6030004 0.3794938 1.5231518 1.1780293 -0.21489334 -0.82834494 0.73341954 -0.24683909 0.11181557 -0.89337915 -0.1774712 -0.10990012 0.35669866
141 0.1955429 -0.51010126 1.4026912 0.5968989 0.48063168 -0.097875364 1.2178994 0.6601259 -0.38398597 -0.79127157 -0.89390785 -0.30706173 0.56736296 0.3942308 -0.739288 0.81587285
22 -0.023195108 0.02068837 0.26604924 0.42890978 0.057879098 -0.24976163 1.7352879 0.900345 0.48116413 0.011813368 -0.08726996 -0.4646596 -0.72585845 0.11129521 0.025901109 -0.43872693
268 0.17986205 -0.27410808 0.9796763 0.3430424 -0.1335131 0.80306995 0.9756805 0.0046120174 -0.12754308 0.49402255 -0.43675458 0.014432096 -0.10591141 -0.26574975 -0.30251783 0.026819237
238 0.21759194 -0.23593429 0.4522945 0.14732225 0.13752596 0.5152852 1.4457548 0.6463715 0.13714267 0.1307508 0.016954886 -0.38722733 -0.9466103 -0.42763335 0.5085644 -0.095847964
237 -0.24304247 0.106430106 -0.04345139 0.3327977 0.5789463 0.3420772 1.1414763 0.7407644 0.251101 -0.08047888 0.15978639 -0.46452215 -0.24634434 -0.18731067 -0.025439752 -0.3669243
43 0.122311376 0.011131043 1.2225904 0.6231138 -0.14489532 1.29533 1.0745171 0.014902707 0.12709926 0.6552015 -0.47525287 0.08599944 -0.8709612 -0.14137264 -0.07259574 0.25868303
104 0.13764946 -0.2652772 0.58844423 0.7132628 0.21914418 0.2274156 0.9879369 -0.3909687 0.6002559 -0.5718808 -0.7497793 -0.39000875 0.33164838 -0.86749524 -0.111601174 0.28592643
308 -0.11229651 -0.13353363 0.017857326 0.31478348 0.4561706 0.6311831 1.0567416 0.76676404 0.16986609 0.40668836 0.249925 0.049673002 -0.059318315 -0.53570575 -0.49463043 -0.48010072
356 0.35320768 -0.366568 0.66744405 0.5972082 0.56640136 -0.058112457 1.011851 0.2803241 -0.14580865 -0.2436094 -0.695476 -0.2751462 -0.084885605 0.3026389 0.09631794 0.29150072
427 -0.57329106 -0.43232602 1.5568407 0.6681766 0.25348508 1.397254 1.1370177 -0.02086762 -0.6276039 0.74060583 -0.22754137 0.03881338 -1.0593756 -0.18683201 0.17089115 0.42409733
61 -0.47314304 -0.1965429 0.9126117 0.5328519 0.3272155 0.8658325 0.995158 0.29660794 -0.7982941 0.63515323 0.027824374 0.12701029 -0.65559995 -0.002337668 0.3328682 0.13532576
339 0.16125011 -0.13534814 0.53253645 0.24325536 0.47102886 0.29116514 0.9065894 0.43587372 -0.2716421 0.18572517 -0.05829964 0.062709086 0.07926037 -0.4368465 -0.22792524 -0.12132511
107 -0.44305506 -0.16667867 0.5307305 0.5450227 0.3393811 0.6660049 0.647359 -0.3112635 0.11868016 -0.01819554 0.0020280937 -0.24524903 0.18393557 -0.23541108 -0.5875504 -0.19848526
152 0.24703144 -0.31908962 1.3927908 0.5026533 0.44237223 -0.12517738 0.9600881 0.75481373 -0.6832152 -0.36501825 -0.5583116 -0.18303151 0.41161168 0.25326338 -0.50045437 0.7481757
270 -0.098302774 0.17096747 0.094897054 0.4053617 0.34385172 0.26098144 1.3593795 0.07449303 0.621273 -0.3035939 -0.52512664 -0.4888187 -0.58754116 -0.19149654 0.27048942 -0.14026463
91 -0.37072676 0.12997012 0.3696675 0.3284059 0.07002822 0.6713315 0.8477851 0.14262216 -0.09466586 0.25351587 0.0034418975 -0.17240049 -0.23622671 -0.25044945 -0.48850682 -0.17802125
429 0.053023417 -0.20500006 0.383671 0.412009 0.22515628 0.16922845 0.95182097 0.37908655 -0.06746454 0.0038662849 -0.03628304 -0.4038234 -0.33411637 -0.47115877 0.15165466 -0.09461902
75 -0.35771164 0.15001969 0.55604285 0.5850431 0.43266246 -0.12500942 0.72291684 0.6550431 -0.14478625 -0.06095101 -0.02801997 -0.4165421 0.34774014 -0.107055776 0.010248641 0.19302425
313 0.15507135 -0.24316084 0.79737467 0.53675526 0.39131606 -0.11342438 0.82816476 0.3598019 -0.5652774 -0.019284023 -0.4623176 -0.39352006 -0.051385213 0.08397034 0.12262582 0.47426698
267 0.29052117 -0.45909438 1.335086 0.57583463 0.09801438 0.2472298 0.9235353 0.3088714 -0.70884717 -0.10001654 -0.42430556 -0.008520947 0.2449086 0.31304756 -0.61983126 0.5031857
578 -0.06645155 -0.2672393 0.5894736 0.55835825 0.45721886 0.26441604 0.60750383 0.07771249 -0.32897004 -0.22404836 -0.20670035 -0.15534292 0.24084096 -0.22985652 -0.4704186 0.039519753
316 0.30593938 -0.2136267 0.8062902 0.35038972 0.3545695 0.46796763 0.95360655 0.36807388 -0.454074 0.14445548 -0.46398154 -0.00696619 -0.32618552 0.046979766 -0.15516317 0.2640071
384 0.31765732 -0.3056972 0.7884409 0.8954446 0.8118858 0.0285568 0.60698694 0.271859 0.14641793 -0.707501 -0.82474214 -0.5106874 0.63214624 -0.4012213 -0.17140298 0.18625939
212 -0.71084315 0.24390323 -0.053707518 0.86333126 0.7196823 -0.17229252 1.3370883 0.12595382 0.049220882 -0.305874 0.49170384 -0.6694506 0.9085377 -0.8235589 -0.9789854 -0.5121137
66 -0.37323403 -0.26712832 1.4785194 0.5794955 0.1341114 1.32848 1.225771 -0.17657995 -0.6952569 0.7205122 -0.3693156 0.19602296 -0.7422588 0.15110528 -0.13400444 0.34212896
115 -0.814165 -0.21377027 0.15627682 0.19123305 0.57419133 0.31188062 1.1301013 0.18592417 -0.44328627 0.013545292 0.4173702 0.06465545 0.3339637 -0.17682947 -0.5894041 -0.07837479
117 -0.3327135 -0.23617195 -0.071222454 0.2772441 0.568941 -0.0127365785 1.1590203 0.3382341 -0.013046617 -0.38759258 0.18049628 -0.19300194 0.3207 -0.2849681 -0.83796614 -0.24502194
193 -0.5160932 0.2885436 -0.09503833 0.7172288 0.5127595 0.0041464227 1.3868016 0.021784203 0.24846469 -0.38127 0.27503452 -0.5914807 0.6961125 -0.70380425 -0.95320725 -0.5201653
287 -0.4552602 -0.22162549 0.2070252 0.39519897 0.39337325 0.18375675 0.8560774 0.34580183 -0.2372827 -0.032093637 0.18183725 -0.15637696 0.034556516 -0.26192856 -0.4591809 -0.19773494
145 0.31892905 -0.3943436 1.4409151 0.5453833 0.3250884 0.26712385 1.0587165 0.5786167 -0.8748492 -0.05055905 -0.5775593 0.058190282 0.016206278 0.35302618 -0.36553463 0.744824
182 -0.59218794 0.07303417 0.059313953 0.5361406 0.6165428 0.17678922 1.0242592 0.37726155 -0.30758622 -0.04893565 0.38692826 -0.24873114 -0.00093623856 -0.15889688 -0.49909317 -0.40828827
63 -0.068435 -0.31867737 1.465267 0.53385836 0.083352335 1.0903661 1.1431726 0.28329182 -0.61132735 0.4462767 -0.26674137 0.2250322 -0.8163026 0.13083191 0.042415746 0.50873786
332 0.28240243 -0.469353 0.7661319 0.5849419 0.37642407 0.09923994 0.7566672 0.44637886 -0.050629143 -0.45829436 -0.8063599 -0.30271867 0.30111912 -0.012354576 -0.51632243 0.36991563
176 -0.7594804 0.32906216 -0.07712113 0.8112046 0.77886385 0.047833063 1.2718652 0.44128555 -0.043297965 -0.25380185 0.63442695 -0.3828652 0.73622847 -0.66416615 -0.84127176 -0.4197294
185 0.16579063 -0.46289417 0.99193496 0.38946232 0.29605266 0.106074676 0.9398253 0.24657369 -0.6455892 -0.22203961 -0.24964882 -0.05293852 0.3744176 0.22088155 -0.70760095 0.48499885
127 -0.8348566 0.03817468 -0.062165383 0.7291468 0.34178776 0.011473078 1.1491026 -0.015893752 0.32055146 -0.22173768 -0.019277837 -0.70173323 0.6093001 -0.5222149 -1.1978276 -0.60815763
235 0.026896445 -0.21624635 0.11431546 0.5361459 0.014464615 0.019629907 1.6174186 1.1582499 -0.28835076 0.30492392 0.4454058 -0.44944367 -0.5213227 -0.110898875 -0.09222431 -0.21657655
79 -0.30485302 -0.5492691 0.42203653 0.23566195 -0.006446394 -0.026692176 1.2125746 -0.25961256 -0.27336487 -0.06147771 0.1983036 -0.14596789 0.3688517 -0.7320455 -0.782193 -0.48602587
136 -0.36298305 -0.2896041 0.40361205 0.2776294 0.27055705 0.14826012 0.8845835 -0.13819146 -0.08693875 -0.253032 0.071953855 -0.20258686 0.15960972 -0.4939353 -0.21676508 -0.2786223
358 0.31250298 -0.25907415 0.7775144 0.2245339 0.08110341 0.83903646 0.9507534 0.38307273 0.023312686 0.37131917 -0.22271724 0.018152619 -0.28827584 -0.33471248 -0.41072467 -0.26225105
92 -0.13051553 0.26960278 -0.15009448 0.6213822 0.26893353 0.12680107 1.1812044 0.068807155 0.16041803 -0.32845566 0.06572158 -0.17867719 0.32867783 -0.37124637 -0.6719639 -0.26802295
256 -0.46619502 0.15072048 0.6893315 0.545335 0.24889795 1.0980341 0.9635833 -0.39577183 -0.4708011 0.52692443 -0.044711582 0.27079114 -0.43079507 -0.1472582 -0.39066464 -0.14093353
155 0.16758192 0.22354291 0.4136931 0.4436332 0.1705989 0.57066625 1.2346175 0.52336586 0.5010119 0.058707125 -0.23928769 -0.22334117 -0.7048858 -0.5045607 0.29257685 -0.06462672
125 -0.28203613 -0.39701557 -0.026021376 0.28337872 0.19879349 0.16710371 1.2674608 0.38933635 -0.3141867 0.022328662 0.40758276 -0.06222148 0.08765219 -0.58264494 -0.4970363 -0.078636855
241 0.33834293 -0.22052959 0.66777587 0.19989093 0.12575884 0.1361832 0.9434371 0.5796814 -0.15335943 -0.089621216 -0.578395 -0.28000367 -0.3948593 -0.33928162 -0.19626826 0.14513546
67 -0.21078758 -0.10319961 0.8030247 0.4340238 0.18589105 0.8151051 0.90562046 0.16674569 -0.51979864 0.32140326 -0.036237877 -0.034148797 -0.7523143 -0.16475658 0.26740628 0.2507206
162 -0.73972744 0.4609471 0.1614703 0.8815448 0.8844828 0.023655444 1.0430568 0.39594477 -0.0057184487 -0.34616676 0.5680105 -0.5696818 0.8632985 -0.6344019 -0.5449252 -0.4560552
459 0.550804 -0.27026278 0.69819736 0.77696455 0.15514159 0.825514 0.9858392 -0.006810012 0.87843937 0.10967924 -0.7248972 -0.2921098 -0.3343383 -0.71773964 0.14432493 -0.030254347
255 -0.3926861 -0.18169375 0.30635113 0.31940314 0.32910848 0.43404606 0.90216094 0.16411714 -0.14760853 0.15459299 0.24155079 -0.042219657 -0.005808596 -0.2120227 -0.503786 -0.10121924
452 0.47422057 -0.12787135 0.51594174 0.4353115 0.11137078 0.61197466 0.9603808 0.6044505 0.33903244 0.268652 -0.35749134 -0.2413554 -0.3074863 -0.5560325 -0.12343655 -0.2329146
329 0.25510606 -0.52993286 0.50151104 0.32249624 0.63506484 0.16360684 0.8693065 0.2096147 -0.21046357 -0.13894264 -0.24647926 0.010568699 0.32844803 -0.3170724 -0.45355645 0.30381805
113 -0.607293 0.13593926 -0.07654121 0.6256584 0.78123707 0.07463286 1.0097765 0.5301718 -0.25983247 -0.16099991 0.58932793 -0.3565204 0.51589483 -0.5062141 -0.5402431 -0.28287047
588 0.17012998 0.04850919 0.49652186 0.36917254 0.08569012 0.35473722 1.035155 0.4775881 0.38692996 0.07228703 -0.2883202 -0.44101775 -0.32029435 -0.53582734 -0.04317498 -0.23122513
186 -0.2999192 0.021442985 0.23337136 0.43541506 0.10760292 -0.39331278 1.2079631 0.81298584 -0.054316543 -0.21192425 0.15687291 -0.59443355 -0.11715557 -0.23846202 -0.46545482 -0.41414952
564 -0.29663667 0.0048532784 0.48634616 0.4567697 0.6049267 0.49041003 0.8818812 -0.13943897 -0.47846887 -0.13512799 -0.14493549 -0.24391754 -0.566412 -0.3367165 0.2618825 0.040637754
276 -0.06472777 -0.031897787 0.93527675 0.772108 0.497895 0.10937547 0.67867327 0.6734703 -0.20094413 -0.5928566 -0.7982855 -0.3270622 0.25208467 0.43104708 -0.5659595 0.39076817
454 -0.10930968 0.039275575 0.1149633 0.23862368 0.3544081 0.3032167 1.0412402 0.31795892 0.12753694 -0.28465596 -0.27064258 -0.2534312 -0.060336106 -0.54075235 -0.0018292053 -0.2855056
89 -0.47262034 0.48281878 0.0964392 0.49674258 0.670138 0.20490621 1.2391148 -0.007550536 0.52813363 -0.66716707 -0.39396632 -0.44759706 -0.043834988 -0.37225097 0.3189067 -0.3569659
68 -0.69792813 -0.33955857 1.2097824 0.6220064 0.41809058 1.3889561 1.0705024 -0.15925795 -0.7378686 0.7838559 -0.24534048 0.108673066 -0.94628257 -0.18955816 -0.0019055407 0.27768308
310 0.5092648 -0.24075624 0.42144704 0.2856757 1.0403315 0.39230233 1.073573 0.099593945 -0.24119094 0.13323456 -0.2308848 -0.3699755 0.43382746 -0.49666265 0.06995614 0.82870185
210 -0.39262882 -0.14077112 0.06448088 0.5232192 0.2778915 -0.011122614 1.2296176 0.09172749 -0.11060767 0.028748995 0.35798144 -0.57458806 0.44019336 -0.6892574 -0.7804342 -0.4401117
199 -0.71372575 0.061098088 0.021554086 0.47032014 0.520916 0.12404854 1.0587312 0.09854642 0.19661608 -0.13047406 0.1351932 -0.45516837 0.6239646 -0.61210835 -1.0597558 -0.40715256
121 -1.0072463 0.041098963 0.21366055 0.41459465 0.871485 0.18370488 1.0136963 0.1705684 -0.33818415 -0.12346306 0.5106702 -0.08102707 0.45336214 -0.17196435 -0.7357344 -0.2317141
419 -0.14529027 0.40519863 0.58933693 0.3784435 0.9273259 0.6727141 1.0550997 -0.3091345 0.594381 -0.4666539 -0.54548824 -0.52900153 -0.4556959 -0.68544453 0.51279116 0.03231639
367 -0.32906505 -0.19411108 0.3228945 0.39127454 0.44860137 0.3333829 0.76732874 0.1183762 -0.14219844 0.0018043495 0.010333355 -0.17549255 -0.092063025 -0.35393724 -0.46011382 -0.11511045
47 0.014037362 -0.25673896 0.7456518 0.54182446 0.017460432 0.38149595 0.7231756 -0.38774142 -0.042279378 -0.036153134 -0.62882537 -0.3533479 0.11399234 -0.5363049 -0.54623276 -0.23977697
275 -0.020232225 0.06321113 0.21075968 0.46909234 0.32762417 0.1054886 1.0987769 0.6575823 0.43370616 -0.23310843 -0.24035062 -0.5443283 -0.48401457 -0.14308727 -0.13502082 -0.4075153
479 -0.61531204 0.093053766 0.58071166 0.9459283 0.62354887 0.4071233 0.815223 -0.20622875 -1.0800557 0.023394722 0.11554305 -0.43300292 -0.73065025 -0.16179194 0.2287728 0.057779573
309 -0.52275467 0.0040960237 0.25416481 0.8838087 0.78268623 0.3670478 0.98622984 0.032968443 -0.8917862 -0.24783751 0.3307409 -0.2712912 -0.46227884 0.10339248 -0.08536936 -0.08432259
150 0.43030876 -0.50709164 1.4137422 0.5924585 0.2362048 0.25122595 1.0162381 0.5097609 -0.7005302 -0.13320862 -0.74889016 -0.11671866 0.11561777 0.3395542 -0.5584112 0.76560813
406 0.44586608 -0.1975787 0.6773935 1.0443245 0.6107178 0.70870906 0.75861573 0.15777364 0.91454595 -0.64976907 -1.1403284 -0.5311997 0.049665272 -0.6729277 0.05370044 0.08626242
200 -0.22768573 -0.24929993 0.32917333 0.59267855 0.26562798 0.30529937 0.7280226 -0.3223698 -0.03887058 -0.02788878 -0.07315172 -0.49990055 0.32225946 -0.429951 -0.7261204 -0.38828382
133 -0.1931608 -0.00026086555 0.13247435 0.15827043 0.47570387 0.3347033 1.1925514 -0.20233329 0.15396531 -0.35307643 -0.29407126 -0.22047527 -0.4247848 -0.82111627 0.15465806 -0.194714
378 0.034980696 -0.1123846 0.29432848 0.3953327 0.23943934 0.37238058 1.0268965 0.30076206 0.3578857 -0.0054907305 -0.27286562 -0.3884057 -0.3531689 -0.36314744 -0.039785054 -0.20340426
194 -0.37705752 -0.2382791 0.10826898 0.6170922 0.15459892 -0.07778146 1.1711755 0.12200591 -0.14375201 -0.020768546 0.39158994 -0.3869345 0.38769677 -0.6803289 -0.82700473 -0.4096876
153 -0.11204791 -0.309487 0.8213517 0.6955102 0.3313238 -0.20402932 0.80697256 0.3171056 -0.009940575 -0.5660526 -0.7152858 -0.41541398 0.34351107 0.21311349 -0.71771145 0.28009376
257 0.10373953 -0.017067822 0.29378754 0.41049415 0.29080495 -0.07636289 1.3407329 0.81119245 -0.13169752 0.36251584 0.19757771 -0.28454086 -0.41752008 -0.15945143 -0.21563287 -0.12246475
612 -0.21457982 0.11462697 0.2725959 0.4374552 0.28591868 0.6270808 0.90241313 -0.11195685 -0.03447718 0.011405668 -0.14732277 -0.04396318 -0.49600106 -0.52923113 -0.07548526 -0.12825224
331 0.0029320377 -0.46890095 0.3486537 0.43139318 0.33804578 0.10631834 1.0175225 0.15956853 -0.516431 0.28053167 -0.0058246357 -0.024098998 0.18447465 -0.27381906 -0.42259935 0.01239915
407 0.39220047 -0.3670859 0.6845412 1.0601529 0.6804235 0.2947585 0.5543598 0.21628699 0.37249303 -0.62622607 -0.97456 -0.40884843 0.28531337 -0.58958 -0.09621273 0.19095764
382 0.26542014 -0.30209017 0.76275414 0.8444533 0.31371275 0.07155315 0.6975155 0.16142952 0.11017612 -0.48184735 -0.69909376 -0.3869684 0.42828494 -0.32106435 -0.36471334 0.25286093
347 0.07926674 -0.054892007 0.15291193 0.60579824 0.40842667 -0.2655608 1.3639039 0.74889183 0.33168134 -0.17755392 -0.31279123 -0.4862971 -0.45439622 -0.03179848 0.11044337 -0.23844223
468 -0.04544921 -0.09455166 0.3530297 0.42862076 0.5320719 -0.025847048 0.80964494 0.2716967 -0.201617 -0.120517634 -0.04398479 -0.42263687 0.30682567 -0.39205533 -0.2991293 0.08844134
481 -0.34480017 -0.08488895 0.5153718 0.5816591 0.4754359 0.6852702 1.0461295 0.14863674 -0.7260175 0.21686327 0.1599115 -0.20681293 -0.8731406 -0.25687486 0.32710776 0.23732187
432 -0.23794629 -0.20641686 1.0035232 0.5640339 0.24287638 0.9302293 0.80991286 -0.29829234 -0.2196511 0.44092566 -0.48921442 0.035210602 -0.4768166 -0.18782572 -0.081924774 0.2909646
149 0.31844392 -0.53170174 1.2387938 0.47859815 0.42008656 0.09971608 1.0397948 0.49649075 -0.78752273 -0.17379959 -0.5584794 0.03921223 0.22851518 0.22555342 -0.419265 0.7021217
458 0.21458976 -0.025428554 0.51786745 0.40713698 0.26298684 0.3104884 0.93868846 0.66265 0.09931545 -0.0801593 -0.23175585 -0.10729971 -0.2144616 -0.21953414 -0.11553747 -0.05074183
240 0.12896655 -0.03843 0.34672222 0.36918062 0.07951266 0.2813648 1.0434808 0.6136296 -0.0168695 0.16513255 -0.11108164 -0.32510418 -0.5170656 -0.32583666 -0.037577238 -0.09273619
130 -0.44244918 -0.025551356 -0.16970962 0.5232499 0.46258375 -0.10655819 1.2236441 0.12915365 0.14201032 -0.1495812 0.1408855 -0.7198319 0.6379527 -0.71876836 -0.8793415 -0.40547726
334 0.07262142 0.19418882 0.24910788 0.22733018 0.5863082 0.16269295 1.1525394 0.7027692 0.19889802 -0.080576956 -0.3596525 -0.1515855 -0.39274088 -0.81832933 0.23612879 0.06559693
227 0.1362121 -0.1519052 0.46663293 0.65572906 0.28379372 0.41030455 0.83062613 -0.02148532 0.5296371 -0.2848112 -0.59673756 -0.40863442 -0.09519376 -0.46349663 0.030175272 0.092561014
434 0.18655491 -0.25036702 0.669099 0.6853359 0.4036974 0.27106342 0.68810385 0.39974323 -0.11088039 -0.28690788 -0.5586248 -0.2492181 0.23082623 0.010118978 -0.22849998 0.32326287
554 0.06252233 0.15694457 0.31766158 0.51482433 0.37118137 0.32171163 0.97336805 0.35538614 -0.18120475 -0.023036161 -0.1450329 -0.3030772 -0.35755855 -0.5472923 0.23865059 -0.047334164
590 0.011629129 -0.15591094 0.46981937 0.5264736 0.45554227 -0.10505874 0.92176473 0.6967502 -0.3144255 -0.2935366 -0.2885529 -0.43508366 -0.08542596 0.15587334 -0.19289628 0.12617223
290 -0.41020587 -0.48113164 0.14150351 0.37112617 0.61839855 0.23228388 1.025592 0.2884022 -0.23934749 -0.025013845 0.5069873 0.18660241 0.34271935 -0.3905948 -0.80472165 -0.05353766
213 -0.32729524 -0.3737328 0.2318465 0.41797647 0.2848666 0.03822246 1.2099147 -0.20847116 0.054123774 -0.15605181 0.22616558 -0.39403784 0.48233122 -0.670815 -0.7741633 -0.40510675
598 0.0005121041 0.19896469 0.09867523 0.18026626 0.20944573 0.116356865 1.1302835 0.68823427 0.15785241 -0.114148065 -0.18329336 -0.40225583 -0.20527178 -0.50304127 -0.0888465 -0.36769137
312 0.33154634 -0.12869388 0.3870993 0.3684999 0.99080694 0.5769674 0.8940235 0.16390549 -0.09693496 0.10025761 -0.32390735 -0.29498085 0.33987436 -0.4697947 0.1490469 0.6312903
203 -0.1648113 -0.16872615 0.70074755 0.4650801 -0.101633176 0.5125445 0.7510012 -0.28277764 -0.03231094 0.021983365 -0.23305777 -0.2173096 0.012620932 -0.2255336 -0.6077897 -0.09215412
274 -0.28366217 -0.14929134 -0.028743593 0.6481937 0.44526395 0.06871851 0.9589691 -0.019058207 0.119138174 -0.051008813 0.024674058 -0.50996256 0.43392435 -0.6874245 -0.7909457 -0.36646274
484 0.017806936 -0.007975761 0.7628863 0.26188004 0.45983794 0.63775134 1.0049877 0.17461693 -0.24424528 0.19488376 -0.21499224 -0.10504744 -0.93811405 -0.49203792 0.3297815 0.13068783
340 0.21506618 0.019641764 0.35786426 0.59080344 0.36518016 0.41024658 0.8950611 0.27009043 0.53065157 -0.27649197 -0.6569574 -0.31834164 -0.053986017 -0.7611578 0.14913358 0.03802966
230 0.08877409 -0.042805206 0.29075333 0.26626754 0.15018794 0.047931347 1.2805463 0.85106015 -0.0007731405 0.080251195 0.075133875 -0.43094298 -0.62255776 -0.2895018 0.08248267 -0.14836058
164 -0.6164184 0.29657677 0.24615687 0.6586135 0.5506652 0.38014796 0.74827296 0.19122301 0.06956103 -0.2850664 0.14768133 -0.2562701 0.3017084 -0.14786814 -0.6115194 -0.3228535
271 -0.23788069 0.08589651 0.4641041 0.8041482 0.40045673 0.14760458 0.6369004 0.12272086 0.13653645 -0.15111914 -0.32148716 -0.4102675 0.09443654 -0.27864826 -0.13417238 -0.060132734
118 -0.5004027 0.23266178 0.11585093 0.41790062 0.5388766 0.061450478 1.0472144 0.065366685 0.26081175 -0.298225 0.019558566 -0.28799888 0.25962988 -0.29760557 -0.33279237 -0.50492185
337 0.14917122 -0.21475683 0.5582527 0.6313126 0.5552707 0.063413456 0.809426 -0.017117064 0.0026449638 -0.37534544 -0.57661015 -0.22412768 0.0037070897 -0.45272705 -0.091421425 0.37146553
192 -0.6474835 -0.13453764 0.7546366 0.284933 0.48371544 0.86765677 0.7702606 -0.38813716 -0.40895438 0.3843842 0.064601384 0.124620475 -0.08332342 -0.10551135 -0.50822616 0.07003866
415 0.12219752 -0.22525787 0.78568876 0.34070882 0.30055836 0.5668414 0.89593136 0.24785787 -0.04264944 0.12723768 -0.34006634 -0.068430305 -0.35751626 -0.22739743 -0.0068604033 0.13373137
187 -0.2733095 0.039862245 0.56584 0.5054534 0.4136618 0.39983022 0.6995517 -0.017000321 0.094902165 -0.28581417 -0.41480336 -0.40393138 0.4077267 -0.03559615 -0.507654 -0.13449153
475 -0.15809397 -0.022020658 0.7502611 0.24771418 0.56465435 0.6890354 1.0158923 -0.07236127 -0.21381044 0.13336083 -0.35461554 -0.16334328 -0.85826147 -0.37937522 0.37946615 0.009935513
470 -0.25708768 -0.25553745 0.6620194 0.482117 0.39180475 0.54934955 0.7845879 0.12084845 -0.4263685 0.40320393 0.010945739 0.035695225 -0.26843736 -0.23221807 -0.10126001 0.11742842
836 -0.18285339 -0.19783382 0.5042667 0.3987235 0.5063957 0.37647122 0.78786546 0.28212553 -0.3591624 0.12138622 -0.014235131 -0.02046019 -0.06710006 -0.3029997 -0.10212948 0.039986663
480 -0.33320272 -0.09075305 0.7593561 0.50428456 0.41563302 0.85390264 0.8557069 -0.10105759 -0.4153466 0.22894527 -0.33943403 -0.1303174 -0.78206664 -0.2564517 0.24127568 0.21798185
410 0.25127777 -0.2868709 1.0224969 0.65681523 0.5405482 0.16573378 0.7548336 0.4084727 -0.22827981 -0.44813916 -0.7292878 -0.2710938 0.20878018 0.077995725 -0.14224736 0.49295032
222 -0.54044116 0.09860646 -0.080840535 0.7763184 0.46205643 0.044383876 1.1579815 0.08626072 0.20105669 -0.23168433 0.09733722 -0.7561104 0.75844616 -0.7268927 -0.8409174 -0.370089
219 -0.605068 0.11206334 -0.017302537 0.65037143 0.49811342 0.055108055 1.009878 0.08187237 0.03009756 -0.18136626 0.17020445 -0.60107756 0.52047193 -0.5352823 -0.802958 -0.46168545
201 -0.29763755 -0.32276824 0.13545434 0.36287507 0.16774485 -0.045552053 1.1692039 0.12485678 -0.10001909 -0.034887187 0.29584274 -0.275536 0.2802361 -0.64240426 -0.85157603 -0.36457342
477 -0.30380666 -0.117762506 0.7843083 0.31491208 0.55697834 0.96084595 1.0117303 0.012341502 -0.30979675 0.30968842 -0.3200181 -0.09684106 -1.0315892 -0.27233037 0.401293 0.072985455
486 -0.065669104 0.16717586 0.5442291 0.35381186 0.47358122 0.67877835 1.0172483 0.061440438 0.08782376 0.07883411 -0.34039035 -0.314663 -0.688299 -0.46785992 0.4512722 0.13791879
231 0.09727495 0.20368819 0.15758955 0.23321702 0.25841424 0.03411114 1.378255 1.0613295 0.14536804 0.032456227 -0.15311007 -0.54139745 -0.6514589 -0.6392486 0.011104191 -0.36892626
314 0.091604516 -0.088178106 0.526339 0.5804125 0.62371016 0.46672943 0.6154642 0.26517174 -0.20436484 0.036992863 -0.13410018 -0.24609232 0.18205835 -0.21555462 -0.09490538 0.31027335
549 -0.15918505 -0.012894956 0.38655695 0.45781457 0.39126682 0.15479523 0.85380876 0.19300304 -0.27740502 0.005252403 0.05309038 -0.26067424 -0.03939258 -0.33864003 -0.28161082 -0.04148491
132 -0.28731012 -0.022727385 0.7126112 0.80011684 0.21758069 -0.103122 0.90745854 0.59701335 -0.74752706 0.35314712 0.12384679 -0.28168935 -0.08864821 -0.12875511 0.29026827 0.1881366
108 -0.6772791 -0.22534454 0.008534381 0.3050801 0.73436964 0.18510698 1.2788608 0.6323081 -0.14640343 0.0210655 0.3895426 -0.115381084 0.16171639 -0.26994795 -0.7081367 -0.50256675
242 0.25997305 -0.120619185 0.52325 0.37023968 -0.041187376 0.3816847 1.1866847 0.33753347 0.109313704 0.2129213 -0.011574697 0.05523521 -0.47997332 -0.24398042 -0.108307704 0.11950416
228 0.17177267 0.03938704 0.45202938 0.6644981 0.24934596 0.52925056 0.79341483 0.2466702 0.4962178 -0.14707993 -0.568904 -0.44012636 -0.20239216 -0.4123281 0.005220688 -0.054361295
504 0.1147534 -0.21794733 0.8506698 0.65905434 0.3864868 0.15841672 0.6770405 0.39675772 -0.19443186 -0.363245 -0.7062507 -0.28802225 0.06650082 -0.040366713 -0.19212252 0.45627162
447 0.043240737 -0.07793647 0.5623841 0.28557235 0.34175867 0.45384067 1.0586696 0.036863845 0.12778626 -0.020393586 -0.29611456 -0.32488328 -0.7281078 -0.39419797 0.33858004 -0.10904467
98 -0.17993563 0.09361796 0.22826095 0.36896753 0.18738817 0.28837368 0.7655832 0.26259872 -0.047462843 -0.0183877 -0.0914778 -0.11729532 0.08475619 -0.2970011 -0.27807552 -0.09354707
239 -0.045088273 -0.16752857 0.41758773 0.48845392 0.4042756 -0.1311775 0.90090996 0.6784306 -0.23582043 -0.2084876 -0.09223315 -0.32949126 -0.0384812 -0.02205982 -0.36697415 0.17826591
296 -0.4512784 -0.20838647 0.1977688 0.3196779 0.6494472 0.41418472 1.0461565 0.5406609 -0.20319793 0.04395587 0.2916989 0.013469615 0.052154224 -0.20940563 -0.6800339 -0.5645278
266 0.16601269 0.43066785 0.08268287 0.24675077 0.2646857 0.42779693 1.3149054 0.9269548 0.33226115 -0.030252595 -0.36569846 -0.4616312 -0.5961214 -0.8940736 0.004680379 -0.42732513
451 0.11238868 -0.25533882 0.51092243 0.39614508 0.26359475 0.30521992 1.0296323 0.31804687 0.35799304 0.001699601 -0.071192496 -0.28438312 -0.23963927 -0.17908445 -0.10847592 -0.2643483
658 0.252068 -0.18545333 0.57300353 0.30295864 0.15966102 0.48835132 1.0394222 0.47199413 0.2904272 0.09925546 -0.043388184 0.007821876 -0.08596344 -0.56737596 -0.1384207 -0.14855057
464 -0.22326024 0.12604612 0.0929314 0.34056565 0.41220608 0.06847468 1.1662279 0.3240271 0.10113569 -0.2991578 -0.0816038 -0.24267612 -0.12674884 -0.38163334 -0.04577281 -0.35451493
279 -0.1302653 0.10502738 0.28716046 0.43879378 0.2817943 0.2893175 0.8574661 0.27119228 0.31984022 -0.23216745 -0.27509964 -0.48102936 -0.13646778 -0.2436233 -0.17325512 -0.28080487
501 -0.105970465 -0.15128948 0.46510604 0.4990906 0.31107107 0.3800002 0.7731757 0.14965488 -0.15647516 -0.013609677 -0.18699528 -0.14996989 -0.12781806 -0.23992562 -0.1262427 -0.07956251
311 0.3274021 -0.18062139 0.3318296 0.44405085 0.7452684 0.5920164 0.85363966 0.12071255 0.17311019 -0.12987824 -0.47238794 -0.39256188 0.2691749 -0.62305474 0.1652522 0.50503033
273 -0.26931727 0.14527932 0.43388078 0.60080653 0.43046433 0.39882243 0.66473037 0.05619898 0.25010926 -0.29500696 -0.32438686 -0.3962772 0.12410457 -0.16463202 -0.42876962 -0.11046065
306 -0.19933736 -0.079279475 0.18797027 0.30136955 0.26375708 0.17111257 1.0186989 0.47493234 -0.18796286 0.07896033 0.13602407 -0.20443423 -0.22410397 -0.23971896 -0.4198798 -0.02268685
320 -0.34269264 -0.32304397 0.40639547 0.2259004 0.27659178 -0.12264615 1.0208863 -0.07292756 -0.2872212 -0.087482445 0.27447248 -0.07094758 0.4394101 -0.59800416 -0.8873844 -0.4255298
248 -0.13681476 -0.112177856 0.7499965 0.41368157 0.23622659 0.73228455 0.662996 -0.11480327 -0.11515513 0.27510238 -0.27905008 -0.10076664 -0.31666842 -0.29214233 -0.28613234 0.055321928
422 -0.21236913 0.31345224 0.35200095 0.52477807 0.697237 0.37230104 1.1070528 -0.18851537 0.29970178 -0.5853295 -0.47739378 -0.41144705 -0.36742416 -0.42638633 0.38658953 -0.034366302
467 -0.07019894 -0.16913137 0.3499448 0.4161975 0.26590165 0.18518777 0.9818867 -0.052419946 0.3537803 -0.2676128 -0.46007675 -0.3586516 -0.05360861 -0.51257306 -0.2345021 -0.23707218
218 -0.34582725 -0.1403248 0.19597083 0.5976277 0.4083376 0.0059027593 0.9519756 0.017285207 0.05432163 -0.070153765 0.2421376 -0.2575646 0.37868515 -0.62636644 -0.5064068 -0.29967377
53 0.030657783 -0.35861367 1.1794636 0.42408592 0.17977461 0.5943105 0.852697 0.20934895 -0.59281397 0.17519341 -0.5331063 -0.07524397 -0.082493514 0.13054349 -0.3380097 0.42650306
377 0.24470046 -0.13046958 0.5049817 0.29302767 0.14819951 0.56753296 1.1236036 0.5174899 0.17631277 0.15382689 -0.22148032 -0.20849374 -0.64429075 -0.3768255 0.096796595 -0.060875356
321 -0.20973133 -0.45503116 0.21904159 0.3504845 0.18341883 0.013233181 1.0189656 0.050124276 -0.16300218 -0.03857045 0.28247705 -0.2899595 0.27672976 -0.66360015 -0.70835966 -0.32424384
389 0.12021648 -0.20601296 0.83314115 0.7237039 0.4118288 0.20117845 0.72540456 0.17845772 -0.08429157 -0.3615625 -0.62319857 -0.23567532 0.07107911 -0.012943777 -0.14255127 0.43326822
206 -0.4410207 -0.11465862 0.30865857 0.47221723 0.36591086 0.32504493 0.82630235 -0.19092607 -0.11473552 -0.030375121 0.06388465 -0.31103185 0.32002753 -0.4552315 -0.6583166 -0.21554074
315 0.31341243 -0.11053235 0.49534962 0.28618687 0.7328016 0.23003621 0.97288704 0.21187294 -0.3547314 0.10357428 -0.23827994 -0.40157264 0.26052296 -0.36683476 0.029739201 0.41322285
165 -0.7512969 0.043771364 0.095156275 0.61899865 0.76114357 0.172266 0.8310694 0.29294673 -0.17056575 -0.09918024 0.2583438 -0.35032412 0.37934166 -0.19680505 -0.61686146 -0.33456707
352 -0.041794717 -0.16666932 0.14457442 0.37608382 0.18870829 -0.017807957 1.1377085 0.4648419 0.294939 -0.09801514 -0.2213489 -0.466583 -0.16122286 -0.19353494 -0.3016987 -0.31587207
181 -0.6177504 0.10503557 0.20315483 0.64847535 0.89348567 0.09863185 0.9656192 0.20019267 -0.22669694 -0.11331865 0.5579969 -0.37458402 0.60579354 -0.43564305 -0.63083935 -0.31223515
500 -0.32774594 -0.25893041 0.990894 0.4607772 0.46284267 0.9836229 0.8582294 -0.08782162 -0.597256 0.48755306 -0.19840068 0.11391001 -0.59897155 -0.09038844 0.009806529 0.2611951
383 0.3158657 -0.38999122 0.70907587 0.8228545 0.5228898 0.17234527 0.71134996 0.14079295 0.15266694 -0.47475123 -0.8554209 -0.4640256 0.23821615 -0.37428233 -0.121416025 0.3106968
757 -0.24114262 0.01873496 0.8091212 0.5258766 0.32931617 0.41721418 0.77739775 0.11436827 -0.3613618 0.22477597 -0.09486861 -0.06701549 -0.43020365 -0.23405501 0.20620961 0.12184521
450 0.45652148 -0.49444205 0.67663914 0.4073731 -0.07099065 0.45684952 1.2462677 0.07464749 0.64506596 0.16729903 -0.120098755 -0.3198415 -0.3150294 -0.48214257 0.006954311 -0.19266355
466 -0.05122913 -0.11704513 0.69181865 0.4678289 0.22492032 0.23499839 0.76985836 0.20799391 -0.14462972 -0.03797576 -0.34697208 -0.27336717 0.038274087 -0.12425749 -0.46129444 0.04958343
102 -0.115727045 0.27634996 0.5777491 0.6741418 0.30693173 -0.30935338 0.936729 0.69379973 -0.31637707 0.38490206 -0.10999639 -0.23737046 -0.11473713 -0.10419922 -0.3517553 0.07247129
418 0.09340692 0.058685355 0.5819009 0.30695504 0.30956686 0.47410235 0.91327006 0.11984595 0.20704846 0.024479434 -0.41132426 -0.14838849 -0.43964562 -0.4577866 0.12080371 -0.044722613
518 -0.2796736 0.11460192 0.09761506 0.5465906 0.3099075 0.23146166 0.8692155 0.056429695 0.11284674 -0.21845841 -0.088971935 -0.4037414 0.09984012 -0.38997954 -0.35262236 -0.24902737
191 -0.14838232 0.08121273 0.35061595 0.45814306 0.43881392 0.27877247 0.9606275 0.010898173 0.21409926 -0.14249383 -0.4021184 -0.23168525 0.031732596 -0.19817592 -0.14425676 -0.29648232
96 -0.21214096 0.091064245 0.24221493 0.33519202 0.2576573 0.24329954 0.86948305 0.3045881 0.09666062 -0.07367436 -0.12421035 -0.14631069 -0.031670276 -0.3858384 -0.25237575 -0.2232182
350 0.017091151 -0.2649527 0.254823 0.5558012 0.33993554 -0.12014152 1.1069266 0.64931136 0.25015646 -0.2637971 -0.31474543 -0.3978032 -0.27995005 -0.0030443927 0.05558149 -0.07964017
260 0.16098212 0.19794089 0.54097384 0.41745222 0.14269258 0.54674095 0.8841463 0.2731577 0.29388937 0.029443542 -0.43512404 -0.22055581 -0.4789831 -0.49854162 -0.072688274 -0.036045708
188 -0.4029153 0.10484876 0.37312418 0.4694641 0.44659945 0.5028682 0.7745828 0.035097674 0.31317744 -0.26220524 -0.27054918 -0.34117556 0.1160979 -0.12321816 -0.44054827 -0.3090429
408 0.4049448 -0.12855586 0.63522655 1.020977 0.5786159 0.53929496 0.6520344 0.19724627 0.6190906 -0.5417422 -0.91643804 -0.39827558 0.07025697 -0.608268 0.013269765 0.15730512
724 0.05601352 -0.21347035 0.72200054 0.7261064 0.45526904 0.09961789 0.72042924 0.31027716 -0.13604146 -0.33684757 -0.48829192 -0.25598428 0.0708779 -0.07861529 -0.18385518 0.28505242
251 -0.12162948 -0.12784126 0.23650761 0.5256236 0.26639503 0.1740616 0.8719983 -0.11365133 0.16843377 -0.21226113 -0.09498527 -0.34369978 0.29636365 -0.6533875 -0.5992123 -0.18711662
345 -0.15045133 -0.066163614 0.10845457 0.53106385 0.21656261 -0.1767335 1.305183 0.578614 0.33365437 -0.13174939 -0.2530992 -0.5563493 -0.28826913 -0.07030293 0.047580846 -0.39289254
216 -0.41850752 -0.00029125644 0.061556723 0.7187945 0.45057797 0.022863558 1.0706842 0.038168125 0.043934546 -0.29814303 0.26523447 -0.56258 0.64574474 -0.69909585 -0.67489743 -0.42298162
512 -0.38509515 -0.14179772 0.41702053 0.48354533 0.4032559 0.6215413 0.7364952 -0.15235834 -0.291745 0.2772979 0.07607948 -0.036998764 -0.15848899 -0.39081517 -0.31216398 0.053869147
207 -0.3195076 -0.1852468 0.070007056 0.7427528 0.38561854 -0.03717662 1.1339977 -0.08727283 0.019984812 -0.24362606 0.2985721 -0.49644288 0.613405 -0.74553573 -0.69771457 -0.40265504
362 -0.079185866 -0.014348595 0.78936106 0.4807952 0.36326405 0.82344925 0.746181 -0.19952118 0.1443103 0.070976585 -0.6280509 -0.09334563 -0.3336375 -0.3330149 0.03981008 0.23810376
344 -0.19725704 -0.1476935 0.15307474 0.32252783 0.37545878 0.020920174 1.1239821 0.30307034 0.06268736 0.020606093 0.1965166 -0.2680873 0.18305896 -0.44989505 -0.60768175 -0.24334133
245 0.102972485 -0.13456452 0.63086975 0.41603717 0.16740519 0.5570489 0.86868984 0.123894535 0.29509088 0.0045551234 -0.5616469 -0.11433162 -0.3884 -0.20587993 -0.116651155 -0.038586702
269 -0.1528638 -0.03810964 0.47308642 0.46066272 0.12908253 0.3769756 0.8404515 -0.020208022 0.048011743 0.040837858 -0.15369305 -0.25623202 -0.10229141 -0.29017136 -0.31074768 -0.17468524
498 -0.4441493 -0.22022356 1.0021502 0.53363323 0.32107094 1.0970652 0.9810133 -0.34636885 -0.60399467 0.6521784 -0.06932565 0.18330804 -0.51386267 -0.17196512 -0.23155522 0.10415568
110 -0.55340165 -0.07623246 0.12565516 0.42551434 0.44536805 0.3296996 0.8963203 0.1046191 -0.039811753 -0.14557885 0.19628549 -0.12001311 0.29458356 -0.31342226 -0.66468185 -0.27066925
391 -0.064311735 -0.012674994 0.3074934 0.3562762 0.3559534 0.4395348 0.9708514 0.36809152 0.18832037 -0.024087911 -0.10496172 -0.11662945 -0.075021334 -0.25113338 -0.17554852 -0.15236388
214 -0.279839 -0.20133413 0.15239331 0.50306135 0.2754247 0.058054402 1.0830556 -0.03767594 -0.036728922 -0.08358446 0.28858665 -0.4583339 0.35586858 -0.67828965 -0.7069468 -0.30638668
124 -0.50331694 -0.15687235 0.30171332 0.36365908 0.26678678 0.24957348 0.92914474 -0.058226835 -0.19771561 -0.026501568 0.13963793 -0.16183841 0.27482522 -0.3018757 -0.6437199 -0.26747927
395 -0.12271804 0.14971489 0.55568117 0.5463834 0.2734906 0.37900576 0.8024745 0.24331415 -0.055952232 0.08285936 -0.16736865 -0.23130754 0.056259584 -0.06653806 -0.11179206 0.08887558
208 -0.44131657 0.030963857 -0.012594524 0.6336594 0.38023496 0.11195217 1.0176075 0.08065393 0.1669419 -0.16727498 0.0456745 -0.59936804 0.525419 -0.6433274 -0.7071517 -0.39234143
368 0.1315639 -0.14991984 0.5317166 0.3672915 0.11453647 0.48527592 1.0003148 0.13484964 0.07451764 0.09750733 -0.2929112 -0.19877115 -0.31344265 -0.26314503 -0.10707133 0.038888544
305 -0.14122862 -0.12641591 0.23251669 0.41102827 0.24992819 0.032136552 1.1327214 0.5506377 -0.084638886 0.10114612 0.31464148 -0.39214152 0.06179919 -0.4280275 -0.45308992 -0.4022897
543 0.17131008 -0.24269864 0.56055284 0.55801183 0.43660322 0.2031885 0.7574609 0.128879 -0.034493804 -0.39081457 -0.46288753 -0.32818997 0.15178503 -0.37845373 -0.19747661 0.18056478
223 -0.39424425 -0.21149312 0.48887172 0.25998935 0.47656038 0.28385758 0.8176853 -0.018101148 -0.3478785 -0.008754589 0.11079821 0.08897309 0.05937713 -0.1998149 -0.5308332 0.051325668
160 -0.46879622 0.111893885 0.26112565 0.36517274 0.3505493 0.24195226 0.78697133 0.14303572 0.06701553 -0.13479388 -0.07223871 -0.27329192 0.013495069 -0.047805775 -0.23477936 -0.1056028
48 0.042941593 -0.24675184 0.63166493 0.33373353 0.21727791 0.5245665 0.8262673 0.25518367 0.03713894 0.059992254 -0.29543528 -0.12861833 -0.093334004 -0.17867032 -0.2611729 -0.07157549
244 -0.045406796 -0.22080079 0.4373188 0.44539392 0.1890465 0.48820904 0.9765998 0.2327927 -0.16978672 0.24986833 0.0094721615 0.057172135 -0.45618063 -0.19622064 -0.05474679 0.07313692
322 -0.31286973 -0.29265672 0.37509128 0.51295847 0.1880203 0.11730858 0.8457302 -0.06058582 -0.079251125 -0.06604325 0.09431488 -0.24068074 0.31544784 -0.44133386 -0.66199386 -0.34538502
338 0.1800019 -0.10798291 0.5413724 0.48682755 0.23136003 0.30233994 1.0558308 0.30808994 0.28858057 -0.040903013 -0.32144165 -0.31834498 -0.2960009 -0.3733058 0.20100893 -0.034649435
184 -0.34114245 0.08964394 0.12429096 0.5825016 0.36200532 0.22393902 0.8285079 -0.053729042 0.2828403 -0.27185237 -0.3940258 -0.42555 0.1441563 -0.40520054 -0.46252897 -0.293808
401 -0.35760838 0.072707325 -0.06115306 0.6226662 0.48524463 0.038810987 1.0273329 0.07409552 0.074774995 -0.17142595 0.045868523 -0.6415851 0.55497026 -0.6503231 -0.74234766 -0.33280087
298 0.008907717 -0.0051985085 0.4857523 0.59688675 0.16808346 0.30658144 0.8495215 0.22191285 0.25373667 -0.23316737 -0.54032516 -0.47411674 -0.26451382 -0.10324599 0.09464224 0.01658139
671 -0.18877417 -0.2781485 0.35578325 0.47857726 0.6209843 0.2240243 0.768397 0.2336785 -0.20576115 -0.012688619 0.061970484 -0.06968519 0.24134563 -0.35843885 -0.51756674 -0.0010285767
234 0.0048793005 0.04043474 0.08022463 0.280754 0.3256424 0.2556754 1.2490474 0.36095995 0.18801701 -0.2203507 -0.12797242 -0.281132 -0.46613693 -0.5803419 0.021760328 -0.23648721
433 -0.07326366 -0.23585199 0.48335904 0.4378642 0.33178264 0.24636918 0.7814869 -0.101740755 -0.1360048 -0.11099132 -0.35577807 -0.19369209 0.14505213 -0.43789586 -0.37665212 0.12733953
489 -0.45340395 -0.19612701 0.42853492 0.43490803 0.5464519 0.23381738 0.762919 0.08735625 -0.20822741 -0.034725394 0.1390732 -0.20210688 0.18154126 -0.26410276 -0.51003915 -0.07635054
250 0.06224774 -0.1446053 0.4758445 0.5189665 0.1548135 0.49731487 0.78120136 -0.012723771 0.14364487 -0.018379655 -0.4046552 -0.20083873 -0.27421618 -0.3055298 -0.16277865 -0.07378558
202 -0.09482027 -0.2604849 0.29621828 0.4841261 0.07344788 0.21049993 0.976026 -0.2452162 0.0003049157 -0.100312896 0.015863523 -0.45170826 0.3264033 -0.6815337 -0.7367962 -0.30493757
507 -0.064621374 -0.29077986 0.9386277 0.3363284 0.48737997 0.5139549 0.75808287 0.20488977 -0.48268992 0.19519472 -0.24699126 -0.15366744 -0.25930527 0.0009545353 -0.1864901 0.35759395
264 -0.15073344 0.13721834 0.46456265 0.50289017 0.37771258 0.46389094 0.6998578 0.0045353407 0.30710074 -0.2082848 -0.31379047 -0.37497392 -0.193547 -0.23702228 -0.15860938 -0.21095067
349 -0.09754486 -0.09221174 0.68488085 0.5171274 0.34772226 0.44719365 0.7956743 0.0762057 -0.022992484 -0.010510132 -0.45913213 -0.1848201 -0.4311374 -0.06885238 0.05983418 0.17770508
441 -0.43618503 -0.06287949 0.14071551 0.5130164 0.40334868 0.098380424 0.92708814 -0.010571735 -0.056462698 -0.1956976 0.13302198 -0.30066088 0.4350318 -0.58802414 -0.6547358 -0.29666135
163 -0.7159996 -0.15278345 0.21816659 0.32512203 0.7858433 0.2457451 0.9335631 0.24608694 -0.3055861 -0.1052123 0.41776225 -0.06240052 0.30491686 -0.15080483 -0.56608653 -0.21750246
592 -0.32895163 0.08336266 0.018874068 0.7383576 0.42471698 0.003136897 0.9945274 0.12537798 0.187687 -0.24288593 -0.044960797 -0.6510126 0.6170097 -0.6776316 -0.63914925 -0.36448023
300 0.17494324 -0.24479352 0.97503966 0.5401396 0.3528609 0.114598 0.82182354 0.2990773 -0.5523284 -0.13329056 -0.3380478 0.0016912841 -0.019902103 0.13346685 -0.26626647 0.37506613
793 -0.082117975 -0.30363154 0.52888757 0.42061624 0.42126766 -0.08136975 0.8501267 0.14038904 -0.29738525 -0.08397207 -0.08098474 -0.4715021 0.4126346 -0.3900333 -0.5490298 0.02065333
765 -0.015627388 -0.09720796 0.7543702 0.45822757 0.5122906 0.3458879 0.7461028 0.0635066 -0.34644097 -0.0060132 -0.26585364 -0.20990932 0.01949402 -0.09963752 -0.09405808 0.2011344
523 0.050332244 -0.079903126 0.71964717 0.5280599 0.3402276 0.47859347 0.8476798 0.06926025 -0.123437 0.07003468 -0.3934919 -0.09411744 -0.4174595 -0.12924577 0.038757358 0.22644712
144 0.12860234 -0.34262764 0.7324158 0.31247595 0.30078244 0.00031267147 0.69889444 0.2904912 -0.2826443 -0.12461454 -0.3391448 -0.19850336 0.15733771 -0.035331033 -0.27266988 0.36578336
476 -0.30451655 -0.1955176 1.1928567 0.4561163 0.2855617 0.92040426 0.9136374 0.056362133 -0.55343163 0.38857883 -0.15973067 0.09363021 -0.7505048 0.00196354 0.08545686 0.35109743
381 0.084730715 -0.25051817 0.70274687 0.6552566 0.4569232 0.06797743 0.75644624 0.29648986 -0.09584494 -0.38720652 -0.63185453 -0.3381954 0.24157226 -0.10695614 -0.31586123 0.2976868
370 -0.08586655 0.1913265 0.4993484 0.55145335 0.19818991 -0.046201915 0.950104 0.54590195 -0.33201337 0.30120033 -0.04266379 -0.2546165 -0.12046907 -0.20945594 -0.22023275 0.078174844
968 0.109123364 0.20356217 0.26887238 0.37890765 0.37878355 0.3795102 0.91644245 0.33217746 0.3000393 -0.33011517 -0.45677048 -0.29650933 -0.37442815 -0.64886105 -0.056935783 -0.1623119
348 0.14042723 -0.17257926 0.24432099 0.35410628 0.32732403 0.18004236 0.9891412 0.3264481 -0.05590074 0.071860865 -0.19095258 -0.39736292 0.09718506 -0.37922835 -0.14808358 -0.040043265
603 -0.124043345 0.107488036 0.2852584 0.39252126 0.5360986 0.3186523 0.9847904 0.34256905 -0.0021710463 -0.09031978 -0.17348282 -0.23743825 -0.18769826 -0.29000026 0.04062178 -0.13435026
660 -0.14678064 -0.0990974 0.37706834 0.44596472 0.36091563 0.35125583 0.8960662 0.14488374 -0.11179127 0.043163627 -0.058121838 -0.19782838 -0.15593453 -0.22974746 -0.20129472 -0.13607514
824 -0.1888261 0.09644165 0.4333795 0.40404046 0.5413736 0.18206465 0.972707 0.027103202 0.12552983 -0.3798239 -0.37293538 -0.3381183 -0.29185104 -0.54565954 0.27330905 0.015045906
907 -0.1542406 -0.16007204 0.6720694 0.56494045 0.47470966 0.5742373 0.6426276 -0.047245014 -0.17308666 0.19013485 -0.31989592 -0.13969697 -0.031718727 -0.32811064 -0.07363953 0.24788961
572 -0.26585537 -0.030034313 0.42213702 0.41599178 0.16195773 0.32772392 0.8277083 -0.17675303 -0.23059286 0.04557034 -0.12923755 -0.24499412 -0.02621423 -0.28281277 -0.5440328 -0.18818264
561 -0.12050233 0.13027039 0.4601186 0.43457213 0.42616743 0.033985123 0.77362055 0.5412138 -0.16934745 -0.23286772 0.041112732 -0.19139381 0.23676944 -0.27323914 -0.12052932 0.032528393
280 -0.54420185 0.052467316 0.28267455 0.586685 0.59887433 0.25069144 0.6849488 0.22548519 -0.23886317 -0.10802758 0.12480077 -0.2852491 0.19812573 -0.14278585 -0.5167494 -0.16741239
33 -0.69692296 -0.039109036 0.15630081 0.46691412 0.6094962 0.27948236 0.9198983 0.21534814 -0.09533349 -0.0687581 0.32929853 -0.19116142 0.32975575 -0.1902179 -0.71411073 -0.39390558
403 0.060419835 0.12763825 0.27797362 0.53024536 0.3009984 0.39344943 0.89133424 0.20021245 0.44305366 -0.24152197 -0.54834074 -0.3029652 -0.23285171 -0.5794481 -0.03540702 -0.10378934
327 -0.3597432 0.19469517 0.06477854 0.6519049 0.5197114 0.07771078 0.9228968 0.15089716 0.05530379 -0.22967209 -0.029784689 -0.58085877 0.4740137 -0.45028716 -0.6135534 -0.32863697
935 0.16882226 -0.16071424 0.41268656 0.42136252 0.39158309 0.38671938 0.8706635 0.46705014 0.029845169 0.10349877 -0.14560612 -0.20939519 -0.07502639 -0.51493394 -0.104629874 -0.033787068
217 -0.2084623 -0.0628301 0.11157477 0.69390273 0.31829944 0.04590655 1.0391304 0.051552642 -0.05404226 -0.18846416 0.16196637 -0.51621073 0.4633041 -0.6428789 -0.6373765 -0.24894412
701 -0.0949471 -0.20461878 0.63158023 0.51510245 0.41768637 0.737522 0.7176925 -0.17123187 -0.20343363 0.29096153 -0.33185935 -0.11585151 -0.3720466 -0.33943048 -0.027835881 0.1750766
412 0.100449406 -0.27833453 0.7584317 0.49835563 0.3389459 0.11399068 0.722737 0.391323 0.059590597 -0.3726465 -0.53490204 -0.33332822 0.12521975 -0.07231348 -0.41121817 0.2852843
593 -0.3293295 0.02320776 0.10260393 0.46418607 0.41671714 0.08450196 0.9656267 0.06810437 0.13307528 -0.20046231 0.07027449 -0.59655565 0.42294067 -0.4347487 -0.83733034 -0.2674749
808 -0.16173296 0.04535401 0.4413153 0.48906928 0.45927885 0.47090152 0.85214984 0.059122864 0.2332898 -0.16709901 -0.29257488 -0.27138022 -0.35483238 -0.43914506 0.14941847 0.055056106
532 -0.41465414 -0.013998088 0.19998255 0.47943994 0.6624998 0.17478092 0.81435406 0.19613019 -0.10834987 -0.1730734 0.14138931 -0.26388755 0.14128134 -0.2926457 -0.5109172 -0.20614424
282 -0.21379054 -0.24314901 0.9173224 0.40237555 0.2650498 0.90821403 1.0174028 0.08466451 -0.47184306 0.50978214 -0.14792173 0.07212551 -0.7022074 -0.08660278 0.034693204 0.20687863
423 -0.027109323 -0.13378844 0.45653674 0.44818875 0.41439417 0.124385804 0.98763156 0.3239083 -0.09335581 -0.010631712 -0.042807236 -0.26628718 -0.26621374 -0.23841318 0.063122384 0.11260498
553 -0.20159447 -0.08796243 0.4174801 0.3923534 0.11073445 0.013195063 0.83321404 0.14930452 -0.12133467 -0.13240491 -0.06294548 -0.37404212 0.3118696 -0.2940428 -0.67440146 -0.29201823
761 0.11118196 -0.0631768 0.37187678 0.3824915 0.4540652 0.3341098 0.90892065 0.36233747 0.016374217 -0.027299492 -0.18360756 -0.30119348 -0.027753215 -0.5165706 -0.056658216 -0.009316221
770 0.023658065 -0.20590511 0.5054092 0.36165816 0.37717685 0.38389716 0.88246775 0.27025983 0.122336276 -0.030859409 -0.21278429 -0.24818432 -0.044195425 -0.34309763 -0.250664 -0.22451156
499 -0.39076826 -0.20445843 0.8731457 0.45571825 0.4895064 0.94721603 0.89103216 -0.21587975 -0.5214864 0.52792376 -0.12724698 -0.000938904 -0.585933 -0.13919991 -0.0656446 0.16342796
195 -0.45253345 -0.08269699 0.25789008 0.42586234 0.4270893 0.19750369 0.81810606 0.08942904 -0.07033352 -0.12796621 0.186616 -0.24708249 0.21332999 -0.3386547 -0.49071094 -0.20666309
215 -0.39797056 -0.020214258 0.029549984 0.5469113 0.48376918 0.021728087 1.0562081 0.083365716 0.05913504 -0.1899967 0.17254287 -0.43640542 0.5000133 -0.6324395 -0.7280163 -0.3247319
168 -0.57267094 0.15037 0.21601245 0.52945596 0.6033074 0.27213368 0.79736346 0.1912507 0.015252713 -0.123527564 0.03763228 -0.24953425 0.2321087 -0.1487936 -0.45584598 -0.3021214
284 -0.16418488 -0.09110125 0.34613162 0.5614202 0.2884152 0.18913601 0.7365051 0.022683742 0.014485626 -0.14837827 -0.22372441 -0.47749284 0.18868008 -0.3960293 -0.44332263 -0.2330703
445 0.11272464 -0.266895 0.45435268 0.40924266 0.34866142 0.28157386 1.0097775 0.22660775 0.102479115 0.082984485 -0.099359326 -0.22393033 -0.25305137 -0.3688923 -0.011915273 -0.06489307
77 -0.22126833 -0.14703563 0.45844942 0.44861794 0.29406115 0.042475574 0.86061305 0.2127393 -0.15695338 -0.12143047 0.04666811 -0.36223605 0.28533876 -0.31027308 -0.48099577 -0.04459802
870 -0.17441344 -0.018615928 0.6995402 0.50813645 0.38186172 0.5930658 0.81155926 0.11164701 -0.26951328 0.0135496445 -0.18365799 -0.14037171 -0.5532779 -0.3699968 0.20806286 0.05961545
278 -0.1531308 0.018514242 0.43084198 0.5455994 0.2618719 0.37849665 0.6982058 0.06171435 0.106191814 -0.14751694 -0.29657885 -0.3373402 -0.13773282 -0.32960707 -0.14437486 -0.15946347
224 -0.5675545 -0.20123152 0.43382737 0.33857995 0.5320432 0.3696955 0.7910612 0.09206077 -0.4336504 -0.0006200997 0.14106536 0.05820458 0.10390804 -0.24609336 -0.43994215 0.06995115
546 -0.067389205 0.01791007 0.3642922 0.41261646 0.46953696 0.414667 1.0072086 -0.05864587 0.2219536 -0.31158164 -0.3154328 -0.32730457 -0.3206695 -0.35493666 0.24222188 0.08107856
326 -0.28383458 -0.3637046 0.28657004 0.32924947 0.26059157 0.07912474 0.91811514 -0.05767878 -0.15408845 -0.08086919 0.20969251 -0.08655595 0.25341788 -0.47207558 -0.67856115 -0.330178
211 -0.38267863 -0.08226839 0.07459952 0.55779755 0.3684948 0.077190794 1.0914258 0.10345649 0.021049336 -0.14974105 0.18403916 -0.3562098 0.5297888 -0.7300794 -0.6162047 -0.29941273
335 -0.015598073 -0.31502604 0.3407357 0.46865666 0.28650373 0.11997406 0.8903427 0.021293381 0.022058731 -0.11514767 -0.09086044 -0.32352048 0.18187489 -0.5020029 -0.46467248 -0.13429712
495 -0.3746664 -0.15643981 0.4747344 0.3767984 0.4138416 0.40065563 0.77865326 0.06951472 -0.18567938 0.14560808 -0.042297088 -0.019215679 -0.02203411 -0.1248196 -0.3118375 -0.005144953
388 -0.119315624 -0.08073314 0.47616202 0.623839 0.36644074 -0.08903329 0.7493902 0.4578027 -0.20306298 -0.21323517 -0.37126917 -0.29356593 0.24180874 -0.05712225 -0.23312259 0.1751782
402 -0.09503414 -0.17464787 0.45198986 0.5263792 0.35993916 0.4167306 0.69901067 -0.037894312 0.2383406 -0.26098427 -0.44381616 -0.33520085 0.09362768 -0.2687151 -0.23187672 0.054395366
487 -0.011388701 -0.08740606 0.6300529 0.4413709 0.333754 0.503347 0.8387811 0.20394361 -0.07657071 0.077555045 -0.12660408 -0.23672298 -0.5186592 -0.36389866 0.11726233 0.12113275
430 -0.32592243 -0.19942439 0.85939425 0.44972423 0.32772717 0.96004355 0.8226983 -0.1510287 -0.47710535 0.44583896 -0.22828513 0.10655561 -0.5899638 -0.2106574 -0.0895997 0.18973239
307 -0.044792984 -0.084900916 0.34117374 0.52464026 0.19221209 0.10969048 0.9182997 0.13322985 0.0662149 -0.13758147 -0.1327475 -0.41623133 0.021711506 -0.33729622 -0.12854646 -0.15391147
515 0.16056813 -0.035093762 0.60886174 0.47951028 0.3446697 0.59918404 0.80111307 0.24333662 0.044825464 0.19952768 -0.33224735 -0.20507357 -0.20902357 -0.3766171 -0.012356446 -0.05060065
254 0.0959584 0.029449478 0.34160316 0.46032035 0.27390203 0.21946187 1.0602407 0.5143465 0.14333075 -0.06752048 -0.12349191 -0.39309108 -0.5054064 -0.43056813 0.0677561 -0.19425961
301 -0.41956052 0.009327811 0.07155736 0.35624412 0.51276773 0.014515128 1.2453321 0.61020154 -0.33122388 -0.040914614 0.28085858 -0.15497513 -0.1661006 -0.3241476 -0.45604146 -0.22936212
931 0.00882775 -0.18597187 0.42043063 0.4600044 0.53767973 0.22392294 0.9286778 0.35632697 -0.2142714 0.17832781 -0.17638189 -0.16358574 -0.027687937 -0.26866803 -0.29454005 -0.01656124
456 0.1314638 -0.26501027 0.51692307 0.3319138 0.16211063 0.33214122 1.0137104 0.55035394 -0.044957485 0.18104005 -0.0377631 -0.2317504 -0.25514004 -0.36099577 -0.13373029 -0.040418174
562 -0.1276037 -0.05846407 0.43657818 0.43598375 0.3708509 0.21105511 0.89093256 0.13488781 -0.06622564 -0.0028300683 -0.120332964 -0.3403612 -0.0697468 -0.1679586 -0.32602683 -0.06646213
699 -0.42455742 0.04942323 0.13917609 0.51654375 0.5972068 0.07297797 0.85854083 0.1426845 -0.04858905 -0.0350784 0.07505276 -0.3166965 0.26947513 -0.44747582 -0.4630074 -0.25745925
707 0.06689732 -0.124697715 0.5105233 0.5149618 0.26863265 0.43146446 0.9822358 0.47924146 0.02964639 0.15561841 -0.07416909 -0.21538523 -0.32965228 -0.22950216 0.05012553 0.04834279
1001 -0.076030694 -0.16096382 0.50861907 0.40429792 0.41897488 0.27574882 0.863425 0.4390702 -0.19459678 0.04489394 -0.123581685 -0.23465827 -0.12700203 -0.1498963 -0.08683724 0.021483433
521 -0.24599472 -0.16718037 0.82950306 0.5267598 0.30835494 0.75850815 0.8519108 -0.06511917 -0.4763114 0.34147796 -0.1216581 0.0959745 -0.40275505 -0.07751423 -0.12039966 0.25347236
265 -0.092860825 0.04770183 0.5178438 0.73388404 0.15131252 -0.0294213 0.7381514 0.3399724 0.05025463 -0.1209254 -0.23800953 -0.42666093 -0.007825387 -0.25445318 -0.038000394 0.0147721805
87 -0.07525841 -0.03242001 0.53606224 0.5296933 0.19542265 0.3116331 0.823797 0.2143308 0.03460777 -0.09878611 -0.19750601 -0.24631873 0.056460988 -0.12892775 -0.30181593 -0.14726174
346 -0.11318022 -0.11627186 0.16513892 0.45034805 0.31948307 0.28888434 0.98689556 0.32078683 0.17859918 -0.100438654 -0.03808076 -0.29976475 -0.16840874 -0.23805381 -0.2725957 -0.11876662
283 -0.2815915 0.092480175 0.3504136 0.5177593 0.3779786 0.34719 0.6911945 0.042117253 0.08119837 -0.104433686 -0.20607933 -0.35399774 0.05812187 -0.15473215 -0.42681873 -0.08760625
246 -0.11019031 -0.08213009 0.5247966 0.4097629 0.19296192 0.43278447 0.7464587 0.015178784 0.17972265 0.07679086 -0.33002937 -0.22114462 -0.16580646 -0.27311867 -0.293161 -0.106050245
462 -0.06108971 -0.1991804 0.47725818 0.3790322 0.024391409 0.20464891 0.8771525 -0.016516147 -0.016473286 0.10429078 -0.247295 -0.17590925 0.08548136 -0.37505984 -0.68948185 -0.12410553
706 -0.16453606 -0.18617646 0.5671405 0.41743925 0.48096746 0.5827984 0.8528651 0.19563259 -0.33017382 0.14218554 -0.085202314 -0.10789351 -0.51279706 -0.3218303 0.11862188 0.14885435
380 0.14810228 -0.22938238 0.7372155 0.62329584 0.30365348 0.25502264 0.65772647 0.11544898 -0.05762168 -0.18852028 -0.45009032 -0.22533818 0.09679883 -0.24936081 -0.21586199 0.15087119
297 -0.50865555 -0.028800357 0.16237868 0.56174546 0.7067238 0.12375274 0.83738273 0.2605254 -0.12274466 -0.16093875 0.2268248 -0.25415194 0.23221749 -0.25670522 -0.38389614 -0.17472646
614 -0.14300096 -0.09857131 0.39537868 0.39293352 0.33598474 0.51688695 0.8027719 -0.039628595 -0.17216249 0.17767544 -0.07280272 -0.10957284 -0.1542261 -0.27869564 -0.19704257 0.02791262
890 -0.012157675 -0.28349492 0.701255 0.5261588 0.35064384 0.3148229 0.75263155 0.21725205 -0.3816489 -0.06975139 -0.34305122 -0.31679797 0.04189113 -0.09904907 -0.25553843 0.20768449
304 -0.034331564 -0.033943918 0.25566277 0.4326705 0.4081725 -0.10804221 1.0984899 0.66180843 0.102795854 -0.14381754 -0.08447799 -0.4630547 -0.1349533 -0.12478664 -0.059331283 -0.22357665
895 0.04059615 -0.22949594 0.42604747 0.6295525 0.34162962 0.098323524 0.7640678 0.0686994 -0.09795096 -0.18528481 -0.26787105 -0.32443222 0.30709186 -0.4881524 -0.48374635 -0.042552922
738 0.053287264 -0.31597275 0.8053183 0.3753795 0.5248016 0.0964438 0.7923901 0.2852396 -0.4783656 -0.22479674 -0.22008814 -0.26384452 0.31966248 -0.06005759 -0.59649384 0.4136622
281 -0.12041749 0.05178978 0.38001683 0.50569856 0.39915517 0.29590487 0.7122677 0.1665528 0.068444505 -0.051058333 -0.25263906 -0.33892015 0.059342396 -0.27831963 -0.22889055 -0.14290768
365 0.03278193 -0.16912973 0.5560708 0.46777755 0.1958566 0.5347229 0.8031464 0.04365954 0.15292916 0.021524394 -0.45146286 -0.13567679 -0.11459687 -0.20592868 -0.2736507 -0.010956499
443 0.09497389 -0.14376481 0.49420914 0.4385453 0.21490064 0.20207095 0.9033243 0.32870948 0.058538143 -0.12728016 -0.36665237 -0.3501447 -0.22443867 -0.19542126 0.030020278 -0.0032430391
189 -0.27948803 0.058314458 0.3399107 0.47462794 0.33936235 0.19848406 0.8142567 0.035570607 0.10436368 -0.22120894 -0.22108161 -0.41400272 0.24740885 -0.2481745 -0.39228058 -0.25462583
369 0.018566025 -0.11872698 0.51766443 0.44241902 0.25294644 0.40016326 0.85790753 0.2753375 -0.004459575 0.17629464 -0.2345784 -0.24403463 -0.19787501 -0.2634713 -0.19321233 -0.034512017
687 -0.16827807 -0.06430785 0.35434496 0.4073487 0.35292363 0.23599869 0.8435253 0.103837445 0.015661225 -0.01296493 -0.13243434 -0.17396924 -0.0032412969 -0.357704 -0.2265646 -0.10864027
634 -0.13531306 0.08302263 0.2633925 0.32756335 0.38821104 0.29119712 0.82359 0.31349438 -0.07617764 -0.025674077 -0.17900775 -0.14845568 -0.19114563 -0.4409797 -0.11532217 -0.060158942
698 -0.3076478 -0.03846524 0.10000696 0.54391855 0.4809153 0.16511124 0.88559985 0.05382026 -0.06717279 -0.06208363 -0.028499816 -0.3886766 0.28988492 -0.5072172 -0.5764707 -0.20249902
471 0.056996875 -0.20920503 0.29471654 0.48295495 0.30624232 0.27469116 0.97576624 0.19127974 0.041587546 -0.10949615 -0.17690581 -0.47462207 -0.3233933 -0.56454945 0.06824633 -0.097201616
409 0.18425918 -0.17735139 0.6376098 0.8458559 0.6042526 0.3406509 0.6211146 0.26353794 0.11303602 -0.3236491 -0.66765714 -0.35492826 0.028609568 -0.28559294 -0.11170133 0.24875428
552 0.004642661 -0.22180612 0.56051815 0.6875263 0.4687282 0.20936757 0.7140083 0.26158437 -0.10634865 -0.23105548 -0.39610758 -0.357337 0.07255677 -0.24180695 -0.13560326 0.13932493
417 -0.105639786 0.193073 0.38044396 0.37892377 0.44561374 0.17381899 0.889868 0.3322209 0.118811466 -0.08824965 -0.25309736 -0.27479398 -0.21642964 -0.46419966 -0.055171143 -0.14808631
711 -0.10665286 -0.07720852 0.3463396 0.4622528 0.31389388 0.14599268 0.9111599 0.37852067 -0.23735945 0.014170095 -0.009897663 -0.31104925 -0.2367431 -0.16785125 -0.15324765 -0.061283235
167 -0.51680964 0.059507612 0.23222531 0.43921375 0.5717709 0.29255557 0.8482056 0.1744697 -0.041013632 -0.14506799 0.1298915 -0.27578545 0.14054632 -0.17670888 -0.45513144 -0.14684317
654 -0.067677274 -0.12706771 0.43376327 0.4256413 0.2586651 0.31254315 0.83822644 0.19485779 0.09381248 -0.107119456 -0.25706774 -0.28221712 0.08179255 -0.44428962 -0.3490463 -0.23685606
710 0.15790631 -0.1827603 0.7472987 0.4647063 0.30140847 0.20152986 0.8078357 0.28288853 -0.2791302 -0.20769955 -0.47546315 -0.108516924 0.036123034 -0.060674313 -0.24912222 0.38979664
587 0.09151958 -0.03312135 0.48546627 0.39653113 0.10244875 0.6290369 0.87665796 0.28278327 0.24929966 0.08703485 -0.35639766 -0.26896527 -0.41646793 -0.4291692 -0.07110421 -0.08200924
585 0.07158565 -0.067367174 0.2737786 0.3406902 0.37380892 0.33860785 0.99666107 0.57986283 0.049028885 -0.011204334 -0.1563577 -0.37976682 -0.40713078 -0.48349014 0.024021337 -0.11972641
277 -0.2609157 -0.051847592 0.24780707 0.44608477 0.38719866 0.15509541 0.90224206 0.26755884 -0.12707004 0.03309302 0.17294171 -0.22084709 0.018794812 -0.2363985 -0.34264565 -0.085042395
555 -0.27811757 -0.05209279 0.38508686 0.44399735 0.34401497 0.21757369 0.7841174 0.24672452 -0.11145085 -0.08077802 0.030514698 -0.22187191 0.08929399 -0.23712352 -0.21474548 0.05076219
709 -0.027636545 -0.08478207 0.48354524 0.49307775 0.4358598 0.3841379 0.8301281 0.28194162 -0.29521215 0.093517914 -0.1561555 -0.24070272 -0.3396045 -0.35789132 -0.010822874 0.08589745
262 -0.016168002 -0.13134797 0.42949364 0.35174882 0.17141938 0.31142765 0.8523151 0.24297096 0.17309107 -0.036430016 -0.13299985 -0.24355537 -0.2661225 -0.24230593 -0.18882789 -0.13536042
129 -0.27716553 -0.07912633 0.17504406 0.35628742 0.29247704 0.13922782 0.76129776 0.16017689 -0.119595006 -0.14291815 0.09296919 -0.14174525 0.1188093 -0.37009504 -0.42365688 -0.19346334
289 -0.41190103 0.09047215 0.13892789 0.5120576 0.55920535 0.11213407 0.8558304 0.11227773 -0.10063641 -0.14734365 0.09630174 -0.38761145 0.34346774 -0.37712485 -0.5025676 -0.25035855
392 -0.060771234 -0.17467506 0.55605257 0.50736535 0.38161075 0.2566742 0.8044845 0.2543542 -0.30038837 -0.032237686 -0.12605885 -0.08903757 -0.05985148 -0.03753417 -0.24323174 0.24154472
119 -0.34055248 -0.10253588 0.22911921 0.38829407 0.22018842 0.14493223 0.8449006 0.04282926 -0.10948245 -0.0446126 0.0028708153 -0.12434782 0.15467066 -0.24705891 -0.48252994 -0.10312352
912 -0.039400425 -0.041918043 0.4897478 0.4634395 0.5386511 0.35488537 0.7619856 0.23468587 -0.22844516 0.059574477 -0.05161239 -0.21729471 0.08622635 -0.2604924 -0.11859154 0.17870775
317 -0.2482891 -0.20724252 0.33842725 0.35505864 0.15837549 0.17518963 0.9038445 0.00978284 -0.1380832 -0.05322418 0.115960486 -0.17319556 0.23386437 -0.41303456 -0.5382537 -0.21921203
527 -0.14299056 -0.09406754 0.6384415 0.44942304 0.363027 0.6041457 0.77730674 0.09677639 -0.26896268 0.104694225 -0.117473364 -0.14523634 -0.05740008 -0.15091163 -0.08286968 0.2995158
508 -0.19170845 -0.2167932 0.824305 0.3822404 0.3899254 0.6472808 0.78188866 0.1026939 -0.49933603 0.38574415 -0.14565721 0.08562786 -0.43808767 -0.17600779 -0.030536111 0.16801316
156 -0.22776724 0.09154374 0.2380669 0.45354643 0.31677422 0.31404182 0.69835883 0.099126205 -0.0019052223 -0.031078838 -0.113943934 -0.16820024 0.072095215 -0.07912588 -0.27604356 -0.12163795
611 -0.02942147 -0.05480147 0.35463986 0.4180686 0.47202352 0.24284475 0.8795285 0.20454414 -0.1291927 0.014421101 -0.11347683 -0.27298558 0.04371324 -0.28620246 -0.21207617 0.011680193
161 -0.36451277 0.017763972 0.21526873 0.54906094 0.39645013 0.16172014 0.7327859 0.24854673 -9.824884e-05 -0.20063026 -0.14504395 -0.40051836 0.22410832 -0.24817033 -0.45135203 -0.1932346
139 0.11627268 -0.28943792 0.8057415 0.27899277 0.34858134 0.048622742 0.7618462 0.3375622 -0.4656278 -0.110239424 -0.31723148 -0.22682998 0.16146313 0.024927447 -0.28846616 0.35666272
1004 -0.12737463 -0.17717215 0.70905393 0.46008632 0.5002303 0.6079263 0.7220793 -0.015380951 -0.28345287 0.18126655 -0.25372013 -0.10326898 -0.22228713 -0.25091287 -0.044993486 0.16888058
453 0.1537542 -0.08918394 0.4404183 0.52871305 0.32015666 0.49592075 0.9128159 0.26130515 0.17026389 -0.069411166 -0.40849704 -0.2589769 -0.43883517 -0.4752177 0.18112445 0.024683762
538 -0.034084372 -0.15688816 0.7281882 0.30444202 0.30205432 0.39230815 0.8282461 0.20992859 -0.22254555 0.06448848 -0.20941593 -0.14627454 -0.25087336 -0.09079232 -0.11595451 0.016469646
981 0.07834251 -0.14587052 0.6320283 0.68335754 0.3982177 0.040471796 0.7629834 0.35666183 -0.14484714 -0.33776635 -0.3551359 -0.28554755 0.1577702 -0.12794206 -0.2673184 0.19197372
138 -0.05884808 -0.1478678 0.3558938 0.3573153 0.33107468 0.2930939 0.89779925 0.23944665 0.04515385 -0.040061936 -0.13944177 -0.23025504 -0.21776429 -0.31062624 0.1133265 -0.032213535
904 -0.06524441 -0.1626092 0.5172932 0.50520384 0.53460455 0.45638645 0.70251495 0.076378874 -0.07914595 -0.05477786 -0.2788807 -0.21984333 -0.040982574 -0.36630628 -0.10608586 0.22563903
591 -0.061654765 -0.087804936 0.43949148 0.59773463 0.3746758 0.05339524 0.8324971 0.4634311 -0.08270758 -0.13370627 -0.3191145 -0.3638944 0.023521189 -0.1653834 -0.26566035 0.10280495
385 0.03597892 -0.17362802 0.53719646 0.66096854 0.3423839 0.21960829 0.75656694 0.12472407 -0.0042736586 -0.22536857 -0.37369978 -0.36189878 0.09540015 -0.3497698 -0.23256612 0.107243165
731 0.2732688 -0.19591174 0.43063477 0.66652554 0.25242016 0.4636536 0.8319304 0.14209922 0.4469917 -0.19748421 -0.4708563 -0.30686906 -0.05656491 -0.41406947 -0.06878589 0.028496157
399 0.04657449 -0.14877972 0.5474122 0.4389202 0.33591926 0.37698233 0.85330564 0.21644111 -0.0017937156 -0.10697807 -0.30404177 -0.14779666 -0.054289836 -0.10450287 -0.11586879 0.15371366
860 -0.27095467 -0.004694958 0.5693634 0.4251651 0.39891514 0.4195142 0.7464069 0.15347281 -0.08270245 0.03498633 -0.067433044 -0.12797907 -0.026207717 -0.2584648 -0.12581067 0.08692617
330 -0.11713622 -0.10266691 0.19509807 0.38829 0.36375782 0.08301605 1.0304108 0.5217896 0.04486752 -0.008298054 -0.011344104 -0.24406146 -0.18297417 -0.33124593 -0.14022632 -0.10215061
1080 -0.06682422 0.11872165 0.3016819 0.5173667 0.31762162 0.36071926 0.89378333 0.20417948 0.065367796 -0.07649027 -0.26112232 -0.2370025 -0.28104568 -0.38645425 -0.13962847 -0.0370977
259 -0.0013632851 -0.016593182 0.27894214 0.4993322 0.27440834 0.27046752 0.81195974 0.117080495 0.24929087 -0.18555714 -0.23690866 -0.31447342 -0.029316163 -0.4045573 -0.22371331 -0.1845155
657 0.12728722 -0.110071644 0.5017189 0.41735604 0.19855072 0.4256347 0.90398455 0.4520137 0.087773874 0.063973166 -0.07856112 -0.07131255 -0.21551809 -0.32283047 -0.098611705 -0.118022636
868 -0.22899672 -0.04169772 0.6681463 0.40597618 0.4036932 0.66130364 0.8357601 0.0008117274 -0.28839013 0.07900745 -0.1650837 -0.12517129 -0.42017266 -0.31328988 0.06230175 0.12175995
894 0.10447823 -0.32186013 0.6321567 0.54899687 0.22896568 0.16534105 0.7234339 -0.0042352444 -0.00039112545 -0.10712453 -0.36983293 -0.44779396 0.13796672 -0.46426874 -0.40348646 0.056686133
714 0.11567214 -0.029334735 0.3864904 0.5492199 0.25994998 0.47992358 0.83809817 0.13485928 0.41153485 -0.28917214 -0.51805496 -0.3928545 -0.027434994 -0.49462104 -0.031473912 0.019526862
252 -0.105516344 -0.17723262 0.35737485 0.45154107 0.3296841 0.29346752 0.7673177 0.0624713 -0.11760189 0.010134717 -0.00096706796 -0.08170386 0.0013270952 -0.336724 -0.35154504 -0.081391305
398 -0.008513714 0.040984638 0.482885 0.5334558 0.2741512 0.24091567 0.71924996 0.19830856 0.1833419 -0.17305161 -0.33549738 -0.41252923 0.09166323 -0.21489139 -0.17364061 0.06830523
958 -0.034217175 -0.12591453 0.5160602 0.50602955 0.37832052 0.22137469 0.71789217 0.2787253 0.043216284 -0.1891018 -0.2833437 -0.3714187 0.1272711 -0.22496147 -0.2022027 0.17644702
114 -0.4832865 -0.021925692 0.23650193 0.31113887 0.4970446 0.30452988 0.85775816 0.14746465 -0.091049485 -0.029512143 0.05838372 -0.07098736 0.17156981 -0.17043334 -0.59163374 -0.09540714
285 -0.35840014 -0.18642054 0.6623765 0.35624334 0.35119417 0.6929219 0.73058516 0.0059620533 -0.53746724 0.20452595 -0.068176776 0.03993766 -0.21447653 -0.12236437 -0.13671374 0.13913807
1035 -0.00549077 -0.07609344 0.53648484 0.44781893 0.37426355 0.36724126 0.9137119 0.13161458 -0.2088979 -0.0030916517 -0.077688694 -0.22442861 -0.32338834 -0.3430246 0.07871666 0.02755558
393 -0.09005637 -0.1666311 0.6067661 0.52286506 0.4348181 0.1525668 0.735717 0.37276414 -0.2256411 -0.24407235 -0.25790933 -0.18532443 0.111367874 -0.054185197 -0.33421388 0.18807493
249 -0.07027464 -0.14939187 0.4896076 0.30582273 0.19675574 0.32604414 0.6645377 0.054365918 -0.009846089 0.04537039 -0.11049472 -0.15362614 -0.16842729 -0.27006456 -0.34771064 0.03165863
837 -0.28464544 -0.18925405 0.27970946 0.4001214 0.4880524 0.118262336 0.8120794 0.2695729 -0.1934738 0.032259185 0.19241421 -0.15440829 0.13189808 -0.28787926 -0.36549953 -0.025937218
818 -0.02508249 -0.16727653 0.48461524 0.525586 0.30714443 0.3466515 0.85235023 0.12413263 -0.10350575 0.039127827 -0.09128692 -0.25340798 0.018196072 -0.2288536 -0.109984286 -0.058052357
884 -0.014239625 -0.14282283 0.5507964 0.49887425 0.38669768 0.24092394 0.7349637 0.24554004 -0.15716839 -0.14357273 -0.2511263 -0.21586534 -0.12381498 -0.22448175 -0.16963182 0.089907944
166 -0.44842827 0.02056443 0.1984061 0.45427957 0.60948104 0.32464477 0.8216476 0.09811627 -0.10721908 -0.00783665 0.18642575 -0.15105541 0.16385159 -0.20033726 -0.39330733 -0.07399435
816 -0.13796476 -0.097594395 0.39121947 0.34616506 0.39538002 0.25458214 0.8879531 0.15407155 0.10472106 -0.22169678 -0.21208358 -0.30863094 -0.283608 -0.2485841 0.0599629 -0.07666893
353 0.05274995 -0.26899236 0.5483408 0.40723673 0.21425855 0.35838208 0.88352156 0.1787803 0.05522929 0.07591574 -0.08626469 -0.15426292 -0.15635781 -0.22957417 -0.12278222 -0.14995204
664 0.051522736 -0.10030278 0.5055045 0.3982313 0.22838387 0.36386222 0.823157 0.28084037 0.060848426 0.0701197 -0.14149617 -0.18644193 -0.013206637 -0.2830412 -0.22726879 -0.14766839
898 -0.19414358 -0.1071185 0.27155435 0.41366437 0.39723682 0.10277688 0.93024105 0.2880551 -0.18252276 0.006190344 -0.05500288 -0.27035224 -0.13426833 -0.3343047 -0.2493597 -0.034845803
177 -0.3359446 0.13087067 0.20198716 0.4240556 0.4885526 0.33608663 0.7840642 0.09578496 0.010670015 -0.1818102 -0.016510172 -0.21025115 0.16031766 -0.15113711 -0.4556307 -0.13097456
998 -0.2762046 -0.20281033 0.94559336 0.41632748 0.41386163 0.800121 0.81394917 0.097110175 -0.55960226 0.44209766 -0.15108654 -0.016505882 -0.57695746 -0.1322388 0.0906737 0.29910102
1073 0.031639565 -0.12452234 0.48721233 0.4515209 0.38935113 0.29929852 0.83126616 0.21599759 0.16451503 -0.12438366 -0.2762092 -0.3883485 -0.039544616 -0.48088995 -0.18475594 -0.07918388
1009 0.04694761 -0.16528724 0.5053612 0.49256703 0.23303771 0.27539933 0.8718672 0.2007501 -0.20530263 -0.00062296377 -0.22937581 -0.22424206 0.004503305 -0.2637068 -0.2493291 0.05108284
617 -0.10512453 0.053412918 0.27197197 0.5491495 0.36902156 0.09511936 0.8377821 0.30679625 -0.16447498 -0.14275376 -0.102891944 -0.21035378 0.13849491 -0.22802648 -0.3354563 0.058553066
680 -0.20634563 -0.1675247 0.2594652 0.44930387 0.34469324 0.021564374 0.94247097 0.046697132 -0.033784598 0.0059854086 0.060264338 -0.3403242 0.2583081 -0.46998796 -0.47791973 -0.16791064
768 -0.09176657 -0.049579576 0.27514738 0.40154606 0.1704594 -0.09352242 1.0123746 0.5058494 -0.088044524 -0.07333774 0.033915203 -0.45156786 0.0298438 -0.22082774 -0.30043003 -0.22832166
491 -0.36983827 -0.107205175 0.7372932 0.4601389 0.48371965 0.6796127 0.76195353 -0.036669333 -0.38675895 0.28658926 -0.18924932 -0.06643435 -0.564162 -0.1909138 -0.025227552 0.22094426
1053 -0.17850998 0.028140722 0.44140077 0.40032443 0.44115844 0.3916716 0.89811003 0.080795474 -0.014802107 -0.0436029 -0.28150305 -0.281109 -0.28998822 -0.25033116 0.08885609 0.022531105
802 -0.10540617 -0.1838624 0.3668673 0.57004803 0.512475 0.15954454 0.8049183 0.09874689 -0.055980965 -0.085617356 -0.034327637 -0.28450608 0.13579026 -0.4067619 -0.26767135 -0.08558449
675 -0.26849687 -0.19195768 0.34861106 0.3577791 0.52599704 0.37721974 0.7660542 0.13785583 -0.21418783 -0.034085814 -0.020084664 -0.14775954 -0.052420028 -0.2202169 -0.28182173 -0.006410864
506 -0.3190847 -0.2543461 0.90670866 0.4363443 0.3322953 0.75013447 0.7679494 -0.12002685 -0.4834407 0.31976202 -0.14057307 -0.046931602 -0.53472793 -0.109107226 -0.10018432 0.25362495
834 -0.10945938 -0.1171748 0.5119955 0.46957964 0.39668715 0.3684533 0.75775975 0.19138828 -0.08500182 -0.05254504 -0.13311394 -0.2811538 -0.059891257 -0.24035025 -0.16738033 0.029576194
535 -0.031805392 -0.16202208 0.84421945 0.35516185 0.38393062 0.63284236 0.75986624 0.057043843 -0.33974466 0.1261784 -0.23560932 0.04057716 -0.27243665 -0.1568106 -0.1644099 0.15354088
1023 0.023541132 0.032138202 0.4478384 0.4145258 0.47885674 0.34331998 0.88384664 0.14061996 0.12828383 -0.05356247 -0.2906919 -0.34437218 -0.28175062 -0.49516636 0.04788741 0.024977734
771 -0.02773794 -0.029855477 0.57023895 0.45321813 0.35272625 0.511689 0.7819315 0.2846313 0.053274818 0.10696364 -0.34915975 -0.24760091 -0.15799986 -0.31971306 -0.05379841 -0.056724396
357 -0.10036094 -0.1451696 0.54704183 0.53551376 0.3759265 0.2736966 0.7430076 0.25135714 -0.09953916 -0.20280449 -0.33399886 -0.25512612 0.048118517 -0.1597115 -0.22434577 0.035129137
1087 -0.06026335 -0.121145904 0.36394408 0.36707133 0.44996837 0.33778292 0.8828969 0.31222108 -0.037009683 0.058266383 -0.15312125 -0.26092294 -0.075698905 -0.3889766 -0.20647667 -0.011466239
960 0.012961793 -0.10176365 0.419391 0.48645002 0.37223768 0.21115677 0.8644192 0.23347376 -0.086883985 -0.06680354 -0.16929631 -0.244683 -0.19201094 -0.14293024 -0.21401751 0.03191356
694 -0.2512197 -0.21804383 0.3423612 0.4086807 0.4069267 0.29769474 0.7946965 0.101756155 -0.2379693 -0.007928238 0.011604356 -0.21003325 0.099092014 -0.26491955 -0.37566277 -0.009568512
919 -0.13449371 -0.17748538 0.39812908 0.5505017 0.25348842 0.15938652 0.89373505 0.31412026 -0.09047871 -0.040540237 -0.15437451 -0.3692442 -0.070408106 -0.3593664 -0.092217974 -0.075669035
560 -0.28728893 0.06687622 0.23865817 0.5648838 0.42983755 0.08919105 0.81521946 0.29160714 -0.058625672 -0.18817958 0.20174547 -0.3088826 0.34798628 -0.4167205 -0.2843564 -0.12668279
514 -0.3105689 -0.21590655 0.9278734 0.47472054 0.31774583 0.8734027 0.7911659 -0.08872324 -0.58509415 0.386372 -0.2298496 0.06563291 -0.6209579 -0.13619111 0.03649544 0.20196342
753 -0.11082941 0.13143708 0.4501252 0.5288822 0.39058253 0.2896734 0.7555748 0.23032568 -0.0010408506 -0.06724684 -0.06722028 -0.28828502 0.08609855 -0.2187752 -0.20054881 -0.06560972
930 0.020859482 -0.16041076 0.58728915 0.47284192 0.4332148 0.23422024 0.76592517 0.38689384 -0.25451562 -0.05171781 -0.27904207 -0.24488036 0.046548832 -0.18661596 -0.26447627 0.14227511
1096 -0.02008102 -0.23610508 0.5648286 0.49228916 0.43063855 0.49360457 0.77723837 -0.062211987 -0.10513759 0.20749043 -0.19586173 -0.23631267 -0.24566975 -0.3692935 -0.07097409 0.108684
361 -0.29410768 -0.07969946 0.23134428 0.5197129 0.30688214 0.1733674 0.85506433 -0.041839227 -0.09858627 -0.04495743 0.0012595224 -0.24818413 0.24464335 -0.43163937 -0.43755916 -0.2274673
170 -0.42185804 0.027504923 0.29194394 0.4517485 0.47498024 0.21200204 0.6821937 0.22315902 -0.07959538 -0.040247638 0.13530077 -0.27754802 0.19986986 -0.24528714 -0.4008545 -0.15194318
103 0.009453052 -0.20933932 0.460136 0.28228205 0.1284721 0.42160785 0.681047 0.1322668 -0.035402108 0.10152499 -0.23286179 -0.15254432 -0.18833467 -0.15783054 -0.2780248 -0.044229515
263 -0.3267627 -0.056978084 0.27177992 0.50382125 0.3214626 0.1485211 0.9548336 -0.009869636 -0.074750714 -0.121275246 0.15306132 -0.31045938 0.3078984 -0.53929263 -0.48565963 -0.26712644
439 -0.19206996 -0.16937678 0.16109458 0.40074947 0.32233283 0.13952865 0.9619669 0.03329349 -0.06258445 -0.0707137 0.14299166 -0.35171616 0.21777923 -0.39762402 -0.5324398 -0.14717251
730 -0.021576295 -0.2264652 0.7095853 0.56113875 0.506657 0.058232367 0.74983704 0.44345808 -0.15822236 -0.27802452 -0.39504385 -0.3453045 0.084908366 -0.032398198 -0.24154966 0.30555025
874 -0.23132867 -0.17835812 0.37237328 0.5295333 0.45609358 0.22038792 0.8116649 0.120851584 -0.22958449 0.0040631597 -0.022644216 -0.18436629 0.002602223 -0.26794827 -0.30245715 0.015359259
533 -0.119246 -0.021961179 0.5102283 0.43974015 0.378957 0.47617638 0.84905237 -0.05017493 0.01688744 -0.07604969 -0.21726885 -0.24164395 -0.30676025 -0.29316914 0.0045633945 0.03165028
725 -0.10103448 -0.09304439 0.48567957 0.51940846 0.47550505 0.2617389 0.719243 0.16300833 -0.11332873 -0.11400493 -0.22465728 -0.20825079 0.063317105 -0.25172833 -0.2246166 0.062708385
807 -0.07032327 -0.05086774 0.5091412 0.4858081 0.25753647 0.3570687 0.82122326 0.041556336 0.14272112 -0.14368813 -0.26795992 -0.31044075 -0.06811204 -0.28504473 -0.16758348 0.02395166
610 -0.23515616 -0.13621931 0.6791595 0.36072627 0.30628717 0.5877802 0.79380596 0.0050871796 -0.25732598 0.27428445 -0.2775705 -0.025688324 -0.47453114 -0.2793342 0.029546699 0.07621953
990 0.0017707028 -0.1726266 0.471082 0.44126025 0.2721288 0.24819662 0.82174253 0.2795078 -0.09878923 0.12797725 -0.10954938 -0.15704319 0.039631184 -0.33079147 -0.22004846 -0.0296926
457 -0.039372604 0.003446268 0.37284908 0.4089871 0.37563762 0.2053713 0.8586572 0.38300395 0.05597749 -0.15445165 -0.24480018 -0.31505796 -0.16243154 -0.4353207 -0.08718041 -0.0109774545
148 0.011956476 -0.22813222 0.7830975 0.38017443 0.3277562 0.19613962 0.7117999 0.25641263 -0.32766867 -0.10498448 -0.33589125 -0.10071345 0.032180563 0.053531952 -0.20624974 0.3435264
455 0.16568813 -0.022792779 0.44986326 0.515303 0.34880894 0.4736603 0.7418399 0.30628306 0.21026349 -0.0779991 -0.47805232 -0.3375904 -0.19228879 -0.3880031 -0.117251344 -0.05779784
1005 -0.15751337 -0.1221049 0.59940654 0.4708596 0.4102629 0.2736553 0.84175605 0.12448616 -0.19285138 0.09935862 -0.11131922 -0.19608547 -0.06849012 -0.24275018 -0.12031612 0.11737269
995 -0.21850519 -0.021614574 0.5542729 0.34974384 0.5309204 0.442948 0.8350822 0.1096292 -0.287782 0.13009363 -0.18839419 -0.20072079 -0.47243923 -0.26251903 0.09358723 0.12098085
351 -0.012875743 0.008863706 0.23963407 0.17708051 0.31116563 0.18902086 1.0250179 0.5087712 -0.039088316 0.043822534 0.019569326 -0.26225245 -0.27497965 -0.39055663 -0.16226546 -0.20461886
157 -0.09844767 -0.10605779 0.37532738 0.4569685 0.18591079 0.39533392 0.70725113 0.008523218 0.058959015 -0.11566756 -0.32380605 -0.20301181 -0.08400721 -0.23123933 -0.17456153 -0.03054041
425 -0.03904529 -0.10890618 0.37817734 0.46114868 0.25818914 0.41573668 0.8726173 0.12709463 -0.0067019435 0.080830626 -0.17229073 -0.25000226 -0.08388049 -0.2782469 -0.24765213 -0.1288267
932 -0.079756156 -0.2100188 0.47504523 0.4187848 0.2853847 0.30002716 0.8540288 0.19622639 -0.11278945 0.049077265 -0.13007616 -0.18428236 0.063679844 -0.29805332 -0.21638696 0.030295316
545 -0.056687374 -0.17241317 0.43424073 0.4026994 0.38176107 0.24426234 0.90114105 0.071902856 -0.010598465 -0.07545484 -0.1764079 -0.21388039 0.05678432 -0.26314905 -0.33262265 -0.055628058
997 0.012472988 -0.10673387 0.43043217 0.44922397 0.38620812 0.2855185 0.97248375 0.23216483 -0.097026326 -0.021322286 -0.12325336 -0.1885414 -0.24819045 -0.2619011 -0.06758553 0.14594154
291 -0.29873192 -0.07347274 0.24333109 0.46438792 0.32352865 0.20083275 0.83740413 0.024968779 -0.06568876 -0.089644544 0.013525978 -0.2782708 0.3018464 -0.3605913 -0.5364542 -0.18248707
663 -0.06436118 -0.07756515 0.37779617 0.39531678 0.259957 0.3728871 0.8930606 0.33408728 -0.13107538 0.04766295 -0.14853923 -0.20595492 -0.17472659 -0.33744 -0.15617664 -0.07212399
503 -0.12850142 -0.08365119 0.41040397 0.44889197 0.23997049 0.33688486 0.7870089 0.106077574 -0.1073307 0.049810573 -0.13209267 -0.20770329 0.03594867 -0.25139764 -0.292044 -0.0587283
571 -0.010324525 -0.16771653 0.68610054 0.5834493 0.3348623 0.2476577 0.7639417 0.15570486 -0.12312283 -0.1902139 -0.33481425 -0.22364832 0.11984018 -0.033139117 -0.25480193 0.15436573
584 -0.36436337 -0.006517475 0.11414421 0.53808033 0.5399988 0.13831526 0.8094943 0.21275418 -0.0911521 -0.11349095 0.09676935 -0.35234863 0.31495363 -0.40791985 -0.45775557 -0.13483727
485 -0.13482647 -0.2597961 0.7991377 0.38909575 0.32414064 0.63632536 0.6952281 0.14093652 -0.44317394 0.19530825 -0.11411564 0.026962465 -0.41948128 -0.10084321 0.08095373 0.13662799
795 -0.098571524 -0.096360154 0.47402716 0.5087297 0.473983 0.22747584 0.75253767 0.20611091 -0.04155683 -0.10817963 -0.11014143 -0.22144794 0.16055039 -0.27411973 -0.2730582 0.0094825085
449 0.10336502 -0.31552568 0.44563076 0.38882545 0.10326978 0.36623093 1.0208182 0.21041347 0.08430884 0.05037857 -0.061624587 -0.14713757 -0.18858857 -0.25733757 -0.1740072 -0.039490905
1069 -0.14630497 -0.21731107 0.52288425 0.44347948 0.5180258 0.19271314 0.7929472 0.16256772 -0.17624442 -0.0048313923 -0.1443427 -0.28457746 0.096321076 -0.32096833 -0.16175194 0.15785465
848 -0.095477 0.0052615455 0.40541485 0.50529504 0.36698347 0.401726 0.80076116 0.08134613 -0.07711533 -0.03980872 -0.12568398 -0.2537998 -0.26033038 -0.29496315 -0.029475505 -0.030232536
375 -0.0098839365 -0.1130106 0.38425818 0.38319403 0.33430052 0.3410358 0.82761633 0.20384446 0.076576434 -0.04235211 -0.2330914 -0.28748015 -0.07650391 -0.2685468 -0.22603488 -0.08904508
633 -0.0792713 0.009334936 0.3177908 0.31418908 0.39374053 0.17808712 0.9069495 0.4434343 -0.23978576 -0.048228763 -0.026982127 -0.188303 -0.1350947 -0.28163993 -0.3199943 0.025855973
608 -0.17963733 -0.009639424 0.54647636 0.24016161 0.33093926 0.55055434 0.86349297 0.23538704 -0.20804247 0.07808114 -0.2627372 -0.1338434 -0.41678613 -0.3999096 0.17171788 -0.00458172
372 0.0395561 -0.12661554 0.45998827 0.44685858 0.2420078 0.31368577 0.7375066 0.20008366 -0.08406949 0.019005988 -0.14802392 -0.23230922 -0.10997361 -0.25554818 -0.18748726 0.10113984
641 -0.097280726 -0.14034933 0.3091628 0.4744243 0.3022555 0.19024472 0.8044492 0.08656874 0.04100852 -0.05545905 -0.1403779 -0.38291794 0.07653066 -0.346275 -0.31348103 -0.17875588
568 -0.14183128 -0.044318628 0.41736114 0.35891205 0.32850543 0.25200024 0.8309227 0.19090497 -0.06474742 -0.1038214 -0.17730002 -0.23742424 0.00014797354 -0.22997636 -0.203749 -0.02441488
171 -0.24909437 0.083906874 0.31431788 0.4599938 0.38756385 0.22675441 0.5647465 0.069351174 -0.03238407 -0.05251641 -0.09634197 -0.2802926 0.11873942 -0.12649198 -0.22712895 -0.16124098
302 -0.07257665 -0.1284685 0.3427706 0.4105843 0.24790974 0.1701835 0.7497583 0.10475837 0.008204589 -0.118346706 -0.14508626 -0.23027398 -0.024779515 -0.2619998 -0.22400971 -0.09478364
855 -0.10102985 -0.11393107 0.40855348 0.35347202 0.47338063 0.17925483 0.90358454 0.3591981 -0.13461089 -0.13924612 -0.16813421 -0.3000181 -0.08080658 -0.3610944 -0.0738499 -0.09182739
179 -0.3147399 -0.052297276 0.22276896 0.42350373 0.4665019 0.26847583 0.72698617 0.13056718 -0.17193611 -0.12589258 0.14776064 -0.13092318 0.18424968 -0.23872003 -0.43767312 -0.06434266
744 0.00020281826 -0.114490494 0.5654745 0.49678048 0.3556336 0.14348458 0.8791049 0.36034733 -0.17446698 -0.18117 -0.31439316 -0.24282207 -0.02400336 -0.10847978 -0.1556212 0.08848271
209 -0.31138664 -0.047618404 0.24356568 0.50502807 0.44414318 0.11242005 0.8249935 0.15670486 0.046106704 -0.15253283 0.104693964 -0.32567763 0.30857897 -0.483715 -0.45097196 -0.27786916
691 -0.2966232 -0.1176557 0.378928 0.42656568 0.48100638 0.30728158 0.79705584 0.14235085 -0.15312298 -0.048328258 -0.00057860167 -0.15590829 0.055567835 -0.20007235 -0.3464863 0.05581888
594 -0.22424051 -0.0052996553 0.13839486 0.51039475 0.33726 0.09497654 0.90001386 0.076895356 0.06569039 -0.1473568 -0.018392928 -0.41911963 0.28582397 -0.43891138 -0.44417778 -0.19370493
323 -0.20927411 -0.20717955 0.26260105 0.39909577 0.36731353 0.14060108 0.7777043 0.17248474 -0.20133977 -0.06689004 0.0921177 -0.19924377 0.1405208 -0.26621032 -0.392308 -0.20553376
100 -0.16201444 -0.050907966 0.23109303 0.36228144 0.27015474 0.18474047 0.6932129 0.22992472 -0.009421074 -0.037549354 -0.037420746 -0.20827249 -0.06807002 -0.199704 -0.17026758 -0.12120241
373 0.00565323 -0.1055766 0.56371975 0.3531937 0.2409868 0.5331634 0.7454496 0.06463288 -0.18455301 0.12188138 -0.25938094 -0.10255012 -0.31751326 -0.22074321 -0.055292103 0.045481157
992 0.08214865 -0.19019881 0.5497039 0.57545304 0.44898507 0.2962054 0.6796849 0.29450047 0.040621582 -0.16627134 -0.31967375 -0.2751655 0.03173911 -0.27195725 -0.081624456 0.19162883
221 -0.38156903 0.0044427305 0.24195771 0.42491 0.32104647 0.10371446 0.90040207 0.1361157 0.09968797 -0.10086704 0.11132455 -0.40218267 0.25688213 -0.4471099 -0.45104846 -0.21454667
601 -0.12930253 0.087714344 0.20486641 0.4741005 0.4004252 0.15066408 0.8283872 0.12890404 0.010026517 -0.16271293 0.027229263 -0.23960486 0.12976097 -0.33722734 -0.3907757 -0.18959449
847 -0.19650266 -0.041347478 0.32629624 0.41851524 0.3982867 0.3124134 0.83264226 0.23389806 -0.09925632 0.028580962 -0.092279784 -0.266103 -0.19437458 -0.28303272 -0.042338565 -0.079889536
788 -0.0020785325 -0.21131863 0.63459057 0.54935354 0.42478904 0.25786084 0.7319339 0.3018494 -0.20075513 -0.14441541 -0.33572653 -0.25524744 0.069432154 -0.07589458 -0.21853018 0.19721691
891 0.043188162 -0.29606768 0.55960006 0.56075805 0.32662708 0.2780765 0.77709126 0.07483164 -0.10694329 -0.05627793 -0.24607804 -0.25157422 0.053111427 -0.272181 -0.29348183 -0.004284001
940 -0.023632301 -0.09333951 0.426239 0.49736327 0.44322246 0.031172333 0.896851 0.35495847 -0.07064159 -0.10273764 -0.30419353 -0.27503258 -0.06215114 -0.15966205 -0.09492384 0.039981082
