6301 16
368 -0.4191069 -1.2709829 1.1284467 2.3982491 0.42896494 0.34760144 4.698955 0.7474325 -1.372222 -1.0093335 0.91024035 -0.36396673 0.30229315 -1.0496767 -1.2406915 0.43747792
265 -0.17714277 -1.4847244 0.36887166 1.8542224 1.2486238 0.77150756 4.2899857 0.42549762 -0.99768925 -1.102018 0.49600828 -0.40689236 0.24884345 -1.7051146 -1.4998635 0.120245494
6 -0.2533362 -1.4376501 0.78733677 1.9434631 0.6847442 0.36673602 4.1672053 0.37324184 -1.6398102 -0.6462284 0.3027597 -0.6535864 0.42328563 -2.123523 -1.3929954 0.7253933
123 -0.22889225 -0.5540251 0.106861964 2.6147587 -0.10672449 0.719473 4.3706765 -0.29736182 -0.6732313 -0.934461 -0.3069449 0.49631503 0.18844737 -1.7440144 -1.0935935 0.28606611
250 -0.5741822 -1.5330906 0.76570946 2.6095788 0.7349195 0.73559535 4.298216 0.6495691 -1.1664159 -0.9214304 0.63666373 -0.453449 0.9205064 -1.482782 -1.2009385 0.04158281
146 -1.1280199 -0.77464944 1.6045457 2.493144 -0.075998664 0.34048 4.140934 0.07649934 -0.9652783 0.23683012 0.5035733 -0.10042161 1.1801345 -1.4698249 -0.8037456 0.7518783
128 -1.1091781 -1.7423953 0.65394926 2.1131165 0.17092644 1.0676106 3.586371 0.54002976 -1.2482889 -1.1945857 0.33152643 -0.1651898 0.17261213 -2.5104647 -0.9716563 -0.22348617
124 -0.43874317 -0.9939707 1.2393763 2.782565 0.6111831 0.73085225 4.1424184 0.097135946 -0.938614 -0.42241442 0.681478 -0.49081382 1.1487079 -1.3683085 -1.2968202 0.86022174
1318 -0.76656383 -0.48382166 1.5957762 1.3813136 0.36740556 -0.38661388 3.8980362 0.120146856 -0.6436507 0.2583491 0.85081875 0.17695984 1.0298405 -1.6496226 -1.4085524 0.44646585
150 -1.1201551 -0.78348833 1.5470526 1.9298099 -0.049711693 0.08044069 4.1628284 0.038242962 -0.9162168 -0.17769068 0.3468412 0.20173112 0.98875356 -1.3810014 -0.94726634 0.5849135
267 -0.52204996 -0.9985841 0.53780305 1.5865655 0.5554784 0.44925368 3.0208187 0.033454835 -0.57970273 -0.30263904 0.22335996 -0.3869772 0.48833343 -1.0883089 -0.96441275 0.056720182
248 -1.1347667 -1.3859873 0.72643536 1.458914 -0.07212862 0.8232358 3.102334 -0.106640995 -1.2741116 -0.64640224 0.12013872 -0.84544206 0.33362505 -2.4663644 -0.74488837 -0.17945893
252 -0.6276371 -1.4962893 0.59564984 2.1779602 0.6383011 0.4201696 2.8578773 0.08319036 -0.81072164 -0.26989463 0.03974486 -0.22068626 0.7732648 -1.0895865 -1.0238799 0.21881963
129 -0.6401272 -0.69684374 0.8451728 1.3996685 0.3960239 0.24588698 2.9899523 0.057590246 -0.6026667 -0.16705556 -0.0579707 -0.14164105 0.3727316 -1.3530158 -1.0166726 0.06179702
763 -0.1955452 -1.786153 1.0356425 2.4300632 0.78895086 0.83671796 3.7171407 0.054536402 -1.2460805 -0.486425 0.18175691 -0.5612848 0.85273737 -0.78457016 -1.2687558 0.2457944
10 -1.1261716 -1.234303 0.73732316 2.1481307 0.1694369 0.8339332 3.3207874 -0.033427287 -1.354386 -0.43923038 0.004793062 -0.51595134 0.56854135 -2.419273 -1.1084101 0.062602356
8 -0.5242535 -1.4691514 0.80558765 2.3225942 0.573435 0.32897916 3.9916828 0.21504827 -0.9599211 -0.020555152 0.70156217 -0.060255796 0.54974747 -1.0379602 -0.9468976 0.6656259
247 -0.7347209 -0.82508004 0.63482106 1.8780949 0.28171107 0.50421053 2.9084947 -0.054475594 -0.80089045 -0.29607978 -0.0064000455 -0.31058902 0.7206508 -1.7134956 -0.85214496 0.11742154
560 -0.20606115 -1.1357793 0.66412914 1.8871365 0.83835137 0.07015709 3.4330642 0.22249128 -0.5963892 -0.33157432 0.5312133 -0.53713274 0.09147179 -0.720446 -1.1278797 0.023287233
391 -0.3609022 -0.91005474 0.96677876 2.096328 0.5232111 0.09201578 3.129944 0.2596715 -0.5055401 -0.13385376 0.7173795 -0.33773223 1.089482 -1.4587358 -0.9926617 0.57992923
2019 -0.4620665 -0.70543087 0.8135059 1.4916021 0.1628649 0.32336664 2.6704845 0.18845181 -0.6995322 -0.21192428 0.18049006 -0.27910727 0.29830387 -1.0714878 -0.7397956 0.16119342
354 -0.20105514 -1.0681652 0.7738244 2.149969 0.30458158 0.67154276 4.100517 0.21070483 -0.8674112 -0.47419253 0.5893065 -0.14053735 0.40500712 -1.3325775 -0.96838236 0.6700577
127 -0.99777305 -1.3815923 0.41842523 1.7237937 0.15419473 0.8572607 3.053428 -0.2142763 -0.8700408 -0.26092553 0.07433902 -0.30799672 0.6062173 -1.9734715 -0.7588952 0.34037137
370 -1.014204 -1.3304502 0.8692045 2.2709923 0.04267061 0.8446772 3.229466 0.014878502 -1.2116501 -0.15583538 0.02343892 -0.22252439 0.6689916 -1.5043362 -0.7695509 0.35601267
125 -0.6401537 -1.2346748 0.8329092 2.5211868 0.41904563 0.444913 3.237145 0.043962665 -0.76383305 -0.19762439 0.49067816 -0.28342786 0.74212354 -1.3084983 -0.8838463 0.3953566
126 -0.64457506 -0.52849513 0.29568794 1.3862197 0.26566648 0.7145143 3.0775385 0.09182227 -0.9488295 -0.3004481 -0.3107707 0.039133273 -0.33204105 -1.4700813 -0.9522489 0.060859587
425 -0.5708189 -0.53245217 0.8995101 0.99662626 0.45203665 -0.08065444 2.9676597 0.47778973 -0.5449526 -0.4355234 0.12398457 -0.100002915 -0.017926263 -1.2257029 -0.38606834 0.18878432
147 -0.51404256 -1.4159596 1.0347531 1.5557344 0.2847589 0.45346218 3.0848224 0.16610494 -0.54752445 -0.52029675 -0.11477971 0.21461084 0.62970376 -1.4098922 -0.75590235 0.20560254
145 0.056285672 -1.393979 0.5601765 1.8406992 0.7756186 0.38983673 3.660436 0.24335574 -1.4144657 -1.1592106 0.2918797 -0.485202 0.33669662 -1.6408938 -0.95707494 0.38976824
755 -0.5614213 -0.8929562 0.7654515 1.8224143 0.20131674 0.5215082 2.6284115 0.14854424 -0.61951965 -0.14357612 0.26197422 -0.08212361 0.44167382 -0.8710671 -0.57028 0.11308449
251 -0.67544025 -1.0347524 0.95011044 1.4063191 0.121413186 0.0017913773 3.1315126 0.11183317 -1.2752517 -0.405251 0.1422702 -0.39698288 0.55915767 -1.6185244 -0.8410989 -0.025580581
667 -0.059296284 -0.7879545 0.547624 1.4127427 0.4489044 0.29504785 3.1134815 0.016234681 -0.83994085 -0.4416646 0.44728285 -0.17877491 0.24098414 -1.1524603 -1.064621 0.36737287
249 -0.7966601 -1.310794 0.33033568 1.5311486 0.14172715 0.32638088 2.7827895 0.049430933 -1.2464416 -0.43786356 0.26820457 -0.050716747 0.2412156 -1.8653873 -0.7067227 -0.1626165
423 -0.636814 -0.8163764 0.75484616 1.0848408 0.16851933 0.096975505 2.615843 0.22893591 -0.31824923 -0.1907282 0.08218226 -0.30325508 0.7236796 -1.5220503 -1.0098146 0.009329988
428 -0.77905744 -1.1894199 0.58792186 2.1703515 0.17951192 0.73398226 3.011304 -0.41814786 -0.4608888 -0.16333099 -0.24816312 -0.016719377 0.9688584 -1.5275387 -0.9367531 0.20691541
9 -0.21631841 -1.1874722 0.93110037 1.4293289 0.6017217 0.43973082 3.242103 0.15920971 -1.0530149 -0.98697233 0.1197313 0.033638537 0.38835496 -1.423402 -0.96763974 0.24194874
175 -0.9198494 -0.8518978 0.7270229 2.1300414 0.16348301 0.5617563 3.3345423 -0.3982567 -0.77109104 -0.43163562 0.022608751 0.20744406 0.48437926 -1.4051664 -0.46892363 0.6435061
5 -0.39605644 -0.9713394 0.8405176 1.4567531 0.45478234 0.01668568 2.8109171 0.0015592156 -0.5319086 -0.7944981 0.20269047 -0.19213553 0.17543755 -1.1418053 -0.62998194 0.099575765
177 -0.68344367 -1.1371689 0.70891005 1.9940276 0.506244 0.7887306 2.989854 0.10279482 -0.4585992 -0.2682195 0.17501442 -0.65486926 0.71842414 -1.2884631 -0.69193625 0.120934285
180 -0.3869262 -0.59285736 0.7717433 1.3247023 0.07831264 0.42706805 2.9794757 0.17544845 -1.1219331 -0.3213818 -0.36879247 -0.194708 0.23701821 -1.7081039 -0.97107553 -0.13504602
369 -0.30883825 -0.7983512 0.6221006 1.1479496 0.24864383 0.32880157 2.2203562 0.010611583 -0.604775 -0.2697539 0.15605088 -0.19247459 0.23389712 -0.8676115 -0.7642161 0.0872253
253 -0.53357756 -1.1819932 0.5109121 1.437523 0.27541086 0.18043701 2.865947 0.20605806 -0.8165745 -0.124361336 0.2053046 -0.29803568 0.45663184 -1.3044928 -0.82117784 0.39580134
122 -0.3587897 -0.60796815 0.50875187 1.0172608 0.31299895 0.3283237 2.131873 0.23840514 -0.50364393 -0.42805904 0.10506595 -0.20195414 0.25793278 -1.0309278 -0.5295462 0.017582284
144 -0.5647751 -1.1501006 0.621411 2.1620176 0.19909923 0.554142 3.2563436 0.034658197 -0.6785823 -0.31269386 0.25491148 -0.009157361 0.640264 -1.4089196 -0.6173126 0.6677784
1246 -0.8447135 -1.0763891 0.73277164 1.3927263 -0.12553476 0.25845706 2.9438813 0.17689207 -0.72487766 -0.40539196 0.017655972 -0.060389176 0.43833077 -1.4820956 -0.89916664 0.04977521
178 -0.6606568 -0.9589226 1.0549184 1.4149497 -0.018561538 0.35363948 3.1175892 0.25193492 -1.0772731 -0.11343369 0.009564658 -0.16061549 0.3752682 -1.401883 -1.0657583 0.19382723
4 -0.48215324 -0.9632072 0.39808732 1.5158956 0.6124247 0.32109004 2.3478284 0.17047165 -0.40659192 -0.4275587 0.1201397 -0.28945073 0.5136714 -0.7950842 -0.8169324 0.027462462
148 -0.18168634 -1.3041164 0.698843 1.7219852 -0.050587796 0.33430776 2.7597036 0.25769243 -0.64067936 -0.4404841 -0.01825186 0.0308973 0.5251357 -1.0921797 -1.0614023 0.57806474
149 -0.59777796 -0.89548504 0.57680964 1.3485339 0.111866735 0.4241995 2.6286197 0.054824475 -0.6397839 -0.33126435 0.09348865 -0.2229986 0.34554648 -1.3255881 -0.87123793 0.36073673
130 -0.30638632 -0.7230749 0.57368016 1.2257365 0.36208552 0.15775271 1.9295763 -0.075116165 -0.5568725 -0.2212643 0.06421801 -0.103729606 0.21724917 -0.95796186 -0.40961894 0.002470225
857 -0.73110557 -0.6023523 1.0903783 1.6991134 0.027023958 0.3524868 3.1806517 0.076589115 -0.987594 -0.05598078 0.20310342 -0.23798081 0.5940822 -1.2495925 -0.7361521 0.22610542
353 -0.32888126 -1.0148721 0.5203447 1.4051237 0.48623925 0.41627374 2.7898467 0.15266582 -0.71017706 -0.42411685 0.23313965 -0.49741852 0.4020433 -1.0163518 -0.6637341 0.17608023
266 -0.46979913 -0.48928022 0.729413 1.2777541 0.045378845 0.13874522 2.2155216 -0.0070492383 -0.623354 0.04687294 0.20977351 -0.05480581 0.497899 -0.99334955 -0.5517131 0.31192645
176 -0.5285867 -0.8275764 0.49686483 1.2778786 0.28299314 0.17550509 2.1504314 -0.0051885834 -0.47477552 -0.21931241 0.17159332 -0.20470348 0.2514352 -0.9766526 -0.48103172 0.045317363
668 -0.72321355 -0.5050288 0.52941155 1.364087 0.035264153 0.29167753 1.9705678 -0.03375742 -0.34631702 0.1482989 0.059677064 -0.18748671 0.430217 -0.9903339 -0.6549475 0.27097428
718 -0.57324004 -0.92721397 0.73625064 1.7910995 0.35194564 0.42228037 2.457022 -0.23549038 -0.56053424 0.023851218 0.08013031 -0.053259406 0.72913885 -0.9289437 -0.5278232 0.41995043
239 -0.65368414 -0.80506307 0.9162402 1.3794338 -0.03287443 0.058137726 2.69258 0.18694045 -0.6911767 -0.17277965 0.093513966 0.16410169 0.4245351 -1.3410811 -0.65328807 0.34561735
1247 -0.40230298 -0.75668967 0.27578485 1.036057 0.31566635 0.298735 1.8932692 0.0019912878 -0.80051386 -0.25794163 0.10202729 -0.4023034 0.40434903 -1.3211639 -0.60030687 0.19822021
424 -0.30755216 -0.86907625 0.5186058 1.3831826 0.40930694 0.46605232 2.1583555 0.253057 -0.6844098 -0.32144335 0.34132856 -0.27845407 0.57964945 -1.1632718 -0.64027166 0.24411675
948 -0.5114897 -0.77243686 0.3206346 1.4307559 0.13613461 0.5162242 1.9310778 0.12202478 -0.5989325 -0.13246909 0.09191777 -0.2292223 0.15825431 -0.9440169 -0.3934098 0.08889429
2060 -0.3007926 -0.4483384 0.40530306 1.2032783 0.00057184737 0.47343513 2.1624146 -0.24009472 -0.5361991 -0.39179662 0.23744416 0.063276045 0.12943025 -1.1922109 -0.24584128 0.525935
1957 -0.36054045 -0.37884924 0.48423856 0.922147 0.13153134 0.10819904 1.386177 0.025464615 -0.36259243 -0.0760059 0.051975466 -0.034065843 0.4262639 -0.5426867 -0.3986492 0.28776225
18 -0.28772444 -0.34817278 0.62040144 0.89693105 0.015179472 0.22628546 2.052672 0.13602653 -0.4618055 -0.2766727 0.11174307 -0.33008534 0.024744269 -0.98042494 -0.61888456 0.10676512
2415 -0.19743425 -0.5870805 0.36686406 0.782381 0.40473402 0.09772433 1.5590732 0.2200096 -0.2972851 -0.3366914 0.10579464 -0.3219924 0.15986706 -0.58387464 -0.30532467 0.19683287
1788 -0.1631167 -0.68439245 0.28086686 1.1027793 0.64696753 0.40941715 2.1403584 0.33691335 -0.59362596 -0.4716071 0.42492157 -0.21161342 0.33366707 -0.792583 -0.7002382 0.16327918
2002 -0.33147448 -0.7833226 0.36225837 1.3416892 0.26805553 0.2306443 1.9936756 0.090241395 -0.60066766 -0.24638379 0.045737397 -0.293316 0.19421087 -0.83169866 -0.41913664 0.114098676
3552 -0.36360323 -0.6692745 0.24199279 1.7608217 -0.02043388 0.7037675 2.9643993 -0.005783947 -1.0216099 -0.5889347 -0.059291583 -0.10346717 0.1484815 -1.6128213 -0.6064566 0.57591593
947 -0.5014625 -0.51394266 0.39655867 1.2561362 0.12583841 0.22531986 1.48903 0.04806496 -0.38082346 -0.054685593 0.06597051 0.00025413334 0.20925106 -0.70417947 -0.39101556 0.16385648
2215 -0.1923436 -0.4703829 0.38940513 1.0792762 0.19600126 0.38550305 1.585653 0.044941694 -0.41160464 -0.33289897 0.29587245 -0.24663211 0.49806926 -0.5991494 -0.56133926 0.30303532
1037 -0.5189401 -0.36814272 0.6474654 0.84072644 -0.16286832 -0.10894877 1.8769279 0.14720733 -0.52463096 -0.1277051 0.3151473 -0.066933736 0.22610499 -0.48582184 -0.36045468 0.1876162
181 -0.46484578 -0.73299366 0.41447338 0.79043466 0.026672218 0.1340572 1.6923637 0.15280497 -0.41631472 -0.21466833 0.002171879 -0.18117514 0.27445817 -0.89489585 -0.5214664 0.14336695
587 -0.40255228 -0.8703512 0.4985041 1.2993942 -0.025643393 0.27223897 2.2525108 0.08195295 -0.70669675 -0.29922462 0.20236306 0.020366598 0.4089593 -0.92926484 -0.64870685 0.17723845
2061 -0.26746967 -0.5847187 0.12361136 1.7128375 0.11977602 0.8660258 2.9636638 -0.122635186 -0.8440754 -0.585366 0.18793024 0.0010563902 0.019686947 -1.37785 -0.43260655 0.62382966
698 -0.2755506 -0.664502 0.25916263 1.151207 0.41734812 0.31943563 1.9150393 0.26199955 -0.6210007 -0.2827217 0.18362515 -0.29048106 0.25362924 -0.633875 -0.5992117 0.1221837
719 -0.14759807 -0.5915798 0.31235716 0.8851988 0.36265242 0.30319348 1.7848634 0.08155642 -0.57073855 -0.29055643 0.21332583 -0.18117669 0.16389716 -0.8137855 -0.53892344 0.08348455
427 -0.27095753 -0.49519366 0.47562554 0.7659847 0.19583489 0.297584 1.7840661 0.25897118 -0.32337818 -0.28682417 0.13811003 -0.18381739 0.13159335 -0.73343736 -0.50549686 0.045181368
2065 -0.20082773 -0.5743381 0.57310736 1.0520929 0.12952016 0.3432618 1.7712152 0.15852879 -0.3861316 -0.06997099 0.061653726 0.0070856926 0.331456 -0.41417673 -0.48245418 0.21895613
2099 -0.3080736 -0.35217896 0.43111876 0.9360319 0.083975144 0.10680396 1.6024746 -0.016824806 -0.38593653 0.049938373 0.15307353 -0.08397506 0.3692321 -0.7381587 -0.3542956 0.23560144
1068 -0.60250586 -0.6159796 0.4467888 0.7734565 0.07615377 0.38099262 1.6682569 0.07078425 -0.81600165 -0.33515573 0.13891302 -0.21030778 -0.02465638 -1.4044038 -0.2790197 -0.006427309
143 -0.35003424 -0.39353555 0.37138835 0.89782 -0.06702806 0.27323434 1.5809788 0.016193982 -0.3041535 -0.23010764 -0.050165445 0.061820846 0.32427204 -0.7209765 -0.4705273 0.12663506
970 -0.5261226 -0.44937044 0.3152235 0.7899297 -0.06565912 0.36886534 1.3040005 0.020585546 -0.6452484 -0.24956551 0.03724696 -0.30186617 0.16599013 -1.1264995 -0.21846528 0.0155356405
2074 0.08851199 -0.20980124 0.35588366 0.93770915 -0.04651495 0.4559728 1.386333 -0.07562263 -0.54742366 -0.3926036 -0.35046464 -0.1814364 -0.007459345 -0.82605124 -0.46125284 0.1766757
220 -0.1953019 -0.40402278 0.31653398 0.6151692 0.1973388 0.14125624 0.91688156 -0.04280841 -0.103224054 -0.12450506 0.16553593 0.032525115 0.18022881 -0.31892198 -0.31861496 -0.017532233
754 -0.27628064 -0.7978208 0.5053494 1.2597944 0.35530066 0.41289997 2.2423222 0.0028772515 -0.89106286 -0.36463073 0.19004366 -0.326339 0.32790503 -1.2088543 -0.5761452 0.22938831
2580 -0.2265256 -0.28901252 0.24468133 0.56701034 0.11576828 0.06558965 0.9308176 0.023016345 -0.30197006 -0.035540655 0.07204895 -0.015080851 0.26038414 -0.3667925 -0.24925368 0.18702355
1057 -0.08126697 -0.25973597 0.23282948 0.58357686 0.19251962 0.113851905 0.9448975 0.08880199 -0.18155196 -0.12908992 0.067081444 -0.12755947 0.064831175 -0.34310257 -0.15730977 0.13282762
1512 -0.13918781 -0.2008858 0.18131502 0.36636677 0.12525089 0.0311377 0.8221946 0.07213838 -0.16011839 -0.081593975 0.11152364 0.02177188 0.09750919 -0.39392555 -0.123558514 0.10244356
492 -0.032173198 -0.39392865 0.19186418 0.56591916 0.2965134 0.1457597 1.1242335 0.13743313 -0.27873757 -0.25860685 0.049941584 -0.21705505 0.24020186 -0.49783656 -0.26767927 0.104408205
984 -0.065541446 -0.5639405 0.36286777 0.7342269 0.24836332 0.18375742 1.3451595 0.10420697 -0.4331688 -0.27617472 0.15156804 -0.29823467 0.32484967 -0.57775825 -0.43154374 0.09013986
153 -0.22296458 -0.21868533 0.2357483 0.46761033 0.1420649 0.06069038 0.78013605 0.011413064 -0.23036164 -0.11959164 0.027769495 -0.0961039 0.23124313 -0.30628115 -0.22761376 0.13826051
352 -0.10131702 -0.6832517 0.46238956 1.1060787 0.41419193 0.30947092 1.9001948 0.09753641 -0.6323124 -0.30936682 0.22431791 -0.284569 0.33969676 -0.8221708 -0.6090095 0.119772114
2075 0.046850692 -0.19561177 0.27763894 0.7111518 -0.03878629 0.23914295 1.1278002 0.024734905 -0.37128162 -0.20349798 -0.22408229 -0.13478865 0.05136536 -0.64557934 -0.3774063 0.040743582
2225 -0.09870232 -0.82356316 0.29979917 1.2138886 0.57304144 0.45932946 2.3327887 0.3300846 -0.9254701 -0.5348386 0.4092821 -0.42661956 0.45375896 -0.92559946 -0.6373394 0.27304935
3110 -0.3547896 -0.32172063 0.47093913 0.61731833 0.0010637816 0.042593203 1.3125824 0.04353728 -0.34917787 -0.04348175 0.14552596 0.029433254 0.13109224 -0.3225392 -0.23592864 0.2124325
1228 -0.16149524 -0.3824739 0.16035141 0.5328646 0.10240255 0.1874754 0.86856693 -0.021601023 -0.22089651 -0.09730355 -0.007589492 -0.081284046 0.104493976 -0.33790207 -0.23954283 0.091770194
2398 -0.3350724 -0.37431636 0.18570279 0.51153535 -0.013858698 0.14691246 1.095389 0.087159224 -0.2904268 -0.21116127 -0.07310186 -0.16602367 0.25475124 -0.3617598 -0.39638102 0.12528485
2043 -0.20058362 -0.48584977 0.063164 0.8183942 0.20040734 0.11275908 1.0951387 0.16484728 -0.40486342 -0.08647571 0.028961893 -0.12262032 0.16725752 -0.8600083 -0.39618745 -0.025203707
286 -0.05080229 -0.38368875 0.26167294 0.70576936 0.25599405 0.0993872 1.262425 0.1779743 -0.24352181 -0.23326822 0.011100809 -0.05694934 0.21438323 -0.5429055 -0.3186725 0.20712928
941 -0.08384309 -0.32657102 0.2012407 0.57846195 0.28971472 0.051856138 1.1469404 0.17408444 -0.21645118 -0.23906082 0.028428761 -0.22417001 0.09547327 -0.4399822 -0.27470562 0.25282854
115 -0.24743941 -0.22176062 0.2841457 0.6041515 0.15406018 0.20553319 1.2562295 0.103964105 -0.44414097 -0.24409226 0.021083977 0.009146088 0.30623382 -0.5031968 -0.2681641 0.11463464
822 -0.25456476 -0.75876456 0.5268962 0.9798134 0.32220396 0.25030425 1.6495494 0.13798077 -0.4829157 -0.18660657 0.18241347 -0.3286532 0.13469508 -0.44026017 -0.73056746 0.16911724
819 -0.28628173 -0.57282203 0.3944859 0.73112583 0.25508785 0.24522787 1.4036353 0.1279894 -0.44422814 -0.09819295 0.23689705 -0.30716613 0.086791664 -0.40359142 -0.5807368 0.013978242
2210 -0.11278375 -0.67740947 0.29248816 0.6801215 0.16792734 0.21364482 1.0519552 -0.12750009 -0.28165576 -0.21979252 0.013169678 0.057327762 0.31212714 -0.26329222 -0.566786 0.06887668
1670 -0.080787495 -0.49124396 0.33727503 0.83003676 0.29771936 0.24562119 1.6996313 0.10603378 -0.4955457 -0.45758626 -0.012495841 -0.21716267 0.3184329 -0.6519175 -0.4282153 0.15008546
399 -0.16818923 -0.44172087 0.4432182 1.3041437 0.28552508 0.37597686 1.910765 0.22885135 -0.3777669 -0.15547612 0.29296458 -0.2604242 0.5690184 -0.92032856 -0.41408575 0.30648962
1413 -0.41961682 -0.86425805 0.4534571 1.1287339 0.003385681 0.36053905 1.9938494 -0.058846418 -0.64108956 -0.24940738 0.10772163 0.0014579217 0.5070148 -0.7870574 -0.7272979 0.2671241
760 -0.36299378 -0.7357838 0.42346558 1.0691317 0.28189263 0.27420583 1.7002463 0.048225127 -0.43326408 -0.22268978 0.24829485 -0.25415406 0.16698197 -0.5109133 -0.7017826 -0.010440633
559 -0.14397308 -0.47860718 0.36064082 0.83588123 0.15372895 0.27428693 1.7557931 -0.043222226 -0.423555 -0.34080735 0.07319532 -0.074935205 0.14459395 -0.778221 -0.4088432 0.1491567
2077 -0.22255576 -0.53993106 0.16141045 0.66656756 0.15747459 0.22890238 1.2631867 0.10684371 -0.6344404 -0.17182198 0.16823804 -0.31076857 0.32180023 -0.89700735 -0.30466983 0.14489345
2229 -0.06259106 -0.6587656 0.16731355 0.9370173 0.4185547 0.2940023 1.8054435 0.32812282 -0.5189322 -0.45722446 0.32095137 -0.20835015 0.29590204 -0.5864453 -0.51504076 0.19762293
2410 -0.18250519 -0.4152307 0.2460682 0.6499778 0.31668714 0.07114028 1.2462324 0.15165763 -0.16341811 -0.26768777 0.051991202 -0.26561615 0.19370438 -0.41104412 -0.26671645 0.28781217
1023 -0.16039892 -0.4227743 0.33173776 0.81900865 0.12371003 0.28146484 1.4015965 -0.0019381697 -0.30532908 -0.16815652 0.14304587 -0.051034138 0.26375008 -0.63724166 -0.3177444 0.114001
3150 -0.14252438 -0.35348 0.3079423 0.61661416 0.08580031 0.086546496 1.0324467 -0.023077581 -0.15487964 -0.21087062 0.005060143 -0.034990948 0.19672924 -0.4928766 -0.2530768 0.1468311
2059 -0.2083298 -0.359767 0.16148056 0.6531559 0.03511272 0.34753662 1.2795914 -0.06828041 -0.30627617 -0.15564096 0.17978884 0.035976984 0.12563758 -0.6734552 -0.18180777 0.26144564
696 -0.33040583 -0.50776035 0.27732924 1.045779 0.20192344 0.17385286 1.4683573 -0.029324068 -0.37592897 -0.0948174 0.037773095 -0.0807597 0.2831566 -0.5624272 -0.2713374 0.055300433
2976 -0.29753512 -0.4142979 0.30648914 0.5713138 0.023512596 0.22404349 0.93526065 0.05527789 -0.29823372 -0.21095935 -0.021694722 -0.217566 0.037726298 -0.6543061 -0.23497593 0.10342511
943 -0.13896647 -0.25008327 0.23640077 0.4037029 0.1045977 0.18068346 0.80328166 0.07780848 -0.23852094 -0.04326531 0.07486995 0.037656743 0.0793163 -0.33335045 -0.15071155 0.032076187
789 -0.049418487 -0.17212535 0.18745853 0.28989878 0.05203982 0.117591 0.48703545 -0.03152888 -0.18233103 -0.07168851 0.027884586 0.0064381897 0.14389448 -0.24046306 -0.13944203 0.05743317
2208 -0.13030678 -0.5634637 0.26830113 0.5285531 0.1421872 0.24976347 0.9526613 -0.037880734 -0.22566655 -0.15922683 0.06928098 -0.007542642 0.23365186 -0.23744644 -0.39020342 0.12926951
3164 -0.5420118 -0.33111542 0.7230995 0.76828057 -0.0049306927 -0.11175458 1.863533 0.13014892 -0.3881094 -0.114041455 0.3083543 -0.005196914 0.33831403 -0.51956487 -0.44158083 0.18886398
2255 -0.16081178 -0.19958554 0.14779948 0.40652943 0.027207028 0.14240766 0.82625765 -0.028169978 -0.2179639 -0.025546448 -0.0055086343 -0.111388005 0.119996645 -0.42152485 -0.3354595 0.10033848
659 -0.19691254 -0.34080765 0.14585844 0.679271 0.06455874 0.39655957 1.311023 -0.0075255223 -0.36630175 -0.23956186 0.06024412 -0.06288616 0.103130676 -0.62357575 -0.2720244 0.25354716
1022 -0.24642576 -0.30353096 0.32797572 0.5543853 0.1168513 0.04411163 1.1129935 0.053865593 -0.2777654 -0.19139475 0.10176083 -0.07943621 0.1732449 -0.3429185 -0.29903236 0.079041444
814 -0.1603851 -0.23928985 0.12007919 0.36037454 0.1086111 0.044042837 0.5866942 0.027781313 -0.12603894 -0.05152562 0.017476456 -0.08948474 0.04941511 -0.28022543 -0.16242869 0.048879314
701 -0.20614828 -0.5625489 0.34218392 0.93640953 0.18401188 0.18128696 1.4631944 0.03211592 -0.47681233 -0.013789325 0.018324539 -0.27098292 0.14751439 -0.53706723 -0.28693438 0.18486178
2412 -0.15172818 -0.3964329 0.27366295 0.74259573 0.27352896 0.113943085 1.2451634 0.1192935 -0.20826896 -0.20689322 0.07079947 -0.19827826 0.20225516 -0.47052976 -0.2662106 0.1771505
1074 -0.35820088 -0.46740136 0.16382866 0.60926896 0.08507412 0.34688917 1.0516566 0.16400056 -0.608376 -0.29977506 0.059063256 -0.20641364 0.009980834 -0.9699368 -0.25914776 -0.038374297
2064 -0.1589091 -0.37585562 0.25569153 0.77711207 0.1105461 0.32315823 1.0957422 -0.01709833 -0.23167798 -0.077233054 -0.08422195 0.016204879 0.23680742 -0.5113608 -0.36671394 0.10335119
585 -0.19936754 -0.4017057 0.36597887 0.7322334 0.17618334 0.10382822 1.2300836 0.10533295 -0.3729357 -0.20441647 0.008818023 -0.12037841 0.2085334 -0.5723227 -0.30573446 -0.012293799
479 -0.28458154 -0.31286946 0.22100423 0.61746913 0.19802625 0.10192615 1.1992415 0.023986528 -0.35543132 -0.15419152 0.15066095 -0.009067271 0.1955958 -0.4959869 -0.3537486 0.0895152
613 -0.15301919 -0.1992715 0.12285961 0.3184284 0.021189384 0.14961441 0.65126234 0.009492583 -0.19341429 -0.02644297 -0.003345516 -0.031197838 0.089215934 -0.20171677 -0.11261542 0.029524807
777 -0.26837745 -0.42053103 0.115406476 0.5105701 0.07714326 0.31670994 1.0228312 0.1455744 -0.51994795 -0.18987228 -0.022061205 -0.14611503 0.05484849 -0.7235478 -0.20932133 0.034804925
838 -0.05224095 -0.20858365 0.100388795 0.3118079 0.1213198 0.042224232 0.6122212 0.042075753 -0.17402917 -0.13063706 0.013059442 -0.028076278 0.09818167 -0.23157038 -0.18828538 0.066610515
1843 -0.12896888 -0.55064523 0.36359835 0.7605672 0.22622168 0.12676999 1.4855788 -0.028680626 -0.48010442 -0.3973716 0.059892714 -0.17861807 0.14022711 -0.7135471 -0.36886296 0.06889377
1607 -0.22109297 -0.4085203 0.20158917 0.55358154 0.05244256 0.16970013 0.94038606 0.06921586 -0.2843544 -0.057406362 0.035417225 -0.23727618 0.15930112 -0.35920343 -0.25538176 0.0010758857
921 -0.2444697 -0.27688166 0.037909366 0.7551164 0.1025204 0.20632362 1.093068 0.11435994 -0.4262442 -0.14554447 0.032361746 -0.022895483 0.14142245 -0.74787337 -0.32620645 0.02738498
893 -0.14304185 -0.23672582 0.25155216 0.5823933 0.044873215 0.04351881 0.9794863 0.056307357 -0.29733753 -0.12374959 0.095599584 -0.084473886 0.06738227 -0.35884422 -0.14482705 -0.012162926
586 -0.1149951 -0.26040596 0.090822265 0.3737611 0.045525927 0.14933832 0.6698895 0.056273934 -0.21820864 -0.07115372 0.08284962 0.0119294105 0.118831165 -0.36444178 -0.18229234 0.039119292
1689 -0.1430556 -0.27239716 0.100631416 0.279245 0.11994332 0.11658689 0.6326321 0.07339108 -0.22246142 -0.08060577 0.090521 -0.050456386 0.08544545 -0.26505122 -0.20052914 0.10213415
2194 -0.0891958 -0.5247889 0.12538475 0.9946397 0.42316055 0.28337786 1.565842 0.2862707 -0.6238965 -0.40750125 0.2293245 -0.14778021 0.2975551 -0.72779864 -0.56439203 0.15810838
853 -0.09247914 -0.56493866 0.27078608 0.799171 0.17653936 0.11550004 1.5636363 0.06431548 -0.46631345 -0.35295513 0.15754871 -0.10170016 0.14988843 -0.60643274 -0.39863977 0.19518718
514 -0.12432946 -0.4567981 0.19887258 0.46534666 0.042628955 0.14954086 0.8346095 0.00016137311 -0.1692281 -0.09729597 0.014210229 -0.015502756 0.15132853 -0.2105127 -0.37837315 0.09937095
925 -0.24745902 -0.5628554 0.37495542 1.0289981 0.13385843 0.24740891 1.8149861 0.2094935 -0.59228367 -0.1942537 0.29845253 -0.23580226 0.26627475 -0.6550883 -0.39781475 0.2263412
1088 -0.060358696 -0.2276274 0.17800711 0.36398062 0.012083596 0.10749473 0.68787676 -0.030797912 -0.15105723 -0.09148056 0.025143176 0.046979044 0.079586856 -0.34642127 -0.10781116 0.00055787194
2378 -0.28514624 -0.3326774 0.15522322 0.5366739 0.13350926 0.08651865 0.91039664 0.02581483 -0.24258417 -0.10004124 0.12769659 -0.021941736 0.19842435 -0.500486 -0.18057494 0.045269158
2339 -0.14000101 -0.35170504 0.2832249 0.53284496 0.06303273 0.19488828 1.0249354 0.059454184 -0.225522 -0.14989257 0.15067306 -0.07996511 0.088622175 -0.54638326 -0.28928065 -0.0056781257
2071 -0.00011873492 -0.22181928 0.20913069 0.8182868 0.09590323 0.3711144 1.3543565 -0.076006375 -0.4525852 -0.37176788 -0.2509515 -0.094881155 0.030921934 -0.7132861 -0.3476868 0.09354067
3498 -0.048912037 -0.113908455 0.084193796 0.36790654 0.11562384 0.13744776 0.5819102 0.0023378334 -0.1721297 -0.08402226 0.02488988 0.030886486 0.06773878 -0.22389656 -0.116543934 -0.027598409
398 -0.058450058 -0.19312637 0.3141207 0.75966763 0.08347384 0.16535518 1.1136502 0.06824446 -0.15321146 -0.031417158 0.19530058 -0.07234178 0.3310564 -0.47664756 -0.25765583 0.25340304
4540 -0.28941837 -0.39115712 0.2531059 0.80834466 0.013117761 0.22181334 1.1753854 -0.07651747 -0.35329118 -0.22172801 0.031408846 0.026784645 0.25979814 -0.48169312 -0.30945015 0.11864328
3167 -0.33603072 -0.2593866 0.4363451 0.53344584 -0.084801145 -0.085531935 1.3342389 0.120098904 -0.37067753 -0.13807237 0.2005224 -0.022170074 0.16864938 -0.29817972 -0.27708513 0.20552856
699 -0.1932644 -0.30921373 0.06957531 0.53792876 0.014873722 0.20931181 0.9125231 0.07879174 -0.3924585 -0.19863766 0.097801805 -0.15521532 0.13177192 -0.6032343 -0.18602882 0.124643676
2227 -0.079411685 -0.4655421 0.234916 0.73088527 0.43015552 0.15011525 1.5027196 0.23781545 -0.5002772 -0.36586115 0.2619737 -0.23708034 0.29036513 -0.5669279 -0.36244708 0.10985287
2079 -0.05145923 -0.28615165 0.21373795 0.45856518 0.109959945 0.09868021 0.6725879 0.03140567 -0.049624957 -0.027595889 0.12564954 0.03905245 0.15515205 -0.2914942 -0.1871388 0.034669906
261 -0.09671049 -0.22051527 0.07420898 0.27736178 0.06740717 0.14101167 0.58037674 -0.031375133 -0.120643556 -0.081128 0.05822285 -0.008583665 0.10710983 -0.21663442 -0.1638564 0.05289339
2195 0.0075585316 -0.4092992 0.1431279 0.7361139 0.33179525 0.22290456 1.1932197 0.24258897 -0.38708076 -0.2570345 0.2147434 -0.2097227 0.22579873 -0.3817283 -0.32038975 0.05328097
874 -0.086791635 -0.69212013 0.35368627 0.708387 0.2563576 0.2954928 1.3263522 -0.05800024 -0.32083574 -0.18844427 0.029619172 0.023960812 0.30791366 -0.35785246 -0.5616456 0.18295005
1051 -0.12263685 -0.19423439 0.10590321 0.3911613 0.108350314 0.13749938 0.65729064 -0.025986599 -0.23055875 -0.08628344 -0.034342196 -0.10027777 0.07241431 -0.3268445 -0.27236962 0.013487771
3302 -0.08947091 -0.13159932 0.13852297 0.29932186 0.019124424 0.01677754 0.5402702 0.082231045 -0.102786 -0.086093634 0.05570925 -0.10336447 0.06313728 -0.2619854 -0.108473174 0.024964307
201 -0.1468502 -0.23615189 0.11278668 0.23626165 0.048269063 0.041721024 0.51248914 -0.020546254 -0.21076517 -0.07525626 0.03942331 -0.06963993 0.02148771 -0.2615864 -0.20121978 0.024250096
1116 -0.008658063 -0.3100355 0.12542205 0.44586906 0.268462 0.16279358 0.8930124 0.030835953 -0.29456088 -0.24621116 0.05049777 -0.10135864 0.055004794 -0.3289943 -0.24988022 0.03703199
2228 -0.11773149 -0.33551767 0.16689143 0.6042232 0.28257072 0.22897345 1.0593407 0.19671331 -0.41204542 -0.23649198 0.1950918 -0.092538305 0.16013488 -0.36949885 -0.3570126 0.074425146
3219 -0.023132311 -0.20763677 0.11239575 0.22899294 -0.013769475 0.14154166 0.47934446 0.044959202 -0.18979284 -0.09204737 -0.029430397 0.02028923 0.12335228 -0.19932806 -0.07541083 0.0359977
22 -0.23878007 -0.23553388 0.1638459 0.5566481 0.16293281 0.08527205 0.8431106 0.0069832667 -0.16814275 -0.1724307 0.067467324 -0.12140486 0.1921786 -0.41298145 -0.18694396 0.012960559
5942 -0.34180382 -0.68021363 0.29880223 0.8600474 0.13841629 0.20091635 1.5330256 0.17684682 -0.29515344 -0.14101665 0.08089953 0.09012777 0.095508024 -0.6192859 -0.35724837 0.19622843
4171 -0.023740472 -0.16198595 0.07272147 0.22712496 0.055450946 0.028956158 0.45221585 -0.026189774 -0.051837888 -0.06533865 0.045872938 -0.0072764982 0.048616346 -0.16627693 -0.13205498 0.046838753
58 -0.085151754 -0.1909887 0.055156134 0.19786967 0.066097304 0.017488044 0.49484822 -0.0006873651 -0.18495676 -0.059949894 0.075251035 -0.043077543 0.009889189 -0.19884095 -0.1434916 -0.0003356899
504 -0.10321977 -0.18742694 0.1260338 0.27704597 0.13681379 0.087582454 0.6309378 0.09630808 -0.15733434 -0.06329957 0.010108144 -0.008946574 0.07699736 -0.33501768 -0.18387766 0.124932736
2217 -0.13678505 -0.25728378 0.24554218 0.5130115 0.08818031 0.12759349 0.8029244 -0.060087018 -0.21426627 -0.116262406 0.16200835 -0.07261282 0.23676579 -0.32825872 -0.2966851 0.17240898
3106 -0.029638574 -0.1622736 0.15599126 0.24380581 0.11474789 0.1013326 0.5356505 -0.049577076 -0.123570554 -0.052563656 -0.00029516785 -0.077624954 0.11779065 -0.26197496 -0.17455912 0.093740635
555 -0.22295247 -0.24883261 0.21411534 0.5680653 0.08122887 0.06476576 0.8496394 0.030597985 -0.2676153 -0.107335344 0.15061577 -0.10184951 0.10166999 -0.44282448 -0.28380167 0.010405839
52 -0.19658397 -0.18570411 0.33363602 0.51502174 0.0053929086 0.10400319 0.9926817 0.036902167 -0.37531176 -0.11155931 -0.0123853935 -0.021810489 0.22575665 -0.46717924 -0.2875081 -0.0034384062
915 -0.20194763 -0.42763442 0.12190567 0.734717 0.19153516 0.18964417 1.0508164 0.15049087 -0.5169202 -0.2924043 0.10964953 -0.055034023 0.09115156 -0.78163147 -0.41977385 0.02222475
2201 -0.076882444 -0.19230627 0.12665278 0.3490284 0.11178641 0.004431988 0.5100145 -0.050881993 -0.20622899 -0.12368703 0.03251056 -0.099347934 0.020797906 -0.25868043 -0.108834304 0.04535476
3702 0.047801245 -0.3935039 0.056739047 0.46378794 0.34739804 0.1790331 1.0248187 0.13290776 -0.29398653 -0.34566447 0.14966829 -0.015085 0.160662 -0.31493875 -0.3856612 0.054105952
114 -0.17650513 -0.38827482 0.3247854 0.7326562 0.09916488 0.13680345 1.4179631 0.05144916 -0.35144472 -0.14478022 0.073290445 -0.109165974 0.2529103 -0.48212686 -0.39688164 0.22848798
2730 -0.018359048 -0.21033742 0.1404001 0.2795222 0.14613317 0.055250067 0.59836173 0.09061234 -0.08951359 -0.12152196 0.009547678 -0.02419645 0.103078514 -0.2109725 -0.08004155 0.06445453
820 -0.11199511 -0.51774114 0.2828031 0.65103257 0.18758924 0.14786698 1.0135536 0.058519963 -0.3908212 -0.057921596 0.17568484 -0.2298293 0.1356033 -0.26340663 -0.47498092 0.013013654
2212 -0.14012995 -0.24123192 0.1738904 0.6171345 0.048402227 0.16993721 0.9781155 -0.006571837 -0.3121406 -0.13641544 0.11832354 -0.06034819 0.30321017 -0.4725655 -0.3622066 0.19777454
1981 -0.15287806 -0.22977273 0.053282145 0.24641706 0.12537383 0.102504596 0.5414784 -0.043823637 -0.09200335 -0.033547003 0.042702805 -0.113943025 0.062215142 -0.21788216 -0.20591298 0.049633842
2882 -0.123001374 -0.44963747 0.2227336 0.73532814 0.09388711 0.11962123 1.3072135 0.07316286 -0.38138297 -0.30712736 0.095163085 -0.049069714 0.07825319 -0.5026532 -0.38223496 0.028091926
2788 -0.20315361 -0.2763073 0.27720878 0.43690112 0.024550265 -0.025166443 0.7663458 0.01085506 -0.13289861 -0.04888375 0.060733024 -0.05463567 0.041252617 -0.25734657 -0.21589929 0.06720193
1729 -0.06963273 -0.13535397 0.16104975 0.26466823 0.113423616 0.0019351701 0.52196944 -0.035529044 -0.16322953 -0.07337587 0.009361237 -0.021200866 0.14042082 -0.18761009 -0.1503504 0.10411201
134 -0.16247599 -0.4037482 0.23456638 0.7090667 0.098769754 0.12364108 1.1571771 -0.01080463 -0.21988496 -0.19462079 0.14233316 0.017049514 0.10487215 -0.526159 -0.22315301 0.102832556
2078 -0.12518013 -0.19800538 0.052970566 0.4207179 0.054578852 0.06764552 0.61548907 0.030054336 -0.18817942 -0.045282863 0.015470398 -0.07756583 0.11807104 -0.2504997 -0.09207014 0.048586793
1158 -0.086929224 -0.20420144 0.14224128 0.32082435 0.044789836 0.039384563 0.43581215 0.008481973 -0.16980577 -0.012512117 0.040032104 0.053007416 0.010894694 -0.24228418 -0.17494483 -0.021875141
2386 -0.07488578 -0.10431452 0.11079735 0.26726767 -0.017946463 0.042875577 0.39832807 0.033062413 -0.12891747 0.0023833057 0.0059782304 0.019850515 0.08708332 -0.2023253 -0.118700795 0.077783145
443 -0.07266182 -0.0860407 0.13549091 0.28904724 0.08031763 0.0003208857 0.4210131 0.027135702 -0.11166423 -0.045975965 0.041891046 0.024882497 0.034678858 -0.19990328 -0.06708601 0.057185445
1069 -0.3120488 -0.47439808 0.25675443 0.62665766 0.1174262 0.24388361 1.2305299 0.023476308 -0.54724586 -0.32169032 0.11195455 -0.21849228 0.16526806 -0.9664558 -0.33654442 0.03896484
1900 -0.13499337 -0.38893998 0.24616998 0.60973054 0.16247849 0.069614984 1.0250866 0.015081718 -0.19975509 -0.20094848 0.10016167 -0.2064203 0.25323614 -0.22152491 -0.35528687 0.122145444
917 -0.23154713 -0.377912 0.05390122 0.6155786 0.05100983 0.13363908 0.94475055 0.08503948 -0.37480587 -0.15682241 -0.002983012 -0.060358103 0.108038045 -0.5937639 -0.31707218 0.061461758
1948 -0.10393381 -0.38539073 0.21449794 0.6850162 0.18881203 0.09954197 1.1326917 0.073170334 -0.29079044 -0.15547882 0.06956002 -0.03143125 0.19289252 -0.5332427 -0.29138416 0.09135165
3982 -0.13275383 -0.3150813 0.29450437 0.54205585 0.08719356 0.15523493 0.99786246 0.010920691 -0.30093858 -0.14471859 0.039565433 -0.05637115 0.055070065 -0.48533666 -0.22745632 0.07454395
1073 -0.25319597 -0.43751013 0.19181512 0.52151567 0.10120497 0.2640255 1.0248629 0.11749132 -0.54449826 -0.22505555 -0.02647713 -0.19611382 0.03295088 -0.8524858 -0.18192269 0.025333632
1002 -0.1495909 -0.30763656 0.12785149 0.39586416 0.16581923 0.0816405 0.86224145 -0.005493609 -0.14029126 -0.07952634 0.07782513 -0.09286764 0.13614765 -0.38972732 -0.1543711 0.09050899
396 -0.09541877 -0.2132724 0.32931647 0.68034995 0.16975655 0.21058576 0.9519065 0.121978514 -0.19184768 0.029309973 0.17299128 -0.051900364 0.35627973 -0.4683749 -0.27788904 0.2769275
5172 -0.2000565 -0.60080403 0.31225199 0.7255364 0.14562705 0.062482074 1.3877689 0.14726043 -0.21702304 -0.17696062 0.051508494 0.080037564 0.11971496 -0.62005246 -0.24075213 0.22534041
394 -0.05896547 -0.22043954 0.2657355 0.7154743 0.051862337 0.22840898 0.9755876 0.09598781 -0.13131167 0.003506815 0.1590702 -0.075855136 0.4039243 -0.45609084 -0.24641544 0.18586864
2396 -0.21443282 -0.26678133 0.12568617 0.3979633 -0.028706225 0.15669233 0.8424115 0.025681462 -0.24068718 -0.13596079 -0.009228766 -0.008550897 0.2098516 -0.3661173 -0.2749724 0.0006177623
2596 -0.14345539 -0.17403063 0.07746952 0.37069863 0.11180416 0.2006466 0.7426439 0.008075667 -0.26985794 -0.15426481 -0.04108393 -0.08831825 0.011345929 -0.3341209 -0.21467628 -0.010426877
5339 -0.23669094 -0.60837054 0.30281305 0.84176826 0.09876771 0.21518564 1.4276228 0.11119644 -0.2814753 -0.2223826 0.14826658 0.037185635 0.20927574 -0.6207054 -0.35821295 0.26733682
2558 -0.10976676 -0.188116 0.13580129 0.16381441 0.0057367347 0.0354248 0.45125544 -0.033923406 -0.06324782 -0.054651868 0.05227338 0.019188639 0.06859969 -0.12842959 -0.115113094 -0.030719697
1592 -0.0157395 -0.24156764 0.16512229 0.2956928 0.047077365 0.03565855 0.5764452 -0.008559541 -0.13193049 -0.15425092 -0.01006613 -0.10423829 0.14313464 -0.25420988 -0.13658226 0.028121378
5158 -0.09533058 -0.10265716 0.08399558 0.22636099 0.08620382 0.13121052 0.6056794 -0.016871355 -0.09977714 -0.016574953 -0.0060922555 0.028037207 0.014815948 -0.20310676 -0.12429158 0.07080832
2087 -0.20081398 -0.31911904 0.28467232 0.5866333 0.045770355 0.15509075 0.9370763 0.004861972 -0.1667703 -0.16068207 0.03364919 -0.13245156 0.08852171 -0.40648937 -0.27553254 0.02333521
3814 -0.10593085 -0.31138536 0.15268858 0.5130393 0.18681858 0.10782272 0.85491157 0.037352897 -0.21151549 -0.055275243 0.022622364 -0.039478455 0.14320935 -0.37458315 -0.23186539 0.07227465
184 -0.025858635 -0.14147326 0.16417699 0.22759156 0.07733541 0.048558533 0.44125703 0.027120575 -0.15972477 -0.11238281 0.050469957 0.018696768 0.027032733 -0.27477348 -0.1420016 0.08059841
291 -0.19361453 -0.15178189 0.14503638 0.40837032 0.04806853 0.038607575 0.66814464 0.035496373 -0.20551339 -0.07462121 0.031704217 0.008087969 0.16295135 -0.31909293 -0.11689345 0.015756497
1510 -0.11041695 -0.12046903 0.1722175 0.25611115 0.04945172 0.004023779 0.5479587 0.0672369 -0.18516292 -0.031047069 0.08573524 -0.06040887 0.020939503 -0.26736513 -0.15851957 0.06342384
1787 0.03940414 -0.57432866 0.24356176 0.9124002 0.17307998 0.19574817 1.6149244 0.12614177 -0.56300527 -0.4938828 0.07400578 -0.06097703 0.05370426 -0.73175913 -0.42987314 0.16863689
5567 -0.249698 -0.39705303 0.21467568 0.5279218 0.06044031 0.09816499 0.92745095 0.051754534 -0.15518261 -0.12056806 0.09475801 0.034668703 0.0388032 -0.41804904 -0.1403165 0.07336485
1861 -0.15107775 -0.30551744 0.2352952 0.43579957 0.19267036 0.034526404 0.8133059 -0.058445208 -0.11488191 -0.11014553 0.04759098 -0.12545417 0.19402863 -0.2380961 -0.27052578 -0.018787103
2708 -0.064271934 -0.21181083 0.03114941 0.3179714 0.014059074 0.012029457 0.5811929 -0.0042439653 -0.14582373 -0.10687736 0.00018544256 -0.08200978 0.011578635 -0.2652756 -0.20751296 0.09151125
1984 -0.05132513 -0.17241853 0.14152814 0.1916194 0.08524835 0.096359834 0.4715088 -0.04010885 -0.1401308 -0.0150567 0.008127656 0.00046432874 0.1337308 -0.18932864 -0.15971874 0.07459149
1331 -0.11844947 -0.20879433 0.20428601 0.23240449 0.05224214 0.02509033 0.5287824 0.019636214 -0.10368967 -0.096606694 0.005426972 0.016298061 0.058337163 -0.28654465 -0.15836804 0.055576265
533 -0.05378341 -0.20277028 0.22195463 0.27762488 0.13287154 0.13631886 0.6763336 -0.006932126 -0.15790594 -0.08845451 -0.017393148 -0.098621815 0.10287731 -0.30374736 -0.11403567 0.052194
569 -0.060327966 -0.21591029 0.20689107 0.3108428 0.11590327 0.059127614 0.65163857 0.025124151 -0.21384929 -0.013940551 0.04723016 -0.06121732 0.017184706 -0.19173603 -0.13858548 0.023150636
64 -0.12178947 -0.2928875 0.29950362 0.55199987 0.073103935 0.062442806 0.8086208 0.09084887 -0.24874105 -0.0873502 0.035203293 0.033403456 0.20883636 -0.39159822 -0.22315642 0.13959505
2219 -0.102125354 -0.15555097 0.13021263 0.27309522 0.100421906 0.037822407 0.5458052 0.074963935 -0.21886636 -0.10005034 0.010242373 0.002658004 0.14552091 -0.30176812 -0.12816752 0.05918114
2363 -0.40255767 -0.33035946 0.42947206 0.6282361 -0.004679266 -0.031491958 1.467184 0.14970411 -0.3877533 -0.09427582 0.19848865 -0.04661511 0.15159495 -0.41166857 -0.29145056 0.2245733
97 -0.05003007 -0.13671167 0.15152627 0.2302554 0.04735038 0.015900977 0.5501396 0.060087826 -0.15251495 -0.04314675 0.06612461 -0.01666993 0.082879804 -0.26598147 -0.07188877 -0.0014959284
2384 -0.13470122 -0.2049334 0.08028052 0.27188474 -0.0018052667 0.07365854 0.49334228 -0.010399424 -0.09203778 -0.028615048 0.05120705 -0.044424586 0.14759591 -0.22935809 -0.09647833 0.10298747
732 -0.2602693 -0.3708631 0.28469104 0.49858314 0.08771318 0.1365489 0.83674836 -0.022372292 -0.27635586 -0.046748683 0.030642815 -0.13918996 0.09603962 -0.34770668 -0.26357314 0.016234035
2017 -0.089325204 -0.18723232 0.08125826 0.27219912 0.109444104 0.06512172 0.4784661 0.04045601 -0.07647445 -0.14520621 -0.016325008 0.0043197703 0.0069066593 -0.20687698 -0.20113331 0.09922493
856 -0.22214714 -0.4877883 0.31169516 0.72238344 0.21616583 0.28288677 1.4133458 0.10090859 -0.3840606 -0.18980365 0.08313284 -0.106879905 0.20492773 -0.47236285 -0.4280574 0.04650211
1767 -0.12142043 -0.23334871 0.12593359 0.40153095 0.021246659 0.12545812 0.8909405 0.04822754 -0.16932614 -0.06715536 0.073553495 -0.114729136 0.13596852 -0.37626204 -0.25220838 0.08840207
2539 -0.0878012 -0.07683469 0.09554152 0.25679687 0.040091142 -0.0018939357 0.38078573 0.049328778 -0.16398603 -0.040164303 0.05125153 -0.08871656 0.05072511 -0.23736843 -0.18136203 0.030634135
2062 -0.043904692 -0.23074813 0.0930188 0.4753548 0.090141356 0.22366683 0.68187004 -0.0136989355 -0.24161647 -0.079558514 0.11735057 -0.032912828 0.12137877 -0.44449517 -0.078415506 0.21283679
460 -0.11550034 -0.1330103 0.17680056 0.4252781 0.013201528 0.0303417 0.67039984 -0.056232765 -0.1875398 -0.025166024 0.09003162 -0.06839224 0.1532987 -0.2994967 -0.20232588 0.09521406
2238 -0.12638319 -0.32274184 0.18198459 0.5256481 0.10207357 0.07553054 0.9055211 0.028066339 -0.23423216 -0.06875394 0.09290034 -0.017106637 0.14253525 -0.40092725 -0.17481253 0.090595745
5018 -0.19896843 -0.20551766 0.22079647 0.26765096 0.06447653 -0.059058245 0.66986704 0.061386865 -0.133083 -0.021005647 0.029102491 0.015771745 0.16780643 -0.22322996 -0.12171479 0.09330535
521 0.0079235565 -0.23359463 0.1408416 0.39444265 0.106499806 0.008288827 0.7604233 -0.01636122 -0.24405643 -0.20321777 0.09175194 -0.029906247 0.0598925 -0.33828324 -0.21017005 0.04999802
2570 -0.17686172 -0.28558943 0.18508671 0.45546582 0.104395926 0.13920242 0.77546173 -0.0031947987 -0.260376 -0.040069167 0.08920592 -0.09683289 0.1556654 -0.26757336 -0.27504134 0.041332167
223 -0.08624618 -0.19052409 0.108953826 0.41534907 0.15194297 0.08207974 0.6571495 0.045580663 -0.2944885 -0.2187636 -0.06471173 -0.083060004 0.055330534 -0.34376246 -0.24376771 0.10814044
33 -0.12588252 -0.4431481 0.34489474 0.55261564 0.13401265 0.14525363 1.0606183 -0.006196148 -0.26989162 -0.12628865 0.0053363214 -0.1519665 0.0941871 -0.40560266 -0.33594075 0.005502969
1895 -0.039586436 -0.14579162 0.11296588 0.26752213 0.027861126 0.101314366 0.36599702 -0.0007303006 -0.1652959 -0.06302592 -0.025574764 0.026927441 0.09172383 -0.23337674 -0.073935054 0.0755562
39 -0.17466892 -0.19165091 0.10875672 0.46895096 0.11497227 0.082219236 0.6701196 0.006500327 -0.16656093 -0.08319852 0.11084331 -0.053377766 0.037096083 -0.37471604 -0.20301834 0.07185315
1609 -0.08719229 -0.16656557 0.16395445 0.26703724 0.08446921 0.090552 0.42178518 -0.0063585974 -0.17124264 -0.10549963 -0.0017791017 0.019233255 0.051162127 -0.15252358 -0.1395964 0.0060674823
2000 -0.18012775 -0.41691467 0.2510668 0.65775305 0.05445836 0.22360407 1.1638347 -0.013367743 -0.46019801 -0.11488393 0.11314186 -0.044322826 0.21962024 -0.7038004 -0.2631242 0.12512088
1557 -0.087438256 -0.45424834 0.36005977 0.7034561 0.2234533 0.20572655 1.3119397 0.12193131 -0.25211766 -0.13695094 0.21813536 -0.06902386 0.20547755 -0.40434712 -0.3381539 0.13842356
364 -0.062163305 -0.13490185 0.11647455 0.18173927 0.019562278 0.0498433 0.4144649 -0.028020568 -0.050246038 -0.07395427 0.06461863 -0.0034852582 0.093720816 -0.21030718 -0.12918387 0.04223507
1535 -0.3848151 -0.32415038 0.46395582 0.756689 0.018126825 0.0042478847 1.616334 0.09361819 -0.47141483 -0.15541622 0.25598252 -0.032210574 0.2231452 -0.44650707 -0.3472592 0.1574436
1576 -0.100968115 -0.1467672 0.06924185 0.32342735 0.09060149 0.12108422 0.534653 0.025036292 -0.15479998 -0.12390983 0.0811192 -0.0723703 0.07623338 -0.24576883 -0.10832553 -0.006780264
871 -0.061439123 -0.14916539 0.087100536 0.21944502 0.009780076 0.08650916 0.4365033 0.05415608 -0.1498556 -0.12189803 0.00071330357 0.008376088 0.0510834 -0.17386386 -0.1935271 -0.018661072
2402 -0.2387116 -0.25935817 0.10766971 0.27208772 -0.052931692 0.096603245 0.7824062 -0.033998378 -0.23820515 -0.09293784 -0.008924831 -0.12231731 0.20676197 -0.35546297 -0.21675955 0.10140962
397 -0.05506608 -0.16270646 0.3170648 0.6299442 0.04771648 0.203057 0.8140234 0.029013341 -0.12175111 -0.08033391 0.11373041 -0.08481768 0.31385884 -0.3191317 -0.2091256 0.22968632
1429 -0.14693609 -0.19012995 0.102445126 0.50150335 -0.023590185 0.23000367 0.96745616 -0.021081856 -0.26658764 -0.15289378 0.13775682 -0.044770308 0.05353156 -0.4917448 -0.15025048 0.28307787
2653 -0.03103343 -0.13965912 0.22309512 0.26664594 0.07858052 -0.0012465657 0.53828764 -0.040617876 -0.11587104 -0.05700149 0.0037683207 -0.009349723 0.06361382 -0.18024392 -0.21341449 0.008628809
377 -0.0956169 -0.09297345 0.12237905 0.21911667 0.08074353 0.054449216 0.41231927 0.07836627 -0.1341206 -0.00084252725 0.004140297 -0.06511645 0.031707294 -0.21026121 -0.113200724 0.035912786
2594 -0.15490152 -0.28255257 0.20543642 0.57137394 0.10758143 0.107116096 0.9205407 0.0015709399 -0.27304196 -0.13988636 0.03611789 -0.047960125 0.07217682 -0.37336385 -0.26071548 0.03845322
829 -0.10098262 -0.15615688 0.06261043 0.15234752 0.04113838 -0.01046102 0.3509503 -0.03290402 -0.031896632 -0.054560862 -0.024450786 0.009000342 0.0064303987 -0.17863585 -0.08219503 -0.019799523
841 -0.1411222 -0.19196165 0.14518721 0.29531756 0.07846232 0.060342483 0.46552148 -0.01358173 -0.040550053 -0.010323126 0.058484316 0.032296006 0.004224467 -0.1885973 -0.06043331 0.02690033
3067 -0.2768731 -0.37271947 0.22525813 0.58690673 0.067839555 0.19591288 0.96850574 0.014307386 -0.3071558 -0.0828374 0.003442355 -0.109170154 0.15097782 -0.5220848 -0.31291047 0.06399891
1071 -0.25009605 -0.37880275 0.2574999 0.525389 0.09445844 0.25592107 1.0808306 0.14336784 -0.44625804 -0.1809888 -0.027503379 -0.21634376 -0.0078554265 -0.71528715 -0.31053504 -0.01759651
1458 -0.08487843 -0.1350408 0.055281065 0.27577382 0.0837213 0.08078317 0.46275884 0.08167393 -0.05492238 -0.06043265 0.034505818 -0.08941758 0.0314909 -0.21314794 -0.10232129 0.037074383
920 -0.37209344 -0.3922758 0.27143788 0.9456819 0.11727441 0.15984523 1.4669302 0.14613545 -0.53068286 -0.1699774 0.18591732 -0.08304056 0.35475132 -0.8287425 -0.4194488 0.19494985
24 -0.09234423 -0.17100525 0.07276396 0.23867477 0.02446164 0.11060489 0.4834791 -0.03325121 -0.06970794 -0.08405801 0.030360004 -0.039715808 0.083713904 -0.23760994 -0.13810264 0.022106448
327 -0.15221936 -0.34053156 0.20033127 0.6115925 0.14545117 0.17884381 1.0867125 0.026536062 -0.38988474 -0.17037892 -0.01848961 -0.095095105 0.20058304 -0.65872043 -0.2592117 0.0702019
1298 -0.22755916 -0.43840224 0.24423261 0.64001656 0.06437431 0.1325633 0.99669605 0.0967253 -0.3789355 -0.112996966 0.055616535 -0.17081435 0.13280185 -0.564081 -0.26646575 0.010228032
1897 -0.2040098 -0.42822585 0.27731413 0.5863722 0.16733801 0.1685712 1.0627427 0.04832568 -0.27585146 -0.15322345 0.0409576 -0.14768247 0.22653103 -0.40807664 -0.36990073 0.09371768
2564 -0.023948908 -0.14626639 0.10469487 0.22058369 0.022279354 0.004494835 0.38239115 -0.046489723 -0.15159293 -0.010119285 0.091514625 -0.037225686 0.060740866 -0.14181748 -0.107443936 0.0022148942
2397 -0.25515038 -0.4398013 0.2645301 0.617068 0.1562083 0.22325687 1.2365474 0.02054663 -0.33359146 -0.17046493 -0.055127896 -0.0414437 0.2125802 -0.5052424 -0.3308926 0.11642014
1493 -0.039444845 -0.15205778 0.015737819 0.22568785 0.04219969 -0.018180406 0.44402412 -0.032266688 -0.07573512 -0.081105545 -0.038276646 -0.0880883 0.094287805 -0.2181871 -0.06643938 0.01335723
3213 0.011562911 -0.093496084 0.15415029 0.27730548 0.00501224 -0.01610393 0.35631227 0.016985431 -0.07447218 -0.034325924 0.022647444 0.0020484054 0.031581927 -0.21730255 -0.07751725 -0.03595071
779 -0.076674215 -0.22554138 0.18795708 0.27998686 0.08334309 0.016298838 0.53480345 -0.044959538 -0.05302447 -0.037590567 0.114852756 -0.025445864 0.058224063 -0.23158908 -0.09347729 -0.00030205108
256 -0.040022586 -0.15028438 0.15051329 0.20686097 0.04879039 0.05340064 0.39528388 0.07409991 -0.12368299 -0.018172408 0.028513905 -0.0004220708 0.07541125 -0.14681815 -0.18553996 0.08585493
1330 -0.016462818 -0.1355236 0.13674736 0.25207862 0.08616065 0.022798907 0.44350886 0.02189006 -0.07447879 0.00049815106 -0.034961153 -0.016561467 -0.011504327 -0.21023487 -0.18099007 0.051244482
1904 -0.078394555 -0.12091496 0.13070142 0.1390501 0.050792854 0.029363807 0.32997826 -0.03965282 -0.14932686 0.0036816613 -0.02194141 0.0037108073 0.026285794 -0.1656217 -0.08269989 -0.034151934
109 -0.22000055 -0.3535177 0.20979026 0.6022339 0.08477744 0.1364984 1.0624946 0.0014518268 -0.28784874 -0.10623331 0.06912226 -0.12845431 0.1743174 -0.50405276 -0.33379033 0.070198365
726 -0.042407352 -0.1738335 0.063525185 0.26352987 0.09074293 0.012132387 0.41939566 -0.038603324 -0.08812399 -0.0072426153 0.00015516605 0.04128133 0.060165044 -0.14701663 -0.06260378 -0.017492518
1455 -0.22977626 -0.42202094 0.28242418 0.56450844 0.1477996 0.058449633 1.1008208 0.03375016 -0.23160665 -0.199114 0.057888314 -0.058176205 0.20050244 -0.3994786 -0.32298797 0.023422243
3338 -0.16023101 -0.44259536 0.16279066 0.55466205 0.114802934 0.14462273 0.8994796 0.0955686 -0.19086358 -0.17010994 0.0666096 0.06109922 0.06259468 -0.40258414 -0.1956945 0.12493977
824 -0.10807275 -0.19467443 0.22376353 0.45973969 0.15381378 0.030274142 0.8025349 0.05042616 -0.24468435 -0.14862692 0.082262196 -0.0121994205 0.03310187 -0.2992619 -0.20458485 0.04421726
963 -0.13136771 -0.39319646 0.31693292 0.4999571 0.15508726 0.18698615 0.9783913 -0.033061452 -0.2030098 -0.20113422 0.0061975284 -0.08919892 0.10494175 -0.38423863 -0.21678308 0.086788364
57 -0.008816975 -0.060548533 0.123532005 0.22652677 0.079976186 0.08132823 0.39492643 0.054397825 -0.13951406 0.0072106547 0.076145954 0.04225376 -0.008424809 -0.18037197 -0.09584765 0.05498983
1671 -0.23154047 -0.28856838 0.27176845 0.5184932 0.06744855 0.1018911 0.9662028 0.018502107 -0.21041815 -0.19261266 0.04230825 -0.021593533 0.17733535 -0.47677886 -0.30975997 0.07514876
168 -0.10732282 -0.46196944 0.2848173 0.66572094 0.092285626 0.2398378 1.1007537 -0.005464129 -0.27516538 -0.20159367 0.029979853 -0.037149593 0.102023356 -0.561809 -0.35685283 0.114343286
2647 -0.20496705 -0.19605817 0.11226475 0.43677136 0.049425848 0.041233443 0.75688493 -0.048223525 -0.16168171 -0.12452257 -0.00062608655 -0.0841052 0.14737701 -0.34784272 -0.15473446 -0.01242529
697 -0.21962449 -0.3061653 0.09266659 0.49953178 -0.074921176 0.18948156 0.7267126 0.012281404 -0.25076622 -0.16944638 0.04748335 -0.0226476 0.121557795 -0.40624133 -0.1285272 0.0070678242
2182 -0.3657442 -0.33604497 0.31028375 0.621582 0.09293104 0.05559462 1.2274932 0.06250105 -0.24258156 -0.0151049895 0.1307087 0.05974699 0.15068033 -0.58360964 -0.31216493 0.12729883
1906 0.05456879 -0.39871266 0.125718 0.5121753 0.09341804 -0.009609267 0.83165985 -0.029462254 -0.31703255 -0.28972682 0.027377065 -0.009386489 0.08030659 -0.31820217 -0.16884097 0.10438816
3018 -0.0981186 -0.069870315 0.01896133 0.16845755 0.09185378 0.10571712 0.32896677 -0.03795792 -0.03781349 -0.07847631 -0.0054856283 0.02767527 0.08903564 -0.14617495 -0.108600505 0.084783114
3620 -0.05231656 -0.102250405 0.20469864 0.25533715 0.0526148 0.053715505 0.6538866 0.0764252 -0.14875272 -0.033567283 0.036980994 -0.008682804 0.058005646 -0.37654006 -0.22295953 0.08630023
1024 -0.112427406 -0.14990601 0.11706985 0.20663306 0.10760496 0.072428554 0.46042773 0.07404993 -0.108852625 -0.07491713 -0.04206882 0.04151196 -0.019076385 -0.14115638 -0.09115994 0.025738806
32 -0.20961483 -0.18029661 0.2028392 0.46318725 0.055112652 0.045732796 0.8163261 -0.02980576 -0.25984532 -0.15906064 0.07264542 -0.0453629 0.108420424 -0.3374384 -0.23179516 0.009549136
4403 -0.0697047 -0.23586525 0.13808033 0.38769227 0.08083688 0.09856666 0.60715973 -0.0020381052 -0.18079504 -0.01264061 0.0694775 -0.039920274 0.0875904 -0.2749175 -0.11744179 0.023438543
907 -0.09025593 -0.29515454 0.18140337 0.47427538 0.049972173 0.08416754 0.6991972 0.037620366 -0.18674628 -0.09666369 0.055357512 -0.05613274 0.12799205 -0.36531502 -0.16732399 0.015257923
3490 -0.09232845 -0.15657942 0.018677797 0.15428299 0.06289566 0.07164913 0.32128835 -0.053447794 -0.12503727 -0.018580891 -0.03841259 0.0042593717 0.09205815 -0.118774734 -0.15330467 0.04222363
326 -0.18184276 -0.17571242 0.150977 0.4214108 0.115491524 0.08673506 0.8158341 -0.011305871 -0.1505231 -0.17503189 0.08368596 -0.044537723 0.06334992 -0.3495129 -0.2160614 0.051933005
2133 -0.16591097 -0.2918666 0.07392317 0.24865566 -0.04218824 0.03314746 0.6857956 0.02677646 -0.21939613 -0.128845 0.060266696 -0.03870038 0.076223575 -0.32396042 -0.13074544 -0.028764576
2164 -0.11697631 -0.06416857 0.038441606 0.21876259 0.04664223 0.11332765 0.39120385 0.025435096 -0.07609569 -0.02388868 0.040458586 -0.0456812 0.07661072 -0.122953504 -0.029725395 0.02228447
454 -0.08248634 -0.111633405 0.04704973 0.26322773 0.020363944 0.10055029 0.39532515 0.040129136 -0.06467851 -0.06944055 -0.03062848 -0.10372615 0.0870265 -0.23429361 -0.07913936 0.022682933
1907 0.07682985 -0.31980568 0.08716602 0.39162764 0.119665675 0.011890341 0.83128595 0.0029229114 -0.3047914 -0.2428551 0.026203502 -0.09972591 0.0342731 -0.34469962 -0.20557323 0.10087813
1908 -0.005901996 -0.47948566 0.36070874 0.7683754 0.11648365 0.1515645 1.4017186 0.072470605 -0.45219734 -0.2834079 0.1320997 -0.11165164 0.18381189 -0.5930083 -0.35296354 0.08832804
3850 -0.20794877 -0.32426837 0.27545333 0.64347506 0.044405114 0.16128418 1.1040099 -0.001628105 -0.26300925 -0.22980617 0.042039618 -0.067662194 0.16987838 -0.56321275 -0.2605939 0.121745765
1899 -0.076781034 -0.29114383 0.23451348 0.34471223 0.16252358 0.05713714 0.67516375 -0.061913256 -0.16916095 -0.14947659 0.0062248474 -0.032755047 0.1581287 -0.20730956 -0.24977739 0.07679473
3169 -0.2951324 -0.17337215 0.29794896 0.3944347 -0.036352172 -0.05098238 0.9829875 0.08300712 -0.29705295 -0.06564775 0.12363327 -0.06557149 0.07600958 -0.2261239 -0.15237033 0.14673848
3004 -0.19202958 -0.22995844 0.21826552 0.36915937 0.142446 0.14367533 0.71868515 0.023362197 -0.14247715 -0.132058 0.048530232 -0.08764928 0.15100302 -0.28525808 -0.19678536 0.008327955
1065 -0.08344374 -0.21654084 0.045746166 0.29293156 0.035378236 0.07089262 0.49032557 -0.07307418 -0.06556851 -0.10434648 -0.009579133 0.026223633 0.055413228 -0.19340247 -0.19942181 0.024706068
1048 -0.10172621 -0.17840083 0.15662396 0.29967842 0.054341145 0.052107308 0.4070734 0.072576545 -0.15079147 -0.025003834 0.098081164 0.011857867 0.05864112 -0.17603557 -0.082457595 -0.0038696649
712 -0.08095083 -0.08285382 0.14284597 0.21194291 0.053248763 -0.007524085 0.33863994 -0.019974269 -0.14140588 -0.038782734 0.006249498 -0.022446563 0.11886665 -0.10766198 -0.050931536 0.045931447
2355 -0.09049072 -0.1140275 0.07792901 0.16778466 0.09424043 -0.014759442 0.42048573 -0.013606144 -0.14263207 -0.05606205 -0.011761851 0.02861748 0.021406462 -0.23307548 -0.07288015 0.04977227
2786 -0.045941334 -0.13875973 0.084502794 0.23640844 0.06573198 0.11740747 0.4338753 0.005514596 -0.108253494 -0.014448153 -0.012792203 -0.05796732 0.048891056 -0.20503703 -0.089712046 0.07862339
882 -0.18682626 -0.14422874 0.119290456 0.33770132 -0.003782239 0.039755836 0.70722467 0.034352064 -0.20539238 -0.05445736 -0.032330364 -0.1007512 0.10482125 -0.2547895 -0.15634504 0.10112157
2401 -0.15497546 -0.2788811 0.1561265 0.32048133 0.010195881 0.15190841 0.60314333 0.010832894 -0.16964284 -0.034951206 -0.029613072 -0.010966916 0.10790739 -0.34019378 -0.25385508 0.02225737
5943 -0.07359436 -0.34645855 0.13051903 0.47110465 0.010926305 0.06650814 0.79335606 0.046083137 -0.1383724 -0.10315856 0.09348081 0.020781707 0.009823141 -0.24054885 -0.16763477 0.17823544
3703 -0.05637041 -0.21861123 0.053887732 0.3180174 0.21184754 0.11403863 0.74379635 0.07729146 -0.2600266 -0.21409628 0.076040536 -0.016791953 0.13636743 -0.2676683 -0.2800427 0.08991798
419 -0.19778042 -0.22462583 0.20752944 0.3920704 0.04193834 0.032974675 0.67556435 0.06654207 -0.16670118 -0.10251517 0.0995773 -0.10121744 0.11679125 -0.35727772 -0.26795232 -0.016541094
666 -0.07163389 -0.47956565 0.23992139 0.8321432 0.11834532 0.15373729 1.4737152 0.0960227 -0.5033626 -0.33909443 0.06910796 -0.107425414 0.119080305 -0.5926754 -0.38411388 0.1096599
290 -0.06914301 -0.19771057 0.1724915 0.37060884 0.068128996 0.12905003 0.73919916 0.019185876 -0.2074755 -0.114262745 0.0561218 -0.09230714 0.07175587 -0.40054676 -0.17197426 0.039439917
2207 -0.044110186 -0.41928 0.21698737 0.4083796 0.16693684 0.15554218 0.76931965 -0.014930498 -0.18972176 -0.08374751 0.06653396 -0.062740296 0.15795287 -0.19737138 -0.38958463 0.11304786
2082 -0.055170514 -0.24846302 0.21148503 0.36700425 0.09162182 0.12185728 0.5662658 -0.06292539 -0.058654957 -0.13373122 0.13312206 0.0345825 0.036638506 -0.20735519 -0.11786576 -0.0068158857
1588 -0.120580465 -0.18562464 0.11700788 0.2613862 0.033541173 0.054023348 0.33102438 -0.016902545 -0.07389903 -0.11345772 -0.027632069 -0.025396058 0.0007995899 -0.21523182 -0.075760186 0.09176321
821 -0.3450248 -0.38381556 0.41858056 0.83896357 0.08121097 0.26666707 1.2837946 0.016913427 -0.3689287 -0.16513242 0.045624897 -0.12678164 0.2658875 -0.5492041 -0.45269147 0.14601281
2974 -0.17115936 -0.30834898 0.18143035 0.3268098 0.06782416 0.17080428 0.6925028 0.096876375 -0.216506 -0.17649017 0.038144447 -0.10137043 0.07118034 -0.37752143 -0.13103788 -0.06230404
1727 -0.084614776 -0.1933438 0.23134226 0.46911868 -0.0016640662 0.08646318 0.87087554 0.10040427 -0.25522843 -0.12499912 -0.015672471 -0.03921211 0.22149657 -0.46223992 -0.15478724 0.05418686
78 -0.0860271 -0.10480616 0.17547476 0.32753125 0.13017392 -0.011526103 0.5105588 -0.04554319 -0.17307587 -0.11625599 0.06102798 -8.8642424e-05 0.013074317 -0.18184811 -0.15790455 -0.00966194
1234 -0.07779781 -0.11166664 0.1262673 0.22383636 0.02813147 0.024876013 0.42737156 0.04786953 -0.061539028 -0.006353108 -0.018306779 -0.07415537 0.0062521193 -0.23824212 -0.10031384 0.0027490284
2058 -0.1393856 -0.14786427 0.14200208 0.493565 0.06570511 0.24576157 0.8300469 -0.103609994 -0.20887195 -0.085825816 0.115140714 -0.015513945 0.13737634 -0.44159642 -0.07849584 0.16352966
4855 -0.030994453 -0.111715615 0.013375507 0.22305772 -0.011371983 -0.0038823811 0.36652437 0.07136835 -0.10559056 -0.0014831647 0.060381092 -0.00049522583 0.011082722 -0.116619505 -0.14477612 -0.0037269345
691 -0.030950328 -0.17278509 0.12247658 0.17214829 0.036349833 -0.005997546 0.31350657 -0.014450861 -0.03749187 -0.008730558 -0.040437903 -0.068752214 0.07915288 -0.21542734 -0.05551408 0.062427793
3569 -0.17901625 -0.2505633 0.2670103 0.52276903 0.16467519 0.078634396 1.0203998 0.12368158 -0.2384305 -0.23593709 0.13755721 -0.107947685 0.10565556 -0.3736557 -0.24618253 0.13263106
2824 -0.1926585 -0.21451305 0.13568565 0.3906929 0.12707229 0.117837854 0.73768926 -0.0055086627 -0.15216176 -0.027434677 0.008379773 -0.010617385 0.021475952 -0.2504986 -0.1595567 0.067313686
2431 -0.029171385 -0.07789174 0.05232259 0.13186665 0.01617365 0.045816615 0.2890723 -0.043537937 -0.12226013 0.011361725 0.07852777 0.018272953 0.018652417 -0.13774867 -0.14220569 0.065794475
756 -0.14375286 -0.23102045 0.124230266 0.43453807 0.09303619 0.172145 0.6954274 -0.019450968 -0.22739108 -0.18165924 0.08152259 -0.052514624 0.09428806 -0.4052278 -0.27353114 0.029659422
816 -0.019940669 -0.15610127 0.04573464 0.2942908 0.0064672558 0.09104079 0.4620078 0.027796812 -0.15940072 -0.013146076 -0.027515626 -0.07306482 0.12213612 -0.24089524 -0.1782064 -0.0050411643
535 -0.043232195 -0.0964562 0.0549827 0.18225981 0.09128529 0.10968141 0.4542635 0.016628973 -0.06908675 -0.043685786 0.03168051 0.0067309006 0.062065095 -0.1704816 -0.11966204 -0.014865643
242 -0.057312343 -0.2840669 0.16335754 0.36630172 0.074877694 0.048276983 0.68321127 -0.028356815 -0.22424889 -0.10357669 0.07827611 -0.0036134871 0.08300541 -0.24037082 -0.2325419 0.0101770125
978 -0.16260292 -0.32652652 0.31461748 0.56828755 0.083432384 0.06508303 1.0501703 0.050688826 -0.19806296 -0.1274362 0.14400247 -0.09944035 0.21718974 -0.47732255 -0.29720676 0.17064941
2659 -0.1286607 -0.10927477 0.07316556 0.25812912 0.04763721 0.07531231 0.33882847 -0.03898217 -0.065046825 -0.056471735 -0.0079793045 -0.044740386 0.11940086 -0.23063572 -0.12698059 0.035878345
1929 -0.07697659 -0.070743054 0.08071974 0.179031 -0.002703052 -0.018616628 0.34609395 -0.018552333 -0.13210502 -0.05874229 0.024543462 -0.054834865 0.073524766 -0.13780735 -0.0460459 -0.0029096375
1350 -0.08869463 -0.11960537 0.17949559 0.3218405 0.019998845 0.017524714 0.7783983 0.11026555 -0.16523103 -0.14979236 0.059417773 0.03828661 0.18045801 -0.38885832 -0.17609927 0.002223296
107 -0.16298683 -0.16040501 0.18603265 0.37607485 0.013509528 0.08108756 0.51219803 0.05883174 -0.18417913 0.011006236 -0.01708756 -0.058557402 0.1141067 -0.22507294 -0.20290156 0.034541953
3337 -0.1001235 -0.28384084 0.16298778 0.4431587 0.13131085 0.19478016 0.63675493 0.041815523 -0.15169647 -0.044371482 0.056681607 -0.13151701 0.11000392 -0.28333402 -0.15419346 0.010020999
1645 -0.19818412 -0.25805825 0.2863673 0.6739726 0.11608249 0.09288143 1.2180601 0.087673314 -0.31847072 -0.1446822 0.024096217 0.006785145 0.21541339 -0.5910716 -0.22160491 0.13811493
1813 -0.048877835 -0.06949108 0.024334034 0.16400161 0.02689029 0.018843867 0.35680777 0.008706581 -0.15601921 -0.033979125 0.041798852 -0.029384034 0.075146064 -0.15881667 -0.05661672 0.011842695
2214 -0.061405316 -0.242283 0.19072415 0.47202227 0.114950724 0.17720686 0.7543316 0.06746292 -0.26710007 -0.041720536 0.11908133 -0.09935489 0.18603161 -0.37424022 -0.2711241 0.15077297
262 -0.072268955 -0.16010712 0.08607526 0.42591357 0.008264354 0.12271612 0.65302813 0.0069134654 -0.1968669 -0.10655363 0.04067886 -0.08996547 0.032869563 -0.22485808 -0.12464194 0.062464613
2018 -0.08549282 -0.18568747 0.08875291 0.41394436 0.10691474 0.025039662 0.66391855 0.022095473 -0.1890618 -0.09352099 -0.0038479706 -0.052436177 0.11940204 -0.30477408 -0.16900942 0.08182892
1540 -0.08101416 -0.15446164 0.13125846 0.11497892 0.0291534 0.028728822 0.2701245 0.021623733 -0.032011647 -0.05848051 0.08188779 -0.01823595 0.009660019 -0.16358365 -0.09412932 0.06869317
2441 -0.06750536 -0.15831947 0.105326265 0.30894402 0.12565657 0.087400466 0.72613174 0.024506813 -0.08457877 -0.17393152 0.12670818 -0.095222406 0.062326096 -0.23246454 -0.25116333 0.09109487
4251 -0.12655407 -0.19118434 0.1048421 0.24915352 0.03474123 0.11396401 0.35138547 0.017519573 -0.03291081 -0.036980905 -0.03737213 0.0029542304 0.02481827 -0.1884282 -0.08291554 0.07958418
1868 -0.10900675 -0.3223654 0.2790188 0.4610165 0.1508152 0.052213207 0.8166012 0.024764422 -0.26735806 -0.13164131 0.061374955 -0.08604302 0.06964898 -0.40833452 -0.26810932 0.05587571
133 -0.18569356 -0.32018912 0.35647535 0.59192735 0.116556 0.20986982 1.2202936 0.036510203 -0.33810455 -0.12779082 -0.040838543 0.002225517 0.1569731 -0.48463014 -0.28332248 0.10533686
3618 -0.11744322 -0.3016355 0.16261204 0.36500293 -0.0009358776 0.030363718 0.6009091 0.019761488 -0.108776785 -0.064963825 0.074862435 -0.043606654 0.04447073 -0.22193117 -0.09803751 0.11261701
1536 -0.007661704 -0.25933772 0.24990635 0.50397545 -0.00885077 0.2793503 0.9294042 -0.06584096 -0.34294152 -0.1739325 -0.1331754 -0.02635288 0.039292082 -0.46923056 -0.26955462 0.0096468255
378 -0.2402421 -0.2929953 0.27491644 0.55926037 0.15251292 0.22993149 1.0922351 0.032323588 -0.39738914 -0.122372605 0.09834758 -0.15264516 0.25777388 -0.5837087 -0.32215658 0.021715911
3729 -0.1029562 -0.33171472 0.27169704 0.42970175 0.15426815 0.12191527 0.90442866 0.11629336 -0.18412253 -0.11357454 0.11266731 -0.021578474 0.14977783 -0.32432777 -0.24277447 0.029205747
263 -0.10004088 -0.14912991 0.050013527 0.21389659 0.10155179 0.016159393 0.43292466 0.037780773 -0.10792562 -0.051149946 0.0612035 -0.063772485 0.07642086 -0.118707806 -0.12911864 -0.028369276
790 -0.115750074 -0.16276325 0.10632031 0.21499446 0.0863621 0.028655836 0.33603165 0.03245158 -0.1494952 -0.10366621 0.057963565 -0.072999366 0.026136369 -0.15961501 -0.045857612 0.009750485
990 -0.07722107 -0.25721413 0.12757032 0.40231267 0.10875483 0.07924194 0.8332802 0.08270546 -0.16154604 -0.14704067 0.009417368 -0.057632532 0.09506697 -0.37954566 -0.15904607 0.09495074
542 -0.122764476 -0.1395119 0.15610757 0.31160352 0.1266135 0.03857239 0.47760525 0.0022925728 -0.19414 0.019611116 -0.042271372 -0.03568273 0.05657987 -0.20328128 -0.11191503 -0.019584592
2400 -0.22191265 -0.28687832 0.23140295 0.4995166 0.06060854 0.087716825 0.84916854 0.05489208 -0.29276556 -0.1011617 -0.002832496 -0.10158397 0.19494 -0.44086292 -0.31108674 -0.003589493
157 -0.05686024 -0.17770907 0.10436144 0.224107 0.06929742 0.008534261 0.42317912 -0.0438741 -0.05052237 -0.059387818 0.012937051 0.005834111 0.02788609 -0.18950552 -0.11699765 -0.017260628
2631 -0.07010766 -0.15791458 0.12985675 0.15315743 0.0096415095 -0.021584954 0.34246936 0.012929092 -0.15623367 -0.08685146 0.0440429 -0.021083193 0.08100893 -0.12265641 -0.17824265 0.076093026
836 -0.10710502 -0.08929904 0.1218804 0.24760602 -0.0009986795 0.067601986 0.30220753 0.013054227 -0.13038398 -0.1123423 0.055518936 -0.0049253246 0.014810875 -0.21881506 -0.07527265 -0.00053297303
2404 -0.13285317 -0.18042538 0.079948366 0.3170876 0.02927506 0.12184694 0.49546945 -0.0069596623 -0.13071433 -0.10526966 0.070399545 -0.041879375 0.06230015 -0.2686311 -0.09768051 -0.037787344
1452 -0.12215906 -0.12843975 0.10442757 0.26052865 0.037637733 0.10839756 0.4765297 0.03571131 -0.1504251 -0.12161656 -0.01238091 0.031785507 0.062062375 -0.26106298 -0.050882164 0.12994735
1104 -0.0018413656 -0.15058476 0.039363984 0.16522697 -0.0026690674 0.07418199 0.3522674 -0.030754758 -0.031811334 -0.093041204 0.06035312 -0.05379162 0.06412543 -0.1646086 -0.07214037 0.07379253
815 -0.08331626 -0.15902553 0.030083494 0.23574945 0.07224965 0.091826014 0.3368104 -0.049037695 -0.06368574 -0.071770824 0.053320907 0.014743975 0.031626098 -0.17021306 -0.12468849 -0.013871675
532 -0.20203772 -0.29023105 0.1473941 0.44572505 0.09572591 0.14076848 0.856563 0.08509236 -0.2032583 -0.14501525 0.0023340562 0.00971867 0.16132502 -0.4369695 -0.20224299 0.114325106
254 -0.056622714 -0.2955525 0.15325962 0.40064022 0.11563426 0.08677686 0.64836866 0.044826366 -0.11839395 -0.098203376 0.016724244 -0.09662309 0.04668762 -0.28980342 -0.1695317 0.008167124
165 -0.119700156 -0.115513876 0.123530574 0.21933714 0.06562595 0.017900271 0.38655704 0.01297721 -0.08467101 0.0019940624 -0.02407403 0.021852214 0.11307339 -0.12215538 -0.06676122 0.053409997
3722 -0.10187992 -0.19924977 0.112253286 0.22822776 -0.019384898 0.06652163 0.47417316 -0.046217803 -0.093988605 -0.0059796753 -0.053890362 -0.008277147 0.015864152 -0.25963038 -0.070523724 -0.027140606
2635 -0.14096245 -0.30378368 0.116440296 0.36529475 0.10178544 0.11046533 0.7297174 -0.044503376 -0.21771936 -0.12244472 0.0021803149 -0.08384598 0.12979704 -0.3285212 -0.16870774 0.07357649
3769 -0.07046071 -0.1145612 0.13577713 0.22596827 0.062270246 0.059462007 0.33352682 0.04747971 -0.07816749 -0.06251592 0.09065873 -0.0699824 0.068101875 -0.23893863 -0.16324054 0.04263637
923 -0.15947995 -0.24839602 0.0797332 0.5505472 0.10503576 0.16144373 0.8633208 0.09186501 -0.25400007 -0.18584143 -0.04147213 -0.004782149 0.112715974 -0.5851567 -0.28941864 0.041728683
452 -0.031319134 -0.14907572 0.083677836 0.18849774 0.00081182254 0.06526112 0.40356418 -0.030486219 -0.107277095 -0.106299326 0.01067118 -0.009402576 0.065977074 -0.15071498 -0.074720636 0.020202313
2501 -0.0883966 -0.1831745 0.21299659 0.44821566 0.13274316 0.113071986 0.7351619 0.013907162 -0.20783131 -0.030303037 0.06403263 -0.087926574 0.09960213 -0.3364019 -0.11216126 0.079212755
4492 -0.03364549 -0.0771282 0.14447425 0.17145702 0.013996979 0.016993 0.34663382 -0.047230937 -0.10225255 -0.11032972 0.097614884 -0.055325665 0.011859814 -0.21820767 -0.13556316 -0.04528598
4654 -0.07960261 -0.08421186 0.09698238 0.28918916 0.025032865 0.002058444 0.47052333 -0.01907668 -0.16445124 -0.1253122 -0.029041111 -0.048819046 0.08606809 -0.29247332 -0.18265931 0.03371464
3142 -0.099990614 -0.1292744 0.09985454 0.3070872 0.10926057 0.0053497036 0.50765425 0.05072832 -0.12412636 -0.009327898 0.007821742 -0.057367392 0.026010053 -0.14175281 -0.18729477 0.024593843
449 -0.21593101 -0.31510434 0.3495424 0.48056144 -0.020226663 0.13390577 0.9464024 0.11991548 -0.27184755 -0.0469924 0.1030619 -0.05011476 0.13006386 -0.41141868 -0.23972341 0.17210214
638 -0.1434957 -0.16853131 0.20135392 0.4089857 0.075551935 0.0040503447 0.7683974 -0.039637957 -0.19869716 -0.061890148 0.086409375 -0.09975398 0.12043897 -0.2549238 -0.24672379 0.12886423
704 -0.17654164 -0.25241277 0.17630903 0.5359264 0.18877421 0.040626593 0.86691684 -0.044386223 -0.15322171 -0.075461306 0.003923129 -0.074780546 0.12910707 -0.36644724 -0.25852367 -0.0074212705
823 -0.08308747 -0.30226827 0.20038378 0.43103123 0.089182235 0.071533434 0.5851353 0.078848846 -0.18267097 -0.030420119 0.0984109 -0.102741174 0.10555987 -0.15512034 -0.16605864 0.08744596
2774 -0.20414549 -0.36826968 0.25098336 0.4417119 0.13436468 0.17486405 0.84952015 0.08217013 -0.2922346 -0.054391813 0.10060968 -0.03552206 0.087944016 -0.32486308 -0.20805307 0.06121761
1218 -0.10631917 -0.174422 0.14976425 0.4153963 0.050900478 0.077027276 0.66621906 -0.0029896153 -0.18051451 -0.14227313 0.055982146 0.023666615 0.12236841 -0.25785142 -0.21084614 0.07253864
93 -0.16652638 -0.21568163 0.22007445 0.36482936 0.01909224 0.009600636 0.6503794 0.033097602 -0.09306218 -0.11760137 0.02833462 -0.059257224 0.094704024 -0.23850738 -0.20746261 0.086694986
1657 -0.122228175 -0.13395527 0.11180939 0.3906661 0.08157695 0.09554828 0.48421967 -0.056022875 -0.14658104 -0.09398986 0.11035221 -0.008515372 0.025457075 -0.17816262 -0.14675614 -0.050400406
2962 -0.09853125 -0.24016722 0.09234017 0.44916373 0.14001554 0.13868189 0.70196563 0.074670926 -0.15379508 -0.15278874 0.119778864 -0.08501967 0.015123108 -0.2843539 -0.2139894 0.09307649
2323 -0.17999634 -0.13655765 0.112291574 0.38057265 0.14171733 0.115652636 0.6157396 -0.0048370585 -0.24731125 -0.058369376 0.09394559 -0.0846527 0.11642291 -0.24867073 -0.23767632 0.054241642
665 -0.099544324 -0.13977323 0.08031214 0.1385621 0.021748552 -0.013278353 0.28364295 -0.03138661 -0.019517656 0.009715301 0.030047636 -0.039377306 0.08969163 -0.12914832 -0.14242284 -0.021374766
3206 -0.044468954 -0.03702145 0.08101676 0.21897528 0.071652286 0.036946837 0.32426074 0.061571307 -0.021961836 0.019763531 -0.046140447 -0.00041796287 -0.010933062 -0.16730675 -0.1236745 0.04019596
259 -0.031638373 -0.24398741 0.15120266 0.35323158 0.14692013 0.13952765 0.5440163 0.0027013253 -0.13411632 -0.16981918 -0.013808204 -0.062442966 0.07489195 -0.25308442 -0.1280374 0.07980167
1488 -0.17303516 -0.37692645 0.25367543 0.56333804 0.13339926 0.18255381 0.9768808 0.069170855 -0.44255546 -0.13274263 0.060858835 -0.090328366 0.13441695 -0.622101 -0.28374788 0.045090772
3377 -0.07775596 -0.19174774 0.11256454 0.30986205 0.09399663 0.007887997 0.41219634 -0.009462379 -0.099033736 -0.13158543 0.07936512 -0.011234707 0.045492034 -0.13067727 -0.07627315 0.048577048
296 -0.03959211 -0.19097036 0.049430456 0.21258171 0.10425223 0.065075316 0.42851532 -0.026213989 -0.068514794 -0.04136757 0.03097192 -0.044776365 0.0889674 -0.23598763 -0.06592474 0.060495023
3148 -0.13959569 -0.23895065 0.10851487 0.3249567 0.027259564 0.10660016 0.688133 0.012885685 -0.2746258 -0.11697428 0.005063819 -0.11712061 0.1114436 -0.27110332 -0.20161021 0.05142577
159 -0.14128679 -0.1912965 0.12745954 0.30812266 0.119011484 0.06446495 0.5841103 0.06646165 -0.114851095 -0.028707616 -0.011870516 -0.06636821 0.11403756 -0.18932533 -0.12008675 0.0010590912
2036 -0.023915758 -0.1106084 0.102677725 0.2978351 0.07302461 0.07076751 0.42519966 -0.03296378 -0.112652756 -0.034278695 0.011300346 0.014051303 0.12531492 -0.22585617 -0.152019 -0.005662473
922 -0.05332659 -0.10112477 0.04167272 0.13718124 0.05184409 0.096129365 0.2310415 -0.047658227 -0.049550507 -0.074545175 0.05594039 0.0037547878 -0.021639068 -0.17533465 -0.13201639 0.035486676
5049 -0.18398812 -0.41193128 0.24666111 0.5600823 0.10025642 0.0953097 0.9559332 0.09147531 -0.15589222 -0.16589811 0.024329243 0.042913835 0.19117236 -0.50112355 -0.14907455 0.100076735
927 -0.23768127 -0.34803078 0.17745756 0.52981204 0.15690325 0.14450876 0.9845034 0.049830213 -0.20396039 -0.12903835 0.07070279 -0.012852566 0.15386266 -0.3306877 -0.31513357 0.0026433107
191 -0.053778518 -0.10506928 0.054982815 0.17240465 -0.0035555058 -0.0033812704 0.36611742 -0.016299944 -0.10391072 -0.059553884 0.012152332 -0.07772024 0.027684852 -0.14338447 -0.023076283 -0.024983162
3289 -0.08033323 -0.10907555 0.08760906 0.12989782 0.0044307113 -0.024353288 0.3293251 -0.0432606 -0.09447592 -0.033013407 0.032844245 -0.08767995 0.099052876 -0.13560128 -0.07246338 -0.036224134
741 -0.19419156 -0.22472006 0.18958686 0.45724234 0.1309844 0.04720014 0.76300377 0.005965852 -0.21392787 -0.078388244 0.06936819 -0.109650575 0.13178596 -0.30364236 -0.254984 0.088712566
2671 -0.16879043 -0.22938359 0.22147077 0.5434075 0.087675035 0.08133974 0.9625888 0.0181503 -0.20794097 -0.11646216 0.018223608 -0.08551407 0.14350893 -0.38489988 -0.19384305 0.057415586
3030 -0.1046258 -0.091536745 0.053778403 0.15210833 0.05631498 0.073803365 0.30854887 -0.017261708 -0.14373726 -0.032307133 -0.005310492 0.028549578 0.047653697 -0.13347419 -0.11173494 0.08132108
2371 -0.101034395 -0.22251995 0.056004353 0.22752379 0.09669792 0.06487044 0.42142537 -0.008491791 -0.18519829 -0.034101825 -0.04115042 -0.006167895 0.101356514 -0.20255128 -0.20217854 0.08263236
1941 -0.05431314 -0.16035795 0.03380623 0.24606718 0.042309143 -0.0023633365 0.3428754 0.040676165 -0.15503971 -0.08416396 -0.00070980506 -0.08779732 0.04278934 -0.14340088 -0.04517903 0.032261126
3482 -0.038203184 -0.061284408 0.038419914 0.19655181 0.036704287 0.024401465 0.2177858 0.016694963 -0.03120426 -0.025749493 -0.031965233 -0.042715535 0.00177454 -0.08821649 -0.119863264 0.058105245
2345 -0.091780916 -0.16221702 0.019713856 0.21449079 -0.012486487 0.00061812944 0.2685088 -0.016071698 -0.101959944 -0.03125034 0.07418151 -0.037216064 0.012107178 -0.10996653 -0.048504576 -0.0076170745
2762 -0.19641994 -0.23613964 0.26314124 0.42290273 0.15874223 0.040085446 0.8851834 -0.01576515 -0.22329324 -0.10238919 0.043126743 -0.025536561 0.13522096 -0.4559318 -0.32648078 -0.010466427
1019 -0.06933359 -0.0738343 0.03397861 0.23463486 0.07705043 0.025293192 0.3282542 -0.032355156 -0.11882379 -0.09687301 0.058206122 -0.069483496 0.044005983 -0.14446153 -0.107250795 -0.025094835
1781 -0.18656877 -0.2584881 0.24911226 0.47788608 0.09315864 0.099468425 0.91472167 -6.76062e-05 -0.20221041 -0.16447529 0.09343067 -0.14117076 0.11092021 -0.37276965 -0.28188923 0.10265074
2090 -0.053041436 -0.19623856 0.10296701 0.20792025 -0.005752923 0.07111125 0.47820204 0.07686655 -0.17212854 -0.09598298 -0.0072318586 -0.035374943 0.07184931 -0.29585686 -0.10609844 -0.041328654
2876 -0.13498075 -0.2532023 0.19448023 0.55557173 0.0921212 0.06346939 0.95844567 0.060810648 -0.3184256 -0.17486946 0.07019784 -0.0034555125 0.16317387 -0.3336477 -0.3307233 0.18069558
1801 -0.09722904 -0.15752856 0.030826105 0.20608483 0.018164573 0.09536137 0.3571413 0.033729672 -0.05711031 -0.1066172 0.014344092 -0.051706366 -0.002710216 -0.14063428 -0.07823746 0.011285094
2553 -0.048866764 -0.17165735 0.056898296 0.22261116 0.124935165 0.09644718 0.3862106 0.060467098 -0.12916549 -0.110650696 0.020083375 -0.06378981 0.07109419 -0.20555083 -0.17590515 0.006873282
1390 -0.17641914 -0.27884093 0.35819632 0.7632634 0.039449196 0.11624905 1.3489411 0.09961668 -0.3523852 -0.12464652 0.10909457 -0.05632128 0.24471934 -0.570485 -0.28020123 0.15505828
999 -0.23963946 -0.3308613 0.2816439 0.5223279 0.108281724 0.16334587 0.9522751 -0.023726728 -0.24490398 -0.16556771 0.10459574 -0.035703402 0.12883048 -0.36760202 -0.19597702 0.11357519
551 -0.008949068 -0.067228965 0.07664605 0.20982935 0.04134436 0.032682195 0.21236303 0.029268626 -0.12550125 0.009581226 -0.013269636 -0.030265002 0.051665578 -0.13128282 -0.13555765 0.046768505
2399 -0.20338748 -0.30109856 0.18931316 0.38007417 0.092035934 0.048444193 0.72088337 0.021352839 -0.14950234 -0.17045137 0.05470441 -0.12156404 0.055289138 -0.325577 -0.21431005 0.01585148
2975 -0.24496025 -0.3133369 0.13862357 0.4998737 0.09223838 0.1747063 0.90277594 0.074131414 -0.37232816 -0.21622841 0.070562966 -0.030774124 0.06192571 -0.5752482 -0.24213743 -0.028742611
2346 -0.13986488 -0.1980381 0.14044377 0.39182487 0.15227787 0.09717577 0.7600256 -0.004538131 -0.267916 -0.13363904 0.019277982 -0.051073596 0.12546435 -0.28835586 -0.17110975 0.044745058
137 -0.19332865 -0.19895525 0.08484114 0.417216 0.09744649 0.07700284 0.69947726 -0.0038571886 -0.19391726 -0.082501575 0.09814397 0.0063205785 0.087529495 -0.26675284 -0.19417135 0.11239658
3115 -0.10387457 -0.12240472 0.03621696 0.22814667 0.012401372 0.022955611 0.35271856 -0.05310808 -0.10014085 -0.019206947 -0.021657806 0.041550644 0.053676732 -0.16538675 -0.052956108 0.0731864
1652 -0.17121725 -0.2786593 0.17744443 0.5208075 0.18207769 0.1528586 0.9210762 -0.02785641 -0.18639319 -0.10873428 0.132946 -0.04554911 0.18066888 -0.43345848 -0.28845093 0.044340767
1867 -0.18512864 -0.4680636 0.2663427 0.54300034 0.067570016 0.22966033 1.145325 0.030010289 -0.36077252 -0.19544253 0.066320516 -0.042651195 0.18959396 -0.5989024 -0.3251105 0.091352575
2601 -0.123861805 -0.1613887 0.03954684 0.3122812 0.06869443 0.15952022 0.62657094 0.054422617 -0.13690051 -0.13094975 0.12775885 -0.0991719 0.10107342 -0.24809486 -0.108682364 0.09665407
945 -0.042420886 -0.15429512 0.116407394 0.22653297 0.13528627 -0.007717383 0.47773048 0.08012489 -0.12958942 -0.017200528 -0.0061685704 0.01385548 0.09293493 -0.2844563 -0.10095062 0.04051382
3335 -0.007910184 -0.06643694 0.030064408 0.25816736 0.0776703 0.10164994 0.3484182 -0.027705643 -0.17218871 -0.03258237 -0.022774197 0.0064848624 0.0667163 -0.124841824 -0.09905357 0.01829001
2068 -0.051669274 -0.10705929 0.023510102 0.15180689 0.03237218 0.07366973 0.3595882 -0.0561161 -0.113310575 -0.008236138 0.052781474 -0.0060931346 0.0071538556 -0.19258533 -0.122217976 -0.013445798
1898 -0.12851241 -0.20032151 0.14453824 0.34405738 0.09027055 0.12572336 0.46674502 0.03747238 -0.14442828 -0.08231394 -0.026430486 -0.07749383 0.10270563 -0.2054555 -0.10643829 0.07447972
2338 -0.14407428 -0.2321507 0.22267406 0.35854012 0.12417065 0.075908706 0.730901 0.010789123 -0.24174702 -0.042815212 0.0512412 -0.10958952 0.10690312 -0.33209538 -0.13853766 0.011193614
630 -0.1538575 -0.30447584 0.16485131 0.47115666 0.14980644 0.14025082 0.8190904 0.02770942 -0.329327 -0.14872412 0.08461478 -0.04866821 0.08041195 -0.40275165 -0.19071056 0.017307768
5092 -0.077066034 -0.13682063 0.019876538 0.22481504 0.09856467 0.071628295 0.38478315 0.0079535255 -0.100714564 -0.09831391 0.022938969 0.011418366 0.07228265 -0.16290136 -0.043687645 0.048742585
867 -0.202745 -0.20937675 0.23805055 0.39971644 0.13636707 0.034755632 0.7803261 0.036789477 -0.22670569 -0.15466174 -0.01381369 -0.09344849 0.087963626 -0.2756623 -0.19261737 -0.009279507
1241 0.005725945 -0.04940076 0.11303512 0.22026859 -0.021417947 0.020804262 0.29094577 0.028061854 -0.040143155 -0.09489007 0.050268568 0.039461326 -0.019032592 -0.07155851 -0.05271395 -0.003287477
2434 -0.07544258 -0.263128 0.053472504 0.30210477 0.03565907 0.1438353 0.39714336 -0.055055305 -0.08299449 -0.014725148 0.0421704 0.037796773 0.1284958 -0.19423795 -0.11092363 -0.0089527145
1712 -0.11812242 -0.22550942 0.16232318 0.26283932 0.107691385 0.053652924 0.5096676 -0.04017919 -0.17582332 -0.09860395 0.033339642 -0.032674156 0.05186769 -0.21949843 -0.1847211 0.11671029
1874 -0.11163482 -0.22322859 0.14599483 0.3520379 0.04586627 0.008357681 0.49958736 -0.016390117 -0.1597832 0.007665599 -0.0034684578 -0.023522712 0.082433425 -0.2023915 -0.21928081 0.09878206
3768 -0.15891126 -0.20145635 0.10683237 0.4403829 0.02109395 0.07912153 0.7211665 -0.012170371 -0.20802775 -0.10114135 0.073276296 -0.0712748 0.07801461 -0.37836167 -0.13386951 0.08203086
1029 -0.056544174 -0.26753834 0.13920169 0.5151479 0.05219531 0.14421134 0.7600414 0.010294978 -0.16191715 -0.12932156 0.012951754 -0.073016986 0.11143823 -0.24840797 -0.2885928 0.09795199
2613 -0.15009174 -0.28248805 0.11439755 0.38910896 0.14124948 0.13021381 0.7337654 0.053380672 -0.20074545 -0.09091165 0.09348333 -0.006436365 0.14937882 -0.26524785 -0.18580802 0.0680181
5210 -0.11847313 -0.06651704 0.1359213 0.16427743 0.04542377 0.10206811 0.35945332 0.05676017 -0.03626389 -0.061763845 0.08067085 0.024794254 0.044209402 -0.14789522 -0.030252654 0.059414156
1502 -0.115066454 -0.14370784 0.06344658 0.21482812 0.04939981 -0.019404039 0.36919618 0.0882841 -0.06888304 -0.011995361 0.044488776 0.029766308 0.11379301 -0.13799076 -0.11280785 0.056950614
2759 -0.11292716 -0.14172481 0.05591913 0.31689987 -0.006913205 0.050783485 0.4483004 -0.041772272 -0.1222945 -0.013108534 0.07270305 -0.01795915 0.04844301 -0.07358295 -0.20035912 0.04274124
200 -0.024886861 -0.16300645 0.04042374 0.12558179 0.03927741 0.07472914 0.28025362 -0.016742764 -0.03855176 -0.08091295 0.0449089 0.0038059345 0.017715037 -0.18290709 -0.036490288 0.011314738
2868 0.0031387617 -0.20302492 0.13172686 0.3672345 0.10180877 0.1074693 0.5229423 0.10611778 -0.1666865 -0.108139895 0.11210928 -0.005960541 0.06699377 -0.23498274 -0.13071916 0.051558554
579 -0.091993004 -0.12963927 0.15928334 0.36164802 0.0015804947 0.21884744 0.7009111 -0.09276494 -0.19374481 -0.1551119 0.073931545 -0.006505499 0.042482268 -0.38557467 -0.049669433 0.18813533
908 -0.08448466 -0.26143038 0.26904133 0.4245936 0.15247911 0.07773404 0.76053107 -0.033515178 -0.23563816 -0.064470485 0.08959876 -0.14000678 0.12813137 -0.37816712 -0.2602691 0.10980992
4064 -0.020718342 -0.08368156 0.07651777 0.1545988 -0.027452674 0.044142686 0.3110483 0.035665143 -0.04805913 -0.048589613 0.03860927 -0.07377483 0.07418807 -0.10225995 -0.08442705 0.018267654
5585 -0.103401385 -0.16871385 0.1410448 0.43021986 0.06525103 0.106396794 0.5288917 -0.052516516 -0.22688591 -0.11514618 0.07046664 0.043899488 0.11113129 -0.26823398 -0.13161163 0.009209588
1731 -0.05553502 -0.054958716 0.12427471 0.15860656 0.00025798165 0.062223677 0.37427744 0.07527481 -0.09282635 0.0015714536 0.073777094 -0.08114437 0.096320994 -0.13230664 -0.11857618 0.03819218
1377 -0.00932467 -0.16576761 0.12671627 0.16173737 -0.006536385 0.07436975 0.32837588 0.04286263 -0.03745903 0.018390674 0.06883599 -0.07787482 0.07286301 -0.20754075 -0.098902464 0.09100261
4305 -0.13556857 -0.14305338 0.066753775 0.24451293 0.13656962 0.11897744 0.59486496 0.025732325 -0.11911761 -0.02570175 -0.044466984 0.026948653 0.03568955 -0.18605217 -0.18234819 0.053841677
3305 -0.14106402 -0.35002184 0.15347049 0.5453504 0.03893186 0.23397739 0.9818705 0.053469386 -0.35483044 -0.18997543 0.013686152 -0.068305716 0.21723863 -0.38490683 -0.2643484 0.102550566
914 0.020260409 -0.051451035 0.10311566 0.19156721 -0.010085345 0.022725547 0.3382126 -0.04698532 -0.058318004 -0.08766161 0.08150328 -0.015985053 0.053773236 -0.15999283 -0.056291122 -0.028621392
2517 -0.11075678 -0.0642995 0.046874028 0.1748832 0.074133076 0.07208981 0.3630715 0.055759996 -0.043114826 -0.10366393 0.054614216 0.043479957 0.015352028 -0.13114832 -0.11062608 -0.0035695657
2374 0.0035214943 -0.09307834 0.086329386 0.123335905 0.07065621 0.0106679965 0.24860606 0.0240477 -0.009530725 -0.07741676 0.035687488 -0.029383378 -0.0052120546 -0.1537274 -0.13120359 0.05156001
2128 -0.0692619 -0.1459874 0.069967344 0.19933937 0.096621424 -0.022476949 0.30033854 0.008169995 -0.09854343 -0.042374145 0.067743845 -0.030320568 0.09162695 -0.1304343 -0.09357688 0.05664761
2202 -0.044972394 -0.18348205 0.115412064 0.33278126 0.047481094 0.103844605 0.54416186 -0.025062948 -0.098084204 -0.1201811 0.033241775 -0.080865346 0.0882511 -0.22177713 -0.11858076 -0.032332398
2185 -0.19878447 -0.20423813 0.23224865 0.41561282 0.031639062 0.060525563 0.6974877 0.039578836 -0.21482615 -0.0778911 0.09446348 -0.0071114013 0.06613232 -0.3212687 -0.25973475 0.037297886
3137 -0.039598025 -0.037786234 0.017582988 0.16699232 0.07895552 0.10205549 0.30785197 -0.04227784 -0.047865994 0.022275612 0.03614116 -0.002470815 0.023671724 -0.10054025 -0.040001303 0.077762306
2135 -0.21724361 -0.37969437 0.23286301 0.41724536 0.060919058 0.10429733 0.9048997 0.016597128 -0.2523245 -0.18614104 0.046654314 -0.06943653 0.101515695 -0.41736484 -0.23320065 0.06639787
3993 -0.032169245 -0.1478394 0.13395976 0.1180813 0.018819196 0.072395094 0.2593324 0.034879405 -0.050883707 -0.021207064 0.070294045 0.041080143 0.027284322 -0.12479605 -0.04448473 -0.031654205
4228 -0.14935046 -0.35806683 0.29818904 0.6795629 0.10555377 0.17418621 1.0713452 0.11130534 -0.2913782 -0.051940467 0.07754989 -0.19250488 0.27772763 -0.47839594 -0.31432316 0.06367225
4541 -0.08034677 -0.08382199 0.008834376 0.15340073 0.04577427 -0.036860876 0.270086 -0.0300277 -0.10164652 -0.042987935 -0.04627018 -0.04291601 -0.0040441114 -0.16956238 -0.061971605 0.034891203
2752 -0.117851414 -0.32477766 0.2376978 0.5589014 0.19894786 0.19039275 1.2203468 0.02879904 -0.36501008 -0.19524169 0.013625773 -0.083606414 0.19189085 -0.459139 -0.3835286 0.15854062
2273 -0.0851586 -0.04599105 0.037178375 0.11524387 0.081387244 -0.031204965 0.2497323 0.036588393 -0.13994946 -0.0024876026 0.03708935 -0.06691163 0.057099603 -0.13086802 -0.021511488 0.036573526
3114 -0.0983407 -0.1171199 0.12515524 0.13849126 0.102836415 0.013966033 0.30489263 -0.019448314 -0.063817315 -0.11176277 0.037377473 -0.04954518 0.12934564 -0.17981963 -0.14060727 0.046367846
2223 0.013200107 -0.077437975 0.048871867 0.17164636 -0.020887848 0.008623883 0.24448982 0.023450134 -0.10634712 -0.08451263 -0.021218391 0.010634593 0.057016853 -0.053285435 -0.065677844 0.049631797
1425 -0.092606716 -0.17605188 0.121980034 0.36939383 0.07781357 0.113581955 0.6044027 0.006317067 -0.13462485 -0.11162177 -0.008967082 -0.0062720887 0.08215514 -0.28524387 -0.20895343 0.106834605
684 -0.041973125 -0.057978608 0.051752355 0.1429087 0.07082477 -0.03494583 0.26422897 -0.026392955 0.0010255955 -0.0043158527 -0.019493729 -0.020991571 -0.008445711 -0.0543201 -0.0073061734 0.030522967
3952 0.01297168 -0.11934851 0.07714845 0.11330047 -0.016756656 0.009127042 0.26603612 -0.02917893 -0.09827166 -0.034610845 0.01518473 -0.07528302 0.07624869 -0.1149458 -0.14190899 0.0038009102
3208 -0.14067754 -0.1265872 0.11886426 0.35992727 0.116145276 0.03454698 0.47572142 -0.028249541 -0.0720036 -0.086978234 0.037605513 -0.03375056 0.01339714 -0.2137403 -0.19170696 0.096988484
2944 -0.118946835 -0.06590921 0.07439153 0.17232548 0.019681187 0.04610636 0.35073113 0.014348041 -0.08835054 0.0142217325 -0.021768158 -0.07648975 0.0032414293 -0.10557809 -0.116876915 -0.0057083266
4131 -0.017645316 -0.15574001 0.080723174 0.22302374 0.09111316 0.011208268 0.3050781 0.045206934 -0.013407419 -0.06038567 0.030757925 -0.05327925 0.021581199 -0.120721705 -0.061741292 -0.0146616325
1901 0.00017105308 -0.18735841 0.06438968 0.19277029 0.13293655 0.09552479 0.45074147 0.08362436 -0.12663089 -0.17339051 -0.029044798 -0.083424084 0.027043888 -0.15225315 -0.08455241 0.051754404
2159 -0.11033886 -0.22274151 0.18747897 0.28792328 0.072616585 0.02097086 0.5759741 -0.042401005 -0.116043404 -0.13632049 0.09029156 -0.10114508 0.039384317 -0.2548286 -0.22784892 0.06327158
4935 -0.08180553 -0.09618033 0.11706555 0.19297135 0.033310637 0.084611714 0.30430514 0.046521 -0.043014105 -0.09187561 0.038251612 -0.08016998 0.0327003 -0.075456314 -0.0989835 -0.0028265151
918 -0.11943797 -0.1504932 0.12569986 0.41745263 0.10540401 0.17587788 0.6335947 0.027920648 -0.24449861 -0.15919757 0.0023520123 0.020468898 0.09152576 -0.47289982 -0.22710434 0.0035379233
2710 -0.10629292 -0.22924016 0.18275997 0.3992033 0.19571769 0.01527404 0.72478914 -0.027626498 -0.13474558 -0.10469125 0.038175255 -0.14368673 0.14563298 -0.29996383 -0.28251126 0.054028578
83 -0.11179762 -0.07827345 0.12434966 0.19564043 0.031337503 0.06013039 0.3338933 0.039412167 -0.07650087 -0.01986113 -0.033863574 -0.022266096 0.014959986 -0.14308359 -0.04202819 0.026580399
2872 -0.17640644 -0.18454847 0.15990049 0.38308465 0.04100461 0.054500822 0.628798 0.07223173 -0.20939364 -0.10224589 0.035369683 -0.062031258 0.13709654 -0.2767585 -0.18398464 -0.0074657933
2180 -0.10943247 -0.09714918 0.07868632 0.17045347 0.08107652 0.13257231 0.45685443 -0.009912091 -0.13114336 -0.015010494 -0.07558117 -0.063869506 -0.029087437 -0.16051434 -0.17995033 0.045029107
1395 -0.07360555 -0.4246807 0.18628553 0.67226356 0.12715882 0.07638654 1.20842 0.10035583 -0.36784634 -0.25918552 0.11103512 -0.12335322 0.07338525 -0.51734436 -0.36168647 0.056272153
1765 -0.08952972 -0.15046783 0.062131792 0.18157496 0.043004088 0.08806201 0.348977 -0.051407255 -0.13879474 -0.053760223 0.0028168268 -0.061272845 0.105049625 -0.113274 -0.13192552 0.06557611
5491 -0.061667856 -0.15391004 0.072605744 0.23121582 0.0040089195 0.015439096 0.31366292 0.04432921 -0.057798382 -0.10187366 -0.04581851 -0.035713527 0.07672304 -0.12190456 -0.07188622 0.01605926
1892 -0.1477086 -0.20161088 0.17273906 0.42209238 0.08089518 0.13677791 0.6810675 0.044463493 -0.16125879 -0.13958722 0.10401846 -0.0007339253 0.12547635 -0.33234525 -0.11930386 0.08082775
1289 -0.049588196 -0.057816815 0.09068121 0.18571293 0.041626077 0.04336894 0.2207207 -0.03229094 -0.12118946 -0.04680489 -0.0018893612 -0.00088706403 0.031502433 -0.09243176 -0.033825807 -0.018265558
5891 -0.05349707 -0.21745378 0.19731213 0.3719637 0.09270079 0.115753144 0.6519735 -0.0058841463 -0.15593466 -0.1205833 0.028273154 -0.07898122 0.14270286 -0.36720374 -0.14460881 0.028149648
2548 -0.08310162 -0.13901088 0.07002813 0.22668742 0.0618545 0.110979185 0.39364892 0.06703262 -0.14932957 -0.020581126 0.07994203 -0.026611665 0.047910273 -0.1950603 -0.16247106 0.02536142
2016 -0.02449249 -0.17118472 0.09605407 0.20545077 0.083100334 0.012773699 0.35878813 -0.052770264 -0.069691636 0.011593702 0.04607896 -0.04631963 0.03547765 -0.1985324 -0.08907527 0.060978953
895 -0.09950254 -0.08661219 0.054737564 0.22658308 0.08027816 0.054556187 0.34064135 -0.04589184 -0.124759234 -0.051514186 -0.037087396 0.03787175 0.067195944 -0.13817658 -0.038294602 0.0028269438
1773 -0.10469158 -0.20073913 0.20973924 0.35853547 0.036961347 0.044236034 0.5902965 0.070876434 -0.12415697 -0.02600655 0.076456614 -0.118997164 0.15146919 -0.35468063 -0.17970432 0.048041854
919 -0.1052544 -0.2901747 0.16474904 0.38245404 0.07842273 0.1462326 0.6557054 0.10309367 -0.27243492 -0.052674063 -0.0051292526 -0.08618394 0.05654494 -0.33276862 -0.216674 0.067895785
2276 -0.18896046 -0.15768892 0.16861089 0.35045043 0.044346254 0.14532956 0.69107544 -0.042781882 -0.16234046 -0.119103506 0.04469229 0.005837311 0.0919836 -0.30588993 -0.13259758 0.007004111
1482 -0.025814176 -0.06344164 -0.003044977 0.117891215 0.081916496 0.04192582 0.31195125 -0.0025450347 -0.009181558 -0.08754661 0.049317595 -0.07230193 0.055255167 -0.053498723 -0.084884286 0.066355
4856 -0.11909567 -0.11575293 0.09889012 0.1464324 0.08973005 -0.010020692 0.29873163 0.07443611 -0.025018428 -0.031594165 0.09375785 -0.088111 0.0255163 -0.11745334 -0.10146359 0.05957641
3489 -0.005691187 -0.12382599 0.050725628 0.22455002 -0.00844238 -0.019832144 0.2861163 -0.043865245 -0.06523188 -0.02509666 -0.03227017 -0.02662644 0.008770191 -0.14144395 -0.0643085 0.04570681
4167 -0.07484915 -0.030719712 0.07825581 0.19993414 0.05658898 0.057532195 0.3556484 -0.014205343 -0.0630771 -0.0617556 0.05211233 -0.057576157 0.026896296 -0.07097615 -0.09901253 0.037915893
3564 -0.033508245 -0.13633464 0.043268193 0.15939912 0.15365684 0.11219363 0.34283003 -0.012615019 -0.09371239 -0.09559808 0.015430665 0.03016054 -0.003117836 -0.16863 -0.07845837 0.019083535
1091 -0.13344012 -0.1007338 0.17670873 0.26310655 0.007931525 0.05363093 0.57877356 -0.0065654875 -0.09256023 -0.072609685 0.069707334 -0.04322508 0.1127014 -0.15869503 -0.18433484 0.07652403
2305 -0.156001 -0.21535625 0.15534174 0.2903249 0.10313012 -0.018009802 0.5356715 -0.04638153 -0.1553512 -0.04347673 -0.005914146 -0.014302151 0.04246509 -0.2475351 -0.08700488 0.006086936
901 -0.12180709 -0.23981127 0.10512929 0.31889683 0.09400562 0.12816381 0.5002507 0.035903677 -0.218796 -0.07417297 -0.012250588 -0.06662921 0.08965902 -0.47065556 -0.13300851 0.0184742
4814 -0.14472981 -0.26161265 0.19779542 0.3357072 0.054975994 0.106464356 0.7325779 0.07608166 -0.21851869 -0.11353712 0.11885336 -0.051117413 0.06706671 -0.3323079 -0.22362527 0.08588224
1145 -0.14764102 -0.33559716 0.27001354 0.51605874 0.10422247 0.09593091 0.9958738 0.06031053 -0.26773423 -0.1409828 0.07872221 -0.074707 0.17111483 -0.39613646 -0.21411583 0.13207293
477 -0.031930953 -0.112599306 0.10865635 0.24840716 0.11389318 0.08474662 0.40184292 0.0815042 -0.16162248 -0.07796819 -0.024984447 -0.09278201 0.043032803 -0.15634681 -0.107752375 0.02552885
3869 -0.09775329 -0.07680987 0.12860125 0.21924902 0.042897608 -0.02361522 0.3791303 -0.0016708385 -0.06694556 -0.024267372 0.08690003 -0.037132636 0.008589501 -0.15693986 -0.07060129 0.01664154
810 -0.06377391 -0.015482913 0.07914282 0.114977136 0.08509689 -0.014830688 0.24172448 0.045084614 -0.09975182 0.011911731 -0.027634803 -0.0686117 -0.02050474 -0.099404074 -0.023481637 0.06642515
576 -0.024388175 -0.048966493 0.04957703 0.080746874 0.09700598 -0.016574658 0.28819367 0.00094853766 -0.06752235 -0.051666573 0.06745917 -0.05904999 0.04168203 -0.100911595 -0.0599939 -0.022279816
1240 -0.10957548 -0.14290795 0.0443109 0.14721294 -0.006052045 0.07997237 0.2946629 -0.035363346 -0.09833517 -0.07189613 -0.027108584 -0.012189987 0.031203268 -0.067783795 -0.03998381 0.014398357
2268 -0.07180555 -0.31097198 0.11583145 0.45989165 0.058899935 0.09339009 0.8363514 -0.02756135 -0.23063445 -0.09834592 0.063708015 -0.062044006 0.10242698 -0.29339454 -0.20042531 0.05197848
103 -0.13621604 -0.24361977 0.124675155 0.2923152 0.009492525 0.059852533 0.54124004 -0.0029178956 -0.16937481 -0.09310049 0.083395675 -0.011572547 0.15157194 -0.22927861 -0.13122769 0.041228022
2969 -0.010069979 -0.07252354 0.11025876 0.069755666 0.037453953 0.04641241 0.27409637 -0.03162853 0.00016824708 0.0018875302 -0.024032446 0.041434146 0.0072661834 -0.05027775 -0.11646573 -0.009606779
6041 -0.034325536 -0.12651177 0.032462783 0.20653394 -0.019455817 0.08062953 0.4114978 -0.018401224 -0.051483423 -0.06471876 0.052272882 -0.014771038 -0.005005773 -0.14432424 -0.13579693 0.07142653
2224 -0.14253011 -0.104051456 0.14596298 0.35717526 0.10572999 0.116428345 0.5730835 0.040755562 -0.12253127 -0.08026923 0.0149153685 -0.019036867 0.13666032 -0.2139562 -0.11748575 0.07326717
5301 -0.043794505 -0.06176256 0.020478323 0.07155522 -0.017636413 0.058693025 0.16312632 0.061682496 -0.09300672 -0.038744405 -0.034284454 0.029816305 0.062042605 -0.0776819 -0.0627448 -0.020866966
413 -0.1651581 -0.1597461 0.100886494 0.41911417 0.115990244 0.1530798 0.7109008 0.03668812 -0.13583641 -0.056459717 -0.014694842 -0.074446835 0.096551925 -0.29003674 -0.14637756 0.044918604
548 -0.090918705 -0.16293804 0.15264016 0.34965727 0.13563058 0.061799698 0.5514414 -0.051384598 -0.12227993 -0.112643495 0.06848247 -0.03440128 0.13427806 -0.19292317 -0.07492288 0.0583619
661 -0.089376114 -0.13756089 0.007601169 0.17546722 0.08512166 0.08536428 0.2814358 0.014167313 -0.12372289 0.0063951137 0.05729583 -0.016711628 0.10835511 -0.20371765 -0.1383234 0.08457905
244 -0.06471961 -0.28343365 0.18894416 0.29423884 0.109142065 0.09501278 0.57354915 0.085247636 -0.20956384 -0.12156209 0.09132872 0.0054788683 0.13912325 -0.24575737 -0.17461345 -0.009617908
2070 -0.112880975 -0.21083298 0.16160886 0.38673356 0.12433188 0.0725916 0.5721686 0.07364489 -0.09679408 -0.12014031 0.06499725 -0.0006229893 0.0874071 -0.2394585 -0.21785748 -0.02481058
2213 -0.13815482 -0.20784937 0.08135188 0.3753357 0.0055133146 0.14787464 0.5409323 -0.013031008 -0.22531404 -0.10432337 0.10102805 -0.0005485744 0.14291725 -0.20316985 -0.21258669 0.15347515
3165 -0.18252607 -0.17942274 0.27747592 0.32128802 0.008522879 -0.07712292 0.73189986 0.0762117 -0.15478995 -0.05310651 0.08483286 -0.05222707 0.14083004 -0.24220745 -0.09900129 0.16520669
469 -0.06653754 -0.08633163 0.12367115 0.3710885 -0.0017493785 0.10239038 0.48823938 0.022717966 -0.14886315 -0.02553212 0.10241808 -0.013743495 0.07051501 -0.16033445 -0.10240608 0.044607613
1288 -0.106193475 -0.30485636 0.2427185 0.4803043 0.15298015 0.15980986 0.841583 -0.036401834 -0.22167012 -0.11407706 0.003291926 -0.13566598 0.152001 -0.34446964 -0.27853006 0.025953062
44 -0.05128378 -0.12355448 0.08211158 0.27115476 0.07823993 0.040039036 0.5829663 -0.023323465 -0.1951382 -0.11314856 0.07171235 -0.0046782577 0.026629778 -0.31532842 -0.20642261 0.051812064
4282 -0.092312686 -0.09476655 0.11186706 0.102703445 0.023775058 0.09880784 0.33808368 0.01018568 -0.10457831 -0.107231595 -0.005876883 -0.023528062 0.0894965 -0.14209427 -0.025440779 -0.024079546
1943 -0.06630129 -0.14593957 0.10248532 0.35628238 0.02056674 0.08066882 0.49216682 0.011926184 -0.1558132 -0.019813433 0.06457973 -0.10838677 0.060501326 -0.27978477 -0.21069099 0.05854241
3168 -0.14978492 -0.16291325 0.30200353 0.3493098 -0.07963743 -0.019666705 0.73335844 0.087915555 -0.18841353 0.019634902 0.08658415 -0.07137888 0.052149124 -0.13999918 -0.16548117 0.047804557
1292 -0.08820382 -0.08423287 0.11633939 0.13759162 0.058656856 0.036986314 0.3450801 0.03334457 -0.11827523 -0.09472134 -0.008016982 0.0020416728 0.07318371 -0.07349059 -0.04680823 0.0648747
21 -0.1865799 -0.35261953 0.2938446 0.62004614 0.11538726 0.10926602 0.995076 -0.0199548 -0.31493267 -0.04806991 -0.03302952 -0.12938666 0.20447405 -0.40996137 -0.25628355 0.04722517
3790 -0.01011825 -0.08756578 0.037314057 0.113356024 0.01809982 -0.026306909 0.27704233 0.056972492 -0.08956441 -0.013813888 0.041570254 0.02931338 0.0016648113 -0.112830006 -0.084381945 0.049933665
1198 -0.059873898 -0.16604224 0.0818204 0.11080919 0.08965693 -0.0069285654 0.31393358 0.055213455 -0.10139162 -0.107727945 -0.021778876 -0.05654172 0.09120824 -0.19366717 -0.115348995 -0.021140637
4846 0.016647222 -0.11912662 0.019685347 0.16707925 0.036505632 0.08953738 0.27094805 -0.035374004 -0.11281216 -0.09944837 0.08074848 0.04177315 0.060241193 -0.1774003 -0.09305038 0.061000008
