4271 16
2838 -2.229509 -4.134133 1.5291729 1.9374171 -1.0236931 1.4627074 3.305158 0.26284543 0.5796876 -1.9804184 0.2781612 -2.8538542 1.89252 -1.979695 -2.4342573 -0.63695204
1247 -2.4172258 -4.0987725 1.3386512 1.5114517 -0.8132742 1.6982948 3.378671 0.092615195 0.51115525 -1.9563445 0.13286974 -2.6404624 1.8255965 -2.096068 -2.416641 -0.6801479
708 -1.0815705 -1.2626581 1.8128852 1.0895383 0.08855134 -0.020394683 0.07320788 -0.8817549 -1.8109057 1.2960894 -1.059778 -1.0283391 1.9412857 -3.2710989 -1.9396422 0.56553376
967 -0.6863513 -0.7085916 0.38056055 0.14366427 -1.4309598 0.66736066 0.90681773 -1.1604393 -0.8470414 -0.84052366 -0.96630186 -0.21285218 1.1656928 -1.2291898 0.50632584 -0.46968222
287 -2.2924428 0.19041283 0.83555365 2.6489623 -0.36993235 1.2313381 -0.11023958 0.09949873 1.2175105 -0.33016822 -0.396828 -2.7905583 3.5894976 -1.8381006 -0.13368334 -0.26078928
275 -1.8110328 -1.1572434 2.181604 2.4389012 -1.8166816 1.155444 1.0111305 -1.3795228 -2.356776 0.20920572 -1.535602 -0.98438734 2.56032 -3.294637 1.0080327 0.54041845
1576 -2.9479275 -2.7195528 1.0790854 2.0856705 0.30569118 0.39277098 0.73814356 0.24640399 0.15452696 0.78038895 -0.5170815 0.15602572 1.1546175 -2.2932034 1.1053606 -0.8765909
1321 -1.7027309 -1.2808452 1.7474345 2.7285812 0.15188469 1.2664416 0.014277767 -0.34298527 1.4921665 -0.64311594 0.62879056 -3.0124483 4.1357985 -2.346934 -0.3710047 1.4786149
2175 -1.6534328 -0.82140267 2.1820254 1.0590346 -0.4378381 0.45160136 0.3330186 -0.91911966 -1.4210664 1.4302126 -0.73387307 -0.36136624 2.3584208 -3.6776803 -1.463687 0.61472124
2799 -0.14384583 -0.13799909 0.51767206 1.5918344 0.42478773 1.3470472 0.58200204 -0.98132074 -1.0083404 -0.5799099 -2.0800192 0.3003993 2.56885 -2.0168965 -0.68359435 0.71434176
221 -1.8464569 -1.4865541 0.3302621 -0.4353685 0.1641046 0.75395966 0.9796931 -0.41190657 0.353443 -0.07656027 -0.386071 -1.2510467 1.1573509 -0.15748715 -0.416944 -0.93200165
4477 -3.5466964 -4.3958645 1.1281573 -0.08637297 -2.1409874 0.7790188 -0.57315624 -1.2063113 -0.93539083 -0.5818641 -0.51782405 -3.0428016 3.590771 -1.8174114 -0.48821852 -1.0338404
4313 -3.4060602 -4.3824553 1.1097834 0.003938411 -2.0308867 0.66174316 -0.7833133 -1.1563108 -1.0691535 -0.41924822 -0.70797646 -2.9542038 3.5785108 -1.7555065 -0.4031497 -0.8822397
1194 -2.2199202 -0.059222825 0.29431432 2.2148223 0.08472797 1.2094808 0.41530067 -0.8025215 1.7949655 0.52413654 -0.9377883 -2.801629 2.5174706 -2.2269285 -0.2534676 -0.21885528
710 -0.14292665 -1.4468843 1.0247923 0.27853614 -0.6081662 0.8666412 0.133434 -0.541757 -0.1849683 -0.68541604 -0.44166994 -0.8721066 1.2290784 -0.20513569 -0.5055154 -0.32081744
4249 -1.7135193 -0.81066316 1.9857329 1.4724557 -0.26431584 0.45438442 -0.006893766 -1.0567093 -1.8586445 1.1827981 -0.8708703 -0.80755275 1.9926608 -3.7086408 -1.6558905 0.51415193
839 -1.5379866 -0.8952778 1.0471348 0.081581056 -1.1874107 1.4174092 0.6819053 -0.779639 -1.1842488 0.0713569 -1.0759612 -0.1192984 1.7558482 -1.8683578 1.2980654 0.6110858
1098 -1.1849432 -2.8384123 0.38749182 2.1255763 0.5046654 2.854588 0.59497637 -0.5496741 0.33287752 -1.909273 -3.2399375 -1.2460878 4.1760645 -2.7027445 -0.8661578 0.016675808
1231 -1.7705313 -3.3798976 1.059921 1.3251638 -0.6027566 1.1667887 2.5571837 0.16085197 0.52316195 -1.5857548 0.23668389 -2.3541818 1.5166531 -1.4641663 -1.8668413 -0.5758949
380 -1.5009135 -1.3450782 1.7846845 2.8803372 0.17321937 0.7854396 0.22966366 -0.21644774 1.4353607 -0.6806995 0.37235653 -3.1510859 4.35868 -2.499172 -0.51932585 1.491727
46 -2.6386433 -2.6186736 2.5460851 1.0177785 -2.0217307 0.56841046 2.1378222 0.64841753 0.944861 0.1763513 -1.3315964 -2.2598658 0.9695731 -3.6256027 0.012037386 2.1600072
942 -1.3534967 -0.4444858 0.7946673 2.4452207 -0.15776101 1.1829144 0.08285746 -0.4958161 1.7444378 0.3429498 -0.26382634 -2.9832733 2.9111674 -2.2036793 -0.12536225 0.7693999
1254 -1.7143536 -1.14394 1.3485203 2.649836 0.19171175 1.5083764 0.20632932 -0.51146203 1.5917708 -0.4262824 0.7308829 -2.5509315 3.9339414 -2.1781769 -0.26696694 1.5647317
790 -1.63156 -2.4581811 1.0936574 0.93597287 -0.61610717 2.3812418 0.34797338 0.25261885 -0.612538 0.28406435 -1.0307913 -1.7935979 0.66891944 0.364539 0.4890591 0.85814863
4673 -0.4200372 -1.0565323 1.2298195 0.84831893 -1.352883 -0.24950892 0.17020078 -0.7972096 -1.2343942 -0.79450876 -0.5318416 -0.52578056 1.508812 -2.0307953 0.61747265 -0.32529435
228 -1.6204605 -1.0677711 1.7846651 1.9111545 -1.0415499 1.3400078 1.1021217 -1.2377222 -2.7168846 0.68815273 -2.2150033 -0.99397236 2.5209517 -3.2444155 0.55277294 0.6517137
1508 -2.102797 -2.250859 1.4577768 1.3279685 1.0595769 -0.28441477 0.6833015 0.45934382 -0.40184033 0.749253 -1.218825 -0.47486863 1.2684101 -1.795196 1.2287873 -0.3729643
1028 -1.9144144 -1.4450015 2.0036943 0.25105616 -1.9641416 1.7787906 0.4809086 -1.1072334 -1.6431494 -0.3923955 -1.9677472 -0.06484028 2.5511835 -2.80814 1.5286534 0.35503528
1319 -0.56694806 -2.1307855 1.9081163 0.71857595 1.1027353 -0.2712941 -0.3045939 -0.8832419 -0.1490138 -1.2631173 -0.65263546 -1.0778437 1.6188025 -1.098221 0.6078444 -0.7714405
87 -0.94821197 -2.3185647 2.3456645 2.3648324 -2.2684886 1.720841 -0.49362823 -0.07095301 -0.6424182 0.015618787 -0.9447038 -0.83433676 2.6911554 0.12622903 -0.20851465 -1.2010132
2040 -3.5130954 -3.061174 1.7976971 1.2028558 1.4785506 0.18475631 1.090156 -0.21631563 -0.7602045 0.8043093 -0.15782143 -0.98652446 2.5929992 -1.7995509 0.9005756 0.18485096
716 -0.6182166 -1.9824355 1.6449407 1.829507 -2.108376 1.3346968 -0.42212173 -0.6350683 -0.82169664 -0.3407873 -0.75419164 -0.88416475 2.2776368 -0.14906298 -0.50062484 -0.87579614
2827 -3.070822 -3.974662 0.9765307 -0.06427845 -1.7387695 0.62028986 -0.6732716 -1.0289634 -0.90575016 -0.44752517 -0.4966243 -2.5636723 3.1097567 -1.5544671 -0.30606127 -0.95452636
4534 -0.91369706 -1.0598233 1.8977128 1.6863177 0.10805227 0.30771968 0.29656744 -0.021322852 1.2134614 -0.48274514 0.51733994 -1.9856273 3.3902435 -2.1160333 -0.4345189 1.3775439
45 -0.7264122 -1.1169971 0.36454844 0.42794833 -0.24064606 0.35083562 0.29718158 -0.3321537 0.31862697 0.065601654 -0.60987824 -0.5776066 1.0501517 -0.925918 -0.33763433 -0.2790853
3125 -0.8044666 -2.2738388 0.3346035 1.6876142 0.4006101 2.4266036 0.54902667 -0.5563075 0.07573461 -1.6525854 -2.741519 -0.9396927 3.698929 -2.2431543 -0.71246076 0.2421775
1071 -1.0348762 -1.0100548 0.42617407 0.5102398 0.010865045 0.3173379 0.3422657 -0.44889483 0.21372853 -0.73668224 -0.6034748 -0.56130534 1.0862197 -0.61091226 0.005091945 0.2853319
4536 -1.7415224 -0.71157575 1.539753 2.7819598 -0.19538848 0.85268205 -0.011199432 -0.24256437 1.5629781 -0.49202693 0.2280988 -2.4664817 3.528464 -2.0506706 -0.04164974 1.06972
390 -1.0980521 -1.5106989 1.968506 2.0231307 0.26471692 0.9604273 0.06598696 -0.37042847 1.4013461 -0.3723969 0.7172021 -2.2600045 3.103001 -1.9720626 0.19025725 1.66349
3840 -0.97478586 -2.8798714 0.7647371 -0.6524673 -0.7203661 1.1864152 -0.14445964 -0.45964557 0.24026443 0.1787962 -1.4791003 -1.5796558 1.0502025 -1.0494605 -0.14703469 -0.40887165
251 -0.5316541 -1.1600592 0.7340761 0.14999767 -0.12400045 0.677726 0.09857882 -0.31857282 0.056468282 -0.36188275 -0.30481368 -1.0929699 0.79858565 -0.74172914 -0.41998345 -0.16910948
1965 -2.4173775 -2.4253511 2.0926647 0.6824581 -1.6742171 0.43994036 1.8683927 0.54008347 0.9152924 0.28986502 -1.2447457 -2.0868561 1.0044583 -3.3927245 -0.054377284 1.9991783
1494 -2.051023 -1.6338102 2.483893 0.39758584 0.09891028 2.5378637 -0.2268927 1.1174123 0.676664 0.022955071 -1.3944377 -1.7009941 2.0007663 -3.040102 1.3085674 -1.1061751
97 -0.8345132 -0.94383997 0.34567857 0.44474265 -0.2554441 0.42524037 0.37715867 -0.07474915 0.27644444 -0.37622255 -0.2932472 -0.5628537 0.9757966 -0.7692241 0.07190755 0.20249361
83 -0.9897444 -0.32924363 0.16215143 -0.17902786 -0.87799495 0.4841203 0.0035736577 -0.1299448 0.78407186 -0.30493042 -0.94636333 -1.1999525 1.6983821 -0.80021757 -0.5619614 -0.8373356
1561 -1.7468163 0.36889982 0.4232108 1.4101875 -1.1186028 1.8906341 -0.2649191 0.37824908 0.8779928 0.6300309 -1.4735808 -2.7273536 2.4648008 -2.0943716 -0.41946504 -0.37892732
1097 -0.95254654 -2.208326 0.2511063 1.7264997 0.49480814 2.348171 0.47778586 -0.33988652 0.4894309 -1.6159527 -2.682521 -1.0336171 3.521412 -2.1684988 -0.73539495 0.09878162
16 -0.8634142 -2.431682 0.2979991 1.7775134 0.34761307 2.5259156 0.5199148 -0.3327494 0.52689 -1.693971 -2.7446682 -0.9715927 3.6543438 -2.2151327 -0.74798036 0.17667535
524 -0.85134095 -3.361051 1.1718303 0.234841 -0.8198842 0.5019428 -0.72769743 0.013836044 -0.22230579 0.51706713 -1.3630837 -2.3302038 0.7642071 -1.4282659 -0.26646054 1.2275606
2689 -1.7493826 -2.1877997 1.3502501 1.3949153 0.98622584 -0.08747217 0.4226223 0.17171328 -0.42715117 0.76085526 -0.8221021 -0.49818948 1.1157436 -1.5950657 1.0735888 -0.33862507
3249 -2.6250143 -1.8725935 1.1598116 1.1498303 1.2587805 0.44818747 0.7523365 -0.26251045 -0.4204869 0.7611017 0.013359832 -0.49578965 1.9464198 -1.3149077 0.7246504 0.17729904
3855 -0.8778339 -2.3881695 0.22074348 1.615925 0.47759292 2.5256815 0.61673903 -0.39195675 0.4847832 -1.6956308 -2.6686962 -1.060998 3.5028427 -2.1867359 -0.7260818 0.022290362
32 -0.110997714 -1.1586672 0.8887091 -0.6437236 -0.517709 1.8613709 0.39589602 -1.4545908 0.2164649 -0.5292948 -0.12307808 -1.804739 1.4863914 -0.8444496 -1.1739304 -0.0019426954
51 -1.1371257 -1.9847093 0.25416818 0.1618931 -0.092512816 0.48637754 1.0169321 -1.0627991 0.4224454 -0.8427534 -0.65959454 -1.8442115 -0.054925784 -2.1143496 0.8597302 -0.5657858
3777 -2.234797 -0.011199056 -0.059135914 2.0755491 -0.67793876 1.3112596 -0.35805166 -0.19908899 1.1787124 0.10070692 -0.9536419 -2.1416285 2.062097 -1.6400024 -0.2075063 -0.6092526
3407 -3.0383677 -2.7106564 1.7479694 1.4211483 1.3937348 0.2965096 0.8961625 -0.3264818 -0.50424325 0.8902754 -0.29491428 -0.7447063 2.2902372 -1.757495 0.9667294 0.49995038
230 -1.5814072 -0.9545905 1.8529108 2.040762 -1.7844973 0.80021983 0.82917446 -0.88630056 -1.9677119 -0.17922911 -1.2674277 -0.8825026 1.9977124 -2.864389 1.0211666 0.6086116
2147 -0.66830003 -1.2415551 0.4015553 0.88474333 0.16245018 -0.30867615 0.29021204 -1.2145649 -0.043210868 0.3021979 -1.477468 -1.6550297 1.3612975 -1.189271 -1.0196596 0.58678955
4107 -1.9223233 -1.5232043 2.3462746 0.37178376 0.02584715 2.3532598 -0.2568672 1.0788327 0.5139874 0.25316957 -1.3338594 -1.4557953 1.7384778 -2.8262355 1.1814084 -1.0888853
3228 -1.5550004 -1.131879 1.9128442 0.36115992 0.11154706 2.0064716 -0.18987411 0.9479326 0.4984985 0.19244795 -1.0576562 -1.3083438 1.4122679 -2.374878 1.1431948 -0.8370121
382 -0.8905933 -0.7605584 1.3575879 1.7520376 0.1013481 0.4109959 0.088545345 -0.3223878 1.0759109 -0.4071996 0.36974907 -1.6539983 2.5258422 -1.5819349 -0.07729289 1.108235
1209 -0.7133509 -1.2236408 0.9290176 0.20352153 0.27335817 0.5977404 0.17625096 0.789069 -0.29312047 -0.98754597 -1.4830031 -1.0706497 2.1565502 -0.74622464 0.10152844 1.5037146
29 -0.25844255 -0.45795447 0.72107476 0.19544385 -0.43967587 0.9398996 0.36727422 0.1427273 0.18708903 -0.30596945 -0.34886417 -0.806235 0.6148996 -1.1944162 0.19328819 -0.07260296
1320 -1.18028 -2.9226902 2.554459 1.1364355 1.1506066 -0.01245117 -0.106340915 -0.8005666 0.36024082 -1.3737845 -1.1394842 -1.4705085 2.4204736 -1.3884736 0.7560416 -0.8415461
1294 -1.4309298 -2.5221772 0.75677013 0.9285553 -0.40192848 0.934195 1.9716722 0.14400879 0.5398699 -1.17132 0.29523486 -1.6677929 1.1188092 -1.1627665 -1.6260314 -0.41351426
2996 -1.1165375 -0.9067191 1.4289554 2.292079 0.04032967 0.5712225 0.122178726 -0.2571421 1.1834894 -0.40527704 0.40023538 -2.254213 3.0739834 -1.8277168 -0.11586994 1.3033068
4745 -1.0063272 -0.54471797 1.4440821 1.6677656 -0.51436496 0.7328279 0.50061405 -0.9483267 -1.8555139 0.5223564 -1.494752 -0.3615945 2.0964217 -2.79396 -0.07974841 0.7362147
2235 -3.1525939 -2.578523 1.6862428 1.5608928 1.3113605 0.31166357 0.83685243 -0.18273035 -0.45196068 0.89074296 -0.24071927 -0.705558 2.2694082 -1.7496358 0.7158882 0.34850395
3180 -1.0853804 -0.8586659 1.4956868 2.2958493 0.10355836 0.72285074 -0.005401267 -0.16516578 1.0871017 -0.54133886 0.30158627 -2.4918864 3.4306562 -1.8713824 -0.2647424 1.2730247
232 -1.43543 -0.8700347 1.7241099 2.0101407 -1.675241 0.77605766 0.8124207 -0.847586 -1.7838924 -0.082198575 -1.1753107 -0.83578044 1.8076974 -2.733382 0.9086348 0.53639627
4749 -0.76405483 -2.2987664 0.7472581 0.2941999 -0.97077227 0.17460822 -0.5585016 0.0062479298 -0.056140687 0.44078365 -1.22009 -1.7237545 1.1228962 -1.1100768 -0.035290897 0.90568894
330 -1.3319838 -1.6444933 0.33713552 -0.13856466 -0.8621742 0.32619053 -0.17223111 -0.30911362 -0.2738846 -0.15778443 -0.21507913 -1.159229 1.2794987 -0.50650775 -0.012436962 -0.47873187
1487 -0.45011672 -0.6049241 0.7430918 1.2166568 -1.3445134 1.0111766 0.6384553 -0.66918916 -0.88014257 -0.43806046 -0.5944477 -0.9051093 0.9052684 -1.36112 0.9889661 0.68729675
1169 -0.8285598 -0.7646881 0.4475279 0.53902084 -0.20164183 0.46599865 0.17279801 -0.032634992 -0.12328955 0.04577048 -0.3348797 -0.7439299 0.87278557 -0.59377265 -0.20196688 0.017936595
1537 -0.34158733 -0.9269381 0.7205341 -0.08099917 -0.034787007 0.9828366 0.23577854 -0.55293244 -0.07881906 -0.26537734 -0.15380988 -1.2635045 1.0468849 -1.137037 -0.38403893 0.17783348
48 -0.93853974 -1.1235263 1.4161474 -0.23705612 0.10353363 0.9864477 -0.006082981 0.5204817 1.0692664 -0.645135 -1.273877 -1.4022051 0.50664705 -1.6044223 -0.5070151 -0.37933585
381 -1.1131066 -0.68556786 1.4852757 1.9524266 -0.057058327 0.68110794 0.10575266 -0.1962699 1.2032514 -0.20170541 0.36103565 -1.6019584 2.689464 -1.3977965 -0.19864136 1.2797413
4062 -1.7544264 -1.3890318 2.0681133 0.32308185 -0.069485836 2.0461519 -0.18756881 0.90898395 0.4729439 0.2252151 -1.2579948 -1.3687519 1.5932821 -2.7036989 1.1558174 -0.9704557
936 -1.3009917 -0.65323 1.4029175 1.4165462 -1.4594728 0.72829956 0.5917515 -0.76529795 -1.544673 -0.18027027 -0.93238324 -0.5562683 1.4326354 -2.1473975 0.9511186 0.38272935
1488 -0.62764275 -0.77756774 0.58229834 0.40818584 -0.47705528 0.4697551 0.3198818 -0.014835495 0.049203295 -0.28211558 -0.34804517 -0.6470433 0.8838308 -0.9144806 -0.0814499 0.080146104
1226 -0.7872975 -0.725918 0.44845214 0.50584567 -0.17396542 0.4073061 0.3533785 -0.09297823 0.12535429 -0.21331307 -0.17573866 -0.7109492 0.95107853 -0.8468282 -0.09214042 -0.00559029
254 -0.8412013 -0.67434347 1.1568582 0.48074538 -0.83431363 1.1695939 -0.015159195 -0.86088955 -1.3398873 -0.35603464 -1.2039968 -0.4944249 1.299336 -1.4111726 0.995714 0.6675521
3451 -0.91994864 -0.86994857 0.7014417 0.49184728 -0.0027228792 0.5178831 0.12897342 -0.29394343 0.077658825 -0.15225036 -0.19862741 -0.4910532 1.0979017 -0.50813216 -0.2025694 -0.075336814
835 -1.0909207 -0.59425765 1.5100095 1.032031 -0.96285504 0.72966444 0.6550136 -0.88691545 -1.8993256 0.44741306 -1.2905104 -0.7666851 1.6720113 -2.154558 0.8282257 0.56378275
4760 -2.7356188 -2.3467703 1.2831254 1.145255 1.293223 0.4160964 0.7652745 -0.15208335 -0.4821061 0.76146895 -0.18947409 -0.5729961 2.086139 -1.5845481 0.71280295 0.31007558
8 -0.5442659 -0.6503366 0.6055037 0.5512387 -0.12353796 0.3590865 0.33433798 -0.078068875 0.028873166 -0.12635125 -0.31075925 -0.6905025 0.7796121 -0.71266055 0.0800103 0.26771894
2008 -1.1236187 -0.763022 1.4114043 -0.10693901 -0.47456494 0.47671157 0.34300485 0.24113777 0.80214 -0.06971578 -0.27231318 -1.0981871 0.55879396 -1.7541143 0.28139445 0.33661124
1777 -0.627847 -0.89801055 0.3728268 0.2765571 -0.20652902 0.40777543 0.12522979 0.06933454 0.11837466 0.036517285 -0.24143122 -0.87164444 1.0615956 -0.9065283 -0.02458785 0.14817026
804 -0.49377376 -0.82592964 0.6668386 0.32211208 -0.20693086 0.27964306 0.21693708 0.06193018 0.15695877 -0.16084011 -0.30774254 -0.5666149 0.8940242 -0.73945284 -0.033306498 0.08535115
4393 -1.1076701 -0.8544907 0.5480877 0.053526174 -0.0072684675 0.46749 -0.2733389 -0.27591953 -0.12603506 -0.5283998 -0.88462156 -1.2980397 1.2598985 -0.3833094 0.014762394 0.02265106
2928 -0.46226665 -1.1361016 0.63857895 0.41990933 0.080970265 0.7871138 0.04221545 -0.18024507 -0.07794385 0.055970136 -0.31641868 -0.37660027 1.0987495 -1.102344 0.03615452 -0.21496557
711 -0.33716983 -1.525647 1.5800887 1.8511094 -1.5857431 0.9640744 -0.24876645 -0.054548915 -0.44676203 0.16786669 -0.87107104 -0.7507227 2.2170439 -0.21236408 -0.24197066 -0.7662495
2753 -1.2355869 -0.8691524 1.5549351 1.5124636 -0.96990234 0.9477897 0.9701418 -0.90306234 -2.1733727 0.47467697 -1.4959795 -1.1370198 2.1587322 -2.5323882 0.92943597 0.71315104
284 -1.1488014 -2.6502209 1.37909 -0.07067686 -0.34205008 1.3776613 -0.2616398 -1.186065 0.053222135 0.591869 -1.0480739 -0.6669953 1.0525545 -0.7310521 0.10199878 0.53766805
1838 -1.0654057 -2.2023373 0.49701977 0.7630891 -0.9772953 0.8981586 -0.5111784 -0.5351222 -0.46813408 0.74701065 -1.2705227 -1.9184864 0.6748857 -0.96909475 -0.008252334 0.93029404
1070 -0.70316976 -0.7200333 0.4444896 0.32966706 -0.2512192 0.33749822 0.13688211 0.00846379 0.0231213 -0.20308708 -0.35383976 -0.67750055 0.8906381 -0.6081535 -0.13602792 0.14539993
2831 -0.97017825 -0.91275746 1.3896253 2.0842512 0.1615165 0.5728193 0.034607466 -0.070605986 1.0591938 -0.35425222 0.34693763 -2.3158853 3.0820212 -1.8556975 -0.2312167 1.2223182
2097 -0.39858365 -0.9661569 0.3682784 0.3171451 0.33309817 0.52490294 0.4427916 0.3133512 0.19403982 -0.2132664 -1.0389031 -0.52707267 1.4106169 -1.2192771 -0.26539582 0.53602105
233 -0.6804515 -0.80350995 0.38651422 0.5087498 -0.115725674 0.27540258 0.35225794 0.21507467 -0.084220424 -0.08407274 -0.3633779 -0.9699458 0.72166735 -1.0814629 0.042787507 0.22726634
2923 -1.2924151 -1.0955975 0.67342675 0.021205662 0.4900021 1.0575444 0.24738368 0.5338241 -0.55070806 -1.0228218 -1.2352179 -0.94616103 2.2767603 -0.7583077 0.4805882 1.4966877
2515 -0.5568584 -0.88499963 0.47925487 0.3909795 -0.08591052 0.4820021 0.18945922 0.03007772 -0.005715246 -0.23551673 -0.41871253 -0.6879495 0.78071225 -0.5957294 -0.1735169 0.17850137
1103 -2.1545134 -1.6882665 0.97799665 0.81703 0.9508989 0.3670318 0.6141729 -0.07561588 -0.2924612 0.5914574 -0.018888295 -0.50960934 1.4438318 -1.1756922 0.6369609 0.15232334
3246 -1.1030647 -2.7070556 2.4714396 1.2110479 1.0726804 -0.02101475 -0.12273694 -0.8715627 0.29724228 -1.2616006 -1.1476545 -1.2126127 2.312274 -1.4143859 0.64777285 -0.7316404
4497 -0.9369734 -0.6987071 1.1468964 1.9677821 0.17694388 0.69788426 0.032811426 -0.14506024 1.0807484 -0.48697162 0.2686896 -2.1181843 2.963037 -1.5857353 -0.20989417 1.1148423
976 -0.9391762 -0.53512186 0.81290543 0.2027724 -0.9058567 1.0058261 0.32484245 -0.4616143 -0.7348372 -0.21521932 -0.7353467 -0.2334271 1.241939 -1.3502989 0.7764773 0.13001806
714 -0.5239062 -1.3245504 0.98735553 1.1105143 -1.199019 0.6986919 -0.2276041 -0.2848408 -0.4369926 -0.16550441 -0.59558934 -0.51635337 1.5825634 -0.06553184 -0.15528518 -0.22612596
779 -1.5973407 -0.95038146 1.2959694 0.31654602 -1.523382 1.5777942 0.45189372 -0.900561 -1.0506012 -0.33053395 -1.3054308 -0.17105877 1.8429972 -2.125048 1.2529371 0.32900068
597 -0.48527664 -0.8822054 0.7097484 0.26579335 -0.32390803 0.25265354 0.30484056 -0.3876676 0.09562347 -0.15566824 -0.5267304 -0.7868961 0.9289367 -1.0553257 0.08908715 -0.015163885
829 -0.37919003 -2.6710808 0.70436186 0.31560233 -0.8145569 0.44073805 -0.28007105 0.11991101 -0.49111035 0.6667478 -1.0275387 -1.7485756 1.2227572 -1.1906343 0.32728922 1.2829385
1089 -1.5981401 0.012104087 -0.007171128 1.6288663 -0.40857512 1.0073025 -0.081783004 0.02938265 1.0240993 0.019191556 -0.5253825 -1.7431294 1.8068128 -1.1989062 -0.11635477 -0.33063382
599 -0.70549715 -0.88474077 0.43088987 0.39403734 -0.16030338 0.43216845 0.2987835 -0.044614863 0.07434841 -0.23401712 -0.28781813 -0.6519932 0.79850644 -0.6244946 -0.0076039257 0.06787954
3222 -0.4890706 -1.2646194 1.2470579 0.5387836 0.48259273 0.11349051 -0.08084078 -0.3643324 0.23694059 -0.45946747 -0.4028671 -0.5748646 1.1450298 -0.6182777 0.4668147 -0.4046713
1793 -0.3312985 -2.0942695 0.6503906 0.4053873 -0.58977437 0.49845088 -0.20586228 -0.05567339 -0.13140678 0.40470564 -1.0069354 -1.4128106 1.0785077 -1.0444224 0.19810729 0.9471528
3416 -2.5232642 -2.1313295 1.167754 1.024241 1.1816626 0.4366212 0.6953805 -0.16804476 -0.39770213 0.76281416 -0.035629183 -0.50450665 1.9682137 -1.465818 0.634826 0.18318158
4740 -1.051807 -0.67617476 1.2644817 1.6042826 -1.161002 0.7419409 0.9322533 -0.7337968 -1.6608813 -0.0061320164 -1.1299543 -0.8516863 1.606859 -2.1003637 0.93784 0.4151225
971 -0.6109769 -0.8990956 0.66232634 0.6585148 -0.18134479 0.48812845 0.07282263 -0.041120585 0.48484206 -0.25922137 -0.55454844 -0.7093403 0.7435386 -0.80880886 0.06911396 0.5443516
78 -1.1671462 -1.8125169 0.6938644 0.67060935 -0.33119154 1.0336661 1.6263919 0.16440101 0.26765305 -0.8716833 0.2450014 -1.1521667 0.9871086 -0.7486165 -1.0531079 -0.41731113
3042 -0.9752796 -0.78501546 1.3796222 1.4431835 -1.218116 0.66539633 0.70789653 -0.8447359 -1.6734439 0.07831487 -1.148116 -0.6972871 1.7586826 -2.073101 1.0587167 0.4772054
4764 -0.5953347 -0.75834894 0.56848717 0.3516197 -0.121082366 0.5011853 0.183799 -0.06484711 0.12068595 -0.17554913 -0.18042903 -0.6277217 0.947004 -0.6352863 -0.04372015 0.1294559
1968 -1.9536226 -1.6998179 1.7844055 0.5666555 -1.3722767 0.21980637 1.5057617 0.49101472 0.83683103 0.24659239 -0.88769907 -1.5559968 0.7362194 -2.6819046 -0.02725179 1.6578354
2227 -1.2235312 0.027251445 0.40594894 0.79736626 -0.84851223 1.1917803 -0.051690124 0.019240376 0.50641227 0.5437877 -1.1090103 -1.9170861 1.494798 -1.3868939 -0.18383402 -0.30545208
4570 -0.6519196 -0.6814341 0.4317567 0.3017893 -0.19258314 0.4405918 0.13264498 -0.062327594 -0.05981015 -0.051326323 -0.31689963 -0.61944985 0.8399396 -0.6835076 -0.091475084 0.055515096
3229 -1.392856 -1.9290382 0.50395066 0.99646664 -0.56141096 1.8239989 0.40290916 0.39214602 -0.7198109 0.07658521 -0.87814194 -1.6655482 1.0011077 0.19651197 0.3697651 0.45088097
1532 -0.4519992 -0.96734023 0.6941586 -0.1396917 -0.24614733 0.8223208 0.17227969 -0.5704863 -0.025955722 -0.3404817 -0.23286362 -1.1513277 1.0458914 -0.9544804 -0.4831536 0.17441517
1967 -1.3649613 -1.3421887 1.2677275 0.34419188 -1.019602 0.09569299 1.0307676 0.34965923 0.5451415 0.2744544 -0.71474886 -1.243264 0.49129146 -1.905991 0.07530671 1.328632
2906 -0.682601 -1.6529068 1.4595793 0.80534416 0.7665382 0.01351334 -0.18172355 -0.5727064 0.24273835 -0.8339924 -0.57172734 -0.79491526 1.4505033 -0.7550039 0.54894215 -0.7408307
1172 -0.6959218 -0.66379285 0.46002817 0.50248814 -0.15335864 0.43343514 0.11570554 0.0014418369 -0.0022851361 -0.19037692 -0.25578085 -0.61745733 0.83704376 -0.7465681 -0.06612407 0.012871189
50 -0.76874876 -1.0844439 0.30644476 0.36069673 0.20072375 1.0564218 0.1050632 0.13077213 0.45213625 -0.38409922 -1.090881 -0.14472404 1.0816574 -1.2696637 -0.2779162 -0.08709753
3890 -1.4657166 0.19784959 0.5120951 1.2089489 -0.8835048 1.3558369 -0.2678757 0.12681085 0.7516733 0.5405972 -1.2091932 -2.492165 2.0408187 -1.6104068 -0.14400983 -0.39611366
4258 -0.7117666 -0.69740516 0.42203605 0.32325348 -0.06774208 0.30224216 0.23136431 -0.15321878 -0.14944142 -0.15153173 -0.2488706 -0.44364804 0.84944457 -0.5981369 -0.09529655 0.018716576
1206 -0.61555487 -0.6509083 0.49074182 0.40971476 -0.19836704 0.4952212 0.19931445 -0.089530036 0.010497783 -0.046158608 -0.41331452 -0.5030534 0.8444898 -0.67697304 0.05256361 0.057346277
2861 -1.2519244 -1.7379488 0.38542357 0.9314426 -0.6632047 1.6558264 0.50276756 0.5300583 -0.78204393 0.24048632 -0.75402755 -1.6553922 1.0721974 -0.04644796 0.39803874 0.5112412
715 -0.5286374 -1.3288678 0.96404946 1.0443755 -1.1525248 0.6830122 -0.21371366 -0.25416723 -0.44046697 -0.18933515 -0.67586535 -0.597291 1.5222998 -0.07810619 -0.13980284 -0.3290056
1031 -0.5802647 -0.6604057 0.6293036 0.33095393 -0.16331606 0.29394075 0.19332658 -0.28116524 -0.18589616 -0.08492695 -0.35605317 -0.5688032 0.79863316 -0.8089684 0.074525654 0.13051687
2901 -1.2708967 -0.8251522 1.1566576 -0.029119574 -1.2241218 1.2490082 0.37927887 -0.60095376 -0.99983996 -0.1540554 -1.2700473 -0.2572054 1.5208365 -1.6901506 0.8890048 0.22136529
4539 -0.79409593 -0.48366714 0.85255915 1.5239623 0.019174349 0.50067455 0.23589575 -0.2654529 0.7988853 -0.19096293 0.43838218 -1.161423 1.9058615 -1.237532 0.04839326 0.76132137
1212 -1.1159228 -0.5254131 1.4865881 0.943864 -0.1983748 -0.051989455 0.50804543 -0.46593764 -0.7784845 1.0760417 -0.37525114 -0.64768887 1.0516467 -2.0131843 -1.1606824 0.122418895
12 -0.59628993 -0.4857551 0.25028512 0.5165343 -0.374604 0.472537 0.096802555 -0.22837704 -0.07506724 -0.028931674 -0.32406646 -0.5124109 0.8831669 -0.82098496 -0.047912676 0.090179965
252 -0.6068179 -0.7736942 0.37710693 0.32076034 -0.1177863 0.4589442 0.23627922 -0.116323635 -0.20184503 -0.09032918 -0.32158792 -0.47646418 0.8918805 -0.6610969 -0.11048416 0.1517821
1082 -1.1232549 -0.85104007 0.014113441 -0.03284953 -0.2169318 0.6559238 -0.19390869 -0.43911138 -0.42769015 -0.39416537 -0.56897074 -0.7290181 1.5558529 -0.3202419 -0.12310448 -0.19532222
285 -0.54519564 -0.7459322 0.38419354 0.35408658 -0.23440534 0.3332026 0.14587852 -0.072655745 -0.0378975 -0.15842848 -0.192572 -0.6075683 0.7404513 -0.58251494 0.013878315 0.12445078
1550 -1.2153647 -0.49519795 1.395129 0.8045869 -0.29237968 0.09371825 0.47385105 -0.38955244 -0.5951181 1.045884 -0.4048181 -0.46808922 1.028008 -1.9206716 -0.9994899 0.28537604
283 -1.104046 -1.6102276 0.28820157 0.8619039 -0.6435493 1.3099153 0.3530282 0.45239177 -0.7335346 0.16664281 -0.56910414 -1.5194479 0.9848265 -0.042646207 0.37914264 0.4443146
2256 -0.75007236 -0.80278015 0.60930973 0.13418059 -0.6445488 0.43476367 0.23123385 -0.63332385 0.2278465 -0.2478131 -0.727133 -0.641642 1.4944609 -0.9768039 0.2688096 -0.23774433
1966 -1.2888305 -1.2016182 1.0536898 0.2867287 -0.94610447 0.1002338 0.92635435 0.29154518 0.54842174 0.19667503 -0.5587823 -1.0142846 0.4969013 -1.8062845 0.039071217 1.1350037
1971 -0.9093423 -0.9374572 0.9133941 0.13770789 -0.79175717 0.20592031 0.6819039 0.2906298 0.46006986 0.15655792 -0.43335137 -0.81201935 0.28972268 -1.3891749 0.059951536 0.808618
2185 -0.54546833 -0.6948749 0.39218602 0.40028903 -0.13355842 0.36687398 0.25155544 -0.21544477 -0.026609069 -0.12753306 -0.30369458 -0.547603 0.6891488 -0.63860416 0.020478304 -0.0005109829
939 -1.1304348 0.124622315 0.15897681 1.3553499 -0.32181585 0.96713907 -0.09864262 0.036448304 0.73095375 0.09830271 -0.42597327 -1.477833 1.6108235 -1.0263041 -0.053442746 -0.14751025
3 -1.2717632 -1.593986 0.11454601 -0.2999986 -0.90161145 0.39309868 -0.35000065 -0.66897947 -0.4258189 -0.34832296 -0.53844774 -1.124334 1.56038 -0.41084975 -0.13515195 -0.42762834
1843 -1.1418058 -0.57308155 1.3234152 1.6391325 -1.3202391 0.7247359 0.69626904 -0.74389005 -1.5541391 -0.035483405 -1.02765 -0.6113301 1.6356385 -2.1796288 0.8429325 0.58278275
1030 -0.5792426 -0.47880295 0.57988226 0.43747517 -0.46651468 0.3723472 0.34653527 -0.23074217 -0.6104831 -0.04962168 -0.5553947 -0.3673949 0.839089 -0.8760058 0.23244405 0.21449085
1061 -0.523192 -0.70336074 0.31663883 0.30560347 -0.26973942 0.455825 0.12078047 -0.10401464 0.0045956373 -0.31256166 -0.27511927 -0.693794 0.85578114 -0.6783977 -0.047390215 0.09685912
3233 -0.27585885 -1.6228096 0.475813 0.30847508 -0.38300797 0.3521011 -0.033707336 -0.004047245 -0.1826656 0.29610026 -0.69483304 -1.2343127 0.9937949 -0.8812282 0.1786641 0.7577352
2384 -0.33290532 -0.6388393 0.6939927 0.96050406 -0.92082715 0.5911804 0.49589747 -0.37844473 -0.6543575 -0.035785798 -0.5189637 -0.416005 0.93376017 -1.1682318 0.37168446 0.28230238
3277 -1.1005998 -2.1127446 0.5423042 0.6042535 -0.33330214 0.9463278 1.6207538 -0.025018267 0.37791264 -0.9904554 0.19803806 -1.2970054 0.9948784 -0.8252453 -1.2172633 -0.3280284
2897 -0.5151928 -0.7070421 0.41374457 0.45057794 -0.19310588 0.39944634 0.17842478 -0.05719412 0.022042172 -0.043781012 -0.24552931 -0.66696024 0.7565664 -0.6721768 0.045842614 -0.07451171
1241 -0.44358203 -2.3231735 0.8698565 0.11188843 -0.5104036 0.7195178 -0.29997393 -0.31917503 -0.17160648 0.57032645 -0.9915005 -1.1877817 0.9980914 -0.87076306 0.123655565 0.99202114
1711 -0.44756642 -0.53752095 0.69910616 1.0538025 -0.84935224 0.57581747 0.4539883 -0.4736994 -0.7532459 -0.0034523704 -0.56829184 -0.53621656 0.92771536 -1.303632 0.3730361 0.3514953
1677 -0.6671229 -0.3045806 0.8208963 0.8521737 -0.8710595 0.39756328 0.34611142 -0.35924357 -0.79948914 -0.102575645 -0.6305816 -0.4885598 0.91112494 -1.2970043 0.64124054 0.24996461
255 -0.6482417 -0.81147575 0.43927494 0.22155349 -0.18101856 0.24094407 0.07094688 -0.1713259 -0.15040685 -0.07604949 -0.23253137 -0.6103775 0.6545233 -0.70536035 -0.17044957 0.011138924
4691 -0.3665626 -0.99321854 0.6136943 0.38997725 0.26756066 0.85483533 0.2303103 -0.58713645 -0.19365498 -0.55306095 -0.7105879 -1.3896297 0.7628374 -0.5283798 0.19470696 -0.1563985
968 -0.66507703 -0.53838533 0.48571092 0.46305445 -0.1208845 0.42155153 0.11792113 -0.06852047 -0.05752087 -0.05678262 -0.26033956 -0.45166576 0.763166 -0.66713476 -0.0699372 0.07311127
2759 -0.43760997 -0.6580968 0.39899954 0.2932684 -0.2455647 0.42287076 0.1202736 -0.056603994 -0.06360671 -0.109336175 -0.3298899 -0.42028117 0.75779134 -0.57979816 0.0039435523 0.07622996
4326 -0.565171 -0.510042 0.3951782 0.42933124 -0.10826695 0.31608042 0.037408825 -0.09807849 0.06506504 -0.14516887 -0.25786775 -0.55316955 0.78648376 -0.6373821 0.13870429 0.0651866
2182 -0.33758333 -1.6086487 0.457779 0.43602931 -0.36202648 0.50107926 -0.069319606 0.05535722 -0.11665555 0.38046938 -0.7609818 -0.9857911 0.8117002 -0.8256005 0.12720658 0.73444897
2587 -0.72908336 -0.49064595 0.8961397 0.90280217 -0.71999866 0.5540094 0.5660295 -0.5827536 -1.140237 0.16500093 -0.78979045 -0.5405857 1.1382204 -1.3919514 0.6394113 0.42433894
953 -0.58365506 -0.8179461 0.32000008 0.2154636 -0.19448577 0.31375143 0.13437968 -0.13558324 -0.017113466 -0.20353684 -0.22089438 -0.7342006 0.79772484 -0.61585736 -0.050193194 -0.062495608
4253 -0.6072475 -0.74336064 0.49269044 0.2841865 -0.14256519 0.4443227 0.17113169 -0.051533677 -0.009543197 -0.0013941333 -0.36125067 -0.470485 0.8419713 -0.864446 -0.085604906 0.2609206
1032 -1.1880904 -1.1149645 1.135226 0.24386987 -0.8958361 0.08576287 0.86691934 0.24381287 0.494746 0.21053158 -0.56614035 -0.9234003 0.40620658 -1.6499776 0.05117476 1.070141
2941 -0.4816247 -0.6049313 0.4907691 0.34323737 -0.15913755 0.35262576 0.1839083 -0.18527968 -0.07127152 -0.048879318 -0.31210393 -0.5541215 0.7463067 -0.6381138 0.0005524459 0.1031446
1553 -1.0769403 -1.774233 0.595867 0.7125122 -0.40917093 0.64140207 1.380068 0.08764199 0.32913795 -0.9771059 0.2210869 -1.3190776 0.7620085 -0.90793353 -1.1872363 -0.36525837
1207 -0.26872507 -0.9733375 0.8207003 0.46461654 0.3493612 0.33932573 -0.14277723 -0.4612338 -0.025646426 -0.59977794 -0.7858803 -0.49355254 1.1478381 -0.5162855 0.14831601 -0.46904045
1541 -0.99163914 -0.6990777 1.2708042 1.3861812 -1.2427486 0.64627767 0.70229465 -0.55613464 -1.4231802 -0.2754294 -0.8030944 -0.62229663 1.2503921 -1.8372409 0.7912489 0.40694848
2800 -0.44437554 -0.53080714 0.59331155 0.29601485 -0.2473038 0.5511886 -0.15580042 -0.59439796 -0.7430352 -0.36307707 -0.69839245 -0.43527657 0.7212187 -0.76098853 0.40585366 0.3404542
3426 -0.37958437 -0.6088185 0.36999983 0.39077652 -0.014794657 0.3285143 0.15642215 -0.08683863 0.04614253 -0.17358917 -0.25311998 -0.40726557 0.779139 -0.602106 -0.087906346 0.04798784
469 -0.48060048 -0.6101854 0.34383804 0.40549582 -0.20329842 0.36536533 0.18167554 -0.11480172 0.00088827085 0.0043687075 -0.3120463 -0.46169224 0.73863286 -0.5224872 -0.02527227 0.1107544
4529 -0.36859652 -0.84187925 0.49124628 0.29533726 -0.09001773 0.3983439 0.28687796 0.10578938 0.14063294 -0.3144345 -0.29357854 -0.6921017 0.8219473 -0.56621784 0.09122859 0.1300223
2545 -0.44554257 -2.1533463 0.7119153 0.5204999 -0.518084 0.32407206 -0.53490907 -0.25539201 -0.57978773 1.0040109 -1.1045254 -1.4974906 1.02679 -1.3178701 -0.26352203 1.0565741
3878 -0.5048078 -0.5585805 0.3349523 0.38175553 -0.24865662 0.3860047 0.2217237 -0.15309355 -0.015165411 -0.1539479 -0.31025055 -0.48190638 0.7948923 -0.7141567 -0.11745582 0.06830581
945 -0.547162 -0.67633545 0.31043044 0.31489366 0.006893304 0.40819278 0.14786571 -0.18327597 0.03788491 -0.13181086 -0.26912776 -0.563885 0.72282815 -0.5535215 -0.085517116 0.017328687
2839 -1.0499561 -1.9623272 0.55876005 0.8352372 -0.40776962 0.64349556 1.6040268 0.07996166 0.3682413 -0.965973 0.11219663 -1.2381114 0.833578 -1.0016414 -1.2492146 -0.28356642
3026 -0.9346237 -0.702157 1.2581187 1.7142062 0.049047098 0.4904042 -0.018450856 -0.19371817 1.051792 -0.30225307 0.36477265 -1.6892916 2.3905647 -1.3769863 -0.1020978 1.0124177
3886 -0.81569946 -0.6334836 0.57060444 0.16360985 -0.5183294 0.32274294 0.17145166 -0.6637021 0.15862195 -0.41191983 -0.89528537 -0.7279441 1.899503 -0.7817418 0.20233777 -0.07166667
4538 -0.70256835 -0.45444965 0.8150917 1.3941915 -0.03267227 0.3780914 0.17573805 -0.27300197 0.7698243 -0.21713097 0.45353636 -1.1202383 1.7207575 -1.1221842 0.07985145 0.79929954
1482 -0.4900677 -0.60640305 0.34526163 0.41799763 -0.17383558 0.33995104 0.2103307 -0.06552484 -0.030014245 -0.07342117 -0.2675504 -0.60204643 0.7540003 -0.60547054 0.043626714 0.06110314
3261 -0.9952202 -0.6766629 1.3081762 0.8758754 -0.22243562 0.13275148 0.09566282 -0.5275436 -0.97530085 0.9237016 -0.40886343 -0.35995144 1.237595 -2.1608458 -0.9093235 0.3021162
3396 -0.5507554 -0.8674873 0.40660295 0.5282096 -0.55537486 0.45520127 -0.12026671 -0.11034118 0.004497425 0.026498714 -0.55901 -0.53854775 1.0462316 -0.5163265 0.033842947 0.29163557
1250 -0.5445816 -0.6012367 0.5510934 0.40254697 -0.109052345 0.3510838 0.10251963 -0.03427149 0.03556903 -0.08117451 -0.31096798 -0.49534476 0.7071031 -0.68553585 0.05629108 -0.021639392
229 -0.6690356 -0.4204964 0.8036474 0.87916917 -0.8235202 0.41133478 0.4774106 -0.54449344 -1.037068 -0.14343989 -0.5796403 -0.4380941 1.0018209 -1.2983245 0.5697065 0.25438863
1396 -0.62100655 -0.67488533 0.4897531 0.39213446 -0.69106674 -0.037891336 0.3319313 -0.28083295 0.00032087538 -0.16983141 -0.4274919 -0.7697947 1.1291531 -0.87851244 0.42080414 0.29480225
709 -0.7610581 -1.6771601 1.4033939 1.4688991 -1.5409378 0.82765317 -0.260464 -0.31042627 -0.5334684 -0.06476911 -0.79374313 -0.6885256 1.9810566 -0.05350126 -0.14981554 -0.52632874
1296 -0.57713854 -1.0274962 0.30341443 0.49418342 -0.03203094 0.2780201 0.5994652 -0.036663 0.0534183 -0.2875742 -0.07726077 -0.6091696 0.6417578 -0.66138566 -0.38024718 -0.04820441
2163 -0.42159793 -0.61400574 0.42574722 0.3588491 -0.14019252 0.42500234 0.18989882 -0.15644582 -0.08484698 -0.15103424 -0.37176532 -0.42168808 0.6138205 -0.6643423 -0.040978972 0.062793635
3023 -0.7057463 -0.9741723 0.64682305 0.1826715 0.35815194 0.6718928 0.23530011 0.52703595 -0.31785452 -0.80496603 -1.1642919 -1.0082026 1.8768822 -0.76500946 0.34629318 1.2811962
948 -0.77422297 -0.74770147 0.7942122 0.85533 -0.8286648 0.4487267 0.6284671 -0.6508248 -0.9747424 0.1774588 -0.98744917 -0.5390409 1.3520482 -1.4418925 1.3241751 0.46385947
1205 -0.54143935 -0.67869526 0.48684132 0.2623088 -0.066184305 0.3836204 0.026276838 0.008196255 -0.005088327 -0.033461418 -0.30924308 -0.4789113 0.8449571 -0.6578932 -0.13588932 0.16656275
2452 -0.50487787 -0.9119784 0.40654585 0.30345565 -0.03197947 0.13271458 0.4689773 -0.16351716 0.15098704 0.030944133 -0.6014381 -0.22998863 0.90542847 -1.0621685 0.27674264 0.2330371
4373 -0.41757947 -0.61143583 0.4354297 0.4282594 -0.36058226 0.47328386 0.2099585 -0.054396436 -0.06484198 -0.019570075 -0.3482524 -0.481896 0.74161035 -0.8055878 0.11651184 0.054069243
1713 -0.46379328 -0.4161954 0.36414686 0.42398047 -0.16145502 0.35962757 0.19639637 -0.0608382 -0.009084101 -0.0915252 -0.13016427 -0.41116065 0.7994364 -0.6577577 -0.05189878 0.029071242
2449 -0.48685014 -0.53271896 0.30710414 0.31695443 -0.0783799 0.42338192 0.1988003 -0.11725238 -0.13490841 -0.1824254 -0.25716314 -0.5547634 0.64606464 -0.5479591 -0.0503065 -0.0057151713
547 -0.40513593 -0.6285904 0.3126182 0.34937367 -0.12810996 0.30556768 0.091909 -0.052517004 0.04438025 -0.17656167 -0.17255273 -0.3831291 0.6349598 -0.5968861 0.009300082 0.112673156
3448 -0.7543597 -0.6963073 0.6005264 0.22512814 -0.43045127 0.42837465 0.278025 -0.44347972 0.06691663 -0.212764 -0.53457975 -0.5580807 1.2646025 -0.77808595 0.17849983 -0.15656525
126 -0.38238928 -1.0576847 0.54027635 0.3638651 -0.38667253 0.12533198 0.26953793 -0.18192078 -0.1541765 -0.24280342 -0.5291095 -0.5836302 1.0094062 -0.8487847 0.37268004 -0.06442139
1888 -0.4973898 -0.48744553 0.34013492 0.27298403 -0.0983691 0.36082053 0.18867114 -0.10972955 0.07709087 -0.052763022 -0.28674704 -0.41792285 0.6561901 -0.56420094 0.034737255 0.1017555
6 -0.7789073 -0.80879694 0.5040414 0.52170604 -0.11976642 0.21589401 0.17132649 -0.030692698 -0.012462702 0.084015496 -0.26338467 -0.39267167 0.540664 -0.6466262 0.18669143 -0.19559437
3196 -0.43213293 -0.8066039 0.52003986 0.55666584 -0.34742257 0.2387721 0.45732433 -0.41742554 -0.3980763 0.13239583 -0.78104746 -0.48416236 1.1556399 -0.98495215 0.8273287 0.3486643
4262 -0.38937807 -0.52112573 0.4995634 0.26877052 -0.15849318 0.26779765 0.07884283 -0.12106981 -0.11357449 -0.09642164 -0.27291906 -0.33788273 0.5934208 -0.6794256 -0.016240422 0.13320361
3482 -1.0827379 -0.5823531 0.38015234 0.009241685 -0.5049756 0.36362618 0.30616963 -0.36484793 0.26837802 -0.3607051 -0.6575625 -0.80373484 1.6948947 -0.84753627 0.12173803 -0.3863523
1580 -0.9044048 -0.35350427 1.0736059 0.6804302 -0.3314362 0.22405271 0.2407796 -0.49914724 -1.0740815 0.711208 -0.45962086 -0.45641488 0.9507204 -1.7247447 -0.32849327 0.3330457
4513 -0.47922435 -0.771338 0.42654377 0.4107981 -0.099569164 0.2744616 0.050899137 -0.09124798 -0.08119094 -0.21994078 -0.3282396 -0.49175018 0.80448794 -0.6467769 -0.0038763422 -0.039355848
1084 -0.41796735 -0.38562694 0.5562453 0.7335812 0.17147659 0.40263006 0.1481919 -0.52361554 -0.7268276 0.3255353 -0.7885467 0.004746737 1.1212854 -1.4470645 -0.5474456 0.2643403
3001 -0.6710984 -0.6055013 0.6029131 0.26210916 -0.033617944 0.22967125 0.28756097 -0.2582697 0.046229325 -0.06693689 -0.20709412 -0.6467426 0.80255085 -0.5921818 0.04601131 -0.15873043
1385 -0.41078424 -1.2187622 0.5102798 0.37196282 -0.31850827 0.25106594 -0.067073934 -0.13751487 -0.18676907 0.3700819 -0.66286206 -0.9356888 0.8062358 -1.057365 -0.2406953 0.50336003
3884 -0.2855605 -1.20034 1.188843 1.2345834 -1.1458316 0.8490172 -0.21054189 -0.21216595 -0.4134613 0.102607176 -0.53623027 -0.55669326 1.6431596 -0.1651005 -0.26748136 -0.5182171
3490 -0.45514116 -0.8640082 0.62975514 -0.06947179 -0.14508133 0.6981121 -0.0056897677 -0.4763644 0.13437212 -0.2830302 -0.28138062 -0.83112484 0.9854437 -0.8258262 -0.35118505 0.11881434
2251 -0.3703791 -0.5261322 0.4297257 0.21267302 -0.14560443 0.35751072 0.15078804 -0.14042902 -0.055576675 -0.13002093 -0.30377436 -0.49856 0.6292559 -0.5441027 0.054249935 0.032547865
2371 -0.41150185 -0.7833931 0.6095879 0.3209973 0.059371226 0.28238636 0.11863212 -0.13632579 0.019428179 -0.21522231 -0.32917514 -0.5540826 0.7509491 -0.5723179 0.09732321 -0.008308371
1842 -0.4216461 -0.5872743 0.42435482 0.4248214 -0.18346551 0.31888065 0.05110438 0.03635787 -0.04822535 -0.06940163 -0.27568728 -0.4075461 0.70844096 -0.4993832 0.009319038 0.11173755
4643 -0.41769072 -0.5922216 0.36949232 0.31419915 -0.003978152 0.26719326 0.14309503 -0.008232576 -0.10520855 -0.17908478 -0.31960297 -0.35504058 0.72854203 -0.6134522 0.05706065 0.0711944
1856 -0.5582235 -0.585129 0.32989305 0.26840234 -0.20413476 0.24782696 0.2196392 0.020129642 -0.04078302 -0.035579965 -0.28202397 -0.43380103 0.50216746 -0.53610194 0.006830631 0.11414996
1807 -0.3798116 -0.44149587 0.40183362 0.277449 -0.17491725 0.22798158 0.19862714 -0.030239793 -0.062610045 -0.067720994 -0.20622917 -0.4196815 0.61888117 -0.6297983 0.054995347 -0.002866754
528 -0.52324843 -0.51210845 0.32054907 0.27852216 -0.24347767 0.32115403 0.10141217 -0.15227291 0.05844495 -0.010642694 -0.30225116 -0.47491595 0.7701372 -0.65965044 -0.032247312 0.12880626
2148 -0.5087526 -0.8062224 0.37234387 0.5721261 0.045935355 0.050154917 0.09504043 -0.6003762 -0.06404325 0.116976015 -0.76396435 -0.94458455 0.89487004 -0.62570256 -0.48839813 0.23550005
4394 -0.8402249 -0.9276718 0.5536329 0.30765647 -0.20970903 0.36157954 -0.06917384 -0.0070540104 0.23815607 -0.36111933 -0.5671795 -0.47220168 0.63634896 -0.81263185 -0.034743775 0.5126405
3761 -0.5164014 -0.5432782 0.35735762 0.31530353 -0.05784233 0.36938837 0.11423772 -0.03865854 0.05144099 -0.09347726 -0.28474513 -0.45654783 0.6908043 -0.47612578 -0.01680135 0.041483387
3262 -0.76489615 0.0040879017 0.19875327 0.6861913 -0.42920926 0.7281039 0.039239213 -0.04287219 0.43014264 0.24961951 -0.5540092 -1.2615123 1.1076254 -0.87688476 -0.059669536 -0.11052983
806 -0.45276403 -0.4265268 0.39105603 0.36744553 -0.11215375 0.204176 0.062552005 -0.032345954 -0.041387036 -0.03957979 -0.20272127 -0.47382978 0.5967865 -0.6189317 -0.09109651 0.107480675
3475 -0.48126552 -0.6081755 0.2512071 0.33526462 -0.16313724 0.47546697 0.0052715163 -0.09227033 0.020442063 -0.04764018 -0.33327752 -0.63812435 0.84013903 -0.71204054 0.0400184 0.06278615
23 -0.5655049 -0.6799823 0.4466556 0.43343592 -0.3343412 0.282964 0.28565568 -0.39135912 -0.107061096 -0.37716275 -0.26809874 -0.73583347 0.77661425 -0.7708063 -0.005385945 0.09152828
818 -0.4273547 -0.7035057 0.2669581 0.45005807 -0.04265452 0.41952243 0.21410349 -0.0005512982 0.13158132 -0.07085689 -0.35910526 -0.4680366 0.92212945 -0.7093007 -0.08723351 0.16568147
21 -0.72690177 -1.376686 0.29220298 0.35109636 -0.17998865 0.38499102 0.99188817 0.10207622 0.23315987 -0.6553371 -0.10513167 -0.74676293 0.667701 -0.5166095 -0.7098629 -0.21537763
4618 -0.45645037 -0.5736451 0.4254398 0.3405291 -0.13046965 0.26549834 0.23635273 -0.16373718 0.017310232 -0.120940655 -0.1467579 -0.5282059 0.7370749 -0.6351012 -0.07820632 0.08021148
3762 -0.47027966 -0.5293652 0.34769326 0.31451344 -0.14359054 0.33132595 0.12749271 -0.09348836 -0.03822345 -0.07053908 -0.19928414 -0.48202324 0.650355 -0.44461724 -0.055074826 0.061944023
10 -0.7465981 -0.45510677 0.63193923 0.38081533 -0.072980665 0.14661726 0.076045915 -0.21736112 -0.3487834 0.09597244 -0.32442284 -0.4062115 0.7561396 -0.9664168 -0.37440735 0.28252962
124 -0.6212622 -0.5442325 0.90788573 0.12963587 -0.06787181 0.8232775 -0.19749996 0.22175498 0.2837682 0.069117226 -0.7204981 -0.71862674 0.73641074 -1.0545231 0.43179107 -0.47526434
463 -1.340079 -1.4711202 0.77183247 1.029 0.33149955 0.13821422 0.24434856 0.10770027 -0.06713856 0.49531913 -0.35997736 0.024473652 0.7278712 -1.2311786 0.86437035 -0.37681237
2486 -0.5012815 -0.52823913 0.2626816 0.37107435 -0.12163046 0.26147634 0.11898251 -0.089733735 -0.044649288 -0.08946227 -0.16965526 -0.40635678 0.456554 -0.5710167 -0.03789172 0.058672808
729 -0.4621204 -0.5504862 0.48712513 0.31370258 -0.051421795 0.3092737 0.105936766 -0.1383661 -0.09022899 -0.08555578 -0.30685657 -0.3948615 0.5971108 -0.59265184 -0.13422535 0.021901222
1173 -0.52491766 -0.6310036 0.4045387 0.3347063 -0.1531174 0.39503393 0.07983976 -0.13550937 -0.089906916 -0.074077114 -0.24807706 -0.4099478 0.8758899 -0.6327378 -0.0493778 0.058796175
3434 -1.4236897 -1.2629073 0.88431716 0.5673912 0.69993526 0.21229428 0.47884002 -0.14696895 -0.23496449 0.45695937 0.027179731 -0.19385767 1.0916175 -0.76660216 0.41085488 0.14265661
1215 -0.40101242 -0.6082558 0.34979713 0.29717487 -0.20013058 0.3211687 0.27112585 -0.11085 0.1095049 -0.23835924 -0.14823091 -0.4644319 0.6451952 -0.49768975 -0.20128082 -0.016181111
2690 -0.4597807 -0.39487496 0.3104975 0.3828813 -0.09861638 0.2847801 0.12639599 -0.08225851 0.018687163 -0.16109878 -0.18313469 -0.40478235 0.6002414 -0.49536222 0.06462948 0.10060254
3257 -0.4595454 -0.53342843 0.28123415 0.31444106 -0.10395969 0.29844624 0.16237582 -0.05893715 -0.044514306 -0.08145488 -0.19180483 -0.48749232 0.5713402 -0.5244321 0.056976363 0.044932537
22 -0.66550845 -0.5346158 0.52825505 0.6583202 -0.23466402 0.3853662 -0.23237981 -0.30124182 0.03469569 -0.25527513 -0.64182836 -0.6888433 0.8880576 -0.675905 0.2190048 -0.25990883
1533 -0.38516238 -0.6663838 0.50388664 -0.048973136 -0.20053922 0.59118307 0.16022143 -0.4143736 -0.06417099 -0.20592847 -0.17938094 -0.8250955 0.8911287 -0.76472795 -0.20889546 0.18430857
4537 -0.5161226 -0.32833073 0.8137299 1.1012069 0.049067974 0.33516768 -0.033462875 -0.18088849 0.66108227 -0.22995345 0.2626549 -1.093219 1.571635 -0.85367954 -0.017772973 0.7285597
9 -0.3722269 -0.9439174 0.8281603 0.84976256 -0.91870934 0.7095116 -0.09207402 -0.0804831 -0.20799528 -0.051812436 -0.40326604 -0.5482094 1.1500064 -0.09959984 -0.1546581 -0.31762862
27 -0.39468604 -0.69550693 0.7245134 0.2568133 -0.24290538 0.36594406 0.10057105 -0.2722502 0.30909297 -0.0055956896 -0.6326286 -0.7517803 1.0378729 -0.9285049 0.07702536 0.06142558
3684 -0.45721564 -0.46653858 0.31648102 0.22338545 -0.08015816 0.25455987 0.0714737 -0.042643152 -0.044629425 -0.0029162741 -0.24009441 -0.46752882 0.52821255 -0.47580105 -0.01210168 0.0065635927
3389 -0.52417606 -0.81795037 0.49920344 0.64956814 -0.36763832 0.48305258 0.06539826 -0.17065698 0.0068811323 -0.31442407 -0.5037066 -0.6604301 0.9030573 -0.5593591 -0.028504977 0.15739985
3227 -0.42898324 -0.4700702 0.31590053 0.2259095 -0.13013765 0.1901184 0.04310712 -0.14703584 0.1271537 -0.10800836 -0.24386099 -0.373414 0.56973803 -0.5138237 0.0031677585 0.021144887
1822 -0.4894911 -0.48005477 0.4316314 0.41302636 -0.07491482 0.26735613 0.16196533 -0.10195688 0.07061895 0.032710828 -0.1387788 -0.30370027 0.47577295 -0.503936 0.099439725 0.061965354
2150 -0.80644953 -0.70203096 0.32462683 0.49523416 -0.012511043 0.37816718 0.11137682 -0.010415357 0.028714512 0.10357735 -0.35379863 -0.5027099 0.62282777 -0.7307109 0.05005652 -0.14779161
331 -1.4193337 -1.9329967 0.44459727 -0.34680513 -0.9541726 0.21123475 -0.3945232 -0.4810515 -0.4891642 -0.1233108 -0.4229155 -1.3127834 1.3123772 -0.5647432 -0.12461093 -0.5773509
1608 -0.4728103 -0.7487034 0.12742239 0.49910107 -0.08362545 0.53205127 0.19565909 0.22122243 0.17066014 -0.20286009 -0.33891964 -0.8307665 0.52022684 -0.8648353 0.0073875245 0.067484625
3992 -0.5013254 -0.43016008 0.26108563 0.34757057 -0.09520833 0.18420783 0.11662494 0.00013775271 -0.04228903 -0.09745897 -0.14823596 -0.38625196 0.61328197 -0.5660337 -0.016368236 0.123519145
3021 -0.77745765 -0.52834696 0.96336657 1.389835 0.06211042 0.5605855 -0.04949411 -0.21107982 1.0129871 -0.3030116 0.3554363 -1.5358921 2.290812 -1.2820929 -0.05227359 0.93705475
731 -1.1128557 -0.65621585 1.070635 0.25292423 -1.0904777 1.1016406 0.35193256 -0.69247735 -0.9246017 -0.22423474 -1.0362308 -0.23397131 1.4899627 -1.6194328 1.0105176 0.251611
2364 -0.462207 -0.5367105 0.31974024 0.32148042 -0.17905615 0.18323441 0.036980685 -0.035708353 -0.029978687 -0.008647287 -0.21716997 -0.4363216 0.5497576 -0.45802513 0.023240883 -0.011014413
2233 -0.43937746 -0.52978295 0.35709587 0.25764555 -0.13069166 0.30499324 0.15311326 -0.056820948 0.00080062466 -0.0954982 -0.20972568 -0.45628062 0.62109584 -0.46370995 -0.10625162 0.041795183
4356 -0.47458464 -0.4664356 0.35535422 0.41985825 -0.14356443 0.23124899 0.08106715 -0.13931377 0.08702361 0.020900264 -0.12538114 -0.557644 0.6796038 -0.53011036 -0.050216373 0.007281283
1881 -0.40245125 -0.5495994 0.5293763 0.24702372 -0.19508745 0.564331 -0.09028987 -0.49298728 -0.5255376 -0.2101012 -0.6845991 -0.24133222 0.6844379 -0.71772796 0.39331108 0.3048577
2444 -0.31180713 -0.5031981 0.22662681 0.44016942 -0.046330057 0.32156494 0.14808287 -0.112516955 0.26745787 -0.26176462 -0.300826 -0.5989896 0.8655391 -0.60307795 -0.043964516 0.13732274
600 -0.39602947 -0.50358665 0.42237756 0.38013873 -0.20974545 0.19926278 0.09422402 -0.10802518 0.007293637 -0.038700193 -0.21417327 -0.40069178 0.58606344 -0.528451 -0.013459524 -0.047233317
31 -1.126637 -1.1408107 0.5547817 0.69723845 0.23515339 0.026210679 0.33028144 -0.03734553 -0.019006066 0.3600673 -0.19298747 -0.1471909 0.6266609 -0.958734 0.5805931 -0.36137757
3604 -0.35747957 -0.4633089 0.40174493 0.24274835 -0.12065992 0.23596092 0.044573043 -0.02868516 -0.020953828 -0.025356008 -0.21063696 -0.34707835 0.60628915 -0.43400818 -0.06957598 0.15206765
4586 -0.34810594 -0.5133929 0.3794009 0.29069617 -0.14174356 0.2474748 0.12138629 -0.093625896 0.010022373 -0.02804569 -0.2955991 -0.3973226 0.49239698 -0.4749969 -0.062741905 0.052604444
2922 -0.44859734 -0.5117499 0.38118854 0.21765588 -0.08450589 0.26847082 0.11031252 -0.11525706 -0.037522275 -0.021898013 -0.27256745 -0.3715035 0.5359134 -0.49164099 0.025221208 -0.007215721
955 -0.5353253 -0.7024433 0.45906204 0.33573133 -0.3611337 0.1617646 0.08623474 -0.28188068 -0.20385602 -0.17177385 -0.33678928 -0.56265914 0.7796664 -0.8057901 0.042915173 -0.072222404
30 -0.5060328 -0.68090564 0.46298763 0.42527896 -0.16387953 0.30061236 0.16989328 -0.2603497 -0.075644426 -0.04763771 -0.25338516 -0.4718305 0.8118803 -0.6182984 0.1029873 0.09478216
4411 -0.52333266 -1.1658168 0.83630586 0.28182948 -0.39264068 -0.0013739415 -0.31846276 -0.26083088 -0.5969795 0.9013574 -0.6603867 -0.71331733 0.84804475 -1.462931 -0.44395593 0.6222954
4263 -0.41599876 -0.49631864 0.3508396 0.36428005 -0.14965989 0.30322737 0.043158468 -0.11899752 -0.05190647 -0.05316674 -0.22174853 -0.37350062 0.5779163 -0.55125684 0.06692861 0.13594347
11 -0.7040821 -0.5473316 0.7771202 0.26631713 -0.69883245 0.6279342 0.2886488 -0.3360458 -0.5834103 -0.17410527 -0.6323354 -0.13020046 0.888144 -1.0319554 0.58493906 0.23676707
3577 -0.41307157 -1.0704663 0.89673895 0.8093647 -0.8397578 0.58349544 -0.18718728 -0.28033218 -0.2874433 -0.12290705 -0.55437344 -0.4710092 1.1485416 -0.06264621 -0.03614453 -0.21829508
470 -0.410064 -0.44337788 0.3587938 0.35652852 -0.10165125 0.33938724 0.12734315 -0.057900526 -0.07114503 -0.002219181 -0.19446568 -0.3566053 0.55675477 -0.52479225 0.008501738 0.060959864
1969 -1.4866236 -1.3381118 1.3177856 0.40283218 -1.0325537 0.1724192 1.1168681 0.33288845 0.6103017 0.15346223 -0.6413894 -1.1295927 0.53190184 -2.053681 -0.0032673362 1.2881211
2789 -0.3643858 -0.4711039 0.3471511 0.34824818 -0.10434378 0.4074341 0.0591452 -0.09109405 0.07406541 -0.091931656 -0.35919878 -0.33645684 0.59421045 -0.5810802 -0.061954822 0.10115098
2478 -0.65261245 -0.87414753 0.76883644 0.6816868 -0.9104678 0.31894732 0.36071655 -0.60910255 -0.90424144 0.09044068 -0.74318504 -0.5594576 0.62762177 -1.0854962 0.35196865 0.29691797
951 -0.4148173 -0.44248486 0.2921796 0.30714372 -0.20586267 0.25109383 0.12243487 -0.10814869 -0.09556441 -0.099927284 -0.22316337 -0.40123668 0.60846746 -0.5278329 0.061555076 0.030524127
3455 -0.53872126 -0.4761116 0.33516476 0.37978065 -0.07820402 0.2937138 0.14672789 -0.016818142 -0.036925707 0.07069862 -0.20750317 -0.38018763 0.5436822 -0.67902803 0.034091916 0.07817495
2860 -0.33340088 -0.41132718 0.54754233 0.68953145 0.090843804 0.36518037 0.15859641 -0.45260355 -0.66949487 0.2381931 -0.8064801 0.021650402 1.0918435 -1.3475894 -0.5070993 0.29762897
1257 -0.83262855 -0.30470726 0.74225307 1.4314011 0.08433548 0.56667405 -0.036084812 -0.15024164 0.8832428 -0.26661494 0.1944705 -1.4292016 2.0756392 -1.1152608 -0.10274218 0.72184557
1538 -0.54333323 -0.46320114 0.68558097 0.38693416 -0.11597567 0.15971817 0.23208918 -0.12380371 -0.16582628 0.28504503 -0.2392189 -0.43383357 0.7039433 -0.8683631 -0.30626068 0.14527826
4631 -0.6386587 -0.6846898 0.5648086 0.25314572 -0.04561287 0.35057053 0.2702002 0.005558152 0.015233882 -0.13602945 -0.3971705 -0.39311203 0.6341926 -0.5671656 -0.022851717 0.11450478
1315 -1.4884399 0.18559039 0.17137295 1.3495224 -0.27811933 0.8073145 -0.052588396 -0.27390546 0.66715646 -0.033234905 -0.569015 -1.4295838 1.5166059 -1.1026386 -0.087000154 -0.46910828
986 -0.3926735 -0.40701488 0.41216195 0.5358061 -0.38886097 0.28716826 0.22630857 -0.24295081 -0.3949749 -0.024640072 -0.3042755 -0.25633222 0.5742527 -0.6689483 0.2499971 0.11460604
3236 -0.50804406 -0.5401883 0.34548193 0.39317697 -0.26281166 0.3420926 -0.0056789787 -0.12306783 0.0026651255 -0.055994045 -0.35545853 -0.4645606 0.70226115 -0.5985258 0.08747989 -0.086586736
2475 -0.72974175 -0.8040209 0.26403594 0.23352844 -0.02344411 0.4924482 -0.10674102 -0.28527853 -0.17022024 -0.027142864 -0.4701979 -0.48709655 0.8998027 -0.57963246 -0.07990413 0.06291703
1592 -1.2133601 -1.1100821 1.0680376 0.25709683 -0.9056556 0.118149616 0.94409025 0.28109884 0.4979492 0.12726223 -0.5358935 -0.9914995 0.2873724 -1.6372439 0.0077355993 1.0611511
2299 -0.39046592 -0.48172712 0.25392768 0.25069338 -0.1741525 0.19080798 0.13162942 -0.10295396 -0.047741424 -0.090715095 -0.13228057 -0.3909514 0.56385356 -0.49261212 0.013102243 0.022017937
1606 -0.47947174 -0.4166557 0.28862768 0.2572757 -0.20641819 0.26179448 0.16855796 -0.038684502 0.014713315 -0.0061339205 -0.19555154 -0.41993135 0.5181763 -0.46642008 0.039677396 0.1178228
95 -0.5328221 -0.6194469 0.32489958 0.18961805 -0.13314626 0.35623354 0.05279465 0.054585684 -0.036145367 -0.26930425 -0.4602258 -0.6033356 0.87820673 -0.5426642 0.054138668 0.294497
509 -0.3229676 -0.37319925 0.25985533 0.23533061 -0.16392368 0.16750501 0.16318113 -0.12574859 -0.052533265 -0.037407473 -0.2230095 -0.4143438 0.46375835 -0.48403886 0.013667426 0.11143136
57 -0.1548169 -0.33130822 0.3974906 1.197578 0.39031732 0.880772 0.009281927 -0.10846842 0.79601216 -0.55083627 -0.36978796 -0.82200795 1.8564051 -0.9573529 -0.1692181 0.51949555
2009 -0.569481 -0.49979964 0.6915642 0.12792647 -0.27322125 0.3533393 0.09071137 -0.015478181 0.2989678 -0.0883928 -0.26749957 -0.6076385 0.5054329 -0.9536125 0.120782286 0.18323782
1333 -0.38013676 -0.43993813 0.5551286 0.15529348 -0.24317525 0.39806482 -0.090742275 -0.40567738 -0.4962603 -0.23392536 -0.59850377 -0.22901726 0.66067505 -0.62929124 0.2977436 0.27947176
3743 -0.5902649 -0.37614352 0.54799104 0.5681355 -0.6254852 0.29219505 0.29639044 -0.2740962 -0.6402371 -0.07977566 -0.4457174 -0.3257296 0.5767905 -0.85432327 0.44405323 0.21163747
1619 -0.9387231 -0.52437043 0.9961245 0.24513862 -0.9623351 0.88894993 0.32558033 -0.55816126 -0.8488572 -0.1767301 -0.9235433 -0.15881056 1.2097212 -1.3521403 0.8317283 0.2677071
4510 -0.6057883 -0.8884105 0.16957945 0.40749565 -0.23577458 0.36876613 0.31569645 -0.19687839 0.20633894 -0.29758716 -0.25089452 -0.6137632 0.6838166 -0.56246376 -0.17796572 -0.02923711
2778 -0.43359667 -0.45158046 0.38208377 0.31796154 -0.106270865 0.22729509 0.08333442 -0.03708558 -0.08067591 0.03617835 -0.13798556 -0.30961487 0.49402216 -0.47591203 0.035704777 0.06221896
2862 -0.33947563 -0.3268572 0.3310226 0.2823463 -0.04566584 0.19537868 0.013399868 -0.12656185 -0.04383217 -0.062064234 -0.23020558 -0.34515917 0.59810483 -0.36248627 0.045782477 0.08765171
2908 -0.40760356 -0.39940798 0.28155017 0.22615151 -0.0074839382 0.21199207 0.14691651 -0.10038 -0.040086865 -0.08727158 -0.2841482 -0.28310484 0.5010626 -0.5385047 0.06384145 0.061618965
1243 -0.6814227 -1.8626083 0.7803372 -0.25013465 -0.3463259 0.9216118 -0.16931067 -0.6921671 0.055088017 0.2698665 -0.8583883 -0.8110275 0.860579 -0.6556266 0.115187526 0.1689614
3959 -0.415559 -0.38177317 0.26387307 0.23852605 -0.14954117 0.18340693 0.17832759 -0.016987376 0.009451983 -0.074923955 -0.19707356 -0.45303237 0.5313543 -0.38551348 -0.05363069 0.11470113
837 -0.34806904 -0.47119743 0.33665016 0.274851 -0.08563363 0.2871944 0.047586896 -0.08925861 -0.021064527 0.018081373 -0.22361366 -0.28739846 0.49584606 -0.5304838 -0.06765496 0.008643021
3478 -0.9963743 0.14136283 0.2635579 0.9397748 -0.7293683 0.975068 -0.1551367 -0.04247332 0.5077509 0.37122414 -0.7956051 -1.6954231 1.3851844 -1.0920496 -0.13356976 -0.20915003
713 -0.44300148 -0.47368047 0.33955857 0.33259836 -0.18418425 0.31495032 0.039065316 -0.13504866 -0.07595182 -0.12386145 -0.30658135 -0.37934732 0.75766724 -0.46599331 -0.059418738 0.044088565
3501 -0.41809908 -0.36719528 0.35220385 0.24778193 -0.17628479 0.15995435 0.039933503 -0.00901508 0.04412266 -0.0465938 -0.07946814 -0.43883112 0.4694651 -0.45253634 -0.06518322 -0.0047579915
4636 -0.41594666 -0.5998722 0.31957507 0.33664972 -0.10237318 0.2581515 0.1662771 -0.09041163 -0.08031779 -0.12978938 -0.31483614 -0.38404715 0.5862985 -0.5237131 0.039353013 0.05888434
1197 -0.32759178 -0.40668842 0.3316793 0.32538605 -0.05629067 0.3444361 0.19640903 -0.07378703 0.01386812 -0.13192184 -0.25662363 -0.4456606 0.5727657 -0.60816514 0.007362722 0.04061501
1483 -0.36964288 -0.45387822 0.36561146 0.23520938 -0.02054849 0.27798316 0.10170685 -0.05289954 -0.022132572 -0.044637382 -0.23679027 -0.45974156 0.5686993 -0.5299891 -0.051152445 0.058628224
2252 -0.39494744 -0.45710826 0.39424533 0.26677558 -0.084308535 0.4057621 0.012159544 -0.057373043 0.12855758 -0.10887562 -0.21586186 -0.38847956 0.5465819 -0.5058578 0.081981674 -0.01596566
2480 -0.71883917 -0.3360605 0.99621516 0.8938245 -0.6196685 0.27542534 0.23310083 -0.5354696 -1.0748755 0.29057875 -0.648054 -0.21156873 0.8191223 -1.656521 0.15138899 0.44238645
3008 -0.56550604 -0.429767 0.5693601 0.37106323 -0.19540405 0.4730883 0.103901796 -0.08935871 0.14329572 -0.18950088 -0.3531215 -0.40134138 0.7005254 -0.65334547 -0.1403103 0.078686625
1745 -0.32280934 -0.4488758 0.3638737 0.23628558 -0.040398657 0.24979912 0.12814601 -0.0067496304 0.046872452 -0.10966814 -0.183768 -0.35285974 0.5187691 -0.36822543 0.036713324 0.01329184
1366 -0.29386532 -0.7910913 0.6306007 0.37455982 -0.3351584 0.43016654 0.17791568 -0.11144134 0.3535836 -0.079702646 -0.6577502 -0.9082968 1.1161387 -0.98111767 0.27600193 0.006054073
4730 -0.3724701 -0.36299703 0.36785617 0.3339395 -0.060125493 0.1906729 0.13389622 -0.1459058 -0.06616348 -0.13772349 -0.20955539 -0.3394655 0.5098024 -0.47104022 -0.0001474118 0.04243919
14 -0.53812695 -0.629092 0.3970244 0.20444088 -0.31014022 0.46622923 0.08877907 -0.19772762 0.078133985 -0.059738673 -0.40897912 -0.6622827 0.7438072 -0.516508 -0.16551325 -0.14369017
3190 -0.38091713 -0.34798864 0.30529186 0.24899095 -0.052152842 0.28476837 0.08142742 -0.092715174 0.012547009 0.011527113 -0.13977244 -0.41008708 0.59283036 -0.430526 0.047729522 0.041396596
3771 -0.3498633 -0.43418556 0.23731537 0.32107604 -0.2058714 0.18780261 0.097179316 -0.0025383495 -0.00058473065 -0.017457338 -0.16824989 -0.37488475 0.48122898 -0.39967933 -0.031768773 0.042533223
1661 -0.37486735 -0.7801561 0.4762253 0.28726935 -0.2703746 0.19536276 0.06703839 -0.21352948 0.057842493 -0.038695656 -0.4447322 -0.62447464 0.7233669 -0.72641224 0.031023534 0.16725713
1223 -0.44909593 -0.3533173 0.36476934 0.24577522 -0.108134314 0.16909742 0.17592877 0.0025324046 0.04231743 -0.11883337 -0.11884134 -0.3963307 0.4588542 -0.37123978 0.0147715295 0.08551675
3063 -0.46322843 -0.37411252 0.5065092 0.69530076 -0.3220726 0.5837248 0.35345674 -0.56599534 -0.6781574 -0.1378633 -1.0243381 -0.16781689 1.1382337 -1.0914255 0.30685753 0.3056834
4489 -1.251627 -1.9859957 0.56653833 -0.27874207 -0.8596495 0.44989312 -0.50526303 -0.7667452 -0.3959964 0.059531175 -0.29735708 -1.0733502 1.2727726 -0.5413886 -0.132528 -0.16809268
3632 -0.35495055 -0.39202183 0.2360148 0.23733574 -0.071718246 0.28932887 0.060940623 -0.14432722 0.024722487 -0.1607246 -0.16809544 -0.30371943 0.50652176 -0.487429 -0.08545969 0.029539583
3772 -0.3154949 -0.39605927 0.23191626 0.3366047 -0.15057264 0.24096085 0.16236058 -0.039737795 -0.017392172 -0.0013625885 -0.1973694 -0.38060415 0.5352789 -0.47310546 -0.031925853 0.026070973
3150 -0.3197997 -0.37015703 0.25817746 0.21496645 -0.042978007 0.2728566 0.1481119 -0.056650788 0.038552847 -0.026983926 -0.15819956 -0.3289122 0.4973592 -0.4124948 -0.045501832 0.0052812374
234 -0.40598735 -0.4366576 0.45657203 0.36137646 -0.24154213 0.21604341 0.1535029 -0.22007704 -0.29965246 0.06715719 -0.25309923 -0.29404047 0.55270773 -0.65321803 -0.045900118 0.092123136
2184 -0.42320415 -0.45719695 0.31656706 0.15737236 -0.18017799 0.17521498 0.19174582 -0.08794334 0.056115557 -0.113675945 -0.20007971 -0.36988148 0.46175116 -0.48570955 -0.09765225 0.05216948
2156 -0.39877248 -0.41410017 0.26252517 0.30533567 -0.09386348 0.28074026 0.041487075 -0.10580415 0.046415526 -0.06411991 -0.20861425 -0.35101274 0.5480106 -0.46234244 -0.063738234 0.026392141
1233 -0.6774372 -1.3568712 0.41719854 0.47391433 -0.2947085 0.46295282 1.1055926 0.088176094 0.3269466 -0.7607141 0.13593948 -0.9949023 0.5755093 -0.55439645 -0.8711238 -0.23783685
4064 -0.31872782 -0.3933789 0.28092352 0.18015464 -0.19637395 0.19721295 0.1132526 -0.014577802 0.01209121 -0.14628547 -0.16768011 -0.3161166 0.611254 -0.49269894 0.00018319217 -0.026418464
738 -1.0255007 -0.5346052 1.0415614 0.47868356 -1.1406897 0.8395951 0.3905196 -0.5131922 -1.0257945 -0.09757984 -0.93901694 -0.27425689 1.1503232 -1.4927809 0.79727674 0.27745053
1238 -0.3867987 -0.47368318 0.33777058 0.2579549 -0.10816471 0.30001184 0.050510347 -0.07601974 -0.075002916 0.024248125 -0.20572451 -0.35104766 0.531032 -0.47415996 0.002394654 0.011824831
1214 -0.36858273 -0.36508727 0.2559287 0.35025248 -0.085164435 0.25353453 0.07943903 -0.083894975 -0.0005644006 0.013909121 -0.27262467 -0.26616412 0.52262014 -0.54665023 0.09862919 0.10373746
3452 -0.37307754 -0.3924695 0.2796243 0.24060689 -0.18949781 0.19441462 0.12523639 -0.06014932 -0.060175482 -0.020851193 -0.1886109 -0.40798688 0.5122668 -0.45521298 0.006292358 0.00063216646
830 -1.160067 -1.3103948 0.7078663 0.90408623 0.21825016 0.054267105 0.2755498 0.0923782 -0.17614424 0.58047175 -0.2990274 -0.07602002 0.6022782 -1.1912458 0.64650774 -0.27523375
3436 -0.3312238 -0.30871025 0.25587898 0.33393353 -0.17008421 0.23936549 0.14927341 -0.079839036 -0.080420464 -0.08466861 -0.18232691 -0.3366137 0.4462546 -0.4605248 0.05379709 0.1142476
4703 -0.54055715 -0.3680358 0.6219264 0.7403286 -0.6173178 0.30082676 0.40607652 -0.35025463 -0.79915464 -0.0594604 -0.5442463 -0.3544911 0.76357985 -1.0384393 0.45897624 0.24033305
3880 -0.5154506 -0.74846685 0.5920931 0.09378641 -0.23772694 0.33335575 -0.001955815 -0.10306343 0.06470336 -0.1371244 -0.18018001 -0.47883183 0.6415955 -0.6524329 -0.080160365 0.19199406
4315 -0.50593597 -0.5546132 0.32785195 0.25829324 -0.048590362 0.39083034 0.19823545 -0.18596557 0.058564972 -0.23238936 -0.15510191 -0.6625025 0.81749487 -0.5831987 -0.048345204 0.09962822
4247 -0.3897282 -0.44337222 0.29393843 0.26284733 -0.14909035 0.28328148 0.038759258 -0.045719616 0.060121804 -0.035232212 -0.23291662 -0.31505796 0.4512201 -0.4128426 0.013620879 0.112227194
4254 -0.2920555 -0.35194942 0.39212626 0.2492826 -0.04269912 0.17014478 0.008444428 -0.07598065 -0.039501503 -0.046594337 -0.16402109 -0.34203193 0.40541494 -0.48059225 0.0062744548 0.08094194
2623 -0.54220086 -0.61419356 0.48447677 0.26958138 -0.03865045 0.3650979 0.17008838 -0.115677156 0.012964922 -0.0147412475 -0.30449736 -0.4034572 0.6404024 -0.47266528 -0.04450679 0.08867683
3332 -0.35913774 -0.49529272 0.29317608 0.32851893 -0.14522079 0.18852305 0.06535407 -0.12959164 0.026083639 -0.04031782 -0.16106834 -0.38746 0.48615244 -0.39371023 0.046871606 0.12588751
3221 -0.34875515 -0.43729815 0.33303764 0.20274645 -0.17189348 0.33074582 0.034283824 -0.14088246 -0.007844268 -0.016052516 -0.23359756 -0.33536807 0.56062555 -0.38967466 0.04749763 -0.028406061
1534 -0.40425962 -0.6488869 0.6136907 -0.12335189 -0.07554322 0.82144856 0.19968858 -0.4818181 -0.1311487 -0.25530759 -0.19170777 -0.9810182 1.067297 -0.92197853 -0.40112278 0.071187586
4555 -0.28764665 -0.50319445 0.33346817 0.15350911 -0.13014519 0.23184937 0.095034584 -0.025003256 -0.010076714 -0.07006513 -0.15786795 -0.28592414 0.48553178 -0.3162599 -0.023651933 -0.01227532
3453 -0.40760708 -0.43708816 0.2564883 0.21939117 -0.018004281 0.19889791 0.12738617 -0.044077292 -0.0816001 -0.0031166775 -0.19571911 -0.34810272 0.5138311 -0.36987078 0.022243392 0.012911231
1262 -0.43104517 -0.47024003 0.31006315 0.30519453 -0.045751207 0.19864771 0.12006976 -0.03839193 -0.06873719 -0.109073 -0.15830733 -0.3997444 0.45038134 -0.4680512 0.015929984 -0.0003956116
335 -0.2781429 -0.38525906 0.24196821 0.18218581 -0.13258064 0.19584857 0.1494386 -0.011545853 -0.017784882 -0.0931132 -0.26171514 -0.3104628 0.44483256 -0.4749643 0.08369415 0.0920802
3548 -0.3514407 -0.368051 0.29762238 0.24042776 -0.01010849 0.21913081 0.031036517 -0.04490963 -0.00652816 0.0103930505 -0.24178265 -0.35162684 0.42830396 -0.36862817 0.026396647 -0.0035790587
2621 -0.40787962 -0.38591233 0.31605875 0.2946576 -0.12257593 0.20468022 0.055621002 -0.01954987 -0.053688042 -0.0070255776 -0.16258892 -0.39874244 0.5022479 -0.43808514 -0.112949505 -0.03028908
1468 -0.36851773 -0.5335724 0.35358953 0.2495875 -0.08389704 0.24857435 0.1640177 -0.1022057 0.056670416 -0.055819016 -0.24540167 -0.3282002 0.47956795 -0.52654624 0.009127275 -0.021028351
3518 -0.35082975 -0.428042 0.29608247 0.15759678 -0.15069301 0.14674409 -0.028100202 -0.08503998 -0.073097326 -0.09665248 -0.13465616 -0.34387416 0.5285925 -0.32145366 -0.071731746 0.07663586
2446 -0.25966465 -0.56433254 0.08436328 0.60697305 0.22965518 0.86558807 0.036816422 -0.081599765 0.272863 -0.58251613 -0.82353306 -0.3074867 1.1372069 -0.7393618 -0.18089364 0.06033494
253 -0.6517707 -0.24903288 0.6480776 0.4311963 -0.16830038 0.15433517 0.11189332 -0.2876599 -0.5046597 0.4796749 -0.18209897 -0.17484961 0.55478716 -1.1224169 -0.31465346 0.09754167
421 -0.33607593 -0.33020273 0.27467954 0.21974508 -0.058561288 0.2529781 0.07127515 -0.017181901 -0.008382711 -0.104851685 -0.2613006 -0.24119449 0.4802773 -0.43049863 0.046660714 0.120558366
3968 -0.2693695 -0.33165827 0.25696626 0.26800168 -0.1237249 0.24989064 0.12664261 -0.08244886 0.06664692 -0.08130687 -0.145375 -0.33796763 0.4879084 -0.47696167 0.0715196 0.16089198
2572 -0.38016808 -0.4119062 0.2111412 0.280436 -0.03958321 0.2914993 0.079401016 -0.14997755 0.0223434 -0.08572782 -0.15444428 -0.25086704 0.46909794 -0.4650689 -0.03880346 0.0007967759
1085 -0.37117732 -0.37689775 0.19965504 0.17934074 -0.0992238 0.23082365 0.07133791 -0.026906393 0.040235545 -0.051539082 -0.19271405 -0.24410774 0.47464517 -0.43059316 0.06018348 0.11095069
3776 -0.3101097 -0.44500506 0.2678652 0.2598277 -0.016801836 0.16209191 0.08623651 0.008101388 0.04555368 -0.014158715 -0.18764219 -0.32550108 0.39345518 -0.3891441 0.059092432 0.033156767
1358 -0.37456858 -0.3896165 0.3039481 0.24551292 -0.06341149 0.16854466 0.13744493 -0.06410993 -0.015463222 0.0035922704 -0.21871145 -0.24228776 0.5141215 -0.36876285 0.020301398 0.08741522
3053 -0.5362515 -0.41350442 0.64898026 0.66032547 -0.62965775 0.35234737 0.40637532 -0.38356492 -0.74365705 0.06333419 -0.59164953 -0.3421723 0.6836347 -1.0394528 0.54910964 0.19233139
4524 -0.50055146 -0.6977458 0.2575213 0.11534992 -0.20388056 0.24523985 -0.050187342 -0.1923877 -0.09125508 -0.053263668 -0.23316832 -0.4759064 0.6046027 -0.41496602 0.05607085 -0.008079854
3610 -0.5102441 -0.5911056 0.49620047 0.359211 -0.14996597 0.27909115 -0.019717459 -0.048556913 0.017875042 -0.0403256 -0.08096893 -0.5608472 0.7230151 -0.62913036 -0.10763275 0.14419512
1314 -0.33881074 -0.39662987 0.21062021 0.23550707 -0.060506597 0.25345284 0.052679993 -0.057448264 -0.0021283764 -0.09343585 -0.31236127 -0.24064794 0.4611811 -0.49252835 0.0075575155 0.008186788
3449 -0.58923966 -1.684841 0.7241184 -0.19376041 -0.31555295 0.83298236 -0.14007816 -0.6095806 0.20959467 0.1653494 -0.76824856 -0.751204 0.8311405 -0.6156353 0.098824166 0.20238504
1104 -0.9730723 -0.7172947 1.3116976 0.25400898 0.092649505 1.3566098 -0.14483845 0.58741426 0.26547742 0.1726939 -0.77656025 -0.83122945 0.9712708 -1.5959172 0.7926775 -0.5909501
1312 -1.2838875 0.06003143 0.2259892 1.0267272 -0.40304893 0.7081338 -0.15155043 -0.45757774 0.46314836 -0.16418484 -0.49129352 -1.2272887 1.2932514 -1.1081505 -0.10599561 -0.54478586
3770 -0.30974713 -0.33952457 0.24754454 0.29401457 -0.09429895 0.13124317 0.10109698 -0.0692396 -0.044947874 -0.10964909 -0.19243576 -0.28138068 0.45553073 -0.44536978 -0.057533544 0.061013475
2267 -0.35294652 -0.32813758 0.22664633 0.29513004 -0.020752134 0.13611667 0.11309081 -0.03393905 0.013566954 0.008284316 -0.17851356 -0.3548158 0.41185316 -0.28683394 -0.080116466 0.039952304
4239 -0.33979133 -0.42798176 0.32100058 0.16064514 -0.15893584 0.25128835 0.06290468 0.031079754 0.013718303 -0.020816535 -0.1864964 -0.35312167 0.3573846 -0.4568016 0.026098056 0.13069434
3994 -0.9013293 -0.4537864 1.0943195 0.6772096 -0.10488537 0.016538728 0.39958206 -0.41071144 -0.569132 0.8052949 -0.38363075 -0.54638016 0.912952 -1.4061842 -0.8468308 0.17875545
920 -0.31995034 -0.26886746 0.20744453 0.24988309 -0.029702518 0.12431418 0.060941905 -0.12865995 0.029123904 0.01084109 -0.20473309 -0.27769515 0.41457146 -0.41072217 -0.011050801 -0.015810687
1087 -0.32909837 -0.4182462 0.30318633 0.27847254 -0.16475579 0.19803242 0.020027049 -0.0377753 -0.028942823 0.04293324 -0.21121384 -0.3318848 0.4736781 -0.38025326 0.07448956 0.11312778
2298 -0.8166835 -0.44421604 1.0640532 0.6579992 -0.19216312 0.19796729 0.122964635 -0.4158283 -0.9244973 0.75235265 -0.42660704 -0.24292648 0.9342586 -1.6509964 -0.41696262 0.29070377
2894 -0.30180377 -0.30668092 0.2481281 0.29137436 -0.11856009 0.20960277 0.07015105 -0.093535006 0.0047561424 -0.110782646 -0.15319297 -0.26606333 0.49954987 -0.34631678 -0.00074074377 0.09596233
788 -0.57618845 -0.3054904 0.7131796 0.73368937 -0.73834753 0.36692187 0.33845773 -0.34690976 -0.6826479 -0.12088122 -0.5515463 -0.22857465 0.7077633 -0.9834533 0.4876259 0.2889398
4048 -0.34894952 -0.29977 0.27930292 0.29080114 -0.121566005 0.22974518 -0.011251434 -0.14107801 -0.04572307 -0.025903406 -0.120501034 -0.2439218 0.4071246 -0.3466665 0.03782937 -0.00059005956
1295 -0.34461698 -0.5155008 0.21103212 0.3111572 -0.08215547 0.33687666 0.17496079 -0.022524007 0.015409333 -0.15424615 -0.17888758 -0.38207972 0.43842092 -0.39128974 -0.13658814 0.059033293
803 -0.33871415 -0.27811235 0.2127099 0.23630832 -0.03726902 0.22658984 0.04736138 -0.11027858 -0.09745696 -0.053765018 -0.11777935 -0.31113198 0.4965621 -0.29540336 -0.0785698 0.07319362
3951 -0.3427141 -0.3661378 0.27503067 0.19763345 -0.14368737 0.18093246 0.035300512 -0.10399306 0.051321927 -0.012156054 -0.20588063 -0.29818204 0.49917522 -0.37325785 -0.05540223 -0.004058578
321 -0.6128761 -0.84736127 0.31160104 0.17373584 -0.27961308 0.27711654 0.005051739 -0.08414159 -0.022453364 -0.09594185 -0.33469296 -0.58866066 0.7117459 -0.4600954 -0.09873375 -0.104226805
4617 -0.4708849 -0.59023154 0.50064754 0.44688582 -0.100747846 0.36775273 0.07465959 -0.18856794 0.09615854 -0.11191906 -0.18872619 -0.4480874 0.5957501 -0.59423345 -0.017560154 0.21210323
815 -0.27642426 -0.34628534 0.2909792 0.23576343 -0.043289866 0.18655713 0.107088976 0.0019396233 -0.05045724 0.0016726266 -0.13821778 -0.2674359 0.40573126 -0.3737267 -0.04231071 0.023282656
1340 -0.7306656 -0.77760404 0.53542596 0.5095287 -0.1569214 0.31148234 0.048525564 -0.2765289 -0.02216371 -0.4426871 -0.30135635 -0.6453742 0.8244254 -0.63829714 0.14713462 0.015262243
1072 -0.32355013 -0.41965896 0.21673037 0.23133442 -0.02921563 0.22658613 0.103657775 -0.1328773 0.026701137 -0.010860966 -0.17005242 -0.38531446 0.51329124 -0.47620457 0.0474524 0.0788984
3615 -0.38552266 -0.49585646 0.2755016 0.2495543 -0.07410357 0.2120898 0.11168572 -0.09361048 -0.11205175 -0.06270811 -0.2065552 -0.32917285 0.53625375 -0.37232473 0.05971405 0.11433097
2782 -0.45428455 -0.59561807 0.453009 0.40205836 -0.2678348 0.22425489 0.35693586 -0.2357471 -0.2953223 0.089432225 -0.56218195 -0.3975611 0.8594584 -0.636365 0.5712062 0.22563934
1691 -1.1754267 -1.2802805 0.627129 0.90034485 0.36216354 0.08663075 0.16028936 -3.63465e-05 -0.124658786 0.4226465 -0.46252924 -0.01934709 0.6167393 -1.0698985 0.5294864 -0.37982383
1866 -0.32316864 -0.40679428 0.24066861 0.23644191 -0.05843887 0.27752662 0.028384967 -0.12056481 0.053120706 -0.10236299 -0.13566357 -0.30925924 0.41975793 -0.41610706 -0.073053494 0.061127108
1970 -0.54923016 -0.526513 0.5376812 0.114079066 -0.45238075 0.06964092 0.39028144 0.13997601 0.23495127 0.08169642 -0.34302527 -0.50721544 0.23771955 -0.865476 0.06784784 0.52079546
1772 -0.4570696 -0.6791003 0.37805587 0.17372179 -0.1292973 0.57425106 0.24785207 -0.3387978 0.18105379 -0.1540687 -0.24520208 -0.6456637 0.83168834 -0.5001285 -0.31399763 0.028890688
4243 -0.32480395 -0.3996256 0.21567416 0.1888229 -0.14894061 0.17354085 0.13921705 -0.09321903 -0.057174824 -0.07228727 -0.19168144 -0.35099307 0.43340355 -0.36326683 0.071108155 -0.0079473285
4626 -0.29479897 -0.3329404 0.24552786 0.20089829 -0.087220676 0.14288676 0.18048683 -0.109902896 -0.009551555 -0.071280666 -0.1503753 -0.32609913 0.46169746 -0.3827531 -0.027018577 -0.0052214414
1631 -0.35524645 -0.32460892 0.24578862 0.1886433 -0.105385214 0.1470072 0.08177856 -0.08407881 -0.067149445 -0.0081033185 -0.16559215 -0.32459328 0.39613408 -0.29211167 -0.08227654 0.046948552
3251 -0.34968498 -0.32655203 0.26558366 0.23332058 -0.08584241 0.14853744 0.13507625 -0.076098315 0.043471634 -0.014155116 -0.21530485 -0.3397878 0.47818604 -0.36414894 0.03874558 0.015964076
1618 -0.9953132 -0.5454621 0.89657164 0.25521368 -0.98487014 0.8823527 0.37883708 -0.54734594 -0.8508914 -0.16643684 -0.79708904 -0.19055809 1.1120006 -1.354059 0.70605046 0.32751307
2967 -0.33162042 -0.39574954 0.19696328 0.22838229 -0.025554964 0.18324248 0.037606254 -0.107266635 -0.084950775 -0.0012520172 -0.19253023 -0.27111074 0.43318838 -0.3691415 -0.06259463 0.06480585
4053 -0.33866295 -0.4577853 0.21853973 0.26302266 -0.07302766 0.140156 0.07260444 -0.019452078 -0.048457693 -0.08943266 -0.16746037 -0.36710164 0.45659906 -0.38492176 0.023022052 0.06387526
517 -0.4939127 -0.21787173 0.2055165 0.46974432 -0.181603 0.2774382 -0.06421075 -0.087193005 0.16699255 0.001971014 -0.29188332 -0.5217015 0.5798335 -0.4476378 -0.015104528 0.023585869
3512 -0.34976408 -0.39197636 0.2025303 0.2763259 -0.14089768 0.17210305 0.048170656 -0.11783094 -0.041673843 -0.0469779 -0.13356532 -0.28775647 0.42439237 -0.37801716 0.05368696 -0.0008103394
595 -1.8339835 -1.4436166 0.89053434 0.6861975 0.8121781 0.14166337 0.4086268 -0.13359013 -0.28242165 0.4619886 -0.03991586 -0.34710032 1.3124505 -0.9839832 0.5031598 0.038483795
3381 -0.2793232 -0.23881775 0.17193788 0.26356095 -0.07138623 0.20019545 0.00032759912 -0.09502871 -0.012685507 -0.11326409 -0.1386097 -0.3600261 0.42041653 -0.32361785 -0.023016492 -0.026384514
458 -0.3514452 -0.3209462 0.27121428 0.22948144 -0.050834086 0.20189674 0.05803817 -0.06695687 0.012689011 -0.062295318 -0.15255636 -0.3483695 0.43005976 -0.35683316 0.029232686 0.07832119
1615 -0.24623494 -0.37682763 0.23714755 0.16989239 -0.16567045 0.18002552 0.121399745 0.0079228785 -0.042727984 -0.0577616 -0.17193194 -0.3040501 0.4283045 -0.41363308 -0.0001738595 -0.0096914405
1486 -0.35679385 -0.34931284 0.24747133 0.2598592 -0.1423945 0.17669007 0.07672061 -0.04320762 -0.08795797 -0.07117846 -0.17594133 -0.29468355 0.49264678 -0.37805694 -0.039666653 0.11509987
3973 -0.32093957 -0.39141244 0.20706263 0.23715013 -0.10767726 0.2347179 0.104617834 -0.06234303 -0.013370098 -0.115482815 -0.2127134 -0.29888073 0.35474744 -0.37031358 0.04716576 0.062323444
1549 -0.36596495 -0.43774703 0.21136652 0.22094457 -0.023879325 0.26027164 0.0680416 -0.044417568 -0.03183263 -0.0556793 -0.20471835 -0.33668545 0.44573066 -0.43055353 -0.020097975 0.00025270315
3526 -0.32104823 -1.4758221 0.52632886 0.32403243 -0.42168775 0.3229736 -0.13640018 0.0013886304 -0.058366287 0.35310468 -0.6077678 -1.0662957 0.7869715 -0.6967149 0.100189276 0.70038563
2505 -0.34007022 -0.31494465 0.29306626 0.24658267 -0.08869856 0.25748965 0.0997586 -0.13476907 -0.060457 -0.088216156 -0.107922606 -0.24544707 0.42020166 -0.34461796 0.08902392 0.09034126
3858 -0.29827258 -0.37842792 0.26506454 0.2847354 -0.124596536 0.22731009 0.017852971 -0.060815718 -0.057934593 -0.021174286 -0.24525966 -0.37595758 0.48957178 -0.45057067 -0.06107993 0.064361714
3019 -0.31143367 -0.35264885 0.2811278 0.24330111 -0.0037071852 0.13458909 0.10396779 -0.035773452 0.050786134 -0.08890902 -0.13996004 -0.31107467 0.3236461 -0.36709544 -0.009472215 0.047052387
2158 -0.33234876 -0.337354 0.15400833 0.21875662 -0.02921011 0.1815698 0.06687372 -0.0060748328 -0.09568715 -0.10976961 -0.14842126 -0.20975463 0.36243945 -0.38574907 -0.0011754179 -0.024893845
2806 -0.47670344 -0.3632396 0.4822189 0.2552695 -0.22114934 0.3269194 0.06943803 -0.32287705 -0.5275823 0.004700282 -0.47265342 -0.2848095 0.7244399 -0.7460309 0.17232701 0.11346328
1147 -0.30633816 -0.26932517 0.18214276 0.28722417 -0.041896436 0.20278408 0.1465663 -0.06986451 -0.047615353 -0.058829956 -0.110179156 -0.20386188 0.41997564 -0.32496005 -0.048610665 0.13149841
2599 -0.3628122 -0.38248184 0.21040416 0.26663917 -0.11069632 0.14996718 0.107538626 -0.11195997 0.025430258 -0.025849067 -0.15014862 -0.2797645 0.41306964 -0.33613834 0.035191637 0.08680688
86 -0.48514953 -0.62788796 0.35944346 0.2500472 -0.08867246 0.38858718 0.071006246 -0.14151624 -0.037271954 -0.0137444325 -0.28933597 -0.45052737 0.7084435 -0.63545775 -0.02495321 0.10968352
4580 -0.27455992 -0.33151418 0.30433685 0.14780226 -0.11889459 0.21897657 0.1081877 -0.078809 -0.04241834 -0.030020274 -0.14014497 -0.19196364 0.4088911 -0.38298422 -0.010883015 0.05893602
4424 -0.3477515 -0.28873947 0.15354396 0.15516557 -0.12963873 0.2529832 0.14351797 -0.04626614 0.033132955 -0.07557199 -0.09187189 -0.29261297 0.3711411 -0.35080448 0.06956283 0.09646551
1570 -0.77561545 0.0971606 0.12522292 0.9308411 -0.18233371 0.46922964 -0.17967717 -0.02375442 0.47620282 0.06290186 -0.30057412 -0.9138134 1.1231819 -0.80809826 -0.0077345837 -0.08856857
1079 -0.2543961 -0.24956068 0.17992945 0.29954684 -0.05233274 0.2557732 0.03267215 -0.104301125 -0.04164195 -0.007020658 -0.2130444 -0.26781386 0.48602402 -0.34658834 0.016646976 0.056484193
3215 -0.2942594 -0.28965476 0.1754726 0.19871582 -0.07099167 0.25451908 0.058925074 -0.1250746 0.011938442 0.011500177 -0.16214617 -0.25491944 0.4227958 -0.39892387 0.02263544 -0.003453603
1628 -0.339869 -0.35644123 0.23239152 0.2108367 -0.08133574 0.26835042 0.037979193 -0.02470496 -0.048504308 -0.06798395 -0.23454435 -0.31129593 0.40402418 -0.42626962 0.06495486 0.07248619
4402 -0.36742103 -0.53505075 0.3458297 0.21415307 -0.14361824 0.2137225 0.04223044 -0.075213365 -0.10578408 0.070656955 -0.20589624 -0.5283063 0.53617543 -0.48123106 0.086028 0.102834046
1796 -0.6005383 -0.67550975 0.25537795 0.18160872 -0.027106179 0.4251916 -0.100157954 -0.16123797 -0.19371623 -0.13794096 -0.2986965 -0.48197258 0.68841356 -0.5300797 0.03372579 -0.0049893404
537 -0.30032665 -0.3627573 0.17685682 0.21879306 -0.029731687 0.19240502 0.11020565 -0.087623335 -0.03823838 -0.13918592 -0.18073831 -0.20220847 0.44768584 -0.35199684 0.07745601 0.0821797
3136 -0.33836395 -0.28314304 0.29245806 0.12618701 -0.048440218 0.1593181 0.075816795 -0.019858057 -0.041200772 -0.11023142 -0.2171141 -0.36444756 0.3715987 -0.29687056 0.0017090753 -0.012736596
4347 -0.2395019 -0.3155671 0.30437803 0.28189307 -0.19193202 0.18980302 0.0767878 -0.06491079 -0.00013926163 -0.09814262 -0.15388882 -0.22150779 0.38352314 -0.31093076 0.01910834 0.025758227
3767 -0.26914567 -0.37702328 0.18604878 0.23369291 -0.13880219 0.26237077 0.043660443 -0.09234167 0.057738263 -0.026621796 -0.13129255 -0.22965132 0.42354754 -0.3958799 0.04763503 0.01060577
54 -0.4347779 -0.59413123 0.4411899 0.25288197 -0.21419844 0.34626728 0.10547557 -0.11661197 -0.06544635 -0.12535058 -0.27921194 -0.4450959 0.6080429 -0.50955904 -0.016501535 0.12373752
2724 -1.1860037 -1.3137445 0.5950913 0.889853 0.4260691 0.0074583692 0.17670465 0.053647555 -0.055159964 0.42513338 -0.4533188 -0.057686735 0.58610374 -0.94241273 0.44090044 -0.23229387
3706 -0.3212358 -0.29273945 0.17589018 0.27708805 -0.12331629 0.16531773 0.06466129 -0.081409045 0.024638163 -0.044872705 -0.11851187 -0.33363917 0.39367858 -0.40819427 0.06060469 0.08990692
3301 -0.24662445 -0.3009685 0.20736903 0.27113926 -0.15234253 0.21460453 0.047680076 -0.06873817 0.01482753 -0.045789197 -0.20471258 -0.30374545 0.43106502 -0.29043308 -0.03604527 0.06639873
3522 -0.33031738 -0.45135874 0.17397127 0.20516564 0.015826097 0.24889253 0.13368203 -0.00167058 -0.018089605 -0.075411744 -0.09183465 -0.2504033 0.46210515 -0.27420077 -0.014173709 0.037415758
1558 -0.33549002 -0.2961894 0.27426067 0.13607079 -0.062236115 0.2629094 0.06765801 -0.011872433 0.06730221 -0.046633106 -0.13373798 -0.23652296 0.39894637 -0.33101994 0.05069765 0.06369582
1548 -0.34295264 -0.37951162 0.20916638 0.22412895 -0.070716724 0.15157196 0.073692955 0.0116640655 -0.01539503 -0.011188796 -0.16575342 -0.21343793 0.47570014 -0.304128 0.010301118 0.046957567
3496 -0.43059504 -0.26941484 0.22913584 0.30157185 -0.19013757 0.21819642 0.11443672 -0.13849331 -0.0026574184 0.029388808 -0.1920931 -0.36954 0.48161143 -0.39855888 -0.05176106 0.06481846
2769 -0.26642147 -0.35416612 0.23384249 0.20926115 -0.10857197 0.19907385 -0.021981822 -0.10472333 0.021374071 -0.044151526 -0.14759122 -0.28443402 0.4600456 -0.42788285 0.07131948 0.077614
3833 -0.20447741 -0.3752632 0.24405213 0.25835907 -0.051094472 0.20907313 0.04208189 -0.013470803 -0.02334911 -0.082949795 -0.12001083 -0.190382 0.36071116 -0.32324946 -0.0041028485 0.013933954
2121 -0.26330766 -0.19870052 0.29454803 0.14983058 -0.10157983 0.23554222 0.08929169 -0.1020451 -0.021253757 -0.056563646 -0.13583218 -0.23209856 0.301392 -0.3755499 0.09392856 0.08107437
114 -0.42475384 -0.5761993 0.38825423 0.2345138 -0.10988491 0.29474145 0.095947355 -0.13372624 -0.03271404 -0.057002604 -0.22565807 -0.47322255 0.57979596 -0.5362651 -0.06801318 0.11053127
886 -0.23147447 -0.30968353 0.23342125 0.19409801 -0.14091487 0.20876421 0.10280258 -0.040507033 -0.04464139 -0.06728654 -0.15118581 -0.27101988 0.41624966 -0.28172058 0.022002442 -0.007837113
2445 -0.60756326 -0.36003843 0.7471237 1.318387 0.078315504 0.44476616 -0.0010752886 -0.19065359 0.73911333 -0.27130646 0.20838955 -1.0896635 1.7378746 -1.0278199 -0.03102966 0.63278973
99 -0.6178931 -0.39708552 0.8871314 1.1145298 0.065816335 0.39353013 0.015585431 -0.06231672 0.6756871 -0.22802484 0.26517412 -1.2883782 1.8864448 -0.9725359 -0.064043924 0.82540685
2203 -0.28043497 -0.45886266 0.2926107 0.24821045 -0.106021896 0.282986 0.061386157 -0.02545825 0.08399583 -0.024601914 -0.17467345 -0.40940765 0.5702161 -0.4720169 -0.03765326 0.12865411
3484 -0.48192373 -0.33011127 0.19461419 0.20088042 -0.10753175 0.3367621 0.102038614 -0.12268435 0.09546435 -0.026570704 -0.38167387 -0.444371 0.6157044 -0.48258838 -0.044092968 0.0076266523
2450 -0.2711245 -0.34985042 0.1948069 0.19033334 -0.14153372 0.22668894 0.012610953 -0.08093014 -0.052384 -0.05790501 -0.15548457 -0.28502136 0.4475282 -0.29765823 0.057123903 0.04644416
2773 -0.22248773 -0.3117461 0.26213345 0.21481082 -0.11906958 0.17033212 0.10163728 -0.11450483 0.012108568 -0.09437896 -0.105530225 -0.27128223 0.42958143 -0.36129272 0.06693021 -0.005620647
2477 -0.6264806 -0.9145422 0.44302687 0.4747353 -0.5408313 0.3112451 -0.123398654 -0.24277677 -0.3934598 0.1630731 -0.6625528 -0.7031456 0.5984951 -0.70392287 0.13061897 0.40664473
28 -0.3740014 -0.5305085 0.3944429 0.28599524 -0.13657881 0.27352232 0.1408811 -0.048353553 0.06994335 -0.16988416 -0.21239547 -0.45896226 0.5382796 -0.61083037 -0.10386185 0.08788361
3278 -0.39677966 -0.7007611 0.23002042 0.22690254 -0.0670955 0.26868084 0.41199043 -0.04671423 0.02832563 -0.24491698 -0.024890414 -0.40507552 0.44335267 -0.34933057 -0.2897583 -0.02222598
3999 -0.2350951 -0.352966 0.2451933 0.22046417 -0.124749795 0.1965276 0.06541082 -0.098527685 0.0013604643 -0.03890062 -0.1594651 -0.29384616 0.38071623 -0.3032288 0.06023763 -0.009957109
3093 -0.35853115 -0.30847576 0.30718285 0.27553296 -0.21848527 0.22432329 0.05617626 -0.08871938 -0.11963413 -0.049969465 -0.19062199 -0.2806025 0.41824883 -0.423823 -0.008774051 0.05717518
290 -0.25906438 -0.28986934 0.16879643 0.20772956 -0.037384406 0.2521797 0.10837373 -0.11519213 0.0027380292 -0.0064567016 -0.12259234 -0.24663934 0.39266983 -0.27243847 0.025899032 0.09955262
3960 -0.3524924 -0.44644174 0.2998593 0.22865401 -0.08892399 0.19720261 0.093948945 -0.12844606 -0.036309414 -0.112528875 -0.1814729 -0.33661762 0.44691947 -0.36453658 -0.0116790105 0.12464281
3265 -0.22422637 -0.39504984 0.2718439 0.14407815 -0.09776634 0.23740192 0.05575123 -0.02114295 0.014523853 -0.04638661 -0.12114972 -0.17185836 0.35270748 -0.32175747 -0.0067271786 -0.042717695
422 -0.3151278 -0.3957534 0.38135624 0.24594556 -0.084151626 0.18465921 0.09226925 -0.035002604 -0.09121263 0.07220185 -0.22848368 -0.31162718 0.48609447 -0.47517255 -0.12464612 -0.0005496377
1186 -1.204979 -1.2365545 0.5472008 0.809384 0.3438906 -0.0033097416 0.22999223 0.06287921 -0.10787062 0.36200243 -0.43395042 -0.09623966 0.53071886 -0.96649694 0.555938 -0.25671163
2685 -0.860635 0.0921939 0.12570249 0.88566995 -0.08352553 0.54305935 0.031149367 -0.16520195 0.4857672 -0.015497481 -0.39513013 -0.9725491 1.0938301 -0.6840076 -0.06062786 -0.048901822
2484 -0.3073281 -0.23622453 0.17651892 0.14066759 -0.0043087 0.10883418 0.020446282 0.01241857 -0.026815237 -0.017223217 -0.1095603 -0.33115333 0.3806278 -0.3323439 0.053342815 0.041395795
1536 -0.3694911 -0.93337905 0.7345755 -0.24298301 -0.1554942 0.89040446 0.11236404 -0.5964736 0.07378352 -0.4311715 -0.1708785 -1.1623422 1.1385108 -0.8620409 -0.57227206 0.1252937
4407 -0.21130376 -0.2876457 0.15253416 0.21453798 -0.12767985 0.17372006 0.03928225 -0.030134764 -0.0115385065 -0.1367552 -0.19697036 -0.24656588 0.40184072 -0.23746887 0.040571433 0.050520588
1955 -0.6061142 -0.62340355 0.49987456 0.18177888 -0.45656547 0.32741904 0.38903528 -0.035142776 -0.035513237 -0.074131 -0.31710616 -0.41110304 0.4510559 -0.76508486 0.006517834 0.3345265
3641 -0.51880455 -0.2866615 0.6038881 0.5847751 -0.594321 0.2961072 0.2679706 -0.34058568 -0.5706336 -0.0292172 -0.50110555 -0.24494563 0.6099204 -0.82088286 0.53622776 0.21821868
4120 -0.52285016 -0.29767755 0.81313026 0.54516053 -0.6514328 0.34654215 0.3639513 -0.49813348 -1.0644065 0.24206959 -0.6552227 -0.28113493 0.8117003 -1.2579548 0.20920344 0.27161953
1738 -0.33621997 -0.21340369 0.2316151 0.29202694 -0.050354864 0.15650296 0.011414463 -0.08500489 0.072415985 -0.0516838 -0.16291702 -0.28268838 0.35250252 -0.34486744 -0.037774142 0.123365045
4566 -0.3135682 -0.20203085 0.22055213 0.22199398 -0.07284546 0.17253084 0.046865597 -0.045372125 -0.0038701452 0.037701026 -0.18603395 -0.30973598 0.36682737 -0.2910542 0.010951385 0.018480413
4242 -0.21900481 -0.3331546 0.25636816 0.298335 -0.019819522 0.123958096 0.09193316 -0.011909546 0.07919137 -0.059197534 -0.10026558 -0.28105822 0.36721575 -0.3073515 0.032916013 0.035508584
3211 -1.706069 -1.4898142 0.8017179 0.62716 0.79844207 0.20253861 0.47475016 -0.06032063 -0.24386424 0.36433795 -0.07477217 -0.43462232 1.1872755 -0.85392356 0.52908623 0.106643
1725 -0.29694805 -0.35662377 0.27089915 0.15706123 -0.10170277 0.12990735 0.027299829 -0.11797019 0.013176763 -0.082446955 -0.10318317 -0.34141704 0.33475512 -0.31842032 0.017115654 0.08011467
910 -0.28641358 -0.3010731 0.2553514 0.20635144 -0.080753535 0.22812079 0.018199973 -0.046198428 -0.008057251 -0.07566267 -0.15668124 -0.3396042 0.410762 -0.24546094 -0.029845463 0.014318331
13 -0.5301579 -0.4205545 0.5387423 0.14672616 -0.30669552 0.4442946 0.11312352 -0.16998938 -0.18049641 -0.122762546 -0.3450745 -0.25877273 0.6390518 -0.72498333 0.1681263 0.037209183
4051 -0.2533201 -0.25887716 0.22698557 0.16972965 -0.018771894 0.11107534 0.033460945 -0.1410421 0.064090505 -0.07047681 -0.20441239 -0.31010386 0.46695632 -0.36599237 -0.011669539 0.102170974
833 -0.34163684 -0.26367757 0.2822334 0.16291077 -0.09797453 0.19805737 0.0018322717 -0.03694567 -0.005876511 0.009289556 -0.24839275 -0.27653685 0.36394522 -0.32426488 0.10277314 0.05241406
4500 -0.32923713 -0.24728924 0.22670491 0.24167208 -0.09961442 0.15447076 0.045217972 0.012154644 -0.03303329 -0.045693763 -0.14538562 -0.26479167 0.41739276 -0.33200583 -0.011706834 -0.005634156
2706 -0.33193517 -0.33692327 0.22964358 0.09857038 -0.0757163 0.22357115 0.1641236 -0.062300313 -0.030161235 0.001179307 -0.20512955 -0.3036393 0.26716515 -0.31074014 -0.06459976 0.062322877
2681 -0.23130016 -0.32496607 0.18818867 0.27389756 -0.07096159 0.09753627 0.08447863 -0.024800727 -0.012847229 -0.043648254 -0.12588924 -0.30932346 0.37093905 -0.32214624 0.0019365579 0.07625414
4679 -0.32407936 -0.3357377 0.23857848 0.20968224 -0.049469523 0.19924758 0.07026342 -0.1115678 -0.037365537 -0.030821873 -0.12800367 -0.31300738 0.45194492 -0.30224648 -0.032534547 0.10591679
3480 -0.48276314 -0.39319763 0.23605704 0.28933612 -0.24280493 0.2883412 0.025607789 -0.10247685 0.1158665 -0.081252016 -0.4016927 -0.50484616 0.66649544 -0.51204306 0.017179618 0.006438298
2044 -0.66594857 -0.87001383 0.65252346 0.5053555 0.25737983 0.080939196 -0.034595124 -0.24204864 -0.1197969 -0.06068399 -0.276194 -0.2386068 0.71229964 -0.7031125 0.26329076 -0.2034945
4490 -0.36124927 -0.34939075 0.28739783 0.2775178 -0.1467422 0.2365737 0.0040476792 -0.10346702 -0.057022177 -0.041835934 -0.22439061 -0.3818946 0.46231532 -0.36793265 0.057736352 -0.009852568
1636 -0.22185498 -0.26900738 0.26770815 0.2357298 -0.06519097 0.1637277 0.008510065 -0.10628047 -0.027493386 -0.03021146 -0.13208291 -0.2658026 0.43349528 -0.33725503 0.057229504 0.015906844
2600 -0.31850642 -0.33636868 0.19305225 0.16306907 -0.10852287 0.22399263 0.016540233 0.0010034482 -0.004556144 0.004549354 -0.10803115 -0.2767101 0.34457842 -0.3034437 -0.09713046 0.002370836
4178 -0.23288928 -0.41216242 0.23635732 0.22442617 -0.02958735 0.16034886 0.12935604 -0.10798906 0.019390384 -0.005932395 -0.11459432 -0.29605493 0.3393605 -0.3614959 -0.016458075 0.05913406
1033 -0.3396345 -0.29041594 0.22406884 0.24475993 -0.052284338 0.18250854 0.07587973 -0.12945955 -0.043259792 -0.018499076 -0.21408166 -0.21930647 0.43164346 -0.39285228 0.04388422 0.043180857
2979 -0.24722134 -0.30980006 0.28831473 0.2002203 -0.12295296 0.1407204 0.042144913 -0.023471773 0.0012100121 0.010345482 -0.10748347 -0.30516762 0.42227077 -0.39954096 -0.010139595 0.04645018
2964 -0.20708282 -0.3591356 0.19910064 0.17452586 -0.05130719 0.21536656 -0.0030438781 -0.005884898 -0.049777657 -0.02333957 -0.19557884 -0.30238742 0.35737705 -0.2727625 -0.03027263 0.07533819
1311 -1.3960301 0.049493436 0.1706736 1.0331389 -0.3642186 0.82645065 -0.08932397 -0.40044138 0.65611273 -0.14146782 -0.48374268 -1.243097 1.3361797 -1.0173467 -0.11923057 -0.46728715
728 -0.35602382 -0.36137056 0.25917846 0.2310343 -0.034936838 0.21631944 0.17532 -0.12150724 -0.048847523 -0.03525883 -0.21118045 -0.33681905 0.4832132 -0.46949378 -0.06729536 0.09893892
2716 -0.35998124 -0.29671863 0.24282625 0.17219627 -0.035149097 0.113449275 0.056518912 -0.002090117 0.044062868 -0.013844294 -0.060297176 -0.33650133 0.3552766 -0.30516797 0.0024135814 0.078682035
3569 -0.22829483 -0.3388795 0.22304621 0.28714195 -0.14292109 0.11833987 0.09017273 -0.08443385 0.049858853 -0.036891337 -0.15504725 -0.29708052 0.3399822 -0.33760506 0.007848199 0.0970572
3045 -0.31252423 -0.26705047 0.2460064 0.25253832 -0.07491133 0.20432964 0.13017352 -0.08358372 0.008822705 -0.03892873 -0.13322724 -0.3480797 0.3791983 -0.29180458 -0.0065144687 0.08261313
3648 -0.25929487 -0.30745068 0.23306747 0.124039516 -0.042080157 0.25659612 -0.016687103 -0.10325307 0.024030637 -0.06875303 -0.18695493 -0.21262325 0.34593713 -0.3667885 0.057577733 0.025127077
1182 -0.6171833 -0.52933145 0.48126283 0.29846025 -0.19061674 0.30715674 0.19900033 -0.1018073 0.017526133 -0.10856166 -0.22700691 -0.45223185 0.8020793 -0.47600782 -0.10382092 0.076197036
1140 -0.28824902 -0.31947038 0.23009898 0.2026906 -0.0091365725 0.08133732 0.11013077 -0.0990832 -0.033543486 -0.026840556 -0.1475322 -0.21439932 0.323468 -0.33972594 0.046979122 0.04181704
3481 -0.4267526 -0.36069858 0.22609638 0.26193994 -0.17025669 0.27188504 -0.010193922 -0.15396495 0.083465114 0.033822563 -0.30792642 -0.45527598 0.65878636 -0.53240883 0.00076427485 0.007815099
1386 -0.3029436 -0.36713728 0.23568676 0.1588536 -0.14797394 0.20861301 0.12755737 -0.015010855 -0.05264768 -0.05282919 -0.11469573 -0.27194455 0.35202712 -0.3637451 -0.00040809636 0.08065415
4391 -0.24723382 -0.32134062 0.2680288 0.2047402 -0.09566659 0.1349631 0.08743084 -0.0614943 0.009811853 -0.0681064 -0.16311039 -0.2647773 0.37177798 -0.33350605 0.07154581 0.0950552
4648 -0.29115525 -0.32966927 0.2875891 0.2272342 -0.0732362 0.3079679 -0.008201414 -0.0021646086 -0.041177005 -0.059428055 -0.28339118 -0.3875532 0.45853734 -0.39091244 0.0257555 0.011497596
460 -0.3450105 -0.31301 0.31472495 0.22053938 -0.12512554 0.12468278 0.10796032 -0.07796002 -0.052728817 0.011266845 -0.13592124 -0.26368877 0.35815394 -0.3826804 0.07935623 0.059957992
4504 -0.6341898 -0.24620183 0.28433084 0.46193898 -0.2536388 0.47801003 -0.122799255 -0.010977598 0.13337491 0.16908517 -0.5585294 -1.1097728 0.7995099 -0.69339085 -0.1219832 0.13885447
2192 -0.24949001 -0.26318547 0.21665584 0.15761551 -0.036479432 0.1352496 0.08488057 -0.058519565 -0.035956312 -0.017276777 -0.11463953 -0.29648566 0.3981364 -0.3202755 0.031080399 0.0009274278
1582 -0.32912126 -0.40645835 0.3579832 0.16137521 -0.23331885 0.3911237 -0.037320126 -0.28377548 -0.35219845 -0.16608286 -0.47062534 -0.27173528 0.4599571 -0.43283492 0.20577417 0.14859216
3864 -0.24514134 -0.3198899 0.2160146 0.23502365 -0.113326274 0.15840258 0.05595973 -0.12877475 -0.028607573 0.00990589 -0.15035638 -0.2850126 0.43301776 -0.3229674 0.06417376 0.0461832
4117 -0.52998924 -0.5999284 0.27057105 0.2474825 -0.23072311 0.22282946 0.07620808 -0.12804821 0.06265709 -0.18852697 -0.05643477 -0.3915632 0.6680487 -0.35701883 -0.005239191 -0.016467137
1202 -0.41428095 -0.46920142 0.35789004 0.23180541 -0.03569851 0.228026 0.16122918 -0.06853864 0.07443072 0.01859218 -0.21819979 -0.28455353 0.44019702 -0.37024003 0.008423978 -0.05816897
2937 -0.65914553 -1.3077605 0.38936767 0.58418065 -0.27467358 0.46310085 1.1496643 0.064738445 0.36960602 -0.6756585 0.20834713 -0.89653736 0.55660766 -0.598205 -0.8867042 -0.08199353
1179 -0.62033105 -0.62123066 0.41319928 0.34803843 -0.11214874 0.37806076 0.124508 -0.13311863 -0.027668228 -0.13841026 -0.2558363 -0.40300617 0.82676995 -0.44311938 -0.05813692 0.045178745
1775 -0.49943092 -0.22803615 0.51314265 0.57498014 -0.64953893 0.35917744 0.24611646 -0.24982363 -0.64844716 -0.08151416 -0.49423245 -0.1939189 0.6643527 -0.85431623 0.40345186 0.17380854
727 -0.57298493 -0.16152184 0.5705848 0.3357129 -0.14801385 0.17925891 0.13919616 -0.23483723 -0.35851392 0.42324525 -0.25110278 -0.1560415 0.48867515 -0.9519276 -0.24354593 0.112909436
1059 -0.8837999 -0.80961025 0.24776413 -0.0036698424 -0.098892726 0.4914721 0.10763928 -0.4429783 -0.028334988 -0.25324696 -0.39248168 -0.67022747 1.0474424 -0.22952628 -0.026488006 -0.1847218
529 -0.32580775 -0.3456243 0.15142216 0.17313781 -0.028798718 0.21663328 0.040031828 -0.045153283 -0.08685186 0.0122117335 -0.12089932 -0.22495209 0.40880695 -0.38893333 -0.009035374 0.088458076
2785 -0.2036261 -0.3566438 0.24163967 0.16012265 -0.080855004 0.20744722 0.03251891 0.004302113 -0.040995017 -0.091748476 -0.07839956 -0.20282744 0.4210946 -0.272441 -0.0015358432 0.0152471075
1036 -0.2990481 -0.31498256 0.27497926 0.27000648 -0.05297643 0.18104245 0.020087805 -0.018583158 0.002530888 -0.067342184 -0.14108838 -0.19617113 0.43856698 -0.34603813 -0.02947882 -0.02167039
831 -0.48981404 -0.3411991 0.45876712 0.469528 -0.56099135 0.31280434 0.23018992 -0.26360974 -0.55097574 -0.09223922 -0.32210922 -0.10628676 0.4960567 -0.669486 0.34277043 0.2185892
3739 -0.23884124 -0.30670896 0.2142613 0.1628775 -0.01464557 0.09851137 0.047662012 -0.04265905 0.031645846 -0.026459299 -0.16424826 -0.2778782 0.37041768 -0.32484972 0.057863753 0.07224851
1029 -0.23143965 -0.26341698 0.19297203 0.2523369 -0.17676426 0.26194972 0.07249485 -0.07189799 -0.03639609 -0.051294796 -0.14752732 -0.25480667 0.32544366 -0.32950833 0.053059444 0.016443387
973 -0.24915582 -0.31468287 0.28720877 0.19396351 -0.040984113 0.18931547 0.041287277 -0.12977706 -0.029084941 0.010263578 -0.19839145 -0.3044802 0.3863809 -0.35011232 -0.0021178673 0.0077769845
2236 -0.24674505 -0.3279898 0.180598 0.14036173 -0.094788 0.2378554 0.072773635 -0.067752056 -0.07255543 -0.06156568 -0.17540453 -0.31199765 0.32026032 -0.34270406 -0.03313736 0.09616259
2936 -0.48280683 -0.4000352 0.43183893 0.2079898 -0.061021604 0.36446732 0.14799735 0.01565631 0.118811816 -0.14085262 -0.18387102 -0.42867085 0.66216093 -0.45056185 0.09989458 -0.05601339
1828 -0.27599928 -0.27550003 0.27812958 0.30563578 -0.17823802 0.22997084 0.026707383 -0.11546681 -0.08864734 -0.03439964 -0.14304417 -0.36788478 0.4499982 -0.46433094 0.044840373 0.0745688
1605 -0.24383143 -0.41719684 0.31848884 0.18252373 -0.18194096 0.20973262 0.11374772 -0.026471395 -0.050580885 -0.012632866 -0.23611477 -0.31588608 0.36456275 -0.3563063 -0.047190484 -0.013867941
1420 -0.30565837 -0.30844808 0.29491523 0.19883797 -0.04826636 0.23596282 0.11422722 -0.021850547 -0.033139948 -0.11025325 -0.20508336 -0.28235605 0.4855631 -0.3353158 0.038040895 0.12534577
1180 -0.3213646 -0.37815508 0.3224355 0.2516055 -0.091328576 0.16164084 0.027746303 -0.095283054 -0.03366196 0.03517337 -0.21362428 -0.36725095 0.4644293 -0.33466136 0.07565507 0.01333767
742 -0.2632357 -0.34434843 0.20533316 0.17475194 -0.1381612 0.09829155 0.12047228 0.0029583122 0.026702525 -0.035211775 -0.1303171 -0.26467872 0.33700338 -0.33311614 -0.012744508 0.14285159
3967 -0.25313365 -0.31662902 0.1892547 0.12373779 0.0064200507 0.09501547 0.030167757 -0.0036207351 -0.007831768 -0.12182478 -0.1292554 -0.31131113 0.42291757 -0.33789247 -0.039973404 -0.026600001
4312 -0.8271602 -1.3629532 0.23307423 -0.1414566 -0.64408475 0.21842171 -0.26424775 -0.34735337 -0.32100186 -0.23333126 -0.17139076 -0.7686719 0.877664 -0.41694355 -0.1386808 -0.2813301
37 -0.49252668 -0.34764516 0.16768463 0.091160454 -0.18223135 0.3998244 0.017602904 -0.25830573 -0.1218841 -0.19818431 -0.38604555 -0.3357271 0.7014495 -0.27628702 0.0609345 0.018314637
2791 -0.3153597 -0.4086348 0.2817102 0.15225609 -0.11745171 0.18693636 0.0004200374 -0.0765128 0.014801462 -0.07179338 -0.16672575 -0.30349335 0.43908104 -0.35365754 -0.025372192 -0.005615322
940 -0.49950457 -0.5140216 0.34093785 0.34000853 -0.08763766 0.35247764 0.17252739 -0.0636854 0.003944495 -0.10700624 -0.24726057 -0.407842 0.6539972 -0.55895466 -0.055515572 0.12400667
3401 -0.46709797 -0.8223083 0.44338474 0.4208763 -0.48530176 0.3718965 0.01913971 -0.1932557 0.03303677 -0.08019301 -0.4852172 -0.5937354 0.87110716 -0.5040036 0.08222786 0.28426442
1355 -0.21867713 -0.31586757 0.21067838 0.25557607 0.0025937494 0.1788205 0.049409788 -0.01711022 -0.020737823 -0.048992 -0.14920416 -0.25995296 0.39044076 -0.24561648 0.03785625 0.0049347742
3336 -0.28409278 -0.3590806 0.1998341 0.22210757 -0.05631477 0.12946637 0.052029394 -0.031995688 -0.025090897 -0.036374703 -0.10388943 -0.25051874 0.28725573 -0.28658047 0.08969761 0.022185685
3848 -0.21859644 -0.2930831 0.19073404 0.15598527 -0.06384995 0.21437477 0.13933067 -0.10081372 -0.052207325 -0.067325585 -0.23820803 -0.23650543 0.30056655 -0.3423267 0.05294919 -0.0039285305
4641 -0.21824506 -0.30848196 0.17021178 0.19576937 0.004520325 0.21817772 0.020626932 -0.009279131 0.03070706 -0.08407476 -0.06907933 -0.26328042 0.38981208 -0.29017094 -0.016998537 0.04424929
2238 -0.29712948 -0.2669385 0.23148447 0.11704466 -0.14245597 0.14207996 0.09668074 -0.049438525 0.010607279 -0.049363855 -0.101650715 -0.27255505 0.33972603 -0.315737 0.011527036 0.041383505
592 -0.19679318 -0.25516447 0.24600297 0.16719998 0.012585904 0.1298899 0.04793203 -0.06636636 0.01131782 -0.06552479 -0.105892636 -0.2172154 0.38342804 -0.3516041 -0.0039228247 0.02602171
